[9.729165268832071E-5, 1.4155482391590643E-4, 1.1426994055719967E-4];[1.4162463819644992E-4, 1.3150068108972048E-4, 1.211940160801757E-4];[1.4728044202687727E-4, 0.004395805125953357, 1.3621638941771388E-4]
[-0.18783392139028018, 0.15960453872216995, 0.29724963397686965];[-1.0, 0.04383794772657318, -0.3535755513346979];[0.3764775544665888, -0.33616407650348584, -1.0]
[1.5981329493066206E-4, -1.0, 7.352448272179035E-5];[-1.0, 6.758209107115137E-5, 2.802374506718101E-4];[-0.5745004193612506, -1.0, -1.0]
[0.013169489879589703, -1.0, 0.0016388337685220745];[-1.0, -1.0, 0.9920161226641449];[0.007206148823244574, -1.0, -1.0]
[0.011829081129307906, -1.0, -1.0];[0.23864185963197218, 0.14377646650856654, 0.157345805160006];[0.03725740159266774, 0.17241322916825286, 0.3601118344032965]
[0.049815603183772095, -1.0, -1.0];[0.4760668347806362, 0.04162035240042503, 0.018885101506159675];[0.004428735873755319, 0.0010290745662330176, 0.053185408714264776]
[0.511130958956553, -1.0, 0.017074062327402984];[-1.0, -1.0, -1.0];[0.9735283809369588, 0.011896889366556541, 0.05049340215261108]
[-1.0, -1.0, -1.0];[-1.0, -1.0, -1.0];[0.9999999999999993, -1.0, -1.0]
[8.616562644227417E-4, -0.3446695161972172, 9.392184251416017E-4];[0.003922650858572004, -1.0, 2.9622952697282525E-4];[9.010418517496502E-4, -1.0, 0.0011149339640539042]
[-0.9110640361730566, -0.5903134237413985, 1.1555812093476452E-4];[-0.2806619147593522, -1.0, -1.0];[-1.0, -1.0, -0.9719476791076653]
[-0.08660804782757012, 0.10288855493283271, 0.15402322678436303];[-1.0, 0.5280000592572421, -0.11733825682826629];[0.30996341338271316, -1.0, 0.1729377340187772]
[0.05824072205740753, 0.03758679850899453, 0.05763974539282593];[0.04982896140945055, 0.9154991055604034, -1.0];[0.05285562756742106, 0.0592166929927849, 0.03180040837249163]
[0.04209006446074712, 0.022006289269998737, 0.056290258796042984];[0.04880017966887943, 0.05246941417606073, 0.05106382508922206];[0.7236970643215833, -1.0, 0.0030049441884278717]
[0.04037444141697731, 0.3600002724247528, -1.0];[0.05622682816186958, 0.09878170373176437, -1.0];[0.12537117373966855, 0.04204551597249616, 0.02586377077021453]
[0.022262009641027015, 0.04147503589722229, 0.03863905153587482];[0.2542544678721315, 0.044982860129152355, 0.03079023102181934];[0.5281161534756098, 0.053961226348618586, 0.04333017510823485]
[-1.0, 0.001206727820880016, 0.05579159864022018];[0.07274807496319861, 0.9752907487961242, 0.03224878428669755];[-1.0, -1.0, 0.05550107633050081]
[0.004808543263053759, -1.0, 0.003966251050567603];[2.4570995820368934E-4, 1.571323199109989E-4, 9.523081270758507E-4];[2.1902496496021992E-4, -1.0, 3.4636561253198743E-4]
[-1.0, -1.0, 6.850621290364841E-4];[9.380747902339851E-4, 0.001477007495198547, 0.0017296609027426363];[2.4317956025047942E-4, -1.0, -1.0]
[-1.0, -1.0, -1.0];[9.638317503029427E-4, 3.3346775464576184E-4, -1.0];[0.5999999657587581, -1.0, -1.0]
[-1.0, -1.0, -1.0];[-1.0, -1.0, -1.0];[1.0, -1.0, -1.0]
[0.04437267095025143, 0.04360080734869082, -1.0];[0.07913016469461007, 0.3699472518496306, 0.20300589587886064];[0.07689649954669828, -1.0, 0.21687590219372785]
[0.01685044540993712, 0.0010037653181616758, -1.0];[0.02078472904787261, 0.047894781671751624, -1.0];[0.02892251783265878, -1.0, 0.5963255104877929]
[0.08032037848388233, -1.0, -1.0];[0.5999811279622438, -1.0, -1.0];[0.9143191810064312, 0.05482657879443701, -1.0]
[0.36001093621262065, 0.10838241566554785, 0.3546646933891778];[0.35960339711618733, -1.0, 0.528395739869344];[0.35349581370346256, -1.0, 0.11115289645545867]
[-1.0, -1.0, -0.5999893815400488];[0.001149637232060322, -1.0, 3.2793016490659945E-6];[5.111372281156682E-5, -1.0, 0.0015287675648133748]
[-1.0, -1.0, 0.00521069795809842];[0.999999998813702, 0.04637084599563415, -1.0];[0.43758757569013074, 0.011584423143114031, -1.0]
[0.006097873010919354, -0.12115818725131178, 2.1614874897003366E-4];[2.7417317562384143E-4, 4.4327480285251885E-4, -0.2579661246748671];[-1.0, -1.0, -0.11836569563308152]
[-0.6929847153590198, -0.9090784625580123, -1.0];[-0.609324884794272, 0.5623581620499414, -1.0];[-1.0, -1.0, 0.010399858165601517]
[0.03434376258548606, 0.009894242559242473, -1.0];[0.037374014235177846, 0.03370680372928508, 0.03760165955165866];[0.31885376948204475, 0.03852584214386284, -1.0]
[0.002370664227315921, -0.37226581044881235, -1.0];[-1.0, -0.40185901472628494, -1.0];[0.12650127428037516, -0.39405437496822265, -1.0]
[0.9744562828802709, -1.0, -1.0];[-1.0, -1.0, 0.03246900784728544];[0.015836292785956607, -0.6801962466198841, -1.0]
[0.033691286628103306, 0.02681447066400681, 0.2631649669967043];[-1.0, 0.1252196603424841, 0.051743551551350964];[0.02801855614681069, 0.033452426124337825, -1.0]
[0.0035704112214967835, -0.6551605372778541, 0.020389153256510542];[-1.0, -1.0, 0.039406994656262476];[-1.0, 0.9999999999997283, -1.0]
[0.15357190790200187, 0.0038017820007218124, 0.012288348742166277];[-1.0, 0.00280424649343878, -1.0];[0.0156236200593962, 0.002723397669541824, 0.3144432256838387]
[-1.0, 0.0019626897990657017, -1.0];[-1.0, 0.0016489548059029032, -1.0];[0.0016960464777833065, 0.0022269117708012673, 0.003906806688084862]
[-1.0, 0.14929746152882184, -1.0];[-1.0, 0.5985979718331285, -1.0];[-1.0, -1.0, -0.6852455614896682]
[-1.0, 1.0, -1.0];[-1.0, -1.0, -1.0];[-1.0, -1.0, -1.0]
[5.438345064523258E-5, 6.853481791020643E-6, 1.1799556878379738E-4];[-0.3586991238908407, -1.0, -1.0];[6.793927718960974E-5, 7.272958667155914E-5, 4.287316059849161E-5]
[-1.0, -0.9728004040709037, -0.8751680560323133];[-1.0, -1.0, -1.0];[-0.9552203675890083, -0.5907866483728855, 0.3381527284074547]
[-1.0, -0.9999999489114455, -1.0];[-1.0, -1.0, -1.0];[-1.0, -0.9999998338994162, -0.9999983849488886]
[0.0010807043297917554, -0.2523098863581521, -0.15544870889778103];[-0.3485010892645582, 0.09103045395110271, -1.0];[9.898838910319045E-4, 4.028566871426461E-4, -1.0]
[0.004806866640636987, -1.0, 0.4194750394779752];[0.9999999999999925, -1.0, -1.0];[0.3039834745535753, 0.022499299580273593, -1.0]
[-1.0, 0.0015143276037436705, 0.9925350463119424];[0.05713531767910435, -1.0, 0.011893334799832123];[-1.0, 0.06676633973434717, -1.0]
[0.0066056977375282735, 6.694030309210969E-4, -1.0];[-0.26977746138605085, 0.0010566672926954307, -1.0];[0.012724151028509687, -0.3040343359125742, -0.10700865180552112]
[0.02515284061107978, 0.04695660321351432, -1.0];[-1.0, 0.04400802691449024, -1.0];[0.013315586518226733, -1.0, -0.2681079346089885]
[-0.9709322674487163, -0.9912888201543629, -1.0];[-1.0, -1.0, 0.06423219070431375];[0.9999943975259641, -1.0, -1.0]
[0.038659293977412454, 0.05533594138893476, 0.02324169505164373];[0.2839273203582253, 0.4912242710001712, -1.0];[0.1514496263740208, -1.0, 0.03839827840229236]
[0.06785794006392457, 0.03460293965716656, 0.02944792422666497];[0.9999999999991174, 0.051337811495082125, -1.0];[0.4279949448667588, 0.03902706585373875, 0.05998372238476438]
[2.7313527686512747E-6, -0.9997731969733517, -1.0];[-0.9627519591288706, -1.0, -1.0];[-0.9369930325499835, -0.29999879810169594, -1.0]
[2.4824083865527236E-6, -0.9972563546179666, -1.0];[-1.0, -1.0, -1.0];[-1.0, -0.9999958565145383, -1.0]
[0.005958999075774629, -1.0, -1.0];[0.017452000192948864, 0.4257294564684987, 0.007736405694137228];[0.0021090745126658094, 0.043274371997488174, -1.0]
[6.453741531354167E-19, -1.0, -1.0];[-0.9917289207499543, -1.0, -1.0];[-0.9915851718395698, -1.0, -1.0]
[8.462036390266172E-19, -1.0, -1.0];[-1.0, -1.0, -1.0];[-1.0, -1.0, -1.0]
[-1.0, -1.0, 0.006744609426903192];[3.6105307607140163E-4, 0.001965809460114482, -0.21096213537206493];[0.02515849132973115, -0.017603320355353558, 0.0035615236714466292]
[-1.0, -1.0, 0.024987822666969743];[-1.0, 0.5999977498724252, 0.044749543695799934];[-1.0, -0.28103333859363266, 0.2918015175139145]
[-1.0, -1.0, -1.0];[-1.0, 6.699453787376416E-8, -1.0];[-1.0, 5.265096751344059E-8, 3.45016015509513E-9]
[-1.0, -1.0, -1.0];[-1.0, -1.0, -1.0];[-1.0, -1.0, 3.4427919610245844E-52]
[0.15998077121670196, -1.0, 0.3601225612377274];[0.08979550527378796, 0.3599450734520114, -1.0];[0.23631423242486077, -0.35877450279610007, 0.021837377720272264]
[0.9999999999999998, -1.0, -1.0];[0.028699672322139984, 0.5495509992893581, -1.0];[0.5744522912367145, 0.3179117043828843, -1.0]
[0.06503073981470785, -1.0, 0.05913543431874008];[0.06831705511716318, 0.9992933010422773, 0.014332927678710318];[0.02410642856111225, 0.02142483074094307, 0.09352962932292146]
[-0.9967482857260005, -1.0, -0.997476263625475];[0.17651991078435772, -1.0, -1.0];[-0.9991774019715216, -0.9633273524071289, -1.0]
[-0.6912891111334635, -1.0, -0.9287855551471559];[4.921038296507355E-11, -1.0, -1.0];[-1.0, -1.0, -1.0]
[-1.0, -1.0, -1.0];[1.0, -1.0, -1.0];[-1.0, -1.0, -1.0]
[0.2637262997947092, -1.0, 0.19373250059657204];[-1.0, 0.415331925439654, 0.32846829502075814];[0.13901489262711508, 0.056495744463163564, 0.07263145398972229]
[0.5998767863002533, -1.0, 0.31632995592550545];[-1.0, -1.0, 0.9999942126114135];[0.5140458436367553, 0.0016673874898559316, 0.3127944366778475]
[-1.0, -1.0, 0.032685446263593536];[0.030109386504469395, 0.01937899975100087, 0.020451258275075525];[0.7082631216064269, -1.0, 0.5977331067569144]
[-1.0, -1.0, -1.0];[-1.0, -1.0, 0.9999999999991244];[-1.0, -1.0, -1.0]
[0.04675398733917993, 0.053691502892703385, 0.033546695883942546];[0.04124569786508267, 0.048750391875302314, 0.9999999999971342];[0.06288899191417013, 0.03680306370349817, 0.020348116962315303]
[-1.0, 3.9443589461359696E-5, 2.886235387922598E-5];[-1.0, -1.0, -1.0];[0.12601987227298694, -1.0, -1.0]
[-1.0, 0.003866920292361178, 0.0030797772664080915];[0.030948966943575636, -1.0, 6.634929364009157E-4];[0.019364431106659075, 1.6344096195257107E-5, 6.774731180704275E-5]
[-1.0, -1.0, 0.5501845397942513];[0.041085179215114814, -1.0, 0.33297329509748647];[0.5011471434698731, 0.9999999999999999, -1.0]
[0.3568655602789957, 0.34956132979067744, 0.10904152998190345];[0.01941725759932382, -1.0, -1.0];[0.1592741703751816, 0.3600367398843456, 0.11945528736815805]
[0.5918027540250594, -1.0, 0.4211506588482346];[-1.0, -1.0, -1.0];[0.5999650486001984, -0.4601354364721789, 0.12022712848810091]
[9.437766820907818E-4, -1.0, -1.0];[-1.0, -1.0, -1.0];[0.999294186348687, 0.003713398915150946, -1.0]
[-1.0, 0.008540139398715873, -1.0];[-1.0, -1.0, -1.0];[0.9734077028141954, -1.0, 0.008118688531167728]
[0.05513622032996216, 0.25842745364169245, 0.9999814152759819];[0.03695572720464806, 0.026229452708418477, 0.3792065722694672];[-1.0, 0.04640156594990574, 0.05035873539070987]
[-1.0, 0.5993049334430212, 0.02122486044405042];[-1.0, 0.0301498381078125, 0.9999943597720505];[-1.0, -1.0, -1.0]
[-1.0, -1.0, 1.0];[-1.0, -1.0, -1.0];[-1.0, -1.0, -1.0]
[9.73040216069574E-6, 0.0012975971564628264, 0.014015542695733803];[0.0014440647747415293, -1.0, 0.02473558538992662];[0.014278853618124096, 0.026626085233519912, -1.0]
[-1.0, 0.0056553183673361375, 0.599716599370006];[-0.688895682006311, -1.0, -1.0];[0.02720884319326409, -0.6884479462437004, -1.0]
[-1.0, -1.0, 0.003559485398657242];[-1.0, -1.0, -1.0];[0.9976002126486858, -0.6833590596193678, -1.0]
[-1.0, -1.0, 2.1213987460753835E-165];[-1.0, -1.0, -1.0];[-1.0, -1.0, -1.0]
[0.05053986106835721, 0.04996847296006243, 0.022358948969391217];[0.03224577629495439, -1.0, 0.04025095980883682];[0.023906878913111787, 0.5985815115982056, -1.0]
[0.9999817072307676, 0.0037392175039078508, -1.0];[0.0025966522895466164, -1.0, -1.0];[-1.0, -1.0, -1.0]
[0.9999999998849876, -1.0, -1.0];[-1.0, -1.0, -1.0];[-1.0, -1.0, -1.0]
[-1.0, 0.07718559394341742, 0.434000442855745];[0.07291911048017191, -1.0, 0.016873809433970377];[0.07400573047981054, 0.059563069004194405, 0.9992916008522132]
[0.0516951824327343, 0.07356926135260158, 0.0191143774236589];[0.05141873833927198, 0.011661095886423401, 0.024503827673622205];[0.9998025768544324, 0.07738360645984234, 0.08386982066520883]
[-1.0, -1.0, -0.5298309526726278];[0.036662724880414846, 0.4803023418579089, -1.0];[0.3852900979665931, 0.5967028884200837, -1.0]
[-1.0, 0.06268515867668278, -1.0];[0.01713853788142018, 0.0028464908287019752, -1.0];[0.999999503771811, -1.0, -1.0]
[0.03893275106204008, 0.04228115775443443, 0.41692082326336266];[0.03159457559118432, 0.038228702562034846, 0.03939476357044613];[-1.0, 0.025219645090200228, -1.0]
[-1.0, -0.6801984215150437, -1.0];[0.04993418032643245, 0.04458743059890223, 0.9747592489472949];[-1.0, 0.039729636216486425, 0.015940938096413705]
[0.026481338943660383, 0.04766623115609749, -1.0];[0.03652541011786887, -1.0, -1.0];[0.4264187356096179, 0.599627425867334, -1.0]
[-1.0, 0.0574194683580248, -1.0];[0.03262625147455768, 0.03389444063169602, -1.0];[0.9999941196547331, -1.0, -1.0]
[9.640411338832799E-5, -0.49992625478910685, -1.0];[-1.0, -0.22552408361411158, -1.0];[3.2023557332046834E-4, -0.18717324938714278, -1.0]
[0.9736555345262926, 0.010551731941773612, -1.0];[-1.0, 0.02410285176496685, 0.01709131526632641];[-1.0, -0.6872049302407386, -1.0]
[0.0604235458989632, 0.017235042371003352, -1.0];[0.04687503945875483, 0.718591408988157, -1.0];[-0.5713127351302341, -0.030101986800647018, 0.05678188511795466]
[-1.0, -0.1026885876306643, 0.3635443086297124];[-0.1902472077702389, 0.18263629874869758, -1.0];[0.011412667829268235, -0.3440539273816206, -0.2828085489509554]
[-1.0, -1.0, 0.009141286030526385];[0.03870042895835454, 0.599916876052867, -1.0];[0.02153109397257014, -0.2781508120117816, -0.2712873924466079]
[0.08519223229563135, 0.03521487258243785, 0.03884962235464873];[0.08188690991666389, 0.9755898869919731, 0.06197069670905047];[0.07424753916721459, 0.0794611879023753, 0.010768408477720993]
[-1.0, 9.253428901844182E-5, -0.8825903390209668];[-0.9940158977954692, -1.0, -1.0];[-0.655635129828105, -1.0, -0.9083969981979751]
[-1.0, -0.9911321104379229, -0.9711752467416123];[-1.0, -1.0, -1.0];[-1.0, -1.0, -0.9910988318721863]
[2.0950919040882508E-4, 9.384149853669123E-5, -0.4754595058718037];[-1.0, 0.05897522888009313, -1.0];[2.525705194898869E-4, -1.0, -1.0]
[-1.0, 0.020485040835002546, 0.0238585204151741];[-1.0, 0.5999977132567772, 0.017657134488246164];[-1.0, -1.0, 0.028674192287853263]
[-1.0, 0.04070402120002517, 0.9999999999902397];[-1.0, -1.0, -1.0];[-1.0, -1.0, -1.0]
[0.5295235290464037, -0.35246430869694567, -1.0];[-1.0, 0.1260408340553033, -0.314620068495812];[-0.35797090701811674, -0.002165274017988189, 0.1526577293543309]
[-1.0, -0.34584397982227666, -1.0];[-1.0, -0.9089079547054627, -0.9987008137649753];[-0.8959603212285201, -1.0, -0.8769086802659367]
[-1.0, -0.9974482417837801, -1.0];[-1.0, -0.9918954322973962, -0.997348988068553];[-1.0, -1.0, -1.0]
[0.02957857537461799, -1.0, 0.012491200177969203];[0.033106246161735166, 0.5813358221592022, 0.02573355982811172];[0.02333778098422359, 0.025404673732625983, 0.039810270713122535]
[-1.0, 0.04590943594035005, 0.02087027631397269];[0.033618134950466685, 0.00966475954600815, 0.002356362944868029];[0.9976865403846564, -1.0, 0.015948523934464175]
[0.02013131439073508, 0.03557606510203, 0.9999999996353323];[0.584360897238318, 0.027622865941178288, 0.04930568607758723];[-1.0, -1.0, 0.4314526113097419]
[-1.0, -1.0, 0.9999999999997423];[0.5999999999999983, -1.0, 0.5843988885770526];[-1.0, 0.029487319943912495, -1.0]
[-1.0, -1.0, -1.0];[-1.0, -1.0, 1.0];[-1.0, -1.0, -1.0]
[-0.9697424491773168, 0.42110392365062577, -1.0];[-1.0, -1.0, -0.9012519825089012];[-0.9908892838420512, -1.0, -0.9991167282791633]
[0.9978113373882642, 0.056082339267920826, -1.0];[-1.0, -1.0, -0.6808185948300362];[-1.0, 0.04223510069278922, 0.05008731194448658]
[2.054950416992869E-4, 2.2770164113039202E-4, 1.2024352708513039E-4];[1.7864020018610905E-4, -1.0, 1.612214861739317E-4];[-1.0, 9.080052944736473E-6, 1.2183884127285383E-6]
[-1.0, -0.9999315745500913, -1.0];[-0.29765007611424166, -1.0, -0.9989144077226078];[-1.0, -0.9999695631001617, 0.5999999999999998]
[0.05407223455073611, 0.06078536564064949, 0.008537618264960944];[0.024188573433234585, -1.0, 0.015275843282245107];[0.008288157379220751, 0.44575865101288503, 0.9999999563558032]
[-1.0, 0.07769150623861229, 0.4255200233810905];[-0.2930087184265531, 0.19705837126801518, 0.06509630825125073];[-1.0, 0.3599319972448508, 0.35101232074370514]
[0.034167280166440404, 0.5715246582585979, 0.4316786553220191];[-1.0, 0.5999999318793492, 0.3599883670491878];[-1.0, -1.0, 0.06538555243650437]
[-1.0, -1.0, -0.6915211813273304];[-1.0, 0.019435274990081144, 0.03586465722002953];[-1.0, -1.0, 0.9977010850441]
[0.36000000021698053, 0.005089929616613299, -1.0];[-0.25114830957199363, 0.09688170673098795, 0.01224436141529389];[-1.0, -0.21655012210289815, 0.33386431757802404]
[0.04339140030796515, 0.028419719769545156, -1.0];[0.5967008098854543, 0.025260547854462627, -1.0];[-1.0, 0.03207044616216641, -1.0]
[-1.0, -1.0, -1.0];[-0.6901546081634795, 0.5999999997736967, 0.021518992437896622];[0.019473885040987474, -0.9087030307094972, -1.0]
[-1.0, -1.0, -1.0];[1.0, -1.0, -1.0];[-1.0, -1.0, -1.0]
[0.24427651505513, 0.2610933199417031, 0.36040952891117206];[0.35980874395413964, 0.25402274248608653, 0.19401668468454306];[-1.0, -0.18513908468040627, -1.0]
[0.019894894783598984, -1.0, 0.03018009258469232];[0.40496625493560895, 0.9997957373347305, 2.3784715068443375E-4];[-1.0, 0.030813309542858366, 0.026884175905581342]
[0.9753856981124035, -1.0, -1.0];[-1.0, 0.7091884613611005, -0.6712178535589244];[-1.0, -1.0, -1.0]
[-0.6910654068675777, 0.02472052798168868, -0.6902812904992681];[0.02394924080375951, -1.0, 0.5131287796873738];[0.006354038622150149, -1.0, 1.0]
[0.0032329648366964574, 0.4227461515179132, -1.0];[-1.0, -1.0, -1.0];[-1.0, -1.0, 0.9999942433178833]
[-1.0, -1.0, -1.0];[-1.0, -1.0, -1.0];[-1.0, -1.0, 1.0]
[0.05602361985405263, 0.06888053231673873, 0.029125093017825267];[0.06293257302121316, 0.06262964897157923, 0.057142626044287444];[0.04837402836612953, 0.9999392035115479, 0.015234599204740474]
[0.05518937506553874, 0.02184553224170728, -1.0];[-1.0, -1.0, 0.06913990585290576];[0.025329441272471876, 0.9999999556496821, 0.043078172623112934]
[-1.0, -1.0, -1.0];[-1.0, -1.0, -1.0];[-1.0, 0.9999999999971061, -1.0]
[0.3219355254746017, 0.02936888197253395, 0.05014993405032399];[0.16971325026564224, 0.33130848992567086, -1.0];[-1.0, 0.19277216886906465, 0.5782333198717415]
[1.0, 0.03940043760216756, 0.004427328237221195];[-1.0, -1.0, -1.0];[-1.0, 0.42277751666459146, 0.4308237145026457]
[0.2956899213217533, -1.0, 0.02897950024950175];[0.04118320055650682, 0.35747791525010725, 0.26435751085913095];[-1.0, 0.0020236133966247474, 0.3600000437119613]
[-1.0, -1.0, 0.0631329488699844];[0.014118761119353673, 0.03178064210343408, -1.0];[-1.0, 0.017181953036999133, 0.032960973698753504]
[0.029692974356315738, -1.0, 0.025533616644442415];[2.9098357179332404E-4, 0.015340670733869511, 0.036748897533608896];[0.046992192023450154, 0.9993357147776223, 0.0035594705311327137]
[-1.0, -1.0, -1.0];[0.048738587501352876, 0.9923621609567652, -1.0];[-1.0, -0.9703663742475919, -0.6833311277360209]
[-1.0, -0.5940123635571091, -1.0];[-0.6871641221686676, -0.8746791049856256, -1.0];[-0.9059677384005924, -1.0, -0.6799157466514589]
[0.04602552513347896, 0.025008248396744228, 0.34496535125891764];[0.011622329581525925, 0.035437067934800885, 0.0233600684046867];[-1.0, 0.021151903572119657, 0.044666403008586736]
[0.03940074758668042, -1.0, 0.003316958252244029];[-1.0, 0.5977478438792827, -1.0];[0.009670535474026765, 0.01735652807032484, -1.0]
[0.999940527116032, 0.059083868954922986, 0.06374018751531228];[0.09347388928969713, 0.0035632749729210935, -1.0];[0.029375832689304493, 0.0619838437204375, 0.05314616877000457]
[0.0787680340491311, 0.9997989712304779, -1.0];[0.048913797986464835, 0.05267406068786099, 0.06255954789860904];[0.05070463824180374, 0.04734958871608367, 0.06362289479621323]
[-1.0, -0.994323693013778, -1.0];[-0.9669050241491671, -1.0, -1.0];[0.42121137131748854, -0.2997565967788727, -0.9040104286781833]
[-1.0, -0.6943587112203016, 0.015678303479351674];[-0.9973514563121698, -1.0, -1.0];[-0.6910822391484732, -1.0, -1.0]
[-1.0, 0.02559914333123507, 0.012446492579560476];[-1.0, 0.003122142726670704, 0.5991536925977176];[-1.0, 0.021913305925534546, -1.0]
[-1.0, -0.6880834234208424, 0.9999810075771467];[-1.0, 0.012298715892234425, -1.0];[-1.0, -0.9011857916320299, 0.01627193390542774]
[8.785045160041488E-5, 1.775383201525324E-4, 1.6637150434188185E-4];[1.3575474558735079E-4, -1.0, 1.600974116009778E-4];[0.006722466880117985, 7.901851257393263E-5, -1.0]
[-0.999999452023319, 0.2551650834190147, -0.9992522268754097];[-1.0, -1.0, -0.8991921880387944];[-0.9697797943082953, -1.0, -1.0]
[0.5999996907833651, -1.0, 0.0036276224672116674];[-1.0, -1.0, -1.0];[0.0010599401305804827, -1.0, -1.0]
[1.0, -1.0, -1.0];[-1.0, -1.0, -1.0];[-1.0, -1.0, -1.0]
[7.3416860577789E-4, 1.0002317616641078E-6, 1.843672790452459E-4];[-1.0, 0.16471885208320636, -1.0];[-1.0, 0.0019286753853463257, -1.0]
[-0.6979095089507326, -0.9064682164937272, -1.0];[-1.0, 0.5999861578343008, -1.0];[-1.0, -1.0, -1.0]
[-0.5702966264538327, -1.0, -0.5784752632693124];[-1.0, 0.5611569679822228, -1.0];[-0.6813685941158444, -0.6361556180850481, -1.0]
[0.0500723320111861, 0.08647413207898423, 0.9998018091939402];[-1.0, 0.7121588577199109, -1.0];[0.05684748485736623, 0.03925945036699429, -1.0]
[0.0012637097831742785, 4.3592221572141853E-4, -1.0];[5.495284335700024E-5, -1.0, 0.0012836207177852142];[0.12665777249588203, 0.00115373402668969, 1.2751584820834465E-4]
[0.0028444101219814, 0.02446413307239495, -1.0];[-1.0, 0.034317017586482194, 0.031866834650117325];[-1.0, 0.5985438030273225, 0.03518820756616383]
[0.03904101309849979, 0.7176722071045922, -1.0];[-1.0, -1.0, 0.08998138540110284];[0.036707613983515255, 0.060288328643837964, 0.9992742677174653]
[-0.9688529087062541, 0.9999999999997178, 0.5998819060945837];[-0.9917591670670829, -1.0, -1.0];[-0.9079666935490072, -1.0, -1.0]
[-1.0, -1.0, 0.16379987648120092];[-0.907599867790964, -1.0, -1.0];[-0.9617136889610705, -1.0, -1.0]
[-1.0, -1.0, 0.9999804270305259];[-1.0, -1.0, -1.0];[-1.0, -1.0, -1.0]
[0.38076581585604885, -1.0, 0.271462620633379];[0.3050052145745057, -1.0, 0.37553163666236444];[0.28645159401817527, 0.07660474478852325, 0.039517820620641866]
[0.3086721035495345, -1.0, 0.4313140580425665];[0.9999999864171636, -1.0, -1.0];[0.046316236061302724, -1.0, 0.046222813443755874]
[0.062451242035874, 0.06599576356314961, 0.02951484794701157];[0.9748592712140484, -1.0, -1.0];[-0.6988249301247826, 0.003869761312756437, -1.0]
[-1.0, 0.9999999999676737, 0.5739348968782395];[0.4038282356299009, -1.0, 0.07839989508245594];[0.5496376653680862, -1.0, 0.03903454569713544]
[-1.0, 0.9999998509134359, 0.0354450021028461];[-1.0, -1.0, -1.0];[-0.6939957299622533, -1.0, -1.0]
[-1.0, -1.0, -1.0];[-1.0, -1.0, -1.0];[1.0, -1.0, -1.0]
[0.0038912451253236223, 0.025713113618976293, 2.904139913716408E-4];[-1.0, 0.01642364979389819, 0.010640284993819298];[0.026275804756709622, 0.5986316860494971, -1.0]
[-1.0, 0.032069454974218335, 0.9999999999990782];[0.01986075543004149, -1.0, -1.0];[-1.0, 0.5985690868386447, -1.0]
[-1.0, 0.9999999999997337, -1.0];[-1.0, -1.0, -1.0];[-1.0, -1.0, -1.0]
[0.05875069369125224, 0.9999999996324251, 0.05793145028726496];[-1.0, -1.0, -1.0];[0.594948636639591, 0.038813663306026085, 0.04752515121749298]
[0.053710803065128356, 0.9999821021748846, -1.0];[0.0483135671246859, -1.0, 0.02321774901280288];[0.06130670411393341, 0.035796124747186735, -1.0]
[0.5101655236850414, -1.0, 0.5999999999370093];[-1.0, -1.0, 0.41792294302493016];[0.006341721492600027, 0.9129435747529471, -1.0]
[-0.9085927498830748, -1.0, -1.0];[-1.0, 0.005440852652704009, 7.999730709760408E-4];[-1.0, 0.7017731494892347, -1.0]
[-1.0, -1.0, -1.0];[-1.0, -1.0, 1.3903043079748672E-40];[-1.0, -1.0, -1.0]
[0.5999999999944335, -1.0, 0.2521472411909474];[-1.0, -1.0, -0.22357558053258716];[6.075313156756602E-4, -1.0, 7.42071536998967E-4]
[0.018513771627648647, -1.0, 0.9924090757931956];[-1.0, -1.0, -1.0];[0.9999999999674413, -1.0, 0.42791818123728137]
[-1.0, -1.0, 0.9999999999999998];[-1.0, -1.0, -1.0];[-1.0, -1.0, -1.0]
[0.22170503565263155, -0.9082707426488382, -0.2638584139763601];[-0.9720488268297754, -1.0, -1.0];[-1.0, -0.936244615277879, -1.0]
[-1.0, 0.549191167299197, -0.6897580061017083];[0.9999377435829946, -1.0, -1.0];[-1.0, 0.0472634570991696, -1.0]
[-1.0, -1.0, 1.0];[-1.0, -1.0, -1.0];[-1.0, -1.0, -1.0]
[-1.0, -0.5826749444164824, 7.561677910868812E-6];[-1.0, -0.4172338120843424, -1.0];[-1.0, -0.5650562284425162, 9.211286085402626E-5]
[-1.0, 0.0763847095920638, 0.0034547506504239768];[0.012473208648479929, 0.017618492213606285, -1.0];[-1.0, 0.992457336619898, -1.0]
[-1.0, -0.9972789935759939, -0.8992649412139228];[-0.9066895858412443, 0.5999999999999998, -0.9999750906870034];[-1.0, -1.0, -1.0]
[-1.0, 0.9748111028391138, 1.0];[-1.0, -1.0, 0.5954938939740051];[-1.0, -1.0, -1.0]
[-1.0, 0.008839355442755948, 0.3601047159654268];[-0.6099447466570813, -0.3970180644025896, -1.0];[-0.8917996377204281, -1.0, 0.2128132670185814]
[-1.0, 0.0017116215836154081, 0.5999872145836325];[0.040724054036680425, 0.04959324325344436, -1.0];[0.005284275592230725, 0.04207401398729446, 0.015319401635320107]
[-1.0, -1.0, -1.0];[-1.0, -1.0, -1.0];[-1.0, -1.0, 0.9999983982119216]
[0.018151970996350998, -1.0, 0.37084785058307707];[0.027340229378794545, 0.031208286718994158, 0.03103030733282523];[0.029637929389771504, 0.18111696273539535, -1.0]
[0.0705032044461837, 0.010260780522401591, 0.9999946558403653];[0.0218677339412901, 0.04912519754247357, 0.029237311834113735];[0.06413959338948563, 0.40255163205976396, 0.06834187801609011]
[-0.8818313144637651, 0.02537753479503623, -1.0];[-0.9917017472544007, -1.0, -0.6975992338405245];[0.9999999999990836, 0.026416416243668375, -1.0]
[-1.0, -0.6914641223239271, -1.0];[-1.0, -1.0, -0.697031015580178];[0.9999943213584793, -1.0, -1.0]
[0.043203627696902606, -0.6882333056253914, 0.060042035459226345];[-1.0, 0.5323127757995234, 0.024400805151638297];[-1.0, 0.999999844595355, -1.0]
[-0.678098820270321, -0.607459635531568, -1.0];[0.014553549532078824, 0.9924426404389679, 0.052770460046188496];[-1.0, 0.0165467927721064, -1.0]
[0.14163049569671218, 0.3328655528209138, 0.0795604701433713];[-1.0, 0.3326831856030634, 0.0696802414145326];[-1.0, 0.35645977403319007, 0.36000002920148616]
[-1.0, -1.0, -0.39361076024221714];[0.04302444194104696, 0.027988551152940612, 0.031960249479076774];[0.028188059217316708, 0.5999758521017738, 0.32817204565887187]
[-1.0, 0.006456240129981861, -0.6921853908716425];[-1.0, -1.0, 0.04844675070419137];[-1.0, 0.006952437392308487, 0.9999983148596023]
[0.039941242656943376, -1.0, 0.048386002197034636];[0.40018811093927265, 0.3049735807670458, -1.0];[0.003178883510231112, 0.04619150012466609, 0.03532004642370814]
[1.3286803402089508E-12, -1.0, -0.7899994262473558];[-0.6639372681033737, -1.0, -1.0];[-1.0, -1.0, -1.0]
[0.9999995212742395, 0.018766030441808124, 0.012045649903431044];[-1.0, 0.01540817904577403, 0.07594354721770967];[-1.0, 0.002197906459793242, 0.001420451352086194]
[-0.9043677517224116, -1.0, -0.5665186705766883];[-0.9893856900557406, -1.0, -0.9913627017759902];[-1.0, 0.9999999996212041, -1.0]
[0.4241650189489109, -1.0, -1.0];[-0.6729391613381256, -1.0, -1.0];[-1.0, 0.9999946833675809, -1.0]
[-1.0, 0.0036097895320409915, 0.0383259230643938];[0.9999999999999998, -1.0, 0.20265505878883106];[-1.0, 0.06614871940409832, 0.022614510337694783]
[0.0019777970307554, 1.5671791510545488E-4, -1.0];[-1.0, 0.0018986169698070555, -1.0];[-1.0, 7.678648605739067E-4, 0.004845623187496553]
[3.337560255902484E-4, 6.587836208495476E-4, -1.0];[-1.0, -1.0, -1.0];[-1.0, -1.0, 2.40956590522433E-4]
[-1.0, 7.404205040858716E-48, -1.0];[-1.0, -1.0, -1.0];[-1.0, -1.0, -1.0]
[-1.0, -0.9999998360452623, -0.9999998836972499];[2.492804340284788E-6, -1.0, -1.0];[-0.9999197678059943, -1.0, -0.9999939184716897]
[-1.0, -1.0, -0.9911346196577103];[0.005018383486646148, -1.0, -1.0];[0.9976456693712601, -1.0, -1.0]
[0.0035984854827450924, -0.9999922449295108, -1.0];[-0.9977868651586508, -1.0, -0.9918293663391767];[-0.5904203118165267, -1.0, -1.0]
[0.9977310951588119, -1.0, 0.05558315327674823];[-1.0, -1.0, 0.01356301332205595];[0.019856278060083055, -1.0, -1.0]
[3.893683527095557E-52, -1.0, -1.0];[-1.0, -1.0, -1.0];[-1.0, -1.0, -1.0]
[-0.8750518592294527, -1.0, -1.0];[-1.0, 0.9999347555930036, -1.0];[-1.0, -1.0, -0.9026603354326806]
[0.3600025930988777, 0.3751169968866499, 0.3601218752735686];[-1.0, -1.0, 0.23739159292387257];[0.3419482206697705, 0.35978988067260725, 0.28245714577864967]
[0.046498982626571074, 0.06429157467818013, 0.0346431779302811];[0.03609849872368907, 0.015222171923642835, 0.0023128137343187195];[0.061120942001734714, 0.06264903691304069, 0.5822674441708324]
[0.05819539273018547, 0.07301729758608026, 0.7173449670771457];[0.07917700015044132, -1.0, 0.07244720737095826];[0.0557146702805838, 0.9998018562946901, 0.023917280341456505]
[-1.0, -0.999993793905033, -1.0];[1.0704882245720797E-10, -1.0, -0.8994775211365492];[-1.0, -0.9907526927994825, -0.28028065079584685]
[-1.0, -1.0, -1.0];[0.08157488308379462, -1.0, -1.0];[-1.0, -0.9063707747245581, 0.9999999999666576]
[0.03128526687104834, 0.015444425788772462, 0.5999999782557047];[-1.0, -1.0, -1.0];[0.03890411814073723, -1.0, 0.035160266128118935]
[0.4369989894564327, 0.051468592175313646, -0.6736816586147395];[0.06366581447171459, -1.0, -1.0];[0.08770979224991882, 0.031031847839110352, -0.6710745255296946]
[0.015191544927042888, 0.03983176497553584, 0.9923816974199223];[0.021507142013564885, -1.0, -1.0];[-1.0, 0.04309502848643599, -1.0]
[-0.9048370722013888, -1.0, 0.999994416836225];[0.03141594700862066, 0.019190151642604493, 0.017606213545132445];[-1.0, 0.029034261316193556, 0.015030957269314261]
[0.04073708101745337, 0.03447925618843134, 0.5489269642676753];[0.02503959364144215, 0.02984941741891525, 0.028055067227209376];[0.0017195862985047161, 0.029300787763783566, -1.0]
[0.04003780003795624, 0.08709372156814435, -1.0];[-1.0, 0.9998023809654447, 0.03901017106838611];[-1.0, 0.0013791145054991684, -1.0]
[-0.38958307992611674, 0.19963109474993468, 0.5949013923039185];[-1.0, 0.5999999999916816, 0.10254747436153183];[-1.0, -1.0, -1.0]
[7.322099782626116E-5, 1.0701528644597742E-4, -1.0];[-1.0, 1.8221655431847244E-4, -1.0];[-1.0, -1.0, -1.0]
[-1.0, 1.3733827261771893E-14, -1.0];[-1.0, -1.0, -1.0];[-1.0, -1.0, -1.0]
[0.03105815846456496, -0.8701961955579889, -1.0];[0.9999999869557152, 0.04295490175399215, 0.024051445000915384];[0.009044626874239792, 0.06561841027483689, -1.0]
[0.0622148095641648, 0.07575167233399516, 0.03370164216649751];[0.021652949966100066, 0.06274538329942156, 0.03735052710804787];[0.016175217073774294, 0.9926816696183742, 0.0482566851727421]
[0.3519190520840845, -1.0, -0.17842400243940154];[-1.0, 0.5784000250100925, 8.714696653886965E-4];[0.2516866365182795, -0.04695721428825994, 0.34841224637854334]
[0.9999999987862126, -1.0, -1.0];[0.010402266529824856, 0.05092668415393757, -1.0];[0.03740088952114271, 0.05243047033080656, 0.0523923436419383]
[0.916306391986743, -1.0, -1.0];[-1.0, 0.01896551176881166, 0.06788563214543251];[0.005694307852209169, 0.06740859601666065, 0.04665033784492047]
[2.3517665495846536E-5, -1.0, 2.7405939057338203E-5];[0.07103142631424982, 0.005064008999964522, 0.00479498251072046];[0.036542496399692884, -1.0, 0.011241589185541648]
[0.5999999999997855, -1.0, 1.0319740351701147E-4];[0.0012570224746945085, -1.0, 0.0029076024955204767];[-1.0, -1.0, 0.0030760393152976144]
[1.0, -1.0, -1.0];[-1.0, -1.0, 5.860668111968776E-4];[-1.0, -1.0, 0.006051819002859771]
[0.10051716076508166, -1.0, -1.0];[0.0022489701115220974, 0.03326910566543611, 0.03148784573769888];[0.3599995724330796, 0.02466246869779494, 0.023520506207091542]
[-0.3386813964909163, -1.0, -1.0];[-0.3538810104672217, 0.008337266170094532, 3.6216153520450696E-4];[5.350139478771436E-6, -0.13001989284657894, 0.015138584757396002]
[0.0013486376708472343, -1.0, -1.0];[1.0746754940681996E-6, 0.0010263769334852876, 8.90621694654665E-9];[0.011816785765171782, -1.0, -1.0]
[-1.0, -1.0, -1.0];[1.6271592155196103E-10, 1.5391162233457575E-10, -1.0];[5.118031308628086E-10, -1.0, -1.0]
[-1.0, -1.0, -1.0];[-1.0, 4.651146820713771E-35, -1.0];[-1.0, -1.0, -1.0]
[0.3331708035472424, -1.0, -0.57281466101005];[-1.0, 0.008923511464487633, -1.0];[-1.0, -0.25226671605297296, -0.9058643596770297]
[-0.6880504919225379, -1.0, 0.999998339360106];[-1.0, -1.0, 0.030440799049526637];[-1.0, -0.6811412492138291, -1.0]
[0.48880256379235776, -1.0, -0.907205214266444];[-1.0, -0.6842762706620191, -0.6887934197127341];[-1.0, -0.16722252023743756, -1.0]
[-0.9045270928769618, -1.0, -0.9039172768965227];[-1.0, -1.0, -0.6859410577359981];[-1.0, -1.0, -1.0]
[-1.0, -1.0, -1.0];[0.007323741515542746, 0.6, -1.0];[0.34788895356087357, -0.5938805405974841, -0.5601951110427751]
[0.04422736947922227, 0.0552771748138306, 0.08895909894348471];[0.09761972983500944, 0.917161077596585, 0.05125999345457699];[-0.6906732588816895, -1.0, 0.09888502393665735]
[-1.0, -1.0, -0.9891146709326893];[-1.0, -1.0, -0.9713538398174989];[0.5999938930644443, 1.0, -0.991597390255729]
[-1.0, -1.0, 0.9999999536284572];[-1.0, 0.04472399097017853, 0.4239737085278302];[-1.0, 0.005111252545375778, -1.0]
[0.2614143068404059, -1.0, 0.3604116450021618];[-0.3469795232460987, 0.1971671599372707, -0.1897097399050527];[0.25909519388710267, 0.34313049646564775, -1.0]
[-0.9962156775506106, -1.0, -1.0];[-1.0, -0.8681362449254625, -0.5999210950921258];[-0.987455525352474, -0.667779684364098, -1.0]
[-0.6717832211763323, 0.04681166789450474, 0.0486143460702183];[0.052428141476306936, 0.9998011961755537, -0.6774541093344488];[0.027529809095221326, 0.08703491118415609, -1.0]
[-1.0, -1.0, 0.03474186566121985];[-1.0, 0.5999998337796673, -0.5767161035385932];[-0.5074140168739172, -0.2855136930293017, 0.0190460214177199]
[0.04299116097866756, -1.0, 0.015015564293961904];[-1.0, -1.0, 0.9999995025493771];[0.04999931378110867, 0.7165474934298413, 0.013073279562499686]
[0.049391327025801283, 0.027051589379824895, -1.0];[0.06038774536366043, 0.9997964509397635, 0.062398159845187484];[0.021653629944910525, 0.06011740589353568, 0.004661331000514068]
[-0.677569224487943, -1.0, 0.09402154820787237];[-1.0, 0.9992851559290734, -1.0];[-1.0, -1.0, 0.07433185608799321]
[0.0564118649950886, -1.0, 0.5999998737490532];[0.013355567029724093, 0.0035022694553014768, 0.11665104257730724];[8.528217542435423E-4, -1.0, -1.0]
[-1.0, -1.0, 0.9730959777713384];[0.41713430704525223, -1.0, -1.0];[-0.556124760033323, -1.0, -1.0]
[-1.0, -1.0, -1.0];[-0.9886437527461375, -0.9990381145179601, -1.0];[0.24682619192616018, -0.9910599232869968, -0.566739185668885]
[-1.0, 0.08648473856743681, 0.05819582535567727];[0.07368317225172047, 0.0769640371920806, 0.023599976134520396];[0.025085631777217034, 0.03958271190548799, 0.9977824441053751]
[-1.0, -1.0, -1.0];[-0.9991769648028296, -1.0, -0.9998433250562856];[2.480058395487893E-6, -0.9152824956335951, -0.9999955684076807]
[-1.0, -1.0, -1.0];[-0.991344234346742, -1.0, -1.0];[-0.9712516113193687, -1.0, -0.971341852768822]
[0.99999995637978, -1.0, -1.0];[0.05396961983708311, 0.0323278822014772, 0.0061311713039369];[0.03323252084449998, 0.017813249921228503, 0.02314648666637495]
[0.26112882221670003, 0.37552647906115566, -1.0];[0.2605855161583956, 0.14106241496029392, 0.014855526536928228];[0.01807671909990801, 0.2895306414148695, -1.0]
[0.5998213373267418, -0.972439733909367, -1.0];[-1.0, -1.0, -0.7811007164117996];[-0.6935668634841499, -0.9721779199531477, -1.0]
[-1.0, 0.9999999999999977, -1.0];[-1.0, -1.0, -0.9720738886897048];[-1.0, 8.963151886973264E-4, -1.0]
[-1.0, -1.0, -1.0];[-1.0, 0.28206800909140006, 0.5955058119896633];[0.43153524075035266, 0.06806609822053425, 0.04436578147503287]
[-1.0, 0.06262479177255127, -1.0];[0.006993135482693736, -1.0, 0.06754368659890424];[-0.9011821776782134, 0.04972793526620555, 0.999336239904655]
[0.9999999996174864, 7.980008641863656E-4, 0.0014723382563351707];[-1.0, -1.0, -1.0];[-1.0, -1.0, -0.9055557634170619]
[-1.0, -1.0, -1.0];[-1.0, -1.0, -1.0];[-1.0, -1.0, 1.4062326129929184E-17]
[0.009190191112813651, 0.03571820291502041, 0.03775118412048048];[0.19500656060228355, 0.001190284021206578, 0.003962631783269044];[0.027767045397736445, -1.0, 0.020746392707655173]
[-1.0, -1.0, 0.06315266613410947];[0.04442705467350149, 0.9926335306977776, -1.0];[0.016329431318801914, 0.055886909971000036, -1.0]
[-1.0, -1.0, -0.23607652565912565];[-0.6875748122415019, 0.46378712173435865, -1.0];[-0.6857023538057319, -1.0, -0.5728717382091741]
[-1.0, -1.0, -0.6835488336009841];[-1.0, 0.912894936768619, 0.014989831190240367];[-1.0, -1.0, -0.6829422910790411]
[0.03883429897156413, 0.06235217564340304, -1.0];[0.030698927369700292, 0.9748733247793615, 0.04496361280658835];[0.03909863771244648, -1.0, -1.0]
[0.021391823326719767, -1.0, -1.0];[0.0024245138221106743, 0.599962705054011, -1.0];[0.020051825432054166, -0.2766357009120145, -1.0]
[5.399217399443015E-6, -1.0, -1.0];[-1.0, 2.755649165627734E-5, -1.0];[-1.0, 9.030968201301474E-6, -1.0]
[-1.0, -1.0, -1.0];[-1.0, -1.0, -1.0];[-1.0, 1.0, -1.0]
[0.026652286168904075, 0.023863216380257138, 0.21467032015418563];[0.20965023230546834, 0.3599999763854357, 0.22146061064879244];[-1.0, -1.0, 0.3259744297097027]
[-1.0, -1.0, 1.0];[-1.0, -1.0, 0.03510681433201715];[-1.0, -1.0, -0.9999936773252104]
[0.016886588860793892, -1.0, -1.0];[0.017596882675235136, -1.0, 0.599602344645292];[0.04640489121747642, 0.13155524204332808, -1.0]
[0.5396577154285938, -1.0, 0.05505185228878911];[0.03660173085634597, 0.014022719885835089, 0.01127010273057847];[0.999999487040371, 0.06003456218888784, 0.07228767219119307]
[1.2379665709906466E-98, -1.0, -1.0];[-1.0, -1.0, -1.0];[-1.0, -1.0, -1.0]
[0.5998392529171269, -1.0, 0.05942129984142668];[0.20202098120102102, 0.0868368110610008, 0.03157455636272737];[-1.0, 0.25457811017483195, -1.0]
[-1.0, 0.05462824325863766, -1.0];[-1.0, 0.9739459938128, 0.9997968082062285];[0.034521544035431284, 0.05345837293587761, -1.0]
[-1.0, -1.0, -1.0];[-1.0, 0.9999999999900183, 0.06276028247600399];[-1.0, -1.0, -1.0]
[-1.0, -0.108363971992181, -1.0];[0.010764749592296612, 0.0012997057635710024, 0.31010754116064343];[0.23269262600454427, 0.0032885977499813885, 0.5474035485686208]
[-1.0, -1.0, -1.0];[-0.10320203881884005, -0.5919803745858998, -0.5882180624840527];[4.155886607761456E-6, -1.0, 6.04538353201297E-9]
[-1.0, -1.0, 0.0038246081376243305];[-0.9047683555369324, -0.6778908413404647, -1.0];[-1.0, -1.0, 0.9999359392239159]
[0.12224422039474994, 0.4325785577255816, -1.0];[0.06183287073401379, 0.031520149578021094, 0.05225406127311933];[0.9993199689545028, 0.011780214411621016, 0.029855992373438122]
[-0.6723813152943167, -0.6873662122629131, 0.04851383474020138];[0.05733420734857284, 0.05465176483209684, 0.028936374132621748];[-1.0, -1.0, 0.9999983504261166]
[0.43548601391315306, -1.0, -1.0];[0.31664750807466013, -1.0, 0.007653192840134016];[0.9146275650147707, 0.02867649277607174, 0.34882331669369626]
[0.009145911914787063, -1.0, 0.007743052131561712];[-1.0, -1.0, -0.9032524516975818];[-1.0, 0.9999999999971682, -0.5714173619676487]
[0.3613988587394224, -1.0, -0.3405083588263662];[0.009959956148031801, 0.27494070190024994, -0.3521399599404667];[-1.0, -0.017600278705697192, 0.34146824592110814]
[-0.9909279492498639, -1.0, -0.5971098878221063];[-1.0, -1.0, 0.006825323704022786];[-1.0, -0.9714111058133339, -0.9999999999999136]
[0.42699929537615194, -1.0, 0.5148770778047596];[-1.0, -1.0, 0.06581268501858747];[0.044152536294961214, 0.9999999957609723, 0.05258985531054497]
[1.0, -1.0, -1.0];[-1.0, -1.0, -1.0];[0.9747244767227262, -1.0, 0.5995928931637857]
[-1.0, -1.0, -1.0];[0.2643229525188773, 0.020371417375657654, -0.40848334645323287];[0.0013837155473965818, 0.5999984687799058, -1.0]
[-1.0, -1.0, -1.0];[1.3373792237683955E-4, -1.0, 0.00258287802541623];[-1.0, 0.9999999999999978, -1.0]
[-1.0, -1.0, -1.0];[-1.0, -1.0, -1.0];[-1.0, 1.0, -1.0]
[-1.0, -0.684523561782894, 0.016206630318163308];[-0.6877716049720858, 0.04367020571818775, -0.6983385482231188];[0.01769976686767425, -0.6829234808672014, -1.0]
[0.004264911091735313, -1.0, -1.0];[-0.6762179793246967, 0.9739843193064476, 0.019736745557877734];[-1.0, -0.6717021943456731, 0.02558181443688894]
[-0.8714546652374362, -1.0, -0.9066146881846684];[-0.6979844092106032, -0.9053199424462036, -1.0];[-1.0, -0.5972908643762903, -1.0]
[0.03679444514036516, -1.0, 0.06494304989082199];[0.013037025129370827, 0.9977304765578152, 0.005975041856402997];[-1.0, 0.03349699463952619, 0.056600045315584324]
[1.5050185716231174E-10, -1.0, -1.0];[-1.0, -1.0, -1.0];[-1.0, 3.0618054237832983E-4, 9.192150539451244E-5]
[-1.0, -1.0, -1.0];[-1.0, -1.0, -1.0];[-1.0, 1.0, -1.0]
[-0.36891269758808953, -1.0, -1.0];[0.013420819693425661, -0.905533361909346, -1.0];[-0.2590822270931043, -0.6936029032473006, -1.0]
[0.028720474766763204, 0.04638518586157134, -1.0];[0.06611349039437188, 0.04435526073206926, 0.045401223116000804];[0.049822344537845065, 0.9748174961361479, 0.04391465593054496]
[-1.0, -1.0, -1.0];[-1.0, 0.9999982407342726, -1.0];[-1.0, -1.0, -1.0]
[0.057636614310311474, 0.04388047067941217, -0.6753391762809795];[-1.0, 0.058096465263398844, 0.015417219177617281];[0.36011308997827274, -1.0, 0.05710439476474108]
[0.0013216663930310712, -1.0, -1.0];[-1.0, 0.0034077400429588095, -1.0];[3.343655736543447E-4, -1.0, -1.0]
[-1.0, -1.0, -1.0];[-1.0, -1.0, -1.0];[5.224063665475549E-222, -1.0, -1.0]
[-1.0, -0.714449943867997, 0.1281234265840251];[-1.0, -1.0, -1.0];[3.486612257130762E-4, -0.9999921059439225, -0.9992136961817419]
[-1.0, 0.011374334986737523, 0.9999998487914002];[-1.0, -1.0, -1.0];[-1.0, -0.6884892106004797, -0.9066456344256031]
[-1.0, -1.0, -0.9022652401025388];[-1.0, 0.5998953409628359, -0.5237936705902455];[-0.9719888121536917, -0.6738488550653224, -1.0]
[0.03804151404220915, 0.08342812177711065, -0.6990410174887689];[0.07751190528885665, 0.5999999960586544, 0.06715787252598926];[0.07378435083706246, -1.0, 0.03093773856904546]
[-1.0, 0.008667549973868972, 0.9999983333033263];[-1.0, -1.0, -1.0];[-1.0, -1.0, 0.0925335644661136]
[0.04259243277059738, -1.0, 0.0037575583710669994];[-1.0, -1.0, -0.5593374713762274];[0.5487116900730219, -1.0, 0.5999999552022827]
[7.440191241683767E-7, -1.0, -0.9997811733985908];[-1.0, -1.0, -1.0];[-1.0, -1.0, -0.9101152551857945]
[-1.0, -1.0, 3.771409241155782E-158];[-1.0, -1.0, -1.0];[-1.0, -1.0, -1.0]
[0.9188906397752407, 0.05567757986557245, 0.03720142553791713];[0.09114153858375673, 0.06254049332655441, 0.0919378019651712];[0.0554060562647309, 0.0873857513920584, 0.07814589002586127]
[0.016468520165348062, 0.0016426037564424467, -0.5195271382066076];[-1.0, -1.0, -1.0];[0.003834821617701791, 0.0014773750839369628, -1.0]
[2.345497282078248E-18, 7.440187180045051E-7, -1.0];[-1.0, -1.0, -1.0];[-1.0, 2.882477382519601E-16, -1.0]
[1.5323106344038911E-175, -1.0, -1.0];[-1.0, -1.0, -1.0];[-1.0, -1.0, -1.0]
[0.05230885030526366, 0.05687237545105322, 0.9993350163881124];[0.059573340498687594, 0.0669850598348324, 0.03318924283243574];[0.0826252125254934, 0.06719526541062666, 0.006393785844483857]
[0.07349983235561051, 0.05277485070854554, 0.9754209370102989];[0.05956163255519577, -1.0, -1.0];[0.05098373255133501, 0.012735743285565738, 0.06426520097649806]
[-1.0, 0.03983601808285064, -1.0];[-1.0, 0.042302874190332296, 0.05070181514158471];[0.046553275746155254, 0.041049146503850845, -1.0]
[-1.0, -0.9072946872350865, -1.0];[-1.0, 0.9993072018725592, -1.0];[0.029874690222412514, -1.0, -1.0]
[0.0738603307778454, 0.13856792504754228, -1.0];[0.0020333687527282263, 0.04713540888524407, 0.9999403780606919];[0.016523387578423355, 0.09745835043872136, 0.05061857124011217]
[-1.0, 0.03948614398279515, 0.017839019030440374];[0.027209183348645638, 0.007215434755203987, 0.9999813146323386];[-1.0, -1.0, -1.0]
[-1.0, -0.6744830972009602, -1.0];[-1.0, 0.9999999999971457, -1.0];[-1.0, 0.07433723260214416, -1.0]
[0.5999832285225614, 0.029156948851115794, 0.03936656550350475];[-1.0, -0.6819714038780036, -1.0];[-1.0, -0.6945135017402764, 0.05793479060860928]
[0.07824648227842591, 0.7090398050858893, 0.08624385591284459];[0.02878705270309431, 0.08079525027849564, 0.010999640031214286];[-1.0, 0.05892815666470761, 0.9999822530942617]
[-0.9720161613210251, 0.033497228268303994, -0.6574673111950913];[-1.0, -1.0, 0.9999999999661667];[-1.0, -1.0, 0.5968909088282937]
[-1.0, -1.0, 0.005097502273603805];[-1.0, -1.0, 0.008538122083506317];[-1.0, -1.0, 0.999981125154185]
[0.427260651159358, -1.0, -1.0];[-1.0, 0.4234294293864824, -0.3770492516576993];[0.43940379096100707, 0.5999970883424325, -1.0]
[-1.0, -1.0, -1.0];[-1.0, 0.9999999999991307, -0.9974106098661804];[0.7024205466859207, -1.0, -1.0]
[-0.9810961129796643, -1.0, -1.0];[-0.9999775477766186, -1.0, -0.9322228553882616];[0.031101978136490096, -0.9996816884781466, -1.0]
[-1.0, -1.0, -1.0];[-0.9029081599113553, -1.0, 0.014668720004348212];[0.999999952959984, -1.0, -1.0]
[-1.0, 0.999940873555034, 0.0389833548633061];[0.042068229043070074, -1.0, 0.08270035278090446];[0.07983615408725891, -1.0, 0.7079657664166523]
[0.011646180000000006, -1.0, -1.0];[0.011434334220719818, -1.0, 6.861970016105043E-26];[-1.0, -1.0, -1.0]
[1.5013406510809942E-281, -1.0, -1.0];[-1.0, -1.0, -1.0];[-1.0, -1.0, -1.0]
[-1.0, -1.0, -1.0];[-1.0, -0.9729131952801704, -0.9992676007587934];[-0.5210354737252751, -0.5987857152946084, -0.986572530022137]
[0.006640326139725117, 0.03612285820350637, -1.0];[-1.0, 0.999797192056704, 0.4200449318523229];[0.057949752339978025, 0.055601464190162486, 0.050844611885017515]
[0.9992997385512529, -1.0, -0.6852932493832886];[0.020176201919998193, -1.0, -0.9059565594991801];[-1.0, -1.0, -1.0]
[0.02933148212250868, 0.06649157369163233, -1.0];[0.05748280287626527, -1.0, 0.9999998420533176];[-1.0, 0.011737497247117746, -1.0]
[0.7133053387180032, -1.0, -1.0];[0.4212504608680224, 0.06533770195149072, 0.9999999988246787];[0.04849857670927318, -1.0, 0.04720477439765086]
[-1.0, -1.0, -1.0];[0.0031973478665594636, -1.0, 1.0];[0.0026381936056795946, -1.0, -1.0]
[-1.0, -1.0, -1.0];[-1.0, -1.0, 1.0];[-1.0, -1.0, -1.0]
[-1.0, 0.03907571076917115, 0.03798258097559737];[0.04500160429651855, 0.008543438369743873, 0.013109262074846162];[-1.0, 0.9999999867805258, 0.011706930983260457]
[-0.9777244907167459, -0.6551756906169791, -1.0];[5.508432151031509E-5, -1.0, -1.0];[-0.9342563043713161, -0.9973624683069877, -1.0]
[-0.7612535236382191, -1.0, -1.0];[-1.0, -1.0, -1.0];[-0.9915497763539798, 8.266864759097668E-6, -1.0]
[-1.0, -1.0, -1.0];[-1.0, -1.0, -1.0];[-1.0, 8.899957183842476E-94, -1.0]
[0.9999811968315134, -1.0, -1.0];[0.02602259361481915, -1.0, -1.0];[-1.0, 0.02933758392690953, -1.0]
[-1.0, -1.0, -1.0];[-1.0, -1.0, -1.0];[-1.0, 0.0, -1.0]
[0.03433392798167002, 0.04692393514794862, 0.23963991555133235];[0.07258132765109197, 0.0021639964025989555, 0.07336424663915707];[0.9999822486833618, 0.06815540347298607, 0.07459898881864306]
[0.06888244491311757, 0.01703236495589212, 0.04058988002043565];[0.07592147871247117, 0.4897377032367579, 0.008551917171463131];[0.06988925517860099, 0.004378692441510879, 0.01729755979193707]
[0.009641207719342116, -1.0, 0.011208445951507127];[0.03923921661186589, -1.0, 0.5885462880559915];[0.9999999856864245, -1.0, -1.0]
[0.010846674072632501, -1.0, -1.0];[-0.903280975925923, -1.0, 0.026575272488510493];[0.9999806439575504, -1.0, -1.0]
[-1.0, -0.6885098697412639, 0.9999946380043152];[-0.9975244045097797, -1.0, -1.0];[-1.0, -1.0, -1.0]
[-1.0, -0.6986267464852693, -1.0];[0.040095058833462593, 0.03237697424876172, -1.0];[0.018868985419776697, 0.010152079896171519, 0.9997916698934372]
[-1.0, -1.0, -1.0];[-1.0, -1.0, -1.0];[0.9992793627408715, -0.9614751910024103, 1.0]
[-1.0, -1.0, -0.8689377782152251];[-0.9991257898598942, -1.0, -1.0];[-0.9810370332914743, -0.999308273477159, 0.17640022337580788]
[-1.0, -1.0, -1.0];[-0.9999279306464939, -1.0, -1.0];[-0.9999779061694093, -1.0, -0.9999283603642958]
[-1.0, -0.8386993522451267, -0.4856241768431303];[-0.5018621667836674, -0.970330101051082, -1.0];[-1.0, -1.0, -0.5075934581408272]
[-1.0, -1.0, -0.9974676686356618];[-0.9974295812761776, -1.0, -1.0];[-1.0, -1.0, -0.9973726090047994]
[0.42354116784822665, -1.0, 0.9999998454832536];[-1.0, -1.0, -1.0];[-1.0, 0.00289663835083846, -1.0]
[-1.0, -1.0, 0.0032413132441307616];[0.0029623171684706826, -1.0, -1.0];[0.5999828013127858, 0.9999999996214837, 0.02342467556328024]
[-1.0, -1.0, -1.0];[-1.0, -1.0, -1.0];[-0.27244254443824134, 0.9999999999991056, 1.5686033363424532E-4]
[-1.0, -1.0, 5.367486354113389E-5];[-1.0, 0.0024397804657379178, -1.0];[-0.5955697930545045, 0.002014093195720338, 7.488002579530673E-4]
[0.006075599084015138, -1.0, 0.007629654284806938];[-1.0, -1.0, -1.0];[0.030830432720033996, 0.9999994902952106, 0.018800986092648176]
[-1.0, -1.0, -1.0];[-1.0, -1.0, -1.0];[-1.0, -1.0, 4.132583325097402E-157]
[-0.6873534007923587, -1.0, -1.0];[-1.0, 0.013281593036699114, -1.0];[-0.1792131013460127, -0.9052402940505369, 0.35916599482445616]
[-1.0, -1.0, -1.0];[-1.0, 0.01470711318391174, -1.0];[0.04511714586617808, 0.599998048724275, -1.0]
[-1.0, -1.0, -1.0];[-1.0, -1.0, -1.0];[-1.0, 1.0, -1.0]
[0.014152459189859046, -1.0, -1.0];[0.04234095550914438, 0.9999381933448476, 0.008887086635086873];[0.043850092864532765, -1.0, 0.0028844250248835526]
[-1.0, 0.02589976902124165, -1.0];[5.847475343127527E-4, -1.0, 0.999999995913675];[-1.0, -1.0, -1.0]
[-1.0, -1.0, -1.0];[-1.0, -1.0, 1.0];[-1.0, -1.0, -1.0]
[0.001735037140308631, 0.006284562003579165, 0.0011338065197026301];[-1.0, 0.02616239135086791, -1.0];[0.5999656307648519, 0.12612291275610094, -1.0]
[-1.0, -0.9970334404197593, 2.7779405338622075E-5];[-1.0, -1.0, -1.0];[-1.0, -0.9792459055881725, -1.0]
[-1.0, 0.03863024571476474, 0.34235015494554494];[0.0469044597164974, 0.031897206005592274, 0.04068550683623];[0.046882294199242204, 0.1468305285039878, -1.0]
[-1.0, 0.00384376518072112, 0.00542442089305629];[-1.0, 0.38595493231748806, 0.5824853164157247];[-0.46306173211899854, -1.0, -1.0]
[-1.0, 1.8866501767301755E-273, -0.9998469099999405];[-1.0, -1.0, -0.9999999969867239];[-1.0, -1.0, -1.0]
[-1.0, -1.0, -1.0];[-1.0, -1.0, 0.0];[-1.0, -1.0, -1.0]
[0.008928240332974713, -1.0, 0.0027611310317765428];[0.01891014911024689, 0.027645708140858934, -0.6894762149122496];[0.9992943186127814, -1.0, 0.010973799843482424]
[-1.0, 0.07660737859757893, 0.053096349895140504];[0.07661061927347725, 0.05986990867688877, 0.051994820526542834];[0.9999999860071543, 0.05798261098120713, 0.014790053171965058]
[0.003995141255896129, -1.0, 0.014922890815703749];[-1.0, 0.04168399598077336, -1.0];[0.999981712715921, -1.0, -1.0]
[0.032752583330651286, 0.03628575559474177, 0.23539995149815957];[0.030908483313559547, 0.06732057842493398, 0.04454076608464211];[0.03341331164071065, -1.0, -1.0]
[0.006679934873647875, 0.05301893804785881, 0.04782127623873213];[0.5941219976870383, -1.0, 0.05446561786634789];[-1.0, -1.0, 0.03848287391030254]
[0.045948977586080894, -1.0, 0.539078354051373];[0.3593255339406103, 0.05590637383424662, 0.2504791434270507];[-1.0, -1.0, -1.0]
[-0.9647328927886618, 0.011097173349411649, 0.5999999997808899];[-1.0, -1.0, -0.6942687423281863];[0.030291706863931248, -1.0, -1.0]
[-1.0, 3.0671907820438687E-4, -0.6831594730633767];[-0.9050216464062311, -1.0, -0.9056846969247115];[-0.6869077891877184, -1.0, -1.0]
[0.022655542992375745, 0.03396051726965863, 0.03738747773509861];[-0.6830413757008089, 0.050099634163871254, 0.022087151699025843];[-0.6821956300207319, -1.0, -1.0]
[-1.0, 0.9999999999999977, -1.0];[-1.0, -1.0, -1.0];[-1.0, -1.0, -1.0]
[-1.0, -1.0, 1.1547796532604709E-5];[2.8145341074101563E-8, 0.04939961753616095, 0.0011402802003106002];[0.002400457490122389, -1.0, -1.0]
[-1.0, -1.0, 9.234245336605452E-6];[1.2718582293785974E-20, -1.0, 4.881498163291207E-11];[-1.0, -1.0, -1.0]
[-1.0, -1.0, -1.0];[1.3519376472904633E-248, -1.0, -1.0];[-1.0, -1.0, -1.0]
[0.0266753771696565, 0.1612408955568082, 0.5028157992101769];[-1.0, 0.052747797136596976, 0.055721464705045534];[0.03474812216724523, -1.0, 0.005666086808028337]
[0.7204172364214816, 0.019860046500370356, 0.06546782593874055];[-1.0, -1.0, 0.009147734688511556];[0.027244920734661265, 0.035520050849729326, -1.0]
[-1.0, 0.02443701277732484, 0.9999364519693309];[-1.0, -1.0, 0.011608863132358017];[0.00793626103207913, -1.0, -1.0]
[-1.0, 0.027174530789355333, 0.012039087283677375];[3.4261474891856826E-4, 0.9145182441196456, -1.0];[0.04946623886165985, -1.0, -1.0]
[0.3558934214493207, 0.029276366574897725, 0.044440806967172564];[0.022872634838898554, 0.17730092315632842, -1.0];[0.31404056241734823, -1.0, 0.017034865992788275]
[-1.0, 0.5951765932948994, 0.001016700470712806];[0.05217606053681689, -1.0, -1.0];[0.9141407889250046, -1.0, 0.018924900497692465]
[-1.0, -1.0, -1.0];[-1.0, -1.0, -1.0];[1.0, -1.0, -1.0]
[0.0022114181077979244, 0.042648747614119575, -1.0];[-1.0, 0.5128896260326996, -0.2693103380105799];[0.0394936286777918, 0.03789001495200002, -1.0]
[0.9999998409468166, 0.002352675618302707, -1.0];[-1.0, -1.0, -1.0];[0.41749427702838776, -1.0, -1.0]
[-1.0, 3.544920459752457E-22, -1.0];[-1.0, -1.0, -1.0];[-1.0, -1.0, -1.0]
[0.03427746263732286, 0.02209584166915756, 0.011919873871825692];[0.1876564923549438, -1.0, 0.004659490158629809];[0.041336517383217176, 0.017296456214849543, 0.011330723022777267]
[0.910819840940429, 0.03563864267966034, 0.5794255376486833];[0.0689656728858495, -1.0, 0.0581409858073635];[0.42172785262692325, -1.0, 0.06993150316399176]
[-1.0, -1.0, -0.9972786085828165];[-1.0, -1.0, -1.0];[0.420000066961566, -1.0, -0.9994896986962065]
[-1.0, -1.0, -1.0];[-1.0, -1.0, -1.0];[0.9999373966371455, -1.0, -1.0]
[0.03704957731682628, -1.0, 0.00909107656443828];[-1.0, 0.038419295237843765, -1.0];[0.5934596244639703, 0.004343117708797618, -1.0]
[0.025657206924191166, -1.0, -1.0];[0.02708788348565432, 0.03412447356260337, -1.0];[0.9923400370979266, -1.0, 0.0056168823936674]
[0.9999999999999999, -1.0, -1.0];[-1.0, -1.0, -1.0];[-1.0, -1.0, -1.0]
[0.05472914792815643, -0.5400201551699092, -1.0];[-1.0, 0.03895561420735871, 0.563676242678368];[0.062199625779841165, -1.0, 0.09137142014319238]
[0.026361059645102804, 0.02584330617823898, -1.0];[0.0024722267981869385, 0.9993032606674039, 0.008926632043592132];[0.01425294714216533, -1.0, 0.023421823740541893]
[0.0029497656773596727, 0.01779082835055076, -1.0];[-1.0, 0.043260259990355016, 0.427755216664412];[0.997741408292809, 0.03725793570097188, 0.04253928325229788]
[0.07546476583480694, 0.06516838367999804, 0.036371519348405816];[0.04204993474570345, 0.0026400379910469286, 0.07688209896475702];[0.997780618123341, 0.01834601839539717, 0.05292703442378657]
[1.0390488682254082E-4, 9.571275654074405E-5, -1.0];[4.4769537781717844E-5, -1.0, 9.577017614960273E-5];[1.3266773127033356E-4, 1.203895011716425E-4, 1.1986469395806404E-4]
[-0.6756304876413215, 0.4230642654029211, -1.0];[0.0022953715268064115, 0.010415267447701472, 0.9921522335526818];[-1.0, -1.0, -1.0]
[0.7005013200099913, 0.05052667894454637, 0.007026017620208114];[0.42839229747370555, 0.9997957430966743, -1.0];[-1.0, -1.0, -1.0]
[-1.0, -1.0, -1.0];[-1.0, 0.599999217095613, 0.3962196723291371];[0.027385318794722613, 0.008745295783594478, 0.5438033115776508]
[-1.0, 0.019362663387310186, -1.0];[-1.0, 0.024393611664225958, -1.0];[-1.0, 0.006429913636987644, 0.9999982744251844]
[0.05627958988986751, 0.007127466585412046, -1.0];[-1.0, 0.1359708351181182, -1.0];[0.004610561782501732, 0.20799381328596744, 0.9999811083326342]
[0.003343645110948053, 0.009205866570613298, -1.0];[-1.0, 0.0029001043221453028, -1.0];[0.3959570466796889, -1.0, 0.999999986236743]
[0.03995656145882307, -1.0, -1.0];[0.03838183219457562, 0.04351576371571976, -0.6837271901065822];[0.0026088777990398108, -1.0, 0.2648914832898262]
[-1.0, -1.0, -1.0];[-1.0, -0.6952273455980688, -0.6972047624161024];[-1.0, 0.0022264882878424877, 0.00860041525620323]
[-1.0, -1.0, -1.0];[-1.0, -1.0, -1.0];[-1.0, -1.0, 0.9999941516044559]
[0.03556775723692131, 0.010951404711299807, -1.0];[0.00724199382062587, 0.5998417124333044, -1.0];[0.018585763114684517, 0.03392795242521998, 0.04210572777712053]
[0.049373849265877616, 0.022762511904389583, 0.011858543195803196];[0.05666031804887726, 0.918042340070756, 0.002466836838938991];[0.03494828974466827, 0.08882934189679467, 0.08533419948240517]
[-0.9968283842162866, -1.0, -1.0];[-0.9909514827289576, -1.0, -0.9845960288550067];[-1.0, 3.1049928543384415E-5, -0.9999981703639006]
[0.011139175884325059, -1.0, -1.0];[0.02766081201801586, -1.0, -1.0];[-1.0, 0.5999999998852703, -0.6355278459755827]
[1.0, -1.0, -1.0];[-1.0, -1.0, -1.0];[-1.0, -1.0, -1.0]
[0.06356090174812175, 0.002589468473559742, -1.0];[0.32531721040622863, 0.07950794729296905, 0.026558271167619274];[0.025045402779971627, 0.03425569702675069, 0.049503308847157215]
[-1.0, -1.0, -1.0];[0.06188340415736491, -1.0, 0.5999880632312758];[0.04605416214422747, 0.048219643980912816, 0.04032056588824015]
[-1.0, 0.05975228980613363, -1.0];[0.4371644122928279, -1.0, 0.5864141221585455];[0.9999999987508197, -1.0, -1.0]
[-1.0, -1.0, -1.0];[-1.0, -1.0, 1.0];[-1.0, -1.0, -1.0]
[0.01630292700792091, -0.6779995239612905, -1.0];[0.42451341719220737, -0.6746415688570211, -1.0];[0.038527312208267696, 4.832749474386389E-4, 0.9731191589193925]
[-1.0, 0.00374783680718378, -1.0];[0.05263648492741468, 0.06582114312598304, 3.9813699729207563E-4];[0.05094869024402218, 0.04717421968400155, 0.9993279937442001]
[-1.0, -1.0, -1.0];[-1.0, -1.0, -1.0];[-1.0, -1.0, 0.9999999999970123]
[4.268524642583671E-7, -1.0, -1.0];[0.12600008302621946, 1.3576923225326559E-6, -1.0];[-1.0, -1.0, -1.0]
[-1.0, -1.0, -1.0];[-1.0, 0.9999999549471951, -1.0];[-1.0, -1.0, -1.0]
[-1.0, -1.0, -1.0];[0.010978287107677268, 0.42978594251210495, 0.4584637861076041];[-1.0, 0.013701557582368965, 0.5999731378613601]
[-1.0, -1.0, -1.0];[1.856406106701662E-8, 4.759204652841297E-8, 3.380353573297325E-8];[-1.0, -1.0, -1.0]
[-1.0, -1.0, -1.0];[-1.0, -1.0, 0.0];[-1.0, -1.0, -1.0]
[-0.679255331776184, 0.01550930353341521, 0.037833189998321554];[-0.6038333948809289, 0.04163339154451933, 0.9999998476795348];[-0.602880244515581, 0.03675514827034931, 0.02965551305661516]
[0.038990360257890655, 0.04136636020098233, 0.0840092220349325];[0.07726410460515726, -1.0, 0.9113897773266367];[-0.6707978488067914, -1.0, 0.09211053032860786]
[-1.0, -1.0, 0.017469256709769888];[0.038736385276127334, 0.007967976430556944, 0.02538215503514879];[0.4332748034102147, 0.02781122350325356, 0.5952352520657677]
[-1.0, -1.0, 0.031205254185580445];[0.20860883521846385, -1.0, -0.9035917549860768];[0.9993193443794005, 0.05259563955148871, -1.0]
[-1.0, -1.0, -1.0];[-1.0, -1.0, -1.0];[0.9999999998952934, -1.0, -1.0]
[0.016770163630860303, -1.0, 0.9993365569760861];[0.00920622862458994, -0.6877912414449422, 0.07223897301355008];[-1.0, 0.05010930541878807, -1.0]
[0.2822681471976522, -1.0, 0.42003589211027376];[-0.11205904338767525, -1.0, -1.0];[0.5241703470089439, -1.0, 0.6]
[0.4351294599941079, 0.037623431153841695, 0.01631048489699325];[0.0774429649934096, 0.022536794029333687, 0.03559302644538124];[0.018736747163972202, -1.0, 0.9999398354942454]
[-1.0, 0.0017454036586777356, -1.0];[0.9735939489700641, -1.0, -1.0];[-1.0, -1.0, -0.6823472367195554]
[0.6, -0.999122888800716, -1.0];[-0.6548816181370037, -1.0, -0.9975157922775779];[-1.0, -9.232065974197345E-4, -1.0]
[4.3933483452600026E-12, -1.0, -1.0];[-0.997278379466015, -1.0, -0.9999999955704221];[-1.0, -1.0, -1.0]
[0.01641807683071441, -1.0, 0.5896078178124602];[-1.0, 0.05130728286710491, 0.03283280100687776];[-1.0, -1.0, 0.04807797994421349]
[0.03559450329681933, 0.01929098649509465, 0.0350049321978119];[0.026557222693994964, 0.7182135418290893, 0.05875291814032971];[0.01907976379091332, 0.05911072318543744, 0.024256749659939014]
[-0.680125362139732, -0.9071512299091888, -1.0];[-1.0, 0.9923712511441151, 0.043784219734137264];[-1.0, 0.04334187054982082, 0.02932015175770565]
[-1.0, -1.0, -1.0];[-1.0, 0.9732428455139305, -1.0];[-1.0, -1.0, -1.0]
[6.672551147151465E-5, 5.923301710312662E-5, -1.0];[-0.4977465708017912, -1.0, -1.0];[-1.0, 4.692274623667476E-5, 9.207721627399611E-5]
[0.9999998466690608, 8.8261275713033E-4, -1.0];[0.0429305159363269, 0.007872470185894065, -1.0];[-1.0, 0.5130939325608314, 0.01890003003866261]
[0.2088344498454379, -1.0, 0.050050145898696136];[0.2951007702802116, 0.38158532547235835, -1.0];[0.15334344971224406, 0.004421367652479793, 0.016588260422176683]
[-1.0, -1.0, -0.9892528497243023];[-0.9709494821013478, -0.972497388898197, -1.0];[-1.0, -1.0, -1.0]
[-0.6836206375044641, -0.9052386468256706, -1.0];[-1.0, -1.0, -1.0];[-0.5921483276844496, -0.6255119063214623, -0.9716165242535558]
[-1.0, -1.0, -1.0];[-1.0, -1.0, -1.0];[-0.9915618459475329, -0.9974247921762854, -0.9916502979089179]
[-0.9999540729176845, -1.0, -1.0];[-1.0, -1.0, -1.0];[2.7576288469808026E-5, -0.8901368821398195, -1.0]
[0.05322623773325655, 0.0334213933127939, -1.0];[0.9753949236289803, -1.0, 0.03607630893633951];[0.02538133125801595, 0.03324859611890942, -1.0]
[0.027427679874751303, 0.018197597158571825, -1.0];[0.03802705429229471, 0.023733975697007127, -1.0];[0.039390941286078174, -1.0, -1.0]
[-0.6779785133398417, 0.047409941479487655, -1.0];[0.033951028220499134, 0.5983398499791573, 0.012728158629140274];[-1.0, 0.0078418641516541, -1.0]
[-1.0, -1.0, -1.0];[1.0, -1.0, -1.0];[-1.0, -1.0, -1.0]
[-1.0, -1.0, -1.0];[-0.9999999999999972, -1.0, -1.0];[2.0088506642977195E-8, -0.9999999850377221, -1.0]
[-1.0, -1.0, -1.0];[-1.0, -1.0, -1.0];[1.3160660967653804E-36, -1.0, -1.0]
[0.0026075594293340915, 0.006512287038205323, -0.13496310687265262];[-1.0, 0.008496804262801444, -1.0];[0.033859565004434995, 0.01206601531278072, -1.0]
[0.013857178262370547, -1.0, 0.5995822179446801];[-1.0, 0.02425864051966524, 0.0243070491394906];[-1.0, 0.016538531464877115, -1.0]
[-1.0, -1.0, -1.0];[-1.0, 1.2388136527662656E-27, -1.0];[-1.0, -1.0, -1.0]
[-0.6592843363519637, -1.0, -1.0];[-0.6060094111122987, 0.5999958938883053, -1.0];[-1.0, -0.670494647275254, -0.5666744230530111]
[-1.0, -1.0, -1.0];[-0.9918755712561791, -0.9972116736684534, -1.0];[-1.0, -0.9909036718107161, -1.0]
[0.11999989926417376, -0.999993808473075, -1.0];[-1.0, -1.0, -1.0];[-0.9999980158146277, -1.0, -1.0]
[-1.0, 0.019034577486076433, 0.012941974753483876];[-1.0, 0.06116449264521733, -1.0];[0.35215182703643094, -1.0, 0.05248337661537865]
[0.03607774872073113, 0.9924504663947462, -1.0];[0.08277886272437576, 0.0027487279737912654, 0.005496169684582053];[0.3283203157790098, -1.0, 0.04911695759612043]
[0.06136538173258084, 0.0668959267774987, 0.0014089546430290257];[0.070284055647168, 0.9999405889143462, 0.01136168259080529];[-1.0, 0.06160308674910407, 0.08291334542396211]
[0.08393718816564401, -1.0, -1.0];[-1.0, 0.9730307149588074, -1.0];[-1.0, 0.05108529605510567, 0.09808487628143847]
[2.2623115220609865E-86, -1.0, -1.0];[-1.0, -1.0, -1.0];[-1.0, -1.0, -1.0]
[0.5885871049699696, -1.0, 0.03818121587420458];[0.1786872788420238, 0.02117793933457731, 0.011114400047058704];[-1.0, -1.0, 0.011763272477114433]
[0.5917929473071271, -1.0, 0.7066683756134367];[0.008388288754685414, -1.0, -1.0];[-1.0, -1.0, 0.425687337818314]
[-1.0, -1.0, -1.0];[-1.0, -1.0, -1.0];[-1.0, -1.0, 0.9999999869946268]
[0.417905111021801, 0.19221089357095517, 0.056651733908352334];[0.5287694740124661, -1.0, 0.12529830115944476];[-1.0, 0.9999999857014971, -1.0]
[-1.0, -0.9915728076269852, -0.9078710843038442];[0.015927061477425477, -1.0, -1.0];[-1.0, -0.9026245183310962, 0.5999965227884009]
[-1.0, -1.0, -0.9989385759999998];[-0.7899999998768575, -1.0, -1.0];[-1.0, -1.0, 2.334805471536846E-18]
[-1.0, -1.0, -1.0];[-1.0, -1.0, -1.0];[-1.0, -1.0, 1.5337706169235706E-65]
[-1.0, -1.0, -1.0];[0.14878997042097739, 0.9735672498188339, 0.5804845956358268];[-1.0, 0.043418035694848256, 0.3088908468855205]
[-1.0, -1.0, -1.0];[-0.6748943494014169, -1.0, 0.9999999996341828];[-1.0, 0.9740781443968684, -1.0]
[-1.0, 0.03015326942523904, 0.012112405156258055];[-0.6836579415592264, 0.9999998483607653, 0.023534417278303812];[0.024708295851646314, 0.011270605246023802, 0.043957017751755534]
[-1.0, -1.0, -1.0];[0.013254880047978847, 0.9999999999990994, -0.9974234531009352];[-1.0, -1.0, -1.0]
[-1.0, -1.0, 0.563549656759133];[-0.6793400856988812, 0.025539180482684765, -1.0];[-1.0, 0.05065616904456412, 0.060613468802953374]
[-1.0, 0.07295000239548775, -0.6772864319009718];[-0.6767195292053643, -1.0, -1.0];[-1.0, 0.0668330854121189, 0.9999983907707426]
[-1.0, 0.057883822623042716, 0.5847552080112004];[-1.0, 0.02844135261085362, 0.05277406314372042];[-1.0, 0.048640773750621924, -1.0]
[-1.0, -1.0, 0.9732337011557879];[0.002868983639128753, -0.6773750755581763, -1.0];[-1.0, -0.6745404498970473, -1.0]
[-1.0, -1.0, 0.9999390394912847];[-0.683884909058004, -1.0, 0.02038056993449613];[-1.0, 0.7010201685461408, 0.06938495794581505]
[0.9999821660055558, 0.021464704954046912, 0.007937559581502385];[0.017081292554026174, 0.04045496208265312, 0.068196356413502];[0.08638606712666598, 0.04971016099662573, 0.014492743125724595]
[-1.0, 0.012575731689184133, 0.545914852783397];[0.023939676329008855, -0.6723489022563873, -1.0];[-1.0, 0.20438180742948842, -1.0]
[-1.0, -0.6776573999412627, -0.8716373444618506];[1.0, -1.0, -1.0];[-1.0, -1.0, -1.0]
[-1.0, -1.0, -1.0];[1.0, -1.0, -0.9917035702746031];[-1.0, 2.0095429169076018E-4, -1.0]
[-1.0, -1.0, -1.0];[0.9999999999999998, -1.0, -1.0];[-1.0, -1.0, -1.0]
[0.01685313221434458, 0.036788267534051455, 0.03775452703715976];[0.002737335035168398, 0.5975831655295998, -1.0];[-1.0, -1.0, 0.4173117181514675]
[-1.0, 0.127219576938794, 0.9999999999999198];[-1.0, -1.0, -1.0];[-1.0, -1.0, 0.008492966096529875]
[0.9977313835474786, -1.0, 0.047855781289698446];[0.004878809267257478, 0.014364471759166797, 0.005101987988973389];[0.020131640900816518, 0.05790679015620423, 0.4236979545412134]
[0.007329394461783001, 0.05311775073381956, 0.06769700706202786];[-1.0, 0.02838736544743217, 0.03237656905905311];[0.0780935675170435, 0.07878032977211122, 0.9993299338320506]
[0.024165815292463144, 0.031605537129181856, 0.054574938943862145];[0.049639178641505244, 0.9747229378848644, 0.005724609334117648];[0.016737156343156322, 0.04404391202370797, -1.0]
[-1.0, -1.0, -1.0];[-1.0, 0.9735222464034832, -1.0];[-1.0, -1.0, -1.0]
[-0.9999999952780678, -0.5999253487120104, -1.0];[0.02268074400295505, -1.0, -1.0];[-1.0, -0.9972785623332403, -0.9999790242343547]
[0.9999983248657798, -1.0, -1.0];[0.04901651096412832, -1.0, 0.041432917977947216];[0.016109424645590655, -1.0, 6.463669890500734E-5]
[0.03096918348241978, -1.0, 0.04419114013633866];[0.5857359988339466, 0.043538539315394045, 0.002986649319502788];[-1.0, -0.3762457922503249, -1.0]
[0.9999999959501342, 0.06342664532816504, 0.7243224676600102];[-1.0, 0.038545729998737746, -1.0];[-1.0, 0.023552586149425427, -1.0]
[0.597593559698801, 0.025218916662861048, 1.9572847219421208E-4];[-0.5811737554954419, -1.0, -0.6853101086292382];[-1.0, -0.6818988835157278, -0.6677287509658978]
[0.014683458549605588, 0.043815936718823126, -1.0];[-1.0, -1.0, 0.9999813221119943];[0.007349585812451764, 0.04104936605989458, -1.0]
[-1.0, 0.01697817264633347, 0.5926412426019629];[0.05484714673553637, -1.0, 0.011434836359507525];[0.04860156181373757, -1.0, -1.0]
[-1.0, 0.0011614701823582734, 0.9999999523889199];[0.0019489394023500346, -1.0, -1.0];[-1.0, -1.0, -1.0]
[0.09347862755529313, -1.0, 0.9999999961081207];[-1.0, 0.07874700081466901, 0.06481466187774046];[-1.0, -1.0, 0.03755299586164738]
[-1.0, -1.0, 1.3207625044227387E-11];[-1.0, 4.14179513160467E-12, -1.0];[4.166309735958027E-12, -1.0, -1.0]
[-1.0, -1.0, 0.0];[-1.0, -1.0, -1.0];[-1.0, -1.0, -1.0]
[-0.6931644823422132, -0.68411158017731, 0.017424129897733287];[0.04210059431217651, -1.0, 0.9997919218165622];[-0.5682118856026407, 0.04420748948485338, 0.024166845014553996]
[-0.9024752108913325, -1.0, 0.013425801284889528];[0.03766347527909689, -1.0, 0.9999998542736106];[-1.0, 0.042406320241302344, -1.0]
[-1.0, -1.0, -1.0];[-1.0, -1.0, 1.0];[-0.9031170212844563, -0.970403609226356, -1.0]
[-0.6966305535268267, -1.0, -1.0];[0.01533192437741182, -1.0, 0.4297605576489325];[0.9999999554380898, -1.0, -1.0]
[-1.0, -1.0, -1.0];[-1.0, -1.0, -1.0];[0.9999941785817795, -1.0, -1.0]
[-1.0, 0.39024390392345165, -1.0];[0.013071223065716377, 0.5996599613284374, 0.032680701118985];[0.41577477030306226, -1.0, -1.0]
[-1.0, 0.42021632003921916, -1.0];[2.017324593571291E-4, -1.0, -1.0];[0.9999804116932335, -1.0, -1.0]
[-1.0, -1.0, -1.0];[-1.0, -1.0, -1.0];[0.9999999999674857, 0.052678894909346054, -1.0]
[0.029463395131018855, 0.08663362734101569, -1.0];[0.03465738985688882, 0.0018487912574030264, 0.9926566800008105];[0.07065059986230945, 0.07176424597693587, 0.05254483187100661]
[-1.0, -1.0, 0.5836477077559562];[-0.7517727239393331, -1.0, -0.5797810137081237];[-0.6927240688321392, -0.6728382423670229, -1.0]
[0.017922274708028686, -0.9064007176024791, -1.0];[0.037656665501479114, -1.0, 0.9999998477498308];[-1.0, -1.0, 0.027348159725239754]
[-1.0, -1.0, -1.0];[5.450256149325759E-39, -1.0, -1.0];[-1.0, -1.0, -1.0]
[0.05814998219285921, 0.03229766111262507, 0.9750509959002751];[0.00783119163606305, 0.06147435744526691, 0.012091792002246783];[0.035204613644627285, 0.0055016809428068865, 0.04377557680667417]
[-1.0, -0.9034863357075212, -1.0];[-0.9060170048583748, -1.0, -0.6935468666314298];[0.5997393359879166, 0.022255697245780172, -1.0]
[-1.0, -0.6042906606509104, -1.0];[0.025302991728333682, -1.0, -0.690463582052153];[0.9103991376327958, -1.0, 0.021692465648682758]
[-1.0, -0.11104203402360963, 0.2635032029512469];[-0.09271431393136975, 0.19534405003327404, 0.09569358847926292];[0.36040824241061575, -1.0, 0.007378467598593343]
[-1.0, 0.05307042388708374, -1.0];[0.03800450676341347, 0.5479910754852294, -1.0];[0.012492139961266448, 0.022651471011758295, 0.03957453145857302]
[0.02892078441808217, 0.9999999562104436, -1.0];[0.5943579407605304, 0.040150729391374124, 0.0022379282333636064];[0.7117701200271573, -1.0, -1.0]
[-1.0, 0.9999999996239823, -1.0];[-0.9725422551528277, -1.0, -0.6894895035901589];[-0.5798752461804104, -1.0, -0.6892146249312772]
[-1.0, 1.0, -1.0];[-0.9058558866289337, -1.0, -0.999254947563305];[-1.0, -1.0, -1.0]
[0.04166000701640674, 0.026868958142869895, -1.0];[0.03545465439006046, 0.054280859953942266, 0.04362498766763341];[0.9997962809701314, 0.04266060553494301, 0.05236919531518256]
[-1.0, -0.9055305709874205, -1.0];[-1.0, 0.9992758309431188, -0.6983337731534515];[-1.0, -1.0, -1.0]
[0.2560081129641968, -0.24714168331575853, 0.309204978913238];[0.11143855378007417, 0.36646525376636724, -1.0];[0.0308128560479687, -1.0, 0.333821743932997]
[0.059252553968226124, -0.6786729062781646, 0.012462961587410748];[0.01642296845164013, -0.6056025304132979, -1.0];[-0.8714089737118418, -1.0, 0.5510299008657286]
[-1.0, -1.0, -1.0];[0.044720046878697114, 0.992447972767877, -1.0];[0.00794385685095258, 0.04226810950354407, -1.0]
[-1.0, -1.0, -1.0];[-1.0, 0.9976773822064906, -1.0];[-1.0, -1.0, -1.0]
[4.595225971866196E-6, -0.2365183141791405, 3.2666622112044275E-5];[-0.3552443096904119, 0.0037808185616312147, 5.706480138274725E-5];[-0.28899144601111587, -1.0, -1.0]
[0.03620037798641965, -0.2867558201018217, -1.0];[0.03987692455080558, 0.5996186863754193, -1.0];[0.020830591128300636, -1.0, -1.0]
[-1.0, -1.0, -1.0];[0.5998597316081946, 0.019674375806216338, -1.0];[0.011840166230196906, -1.0, -1.0]
[-1.0, -1.0, -1.0];[1.0, -1.0, -1.0];[-1.0, -1.0, -1.0]
[0.05238874517525152, 0.08455522032581035, 0.027264130150194316];[0.04446736951665114, 0.7275573825273041, 0.028649786577779238];[0.034028402636995504, 0.08698147966620762, 0.05129142591973121]
[0.0071951601680290585, 0.5979556445800239, 0.017549947500193685];[-1.0, 0.02829561805452904, 0.022657796524049575];[0.024507271633300076, -1.0, 0.02002415538127177]
[-1.0, -1.0, -1.0];[-1.0, 2.2371263670933574E-7, 1.0019025302855739E-7];[1.7553483239865096E-7, -1.0, -1.0]
[-1.0, -1.0, -1.0];[-1.0, 0.9999998506544914, -1.0];[-1.0, -1.0, 0.0038284322074179757]
[0.003093717998566646, 0.022157785480935523, 0.008776371117790352];[0.5999993100736627, -1.0, 0.429000252039561];[-1.0, -1.0, -1.0]
[-1.0, -1.0, 9.368928226107936E-18];[7.298942494450542E-8, -1.0, 2.2923176094021078E-7];[-1.0, -1.0, -1.0]
[-1.0, -1.0, -1.0];[8.203467520998447E-56, -1.0, -1.0];[-1.0, -1.0, -1.0]
[0.012294027321975787, -1.0, 0.06276731003739452];[0.052667823854673605, 0.9977305532617702, -0.6933876598513276];[0.028239074779500075, 0.026087981657964377, 0.03717092191902455]
[0.02003097873812311, 0.013776317849070597, -1.0];[-1.0, 0.9999813925579468, -0.698826105743956];[-0.9026926435978753, -1.0, 0.01920208334546554]
[0.4250784398578444, 0.9999998473432176, -1.0];[0.025523931951504722, 0.039850981601391125, -1.0];[-1.0, 0.025651950557362482, -1.0]
[-1.0, -0.9696946156297724, -1.0];[3.273098889666125E-5, -0.9975009528448264, -0.5021860150351599];[-1.0, -1.0, -0.5603044167288249]
[-1.0, 0.9999999998919568, -1.0];[0.007953215647454282, -1.0, -0.9070492451885238];[-1.0, -1.0, -1.0]
[-1.0, -1.0, -1.0];[1.0, -1.0, -1.0];[-1.0, -1.0, -1.0]
[-1.0, -0.6921660314096698, -1.0];[-0.972617935049648, -1.0, -0.6837485987877775];[0.05342207592214716, -1.0, 0.5999967358505269]
[-1.0, 0.02361475424986692, -1.0];[0.06570193831231581, -1.0, 0.035841909035812705];[0.9999944697011943, 0.0272969302593992, -1.0]
[-1.0, -1.0, -1.0];[2.180928578076204E-16, -1.0, -1.0];[-1.0, -1.0, -1.0]
[-1.0, 0.013809195400520426, -1.0];[-0.19175936151627127, 0.5999990831527866, -0.9913474103386076];[0.4007564984179333, 0.013843577773604766, -1.0]
[-1.0, -1.0, -1.0];[-0.671772217165965, 0.5999997041005132, -1.0];[0.21610945387632308, -1.0, -1.0]
[0.05629219085007096, -1.0, 0.009238411113659972];[0.047474461428229975, 0.27972457231311026, 0.99993594200123];[0.05834839577904347, 0.029123933554401862, -1.0]
[-1.0, -1.0, -1.0];[-0.9060519311485904, 0.9999983085901303, 0.034857802974149865];[-1.0, -1.0, -1.0]
[-1.0, -1.0, -1.0];[-1.0, 0.9999994979005667, -1.0];[-1.0, -1.0, -1.0]
[0.7089360449390194, 0.01606811416682623, -1.0];[0.08389488465058254, 0.02216685491376832, 0.992650846351302];[0.02397354270140887, -1.0, 0.055135021523892394]
[0.037598496647289564, 0.023063673237163684, 0.06958203448816615];[0.07713224564792931, 0.07862706686661433, 0.975214434375323];[0.05056089466672466, -0.6703900440969215, 0.048035799305306395]
[-1.0, 0.05794542147837292, -1.0];[0.2719755343919227, 0.0325976120860232, 0.06837264116278792];[0.9999999996472573, 0.06406848837364805, 0.041700400317481734]
[-1.0, 0.04295968214449532, 0.05798421793047];[0.013631334236511243, 0.999940797042719, 0.08179162267813794];[-1.0, 0.3174176743101311, 0.024358326191712146]
[0.09021200840197653, 0.013840802559828936, 0.019265868895409644];[0.599999672885981, 0.05638493067118908, 0.9997973825804013];[0.7125501192042755, 0.01981985530747257, 0.07552721480555852]
[0.524746677754321, -0.07625922609284536, -1.0];[0.00924984057769902, 0.12179761899999393, 0.027670306871000035];[-1.0, 0.029915366731022627, 0.259964878866584]
[-1.0, -1.0, -1.0];[1.5600433497536375E-4, -1.0, -1.0];[-1.0, 1.0, -0.9793984328578412]
[-1.0, -1.0, -1.0];[-1.0, -1.0, -1.0];[-1.0, 1.0, -1.0]
[0.3186643363146294, -0.6945165956278331, 0.028947707006737235];[0.032028461704137846, -1.0, -0.6840811868782444];[-1.0, -1.0, 0.5999321503920788]
[-1.0, -1.0, -1.0];[-0.9999861732946387, -1.0, -0.9999940712304262];[-1.0, -1.0, -0.9999987454089888]
[1.9148710710631254E-4, 2.9954498781804113E-4, -1.0];[-1.0, 6.077293015218442E-4, -1.0];[-1.0, 3.535449930739048E-4, 2.2351542567103214E-4]
[0.5999539526653059, 0.012258128501698572, -1.0];[-1.0, 0.027668503847761285, -1.0];[-1.0, -1.0, 0.005587798709695524]
[-1.0, -1.0, -1.0];[-1.0, 4.226282708041488E-30, -1.0];[-1.0, -1.0, -1.0]
[-0.6892294078265215, 0.012012663069629238, -1.0];[-1.0, -0.6806624900781537, -0.5985659488950579];[0.014528707522209517, -1.0, 0.5161255190790782]
[-0.6770587723633238, -1.0, 0.0026252065050695883];[-0.6754805973015019, 0.03894934381242287, -1.0];[0.040059776402702585, 0.9999817700127094, -1.0]
[-1.0, -1.0, -1.0];[-0.9993192052381289, 0.6, -0.9999991058388695];[-0.9964693492728136, -0.9996595486395039, -1.0]
[-1.0, 0.011203590232149497, 0.03541353511623265];[0.4687478899063483, 0.02506030508541898, 0.03990032686267453];[0.9999999958018326, 0.02598902661279108, 0.42476994581324734]
[-0.9642716159425002, -0.5223173569973805, -1.0];[-1.0, -0.9917134228322141, -0.9913784841864646];[-1.0, 4.286073652087647E-9, -1.0]
[-1.0, 0.03459456546079336, -1.0];[0.008582268324258124, 0.9977759855691695, -1.0];[0.0508142548835833, 0.06457635681433323, -1.0]
[0.2713024265152041, 0.3221124974417198, 0.06996623287373058];[-1.0, 0.010854659471897343, 0.03458626687283022];[0.5997610433837993, 0.03897365032589992, 0.01285532518059398]
[0.021949365388760113, 0.9737445587571695, 0.0406729983464211];[0.005401106192632666, 0.04365231513185154, 0.05294771932200409];[0.045392051610344375, 0.09298162521958706, 0.08051287062550194]
[-1.0, -0.684909376336071, -1.0];[-1.0, 0.5817528510389923, -0.6890678111080234];[-0.694501683449611, -0.9030217698517745, -1.0]
[0.015511096668583814, -1.0, -1.0];[-1.0, 0.07524297560759063, 0.5515118340978855];[0.08437429220012405, 0.08394706062859902, 0.9999999998936877]
[0.05389059617998585, -1.0, -1.0];[-1.0, 0.028321992164832707, 0.5999994000951914];[-1.0, -1.0, 0.028287514885207157]
[0.43261440265634105, 0.06110095817517202, 0.07470659220321836];[0.003256685313765484, 0.9993349874417705, 0.034364727164903915];[0.08684497096550114, 0.03878960714646055, -1.0]
[-1.0, -1.0, 0.9997900163313685];[0.01446170199458885, 0.7007235734337613, 0.03600938027774458];[-1.0, -1.0, -1.0]
[0.42585008330491525, 0.5364989852064443, -1.0];[0.23895569537332137, 0.06757394661048788, 0.01719044921875439];[0.9999995052657735, -1.0, 0.04913578490963333]
[-1.0, -0.607250068020066, -0.6931912767821365];[-0.9083941397413462, -1.0, -0.9066832423531954];[-1.0, -1.0, 1.0]
[0.03431161771442315, -1.0, 0.029469111738787346];[-0.9077516601265279, -1.0, -0.5719093533775079];[-1.0, 0.027209414858591574, 0.9999999857899271]
[-1.0, -1.0, -1.0];[-1.0, -1.0, -1.0];[-1.0, -1.0, 0.9999999999997258]
[0.026813791042327208, -0.8117984182835243, 0.06261534808111271];[0.017723904817087112, -1.0, 0.039598023465823376];[0.021985558561158105, -1.0, 0.5999686477691136]
[-1.0, 0.0466990402762171, -1.0];[-1.0, -1.0, -1.0];[-0.9724042953879971, -1.0, 0.9999998534215391]
[0.03757280880495402, 0.031228942622430922, 0.008029424949847607];[0.04750902447134281, -1.0, 0.01481409465541482];[0.5999657307098896, -1.0, 0.05725437968771169]
[0.06185698574133023, -1.0, 0.04077706543592796];[0.02079408490430197, -1.0, 0.03408445916492825];[-1.0, 9.057875823616168E-4, 0.9999386076264185]
[-1.0, -0.6874881028258876, 0.5999999241219464];[0.014477557997234259, -1.0, -1.0];[-1.0, -1.0, -0.6853141872218437]
[-1.0, -1.0, 0.12687158124840886];[-0.9992653085806926, -1.0, -1.0];[1.0, -1.0, -1.0]
[-1.0, -1.0, -0.5916043890821844];[-1.0, 4.427173735333793E-7, 0.17649689478704783];[1.5090977908223026E-5, -1.0, 0.005270337415971006]
[-1.0, 0.025471512219880612, -0.6880207900159987];[-1.0, 0.9999347170889775, 0.03760090491557461];[-1.0, 0.014983265901680354, 0.4205463463305897]
[-1.0, -1.0, 0.04678305952481718];[-1.0, 0.009176184135375033, -1.0];[-1.0, -1.0, 0.9999377555313517]
[-0.6763915729202893, -1.0, 0.43963683972703543];[-0.2949835531951027, -0.8609268057514815, -1.0];[0.04509960109804911, -0.6774498324131576, -1.0]
[0.9997998702925206, 0.023602187319490722, -1.0];[-0.6708909708131295, 0.08231129772888067, 0.04799865805748789];[0.04160564704817961, 0.006817893752490112, 0.08417026510940508]
[-1.0, -1.0, -1.0];[-1.0, -1.0, -0.6834141533430937];[1.0, -1.0, -0.9973438695821608]
[0.9999999999997243, 0.016610556159943612, 0.037073987790314254];[-0.9712789679327127, -1.0, -0.6941053976803111];[-1.0, -1.0, -1.0]
[0.03233838439000504, 0.050929396338015145, 0.5999710718254351];[0.021755501034864767, -1.0, 0.014083537229927168];[-0.6935211341194535, 0.008509848028947197, -1.0]
[0.0035810192704005986, 0.08661212080859734, -1.0];[-1.0, -1.0, -1.0];[0.9999999999971689, 0.7003085779873224, -1.0]
[-1.0, -1.0, -0.6941636034021098];[-0.906526196905646, 0.5999999742655711, -0.6854354096361368];[-1.0, -0.9018707205092047, -1.0]
[2.7793343424431284E-5, -1.0, 3.4692369176373946E-5];[8.590805524974299E-5, -1.0, 2.566122348007392E-6];[7.970905716252031E-5, -0.3061392252755726, 1.2543735063150923E-4]
[-1.0, 0.013567794389270816, -0.6793242403579667];[-1.0, 0.5999493511849958, -1.0];[-1.0, -0.9050114814732204, -1.0]
[-1.0, -1.0, -1.0];[-1.0, 0.9999999996429867, -1.0];[-1.0, -1.0, -1.0]
[-1.0, -1.0, -1.0];[-0.5729573131938062, -0.5999908670539448, -0.5995139347390868];[8.966101606260288E-6, -1.0, 1.3243399245698528E-5]
[-1.0, -1.0, -1.0];[0.04408504865012385, -0.6739627743396173, 0.05671676124719265];[0.7128243124777544, 0.055006896782037344, 0.5999999889162214]
[0.33451568544108545, -1.0, 0.017606906355518048];[-1.0, -1.0, 0.011650689552995891];[0.00991010699554987, 0.9999999999999993, 0.31049231157657187]
[0.01246129739430939, -1.0, 0.04315115004885443];[-1.0, 0.07393565945107737, 0.07989193266231355];[0.42260929991909213, 0.04635890072087791, 0.9999819453835983]
[0.08024670585443332, -1.0, -0.6721812428987786];[0.020595893584603675, 0.992600710428817, 0.03822735265591176];[8.931574115184082E-4, 0.07837013962864098, 0.003077004905736769]
[0.05998023741334879, 0.024257975505964473, 0.9999386393094332];[-0.6847043655942151, -1.0, -1.0];[0.036870520516958674, 0.011115951181276075, -1.0]
[-0.9714597579025984, -0.9916038577134881, 0.9999999959320275];[-1.0, -1.0, -1.0];[-1.0, -1.0, -1.0]
[-0.9023261286925666, 0.04479337165504985, -1.0];[-0.6920815369409565, 0.5990439797869082, -1.0];[0.026886265317608328, 0.05484969457830775, -1.0]
[-0.6336804170259311, -1.0, -1.0];[-0.9992395006676159, -0.6749116535084644, -1.0];[-1.0, -1.0, -1.0]
[-1.0, -0.9999326358050897, -1.0];[-1.0, -1.0, -1.0];[0.003402000162716693, -1.0, -0.999182972359445]
[-1.0, 0.0, -1.0];[-1.0, -1.0, -1.0];[-1.0, -1.0, -1.0]
[-0.5618158849135508, -0.6899658254462964, -0.9955480501567965];[-1.0, -1.0, -1.0];[-0.971843142017818, -0.7501885777644488, -1.0]
[-0.9070895735135271, -1.0, -1.0];[-1.0, -1.0, -1.0];[-0.9095053687896035, -0.9713290055230832, -1.0]
[-0.5762854486695924, -1.0, -0.5750939428658313];[-1.0, -1.0, -1.0];[-0.6927766715333888, -0.5858942435121645, -0.9610825051124889]
[-1.0, -1.0, -0.9997640311467343];[-1.0, -1.0, -1.0];[-1.0, -0.9992641060855422, -0.9997613710298138]
[-0.6855628278818665, -0.6943160068209019, -1.0];[-0.6743663688737336, -1.0, -1.0];[-1.0, -1.0, -1.0]
[8.037919253179538E-4, -0.6830753383653174, -0.6708061835694277];[0.024694631123353985, 0.007598447257828322, 0.031746046993931756];[0.4795238090929378, 0.010060148657724744, -1.0]
[0.048846106516156264, 0.04579862780871582, 0.9923751013482698];[-1.0, 0.011295900571685946, 0.05555296079475045];[0.007674120370999693, 0.03839559714653336, 0.01706435524703395]
[-1.0, -1.0, -1.0];[-1.0, -1.0, -1.0];[1.8425720925341193E-15, -1.0, -1.0]
[-1.0, -1.0, -0.7573919377790785];[-0.5618632393496603, -0.9069416616282017, -1.0];[-1.0, -0.9882247493374012, -0.48992460593994713]
[-1.0, -1.0, 0.9999999999999999];[-0.991789265327452, -1.0, -1.0];[-1.0, -0.9916540523513389, -1.0]
[0.005055205708565169, -1.0, -1.0];[0.025523942001104485, 0.01189354110449663, -1.0];[0.9976612473253207, -1.0, -1.0]
[-1.0, -1.0, -1.0];[-1.0, -1.0, -1.0];[0.9999999999999749, -1.0, -1.0]
[0.007641359616102673, 0.04796786545884958, -1.0];[-1.0, 0.034320578429653636, -1.0];[0.9999396101031727, -1.0, 0.04905863650364724]
[2.547138731475413E-6, -1.0, -1.0];[-1.0, 0.0034020200438476915, 4.4189019386182644E-7];[-1.0, -1.0, -1.0]
[0.9999999959488881, -1.0, -1.0];[-1.0, -1.0, -1.0];[-1.0, -1.0, -1.0]
[0.999999995926163, 0.003368397061640427, -1.0];[0.03542994422441165, 0.03442493373681056, 0.43207581799947936];[0.04031844582860558, -1.0, -0.6810786241040037]
[-0.17669233761158892, -1.0, -0.2157739871245329];[-0.9069336987966895, -0.904636344747458, -1.0];[0.3599786714821313, -1.0, -1.0]
[-1.0, 0.0010964422075371405, -0.9912691837710157];[-1.0, 0.9999942324478949, -1.0];[0.003955237146409241, -1.0, -1.0]
[3.0641678328476127E-4, -1.0, -0.8991779555095131];[-0.9997035986092293, -1.0, -1.0];[-0.7020066257363539, -0.2994896484507906, -1.0]
[0.019314232580053915, -1.0, -1.0];[-0.6766959553160591, 0.9145417645366432, -1.0];[-1.0, -1.0, -1.0]
[-1.0, -1.0, -1.0];[-0.3621372285465697, -0.674012526781148, -0.3987339159917048];[-0.676656596792375, -0.69344220845164, -1.0]
[-1.0, -1.0, -1.0];[0.0073882694352164, -0.6895231210138378, -1.0];[0.0034348689303331913, -1.0, -1.0]
[-1.0, -1.0, -1.0];[-1.0, -1.0, -1.0];[5.387519397509646E-85, -1.0, -1.0]
[-1.0, -1.0, 1.0];[0.39717281751367983, -1.0, 0.4415332734004414];[0.42210173468459805, -0.41661305294962453, -1.0]
[-1.0, 0.021673304084854007, 0.9999995181359329];[0.08792868549128673, 0.03802025421696961, 8.733549439250088E-4];[0.05494627196284534, -0.6848892809823662, 0.05603935566437094]
[-1.0, 0.003787703581729485, 0.9999392884384395];[-1.0, 0.07344130032584138, 0.0268725134028194];[-1.0, -1.0, -1.0]
[-1.0, -1.0, 0.004798085114428774];[-0.6732342850019498, 0.00544709505256007, -1.0];[-0.5369517942730173, -0.6820986163605877, -1.0]
[-1.0, -1.0, -1.0];[-1.0, -1.0, -0.9943298874923862];[-1.0, -1.0, 6.697622117032081E-8]
[-1.0, -1.0, -1.0];[-1.0, -1.0, -0.9056165762924911];[-0.9076342619572102, -0.9028752837425686, -1.0]
[0.05611859214065504, 0.05508261334536775, 0.9919866133307643];[0.056179293184516844, 0.0068209680630291316, 0.008111391442955963];[0.07724834885442419, -1.0, 0.025505277791679538]
[-0.683917835932735, -1.0, -1.0];[-0.6796422536892428, 0.9742437517911637, -1.0];[0.03597253488822487, -1.0, 0.5490519208067868]
[-0.6945702774665969, -1.0, -1.0];[-1.0, 0.9977478472221738, -1.0];[-1.0, 0.0011643596848188943, 0.7171760609238746]
[-1.0, 0.008649400645584537, 0.018254179189127594];[-1.0, -1.0, -1.0];[0.9741220613981766, 1.0, -0.970962076453388]
[-1.0, 7.681928876225287E-4, 6.918658708498701E-4];[-1.0, 0.0021819536067793164, -1.0];[0.0021954177866073286, 0.0015001152534695316, -1.0]
[-1.0, -1.0, 0.016058868268906124];[0.019600801168281137, 0.047770480516154123, -1.0];[0.05140730185033831, 0.5997313167155328, -1.0]
[-1.0, -1.0, 0.9999995059877749];[-1.0, -1.0, -1.0];[-1.0, -1.0, -1.0]
[0.43678645809343575, 0.0605910360986096, -1.0];[-1.0, 0.06721488136242718, -1.0];[0.05512813863239949, -1.0, 0.9999393814915374]
[-1.0, -1.0, -1.0];[-1.0, 0.057499686231389145, 0.0606440573221123];[-0.9027451405253836, -1.0, 0.9925113081258068]
[0.055970467436630505, 0.9923759889968893, -1.0];[0.05575245709733021, 0.04330910592197765, -1.0];[0.048783146811433295, -1.0, -1.0]
[-1.0, 1.0, -1.0];[-1.0, -1.0, -1.0];[-1.0, -1.0, -1.0]
[-1.0, -1.0, -0.9915574441576807];[-1.0, -0.9973902308546195, -0.9917170570646642];[-1.0, -1.0, -1.0]
[3.146734641293736E-4, 3.806193009018136E-4, 0.009204394492113625];[-1.0, -1.0, -0.34343842120466295];[0.007614887559096962, 0.006863514368331637, 0.003229458020693494]
[-0.9999513987650137, -0.9739803376304444, 3.313594029081845E-7];[-1.0, -1.0, -0.9100557520418733];[-1.0, -0.9997963072014129, -1.0]
[-0.9721609754055266, -1.0, -0.6852550016636043];[-1.0, -0.9720203134377132, 0.002977948248432072];[-1.0, -1.0, 0.35973190614862655]
[-1.0, -1.0, 0.017059858643138637];[0.012158020215686528, 0.047824797468262736, 0.032926058404243834];[-1.0, -1.0, 0.01691499588150916]
[-1.0, -1.0, -1.0];[-1.0, -1.0, 1.0];[-1.0, -1.0, -1.0]
[0.032634106524831744, 0.05585027673899856, -1.0];[-1.0, -1.0, 0.0030933640257120422];[-1.0, 0.006734755921789549, 0.9993143413755158]
[-1.0, -0.9068007005782768, -0.9727109863964588];[-1.0, 0.5999999105721853, -0.9893433700716711];[-1.0, -0.6921302964819116, -1.0]
[-1.0, -1.0, -0.9917424236451885];[-1.0, -0.9973470334117155, -0.9975118060224909];[-1.0, -1.0, -1.0]
[0.034112034323254006, 0.07565988785243456, 0.08278930022389415];[-1.0, 0.9182299568769996, 0.06869224002510138];[0.07305235932903735, 0.08918376543215822, 0.02720831327952791]
[-1.0, -1.0, -1.0];[-1.0, -1.0, -0.9729398415461128];[-1.0, -0.9907046054523481, -0.9726202013705515]
[-1.0, -0.5720500180800381, -1.0];[-1.0, -0.9720023824112642, -0.8795050473755524];[-1.0, -0.6781518808398238, -0.6978332236604291]
[-1.0, -0.9075877072906197, -1.0];[-1.0, -1.0, 0.9999999999999999];[-1.0, -0.997543913199815, -1.0]
[0.0716158914774055, 0.05594161136113924, 0.007151940194384543];[0.055626558437628815, 0.9924848221979301, 0.006274041932181441];[0.0495840819586216, 0.06053846430394045, 0.07070368423326835]
[-1.0, -1.0, -1.0];[-1.0, 0.9999942532753271, -1.0];[0.0028577139512709305, -1.0, 0.013205388154500747]
[0.01547740750629889, 0.006522439096949839, 0.05304443487980032];[-1.0, -1.0, 0.9999983361178315];[0.005291218028821965, 0.019538878600579707, 0.06062689283653664]
[-0.0415899478507328, -0.35496323365359117, 1.3231274280527144E-4];[-1.0, 8.909541467730736E-5, -0.359974903579821];[-1.0, 3.3213191931118256E-6, 5.8734471675305486E-5]
[-1.0, -1.0, -0.6904827406471329];[-1.0, 0.9114549261251738, -0.6834683142240172];[-1.0, -1.0, -1.0]
[-0.9999305860232848, -1.0, 0.5115262480177892];[-1.0, -1.0, -0.5979736344572867];[-1.0, -0.6813734243746713, -0.6808390276657551]
[-1.0, -1.0, -0.9727814733165905];[-1.0, -1.0, -0.9916747956503134];[-1.0, -1.0, -0.7874418972897592]
[0.9732701952827073, 0.03152076439616593, -1.0];[-1.0, 0.04005845537084773, -0.9912401994954002];[-1.0, -1.0, 0.5999999994281697]
[-1.0, -1.0, 0.036976817219622996];[-1.0, 0.5044833920795256, 0.049171203727742585];[-1.0, 0.029181182820515975, 0.036760257984581005]
[-1.0, -1.0, 0.0667395231324542];[-1.0, -1.0, 0.9925355126830632];[-1.0, 0.006180583938483796, -1.0]
[-1.0, -1.0, -1.0];[-1.0, -1.0, -1.0];[-1.0, 1.2308190945225586E-21, -1.0]
[-1.0, -0.9721342151647313, -1.0];[-1.0, 0.6, -0.999973755203785];[-1.0, -0.9975968484702187, -0.999767884923531]
[-1.0, 0.045453785276536075, 0.0782709314478344];[0.06944824714027058, 0.997587978547946, 0.005707668045396442];[0.060658247200896624, 0.031713108301187586, 0.009925804599899014]
[0.00639782475787718, -1.0, 0.027559045359190373];[-1.0, 0.9999942705637717, -1.0];[-1.0, -1.0, 0.028599641683599755]
[-1.0, -0.882167254061597, -0.9086210730186687];[-1.0, -0.9042459263443513, -0.9885651095710195];[-1.0, -1.0, -0.2500985208679878]
[0.06759167002698842, 0.054754189043374896, -0.6970241630919141];[0.06441705556829987, 0.011650660157614501, 0.06903914257976894];[0.004165368300962403, -1.0, 0.9748715567167417]
[-1.0, 0.023764923049287914, 0.00435322735931748];[-1.0, -1.0, -1.0];[-1.0, -1.0, 0.9999999554410213]
[-1.0, -0.46906071789045123, 9.484688636654244E-6];[-1.0, -0.5677822057624193, -1.0];[-1.0, -0.5838079833057659, 0.0012854695479352256]
[-1.0, 0.999999999968422, 0.010640674906685233];[-1.0, -1.0, 0.042382629055906174];[0.05618916865443031, 0.0481544403420309, 0.009829537446325504]
[0.054097385982316226, 0.04122035695494289, 0.028586511971857333];[0.012261058018762528, 0.006391615767432513, 0.030591746771271605];[0.02756792501365888, 0.03902321439831287, 0.049962786503896565]
[-1.0, -1.0, -1.0];[-1.0, 0.9999999959408471, -1.0];[-1.0, -1.0, -1.0]
[0.009362627544419577, -1.0, 0.07253289221152721];[-1.0, 0.4420231199923476, 0.4287893201163809];[0.9977931383677526, 0.05477022118160686, 0.07572266011063679]
[0.037062981537895126, 0.04400332408723201, -1.0];[-1.0, 0.5974632589355375, -0.6855141858381022];[0.0324509007549715, -1.0, -0.6865814325984501]
[-1.0, -1.0, -1.0];[-1.0, -1.0, 1.0];[-1.0, -1.0, -1.0]
[0.06833283038254445, 0.08306653975109766, 0.03961944898175249];[0.04656345211212977, 0.08300010829066405, 0.06145950927380253];[0.9999820034720917, 0.06578340558327225, 0.06408936327838087]
[0.7137455365419033, -0.9729517582714802, -1.0];[-1.0, -0.9647995418641458, 0.5999969450685347];[-1.0, -0.40578009898668527, -1.0]
[0.004610246710480666, 0.006195810219588168, 0.0024964445416100003];[-1.0, 2.73456194054897E-4, -1.0];[0.0036019968917414395, 0.003116584880972201, 0.18402480679724562]
[0.05470380437234412, 0.003961905023370127, 0.04995134386357757];[0.030509012389516723, 0.9976899754560703, 0.01579586097386998];[0.03537546377962382, 0.040307484764924406, 0.5745329104310272]
[0.9753075071625948, 0.047647388880132605, 0.03592766954974313];[0.05448608441875025, 0.07625314537849268, -1.0];[-1.0, 0.011100322676135999, 0.06460394055283586]
[0.05700839793531979, 0.007817831962355483, 0.0685623965512577];[0.014767453401537034, 0.9997970357744812, 0.006560236271139808];[0.00769647236014499, 0.03601661700578718, 0.025555564961381384]
[-1.0, 0.009919460758879417, -1.0];[0.02499001580646463, 0.9174659878710429, 0.04271481259700617];[0.030217749034776566, 0.015823665631313356, 0.015306732662209511]
[-1.0, -0.9973386924552532, -1.0];[-1.0, -0.6636935476584661, -0.9969923718697964];[-1.0, -1.0, -1.0]
[0.036812124656275334, -1.0, 0.030525754529323237];[-1.0, 0.9999401259378624, -1.0];[0.07624173997534081, -1.0, 0.04616521512374316]
[0.028111005368295555, -1.0, 0.007379237556581353];[-1.0, 0.599992416687108, 0.43047568308944695];[0.030170958983946772, -0.3527969129992174, -1.0]
[-0.9982317081812714, -1.0, 0.42002777940521996];[-1.0, -1.0, -0.9999998305870558];[-1.0, -1.0, -1.0]
[0.0206432229018218, 0.05244175662090836, 0.727167147044973];[0.06512221491054605, 0.041122534517114576, 0.018151712312825297];[0.059568027217349974, 0.020932725531371044, 0.08905319647698055]
[-1.0, -0.8670494892379809, -1.0];[-1.0, -1.0, -1.0];[0.9104112048440318, -1.0, 0.9999998415358673]
[-1.0, -1.0, 0.08722860492364859];[0.9999999996513158, 0.09007923556261996, 0.06140444467272445];[-1.0, 0.00938656178481433, 0.14932413104709008]
[0.3226904133137565, -1.0, 0.022484693888686014];[0.021672488104314824, 0.018219358058263458, 0.048394166092150984];[0.008121853583944327, 0.0064047644263363155, 0.00265873366679561]
[-0.6867313733475469, 0.024728615737036344, -1.0];[0.011992585251437605, 0.9136264289857554, 0.004455229871374211];[-1.0, 0.0133206090591819, -1.0]
[-1.0, -1.0, -1.0];[-1.0, -1.0, -1.0];[-1.0, 2.2205594324907376E-7, -1.0]
[0.04754058827208784, 0.038761278852650884, -1.0];[-0.6731797716755074, 0.033999415401764745, 0.01845151237532815];[-1.0, 0.019825173529701846, 0.7157233358589525]
[0.05140898224490299, -1.0, 0.01738094663003953];[0.5944261182714781, 0.05777063831614148, 0.0508515029204795];[0.019731014960933824, 0.04921749506586194, 0.04046140920105972]
[-1.0, -1.0, -1.0];[-1.0, 0.9976409599373164, -1.0];[0.022811848013627036, -1.0, -0.6023628390718939]
[0.041976783984956384, -0.15467977422618556, -0.31195260260213054];[-0.16518280618706713, 5.77397693098949E-4, -1.0];[-1.0, -0.113385777696877, 0.37177174808541513]
[0.022613384992520105, 0.011467002246092636, 0.5962654307314];[-1.0, -1.0, -1.0];[0.016895515332839, 0.015482392913133712, 0.014111769289776388]
[-1.0, 0.015125363389523161, 0.9999999999999765];[-1.0, -1.0, -1.0];[0.004590797942942957, 0.005786924614078563, -1.0]
[-1.0, 1.0726893583210215E-14, 0.041202000000000974];[-1.0, -1.0, -1.0];[-1.0, 9.04904163113402E-14, -1.0]
[-1.0, -1.0, -1.0];[-1.0, -1.0, -1.0];[-1.0, 0.0, -1.0]
[-1.0, -1.0, -1.0];[-1.0, 0.1260002173395982, -1.0];[5.852758805301148E-6, 4.875685065329661E-6, -1.0]
[0.5999990606009377, -1.0, 0.010879724331531282];[-1.0, 0.0046142950193582485, 0.030281758802689664];[-1.0, 0.0343241961690854, 0.05674049913435947]
[0.5993683516260582, -1.0, 0.023502945740855152];[-1.0, 0.029654865505735897, 0.009670895036337883];[0.008412800466426316, 0.01523339526436799, -1.0]
[3.0818578527723526E-4, -1.0, -1.0];[-1.0, 0.0016390333511435316, -1.0];[0.0021517135303849117, -1.0, -1.0]
[-1.0, 2.1053634952836702E-58, -1.0];[-1.0, -1.0, -1.0];[-1.0, -1.0, -1.0]
[0.07080168429277388, -1.0, 0.9977895983533509];[-1.0, 0.04962765378304032, 0.0577121542291105];[0.011009360286092784, 0.031945419951333286, -1.0]
[0.05721490439089865, 0.018843027919456426, 0.4361979498733284];[5.359889148549346E-4, 0.08462752752624336, 0.06941935073090723];[0.02518108046010599, 0.9999998553962786, 0.04764837399565015]
[0.08762856284926544, 0.0373266311901551, 0.03221894797232375];[0.039450610522729905, 0.0412610391476262, -1.0];[0.3261180469279664, 0.033856737706649015, -1.0]
[-0.9032183162101263, -0.6798647397881108, 0.03446702721297923];[-1.0, 0.36076643477991993, -1.0];[-0.6049198648398147, 0.043811692582794104, 0.012358181025615879]
[-1.0, -1.0, -0.9972765093856144];[-1.0, -1.0, -0.9999793573171601];[2.4800579785022397E-6, -1.0, -1.0]
[-1.0, -1.0, -1.0];[-1.0, -1.0, -1.0];[8.140419224836275E-157, -1.0, -1.0]
[0.01566642067680083, 0.03905253641266198, 0.4345332017564423];[0.04748461017229908, 0.053093349003164036, 0.0038622156284271237];[0.03920173451035434, 0.9999391299210856, -1.0]
[-1.0, -1.0, 0.001330004075518647];[0.0022094136580152, -1.0, 0.00340356440876257];[0.0021436623384196926, -0.597168603800887, -1.0]
[-1.0, -1.0, -0.9082039463277909];[0.05315874262452385, -1.0, -1.0];[-1.0, 0.999999996005458, -1.0]
[0.048472506862447834, 0.025312756893099444, 0.9147818340737255];[0.03344753446588799, 0.006745236081645978, -1.0];[-1.0, 0.044278582070430596, -1.0]
[0.053741804640219965, -1.0, 0.9163092895196054];[0.04199911288948578, 0.01021536721720675, 0.00786183961317779];[-1.0, -0.6809352969421008, -1.0]
[-1.0, -1.0, 0.999999999999977];[-1.0, -1.0, -1.0];[-1.0, -1.0, -1.0]
[0.05604602672508393, 0.07856988439509727, 0.0391961498644466];[-1.0, 0.01590684997194214, -1.0];[0.028153958398776883, 0.5811306242661041, 0.02025811381894284]
[-1.0, 0.025758219849791843, 0.05780744836421756];[-1.0, 0.9156485403901392, 0.01906698266904835];[0.014880816956056697, -1.0, 0.010845063146372114]
[-1.0, -0.90365640983844, 0.02663623110827318];[0.027863010841431946, 0.997762182314271, -1.0];[-1.0, -1.0, -1.0]
[0.9999941892306966, -1.0, -1.0];[0.002070062016068278, -1.0, -1.0];[0.028561825781525885, -1.0, -1.0]
[0.012168412548397723, 0.42101216672171915, 0.005403664196546887];[0.039964061753980956, 0.5972594223845076, 0.03850610139781555];[-1.0, -1.0, -1.0]
[-1.0, 0.04187436815419972, 0.05548701511682508];[0.03363926861876076, 0.9754154563596885, 0.038041703473024505];[0.0646910590290765, 0.03826604952953409, 0.07583299110545835]
[0.07367413937430115, 0.04835799572599936, 0.02703494314155809];[0.007829318634493765, 0.7230934937517911, 0.055625344269911704];[0.05268385924141733, -1.0, 0.02576618254621106]
[-1.0, -1.0, -1.0];[0.007682511700722272, 0.9923430865064339, -0.881697128277451];[-1.0, 0.008541431267029276, -1.0]
[-0.9037743331075392, 0.03597951835225285, -0.905049118969895];[0.5488256594361105, -1.0, 0.0848294962887648];[-1.0, 0.9999999988235273, -1.0]
[-1.0, 7.47034851525984E-4, 0.006251107070847195];[-1.0, -1.0, -1.0];[0.05447553467042329, 1.0, -1.0]
[0.5585599003437673, 0.1526193201720673, -1.0];[0.037018579906898774, 0.025400968425037654, -1.0];[-1.0, 0.00419603375779867, -1.0]
[9.249138289081457E-15, 6.041185460426497E-9, -1.0];[-1.0, -1.0, -1.0];[-1.0, 8.68763332211643E-17, -1.0]
[0.012186935308011848, 0.08126063626938712, 0.026182169751334784];[0.02708861246002782, 0.08599585431196517, 0.9999946373658379];[0.035300358018901655, 0.0404349817306505, 0.0036121018252933015]
[0.08110298155257573, 0.007379946854305031, 0.03368076126410013];[0.06194792505323145, 0.01242011838390632, 0.9999946796220162];[0.07437348502796677, 0.017234094002548984, 0.028891544976342165]
[-0.2974123895370284, 1.1761564726667736E-57, -1.0];[-0.9992580495053405, -1.0, -1.0];[-1.0, -1.0, -1.0]
[-1.0, 3.6004395234697282E-68, -1.0];[-1.0, -1.0, -1.0];[-1.0, -1.0, -1.0]
[0.020857323552599605, 0.025194531432766933, -0.6833280374545806];[-1.0, -1.0, -0.9034298894324128];[0.01954338718561325, 0.03791370290906665, 0.02723077553446859]
[-0.9365694389014267, -0.7875687636234323, -1.0];[-0.9974823120559088, -1.0, -1.0];[8.27288386323419E-6, -0.9918753806192881, -1.0]
[0.005298156055448611, -0.6038921513896548, -1.0];[0.02544547195975465, 0.027346099565580363, 0.0578187403882737];[0.992401983893804, 0.04818282707190649, -1.0]
[0.04224555790759185, 0.049216605443834716, 0.9999408021353886];[-0.676765233447264, 0.07218857957262066, 0.031962905856598514];[-1.0, 0.056330945834109226, -1.0]
