[0.023733313358519317, 0.024072519609478572, 0.0240461928773512];[0.31789572269338695, 0.01917904450396027, 0.002470111661378516];[0.021177716785809157, 0.022575405967407806, 0.008136175235757104]
[0.39284142205903966, -1.0, 0.19245310096628274];[-1.0, 0.2846153759341844, 0.050182848607080305];[0.19142049236804545, 0.3095959954051027, 0.04599883861766278]
[0.9156326390432528, 0.02242296628326589, -1.0];[0.011933651922276335, 0.05262919661421435, 0.04663610403062297];[-1.0, 0.04500461278479804, 0.04321340587314198]
[0.056312690759338715, 0.1041151931773519, 0.04512759527765294];[0.03300638498539255, 0.03673819578955989, 0.047825043196320596];[-1.0, -1.0, 0.052749608343093835]
[-1.0, 0.04344909730537183, 0.30729549244784415];[-1.0, 0.5367455952901313, 0.033562456618223165];[-1.0, -1.0, 0.04269237510635661]
[0.009325892785428192, 0.06129339028541358, 0.07195421712444783];[-1.0, 0.9750922899882906, -1.0];[0.006706620614564885, -1.0, -1.0]
[-1.0, -1.0, -1.0];[-1.0, 0.9920073203821218, -1.0];[-1.0, -1.0, -1.0]
[0.04054665069847481, 0.0767298270804116, -1.0];[0.04874201597181384, 0.05368668397809797, 0.0698088237870989];[0.14848543978064563, 0.052410507474033606, -1.0]
[-1.0, 0.41005651171998236, -1.0];[0.06457437131923734, 0.004999277218908683, 0.3932186973490325];[0.9744360557264169, 0.31885702497526963, -1.0]
[0.01874262483400675, -1.0, -1.0];[-1.0, 0.05932222369428789, -0.6908344187981674];[0.9745396372131248, 0.7094346516060653, -1.0]
[0.025561665196568002, -0.07862991098244301, 0.02787742713927438];[0.01725476700337488, -1.0, 0.009823826651923431];[0.0019035276551791717, -1.0, 0.007620837072788942]
[-1.0, 0.040083676985696384, 0.3201475149534793];[0.04861833336856468, -1.0, 0.025086887328251154];[0.4322290210380392, -1.0, -1.0]
[-1.0, -1.0, -1.0];[2.699429498091193E-4, -1.0, 0.004833254612801256];[0.012997192420789044, -1.0, -1.0]
[-1.0, -1.0, -1.0];[4.864323696206009E-13, -1.0, -1.0];[-1.0, -1.0, -1.0]
[0.020025918570498097, -1.0, -1.0];[0.053164758555689, 0.04343567210348409, 0.047636171781946776];[0.19455221422633623, 0.07284198477133717, 0.09988066920658636]
[-1.0, -1.0, -1.0];[0.33598032206967066, 0.3976587932764821, -1.0];[0.1406430088594879, 0.2929278329430106, -0.34766727456944524]
[-1.0, -1.0, -1.0];[-1.0, 0.002989017793566773, -1.0];[-1.0, 0.0018392924130899227, 0.001421789596132421]
[-1.0, -1.0, -1.0];[-1.0, -1.0, -1.0];[-1.0, 2.796371891823347E-7, -1.0]
[0.10131463664934443, 0.09473709136241465, -1.0];[0.02517043790373021, 0.09097387424402154, 0.15126518522903348];[0.10589174279583476, -1.0, 0.3812268705468189]
[-0.5610179349376219, -0.9043203592339556, -1.0];[-0.6817617525484977, -0.27666405944028544, 0.07783197377980777];[-1.0, -1.0, -1.0]
[0.027593570802133968, -0.6820345199070544, -1.0];[-0.9973344915466495, -1.0, -1.0];[-1.0, -1.0, -1.0]
[-0.6979152297176918, 0.021626064726409135, -1.0];[0.0800239986055996, -1.0, -0.6755437038555189];[0.9923957292081093, -1.0, -1.0]
[-1.0, 0.3972394876882042, 0.09001262418037144];[0.08015958661621632, 0.013431574471801037, 0.04326242416283305];[0.38677368506270715, -1.0, 0.0434676358918655]
[-1.0, -0.6745861458321833, -1.0];[-0.6850531939134, -1.0, 0.06067054114365896];[-0.9052719526055757, -1.0, 0.5033535390185861]
[-1.0, -0.27253598973713333, -1.0];[-1.0, -1.0, -0.9915233525972915];[-1.0, -1.0, 0.03783652761580042]
[-1.0, -1.0, -1.0];[-1.0, 0.03500551316971153, -1.0];[-1.0, -1.0, 0.9744464544047633]
[-1.0, 0.9924828011652944, -1.0];[-0.578411319398262, -1.0, -0.9081872762786649];[-0.9027089054811469, -1.0, 0.21125271932218093]
[0.003378379960648858, -0.9097679809955714, 0.07512985153954597];[-1.0, -1.0, 0.03242092107189093];[-1.0, -1.0, 0.9976988586510019]
[0.004418762680116208, 0.05444425780630253, 0.04225853856607259];[-1.0, -1.0, 0.03629586832088999];[0.03662527489192215, -1.0, -1.0]
[-1.0, -1.0, 1.3992734271249731E-19];[-1.0, -1.0, -1.0];[-1.0, -1.0, -1.0]
[0.006203657660698048, -0.2767730323652303, 0.04509305327988669];[0.045276501335101915, -1.0, 0.019978263929299234];[-1.0, -1.0, 0.04112520391065178]
[0.008829818572580984, -0.9062261892115329, 0.016112126401772887];[0.008457988431562369, 0.005920286589466428, 0.015219881773231326];[-1.0, 0.009826097056910699, -1.0]
[0.00722151001112626, -1.0, 0.044297965659857476];[0.41020124406352537, -1.0, 0.06269184355007046];[0.918187631512722, 0.047699044598409145, -1.0]
[0.09334277020790427, -1.0, -1.0];[0.03903345526026972, -1.0, -1.0];[0.9977048155366308, 0.007937861128394664, -1.0]
[0.030613764036696894, -1.0, -1.0];[-1.0, 0.05398662203179297, 0.043015788868709756];[-1.0, 0.0373971622725791, 0.053483385007673065]
[-1.0, -1.0, -1.0];[-1.0, -0.9914984765547974, -0.9079484994464249];[-1.0, -1.0, -0.9705191594645833]
[0.4233275890261604, 0.052597469813122126, -1.0];[0.04093801869968886, 0.054558050229012285, 0.09107517843641652];[0.043009652872030985, -1.0, 0.050904557564960616]
[0.07717413973215984, 0.051567663739800235, 0.029778496718719495];[0.07345877711324175, 0.012906395505975677, 0.06146182971960055];[0.056032539970230465, -1.0, 0.09723101231291838]
[0.07837068801221135, 0.095446672355757, -1.0];[0.05749059341117303, 0.005047434753751301, 0.03517568562421032];[0.057140108411018437, 0.056769850518487965, 0.728909968234693]
[-0.972741362010139, 0.30054269933721334, -1.0];[-1.0, -0.6754429175364205, 0.02907488056818083];[0.31118677822972113, -1.0, -1.0]
[0.01486542996927196, 0.005424227620151269, -1.0];[0.040036795642959554, -1.0, 0.03474450395237552];[0.03927073171954519, 0.02411392702320216, 0.029920326121867423]
[0.03532881923483773, -1.0, -1.0];[0.04267911886154603, 0.012534591993733614, 0.1441366223085217];[-1.0, 0.01996868066679968, 0.3218314760640156]
[0.9109930613710949, -1.0, -1.0];[0.008153391741306271, -1.0, -0.9718534284696502];[-1.0, -1.0, -1.0]
[0.7062370495535396, 0.027864355980184385, 0.057095449317015906];[0.03963036803335436, 0.05334779549041799, 0.03882325819334237];[0.007784444140755487, 0.08533978042911067, 0.09061406337539706]
[-1.0, 0.022888502255400567, 0.010454344705764007];[0.004093236444338433, 0.017524161770180523, 0.05790610803695839];[0.011915974728074197, -1.0, 0.4804206842814266]
[-1.0, -1.0, 0.060354961381659966];[0.0319960793266583, 0.4185983041101558, 0.0346626266371224];[-0.6771897331049885, 0.08620999829976159, 0.08690524658104946]
[0.04706606270048097, -1.0, -1.0];[-0.18957762663201422, 0.01096688233113008, 0.053062629564794926];[0.02855650474048325, 0.035715011492306825, 0.05009645561250656]
[-0.2872138625403693, -1.0, -1.0];[0.0069654982353507845, -1.0, 2.0272485320396163E-6];[0.007168491808603851, -1.0, 9.890673344183882E-5]
[-1.0, -1.0, -1.0];[-0.9916092328033521, -1.0, -0.9075385907860803];[-0.6947163184284065, -1.0, -1.0]
[0.022027853844270286, -1.0, 0.0051302658973687775];[0.027023623510078566, -1.0, 0.015824743301463162];[0.02879929320144367, -0.3247045864498128, 0.034890417156460136]
[0.059648698146020994, 0.016502348467792274, 0.0634501474481731];[0.07604029500836551, 0.0846665559565072, 0.032318095606435726];[0.03614951564238634, 0.03206253431294228, 0.017143408552839436]
[0.7174745542179568, 0.06277425032263852, 0.020627621945840547];[-1.0, 0.06257561434500622, 0.05032271382850722];[0.08684532841190327, -1.0, 0.09123501284967328]
[-1.0, -1.0, -1.0];[0.4019973120917367, 0.9732088843471098, 0.05626013345479178];[0.045762082164781004, -1.0, 0.004067831480280427]
[-1.0, -1.0, 0.020340435148545246];[0.018079500409243065, 0.9121339753740547, -0.6769329055590099];[-0.9092203087494309, -1.0, 0.022966793820232236]
[0.46483883729801584, -1.0, 0.15000542683710555];[0.013104718847492602, 0.05014448147312253, 0.03363421446852258];[0.05840615593135047, -1.0, 0.05511893187767516]
[-1.0, 0.01845501504478572, 0.7296918904451203];[0.09548380491591767, 0.07764610823749368, -1.0];[0.4724913083536385, -1.0, 0.03248361815046965]
[0.013001995699324498, -1.0, 0.058468345659550294];[0.5803333513786888, -1.0, -1.0];[0.022454193232721565, -1.0, -1.0]
[-1.0, -1.0, -1.0];[-1.0, -1.0, -1.0];[0.9999368679350046, -1.0, -1.0]
[0.04865329271395488, -1.0, -0.9643259403072655];[0.06187362530837281, -1.0, -0.37473280491746463];[0.0986914597839319, -1.0, 0.04936611461592877]
[-1.0, 0.003356782611916065, 0.7040925316815372];[-0.6748964603097473, -1.0, -1.0];[-0.6749159555124733, 0.009913834053661086, -1.0]
[-1.0, -1.0, -0.6428740789163181];[-0.28275697661166294, 0.012982559390642946, -1.0];[0.011361280043742348, -0.6926561130050399, 0.001997491268699503]
[-1.0, -1.0, -1.0];[-1.0, -1.0, -1.0];[-0.7612829940989294, -0.6981122748718217, -0.9083524285687846]
[-1.0, -1.0, -0.6914822177277322];[-1.0, -1.0, 0.025556040077284244];[0.013589259131650856, 0.03466069160085922, 0.014971756890130798]
[0.3555451259379708, -1.0, -0.033464220312349635];[0.021590368451712038, 0.2504432305908548, 0.04092988471770789];[-1.0, 0.15071264258616432, 0.18699224153237332]
[-1.0, 0.014958205525929148, 0.04620893025169744];[0.008955741088197444, 0.3126350829940083, 0.037427442890845014];[-1.0, 0.13749055739315355, 0.04322501527027361]
[-1.0, -1.0, 0.03520742043980916];[-1.0, 0.06177196857103957, 0.09680403853787029];[-1.0, -1.0, 0.0224119180648488]
[0.005316826869206726, -1.0, -1.0];[0.002616364961568174, 0.9122912140797897, -1.0];[-1.0, -1.0, -1.0]
[0.9158355717253727, 0.014757339106326463, 0.06300466086112419];[-1.0, 0.004236552026144947, 0.028631619306883474];[-1.0, 0.013750576597735598, -1.0]
[0.07091400834553488, 4.5259711706672204E-4, -1.0];[0.006990523108566494, 0.04353222912651438, 0.05291594470598303];[0.09792605741524824, 0.09157642572479723, 0.049068734254281134]
[0.05843234854423825, 0.020078788640321168, 0.0017871714210633606];[0.06189504212914827, 0.05771252500440243, 0.030792418181995664];[0.0505971892485657, 0.01094061933642292, 0.04642137971318632]
[-1.0, -1.0, -1.0];[-1.0, 0.008892851960875248, -1.0];[-1.0, -1.0, -1.0]
[0.0036784168664172907, 0.05962120465449933, 0.2598645629992112];[0.055854243069887816, -1.0, 0.08047550909111123];[-1.0, 0.23232525090740458, 0.01037142386525142]
[-1.0, 0.03287343804766348, 0.3992292950247829];[0.4439778695354887, -1.0, -1.0];[-1.0, 0.47838982992860657, 0.9993434597520383]
[-1.0, -1.0, -1.0];[0.0048358639855752665, -1.0, -1.0];[0.04633667373065628, 0.02862374189591936, 0.9747301430480422]
[-1.0, -1.0, -1.0];[1.9338377134620068E-24, -1.0, -1.0];[-1.0, -1.0, -1.0]
[-1.0, 0.2494906263087567, 0.23173758971421143];[-0.11577181642954087, 0.20030605186382974, 0.051557247455883554];[0.3472181223414444, 0.049846840881222154, -1.0]
[-1.0, -0.19395811865968465, -1.0];[-0.9016319737874248, -0.9050100422022365, 0.023062026894554187];[-0.9918833712663224, -1.0, -1.0]
[-1.0, -0.9060133881294691, -1.0];[0.9993162619780545, -1.0, 0.015370156999466048];[-1.0, -1.0, -1.0]
[-1.0, -1.0, -1.0];[-1.0, -1.0, 7.943778462918058E-5];[-1.0, -1.0, -1.0]
[-1.0, 0.18201448422517932, 0.19871052124734961];[0.02186090291107816, 0.3221744756535817, 0.20957073341299695];[0.21586313495431522, -1.0, 0.21820405917537306]
[-1.0, 0.9993240168219599, 0.07094611196479347];[-0.5699905155826159, 0.0628371653950778, 0.06849344900979282];[-1.0, -1.0, 0.051054501387645085]
[0.08930604444166017, 0.020651528371231964, -1.0];[0.029292419291856355, -1.0, 0.06164835973664469];[-1.0, 0.0961296260954479, 0.9977966404240654]
[-1.0, 0.06883180355532946, 0.031586692352012745];[-1.0, 0.10032357639709481, 0.04653386042399458];[0.21227841977268447, 0.0839642998669893, 0.17529117610018563]
[-1.0, -0.5640520952900067, 0.01979286106557109];[-1.0, -1.0, 0.032041932712950257];[-0.9903737788014949, -1.0, -0.7513789161547]
[0.04523292749181099, -1.0, -0.6724140407053824];[0.044260861790981924, -1.0, 0.5393595907066995];[-1.0, -1.0, 0.9740631516841091]
[-1.0, 0.02537665292422894, 0.08182317604483294];[-1.0, -1.0, 0.05635459191909961];[0.10724149445554554, 0.06850340581430543, 0.9926018063441897]
[-1.0, 0.05407133927989363, 0.31326659289081077];[-1.0, -1.0, 0.05122493923134945];[0.9977065617117562, 0.045277165296148586, -1.0]
[-1.0, 0.057592248815389616, 0.0795262847545915];[0.03921397440483074, 0.07411837184478641, -1.0];[0.06430849429383173, -1.0, -1.0]
[-1.0, -1.0, -1.0];[-1.0, -1.0, -1.0];[0.9927056959821606, -1.0, -1.0]
[0.05693998670454499, 0.034630362292361, -1.0];[0.04205738934530707, 0.049321907238969835, 0.08282537660724776];[-1.0, 0.05452286036320436, 0.05040811142691244]
[0.03511944719894167, 0.9746628979333798, -1.0];[0.0029525460158467687, 0.025459375742906257, 0.04722220139550355];[0.03176858984288762, 0.012226315728084547, 0.0293958951822346]
[0.916173953530855, -1.0, -1.0];[0.0853531574094579, 0.004687453627968574, 0.08178013839112037];[-1.0, 8.777690315638465E-4, -1.0]
[0.30956415419929645, -1.0, -1.0];[-1.0, -0.9973995866665424, -0.7480862022783895];[-0.991483057285397, -1.0, -0.9066010745944469]
[-0.896753946250146, -1.0, -1.0];[-1.0, -1.0, -1.0];[-0.999932960063482, -1.0, -0.9715416102168212]
[-1.0, -1.0, -1.0];[-1.0, -1.0, -1.0];[-1.0, -1.0, 0.9999804576279132]
[-1.0, 0.044724895718288554, 0.04837470486612051];[-1.0, 0.037860619375108165, -1.0];[-0.44792654439759727, -1.0, 0.02433687227261712]
[-1.0, 0.9977791161631412, 0.00168868074758618];[0.07533809610894433, -1.0, -1.0];[-0.9095533234258834, 0.01466708245727224, -0.9704081410576939]
[0.05879676881149698, 0.029512483382588977, 0.05323330409557289];[0.03808269469674548, 0.017761636044441132, 0.0768944119969284];[-1.0, -1.0, 0.9751826270984566]
[-1.0, -1.0, 0.01760761525200647];[0.03642046530730848, 0.7214822079556398, 0.03372742130098432];[0.020058867441844166, 0.06220483208319138, 0.014512815141088521]
[-1.0, 0.04381435141825915, 0.03428931520877028];[0.03469318030926293, 0.033572791783072105, 0.040009972848262354];[0.05142911860418087, -1.0, 0.03259914650002991]
[-1.0, 0.043234930957911345, 0.7037179067759356];[-0.9706038058120932, 0.07275835414347734, 0.04721797408567105];[0.08241349383900816, 0.09874842408483302, 0.09087720344623496]
[0.046322887774537094, 0.033456071387981734, 0.030870087072995645];[0.5336730584586377, 0.055952988388256845, 0.0478260265476606];[0.056037912585419236, 0.01537973952784999, -1.0]
[-1.0, 0.05378649164119695, 0.08356055139667537];[-1.0, 0.04560105809460732, 0.9177303477457182];[0.020389873737271993, 0.07210932058541743, -1.0]
[0.05226609806456223, -1.0, 0.057600928650319065];[0.07280445004455542, 0.08158874536027451, 0.0017745585630128847];[0.7284914675209322, 0.029951781437254646, 0.02630921614338625]
[0.014908473817601365, 0.47558098609558275, 0.05287647577275951];[-0.5187946192436078, 0.031023256500485444, 0.0499996172404269];[0.05007730604891804, -1.0, 0.007823347675622939]
[-1.0, 0.7125859203618026, -1.0];[0.017327272416333007, 0.03967444396522847, 0.01835919811486678];[2.2819512726207636E-4, 0.007743908667759658, -1.0]
[-1.0, -1.0, -1.0];[-1.0, -1.0, 3.183347747578222E-24];[-1.0, -1.0, -1.0]
[0.05120469253552694, 0.33915998742649145, 0.018691602034387238];[0.05001042436303607, -1.0, 0.15740470092802528];[0.008246724188926538, 0.021859780167858826, -1.0]
[0.41214757209715536, 0.5183319145735639, -1.0];[0.9120313038478624, -1.0, -1.0];[0.2592087540729931, 0.5359552323176688, -1.0]
[-1.0, 0.0966985368766885, 0.012031272018426686];[0.9926518711895802, -1.0, 0.08262975657606261];[0.04073084828633795, 0.05750684836605663, 0.05358087950952986]
[-1.0, -1.0, -1.0];[0.9999999564646007, -1.0, -1.0];[-1.0, -1.0, -1.0]
[0.40981439651945306, 0.9993003398185845, 0.022507793827169158];[-1.0, -1.0, -0.9913120671431865];[-1.0, -1.0, -0.675228299819859]
[0.3612903354630856, -1.0, 0.17133102844512094];[0.23763116285967834, -1.0, 0.19582330379840113];[0.35903216249861003, 0.1914185138776237, 0.2919721268831158]
[0.038975178218404995, 0.0086992388999115, 0.04714082134720296];[0.002446115391892312, -1.0, 0.030936964449744586];[0.9977541885733093, 0.0688790180962011, 0.03259766082376969]
[-0.9060943631922016, -1.0, 0.013397735638089625];[-0.4879264748641753, -1.0, 0.09396669995028208];[0.020121404960215215, -1.0, -0.9050178429033533]
[-0.9915910167947118, -1.0, -1.0];[-1.0, -1.0, -1.0];[-0.6642429920096283, -1.0, -0.9999286516640185]
[0.15161065487032765, -1.0, 0.19134490505697732];[0.053403720791073486, 0.012079721957482682, 0.056678527676964796];[0.08061442384008294, -1.0, 0.16193718236906673]
[0.036847227364877125, -1.0, -1.0];[-0.8700488637627914, -1.0, -0.9999981476413851];[-0.9999999634926717, -1.0, -0.9999058317329711]
[-1.0, -0.685858571644765, -0.6068110449903296];[0.04365584787766366, 0.552913200777086, -0.6826726398440334];[-1.0, -1.0, -1.0]
[-1.0, -1.0, 0.9976387657365915];[-0.9055183436134794, -1.0, -0.9080017186458436];[-1.0, -1.0, -1.0]
[-1.0, 0.07945068195364147, 0.09989221645791639];[-1.0, 0.7054912296600782, 0.04662851568989782];[0.04186498159324205, -1.0, 3.119802713107856E-4]
[0.03439093120558293, 0.029440903825709255, -0.679204903203056];[0.04350149634305292, 0.07760465838304054, -1.0];[0.05057276748429308, -1.0, 0.03830760130772627]
[-1.0, -1.0, -1.0];[-1.0, 0.9756849330274823, -1.0];[-1.0, -1.0, 0.006981194120237133]
[0.36520725484592115, 0.10455582570632183, 0.2326677858883853];[0.14173720186695343, -1.0, 0.2294350930209481];[0.12328624742702748, -1.0, 0.3008769278422404]
[-1.0, 0.05076169195509107, 0.9147685350455614];[0.06084244133369206, -1.0, 0.04358804531181963];[-1.0, -1.0, 0.007986823002026345]
[-1.0, -1.0, -1.0];[0.03780001654315847, -1.0, 1.75031807113253E-7];[-1.0, -1.0, 3.2972635905725536E-6]
[-1.0, -1.0, -1.0];[-1.0, -1.0, 2.7048171838533006E-14];[-1.0, -1.0, -1.0]
[0.9126586628901322, 0.24684990739581644, 0.0582707761347092];[-1.0, -1.0, 0.0464753944743704];[0.03874454691833062, 0.024217089651358395, -1.0]
[0.7048439341005371, 0.06261081488878269, -1.0];[-1.0, -1.0, -1.0];[0.7228127037416014, 0.06511254660130612, -1.0]
[0.05809115604331008, 0.03662963372288669, 0.09006018812875927];[0.05448924015860621, -1.0, 0.08928443772499085];[0.7274511530753179, 0.054793548127933994, 0.02065203560311263]
[0.008108692037574194, -1.0, 0.02136849100626815];[0.7123046612908934, -1.0, -1.0];[0.16187396568875112, -1.0, 0.04887485523964368]
[0.4342043954632563, -1.0, -1.0];[-1.0, -1.0, -1.0];[0.004515444695186266, 0.06538638551695045, 0.09208695444355336]
[-1.0, -1.0, -1.0];[-1.0, -1.0, -1.0];[-1.0, -1.0, 0.9999812468293002]
[0.006360060907608334, -1.0, 0.17504711666455205];[0.48176823164596405, 0.03369111458358898, 0.1681383360775492];[0.02649616662080806, 0.034783188360566986, -1.0]
[0.041679864878346976, -1.0, 0.07420898572081018];[0.9926631579907456, 0.021895539423038426, 0.07971792324272635];[0.03843983593129986, 0.003232799759480709, 0.0887237086578973]
[0.39834174573311265, -1.0, -1.0];[0.9976710443881971, -1.0, -1.0];[-0.6842648335930304, -0.9070854759772681, 0.025066570946329515]
[8.6745684024805E-5, -1.0, -1.0];[-1.0, -1.0, -1.0];[-0.9720800660849567, -1.0, -0.9724987070522702]
[5.655345383581548E-19, -1.0, -1.0];[-1.0, -1.0, -1.0];[-1.0, -1.0, -1.0]
[-1.0, 0.04823551417317156, 0.9152141832556665];[-1.0, 0.06477752678307312, 0.05851240662979458];[0.04761024798774914, -1.0, 0.3226993868389407]
[0.02290610044164574, -1.0, 0.7165518312958735];[0.0073137714304698405, 0.0024837974060609794, 0.02645024400991086];[0.020567111530772043, 0.04152780853865737, 0.00851510391604946]
[-1.0, -1.0, 0.9734469918008442];[-1.0, -1.0, -1.0];[-1.0, -1.0, -1.0]
[0.019683420212645054, 0.05799550172788046, 0.01913574569685386];[-1.0, 0.17312670669184452, 0.0783180322599088];[0.03536516601662453, 0.03227344989624923, -1.0]
[0.0893586666323273, 0.08834913957282314, 0.7265265141567705];[0.032097783403547644, 0.9157442981954812, 0.005199387346241424];[-1.0, 0.06790340913318005, 0.0444906684183885]
[-1.0, -1.0, -1.0];[0.03350636328865591, 0.04467755397219845, 0.04083126946344261];[-0.2723785341137421, 0.045386310117720534, 0.40117081645459396]
[-1.0, -1.0, 0.036110826508872367];[-1.0, 0.9753463672612723, 0.06557320145382477];[-0.9049648267553495, -1.0, -1.0]
[-1.0, -1.0, 0.412419383343442];[-0.6782360252132891, -0.6888333560311484, -0.9045139605236973];[-1.0, -1.0, 0.7016647088288506]
[0.04930681996376665, -1.0, 0.03638249981565761];[0.012795403153911833, 0.04752023001982517, 0.043080373899676325];[-1.0, 0.3112049630051381, -1.0]
[-1.0, -1.0, -1.0];[0.004302864213544, 0.7235185271249145, 0.03412569145706961];[0.08004532751023985, 0.04150326961159148, -1.0]
[0.18499695876485917, -0.11060222394829583, 0.08277402980820298];[0.041216735967066244, 0.33980749499348956, -1.0];[0.02430909703348174, -1.0, 0.10146449506578191]
[-0.9028640138594017, -1.0, 0.4802760265308041];[0.031764551101990834, 0.9747666452468824, -1.0];[-0.4050190637937852, -1.0, -1.0]
[0.006285451960786104, 0.04590873895474687, -1.0];[0.031049946346705284, -1.0, -1.0];[0.06644720031849007, -1.0, -0.6794729776141364]
[-1.0, 0.08439500171146831, -1.0];[0.0034717271127001625, 0.07852541892156265, 0.01632409498787436];[-1.0, -1.0, 0.9161601482075432]
[-1.0, -0.9725722629839605, -0.6899662237276861];[-0.0894401013401474, -1.0, -1.0];[-0.6722171121804438, -1.0, 0.41227302283576905]
[-1.0, -1.0, 0.07065880130843626];[0.07157999921539318, 0.09243863474597076, -1.0];[0.09852202752866368, 0.04343645962742383, 0.9742162630569438]
[-1.0, 0.9993396943997852, -0.29096066625360506];[0.00883831124314629, -1.0, 0.09045696990253885];[-1.0, -1.0, 0.0875400257157179]
[-0.6884863326679086, 0.9999390372583081, -1.0];[-0.9039270170896654, -1.0, 0.5464645249527389];[-0.46382921120931625, -1.0, -1.0]
[0.0022247689620241706, 0.011250483451674065, -1.0];[0.9977034905074474, 0.002512848132226797, -1.0];[-0.677447114463738, 0.04237080172935799, -1.0]
[0.01843179687905322, 0.019952244893484107, 0.02887481925444929];[0.051128210461544386, 0.31998443082775646, -1.0];[0.012985735996114734, 0.005546209464189412, 0.053740142759311056]
[0.06259273409033193, 0.91712106759767, -1.0];[0.011148574567936134, -1.0, 0.03452497909403244];[0.027775386506307932, -1.0, 0.05770365464076074]
[-0.37794075144601036, -0.9918799818612651, 0.011854805638138882];[-0.9727809759690961, -1.0, -0.9716443602995912];[-1.0, -1.0, -1.0]
[0.023684741447257587, 0.07867738549846391, 0.07157415370221805];[0.08009602294394852, 0.06462692418714207, 0.044896306501384174];[0.06454451486920751, 0.008983840647401575, 0.059512452134425256]
[0.5306258821471549, -1.0, 0.04903213093973005];[0.004364812568118415, 0.04668748813374421, -1.0];[-1.0, 0.008805457119488559, -1.0]
[-1.0, -1.0, -1.0];[7.664048868058376E-6, -1.0, -1.0];[-1.0, -1.0, -1.0]
[0.022754629135498028, 0.020748847741374865, 0.037775924757210845];[0.07454801778881918, 0.5581918010061315, 0.043400048063738976];[0.43394446085714417, 0.05321084506357798, -1.0]
[0.04523072965534217, 0.035046586339181916, 0.029605410172252725];[0.005057708983717391, 0.7159521365628696, -0.6827735776629523];[-1.0, -1.0, -1.0]
[0.09402590961363318, 0.9921336427521087, -1.0];[0.4321838183770522, 0.05833625024030291, -1.0];[0.32090240876910264, 0.3876790273521925, -1.0]
[-1.0, 0.9109003329837279, -1.0];[-1.0, 0.9992946240161328, -1.0];[-1.0, -0.9729606611500806, -1.0]
[0.0948219038277333, 0.012449923018048571, 0.06758600499422111];[0.0665770277903165, 0.02434197924636791, 0.020311851637001246];[0.020461619868915284, 0.07099731723868101, 0.7111694540304375]
[0.03319844175716912, -1.0, -1.0];[-1.0, 0.027052671693485075, 0.3204338915672329];[0.035866279500605926, -1.0, 0.07320134975777987]
[-1.0, -1.0, 0.0057721485426421755];[-1.0, -0.6733804240855106, -0.6072179949677066];[0.9120152655549373, -1.0, -1.0]
[-1.0, -1.0, -1.0];[-0.5799495719591745, 0.4873569060241784, -0.9915109793058247];[-1.0, -0.6056791770317641, -0.5390526147721735]
[-1.0, -1.0, -1.0];[-1.0, -0.9973925520665999, -0.9997608653780993];[-1.0, -0.9997600808231405, -1.0]
[-1.0, -0.7107311137071088, -1.0];[-1.0, 0.5041039917777023, 0.04452124257247124];[0.999310228934774, 0.047788142030908684, -1.0]
[-1.0, -0.9090922369933465, -1.0];[-1.0, 0.030597499474490808, 0.9993117364371139];[0.7217382303493498, -1.0, 0.07071621142893796]
[0.28017927589971003, 0.08439507483828917, 0.09667090596237735];[-1.0, 0.042854302586832344, 0.0597345604360641];[0.05203539269603624, 0.05492299687460697, 0.08001560090409568]
[0.04579380969475621, 0.06101697507475809, -0.6970635838064397];[0.09473646715261713, -1.0, -0.6945920468285267];[-1.0, -1.0, 0.01812013773287341]
[-1.0, -1.0, 0.03503854803569493];[-0.6932850530744494, 0.31635211658438805, -0.35383990941541715];[-1.0, -1.0, 0.47063334924563116]
[0.0036956869144726292, -1.0, -1.0];[-0.6920154714798917, 0.9745561153048853, 0.31148962133020863];[-1.0, 0.051089180149982774, -1.0]
[-0.9886928910050367, -1.0, 0.08716561040202087];[-1.0, -1.0, -1.0];[0.0034633781959683696, 0.0955976943455868, 0.06069035570053172]
[0.0597023940413928, -1.0, 0.9924234534627857];[-0.909332145708901, 0.06434630153574121, 0.06063303066786067];[-1.0, -1.0, -1.0]
[-1.0, -1.0, 0.9977347506673065];[-1.0, -1.0, -1.0];[-1.0, -1.0, -1.0]
[-0.9999935730458223, -1.0, -0.9707237148195762];[-0.9992352227280504, -1.0, -0.9809035220637043];[0.03688368554466047, -1.0, -1.0]
[-1.0, -1.0, -1.0];[-0.8807007882255156, -1.0, -0.6801009488336646];[0.9976911478316906, -1.0, -1.0]
[-1.0, -1.0, -1.0];[0.05977544058791984, -1.0, -1.0];[0.9977511874987289, -1.0, 0.02535590372698029]
[0.11487728839594119, -1.0, 0.31499005690759657];[0.020786323166093412, 0.030841786867513665, 0.048724196256708624];[0.24563074516723987, 0.0901313886455542, -1.0]
[0.02537432123250204, -1.0, 0.058651881470329695];[0.37921298043449747, -1.0, 0.42327128813655357];[0.3225028801142749, 0.9157236707351964, -1.0]
[-1.0, -1.0, 0.5352381075254478];[-1.0, -1.0, -1.0];[0.01645441933285624, 0.992036156684034, -1.0]
[-1.0, -1.0, -1.0];[-1.0, -1.0, -1.0];[0.9997848887451033, -1.0, -1.0]
[-1.0, -1.0, -1.0];[-0.6828993076495439, -0.6885736912687708, 0.04244727332734896];[-0.6640292441529054, -0.3703425376297459, -1.0]
[0.010744872258235505, -1.0, -1.0];[-0.6873886487903361, -0.6701804879444195, -1.0];[0.0036655579049462046, -1.0, -1.0]
[-1.0, -1.0, -1.0];[0.9977145366755787, -1.0, -1.0];[-1.0, -1.0, -1.0]
[-0.9051188591637294, -1.0, 0.016109297549261103];[0.05304982787649184, 0.011470239221152801, 0.05305850653686107];[-0.5738300850260329, 0.9992994779228376, -1.0]
[0.06011282848220934, -1.0, 0.018506175537316462];[0.014127244828886887, -1.0, 6.331434287488946E-4];[-1.0, 0.9114670412833838, 0.017831962137316273]
[-1.0, -1.0, -1.0];[-1.0, -1.0, 3.3044846681723037E-11];[-1.0, -1.0, -1.0]
[0.9749118532055212, -1.0, -1.0];[0.038568073057134986, 0.05774786825882027, 0.05140697291007157];[-1.0, 0.06465130034008607, -1.0]
[-1.0, -1.0, -1.0];[-1.0, -0.9050711294882845, -0.9040581775265016];[-1.0, -0.9728441225194784, -1.0]
[0.9138250740116017, -1.0, 0.023409207499781703];[0.02413338806864749, 0.057092170395562816, 0.07193511355822425];[0.02619935481996044, 0.09866475339476022, -1.0]
[0.09744597863188309, -1.0, 0.003889469053170858];[0.057212765320124453, 0.016823128422464983, -1.0];[0.040438653186993856, 0.18849070904342438, 0.08916546890459331]
[0.04648218233844911, -1.0, 0.018367960751597613];[-1.0, 0.03791761774373553, 0.038755162834133744];[6.622640055167662E-4, -1.0, 0.017242913464770082]
[-1.0, -1.0, -1.0];[-1.0, -1.0, -1.0];[1.3983706818885036E-5, -1.0, -1.0]
[-1.0, -1.0, 0.9171557345891851];[0.3906058240260707, -1.0, 0.016607719161482837];[0.03872919212542957, -1.0, 0.04643906159001851]
[-0.692527862527373, -1.0, -0.5011723959908075];[0.068564851347108, -1.0, -1.0];[-1.0, -0.3724677254887579, 0.01836626400810028]
[-1.0, -1.0, -1.0];[-0.9918145639126884, -1.0, -1.0];[-1.0, -0.9917875704676921, -0.9806142936162026]
[0.05691757715312988, 0.20362181804251653, -1.0];[0.039666987666521505, 0.03738899591872459, -1.0];[0.18963589727422467, 0.10302833568579636, 0.05723976229087824]
[-1.0, 0.9737917439358845, -1.0];[0.312365937868994, 0.052395988778099895, -1.0];[-1.0, 0.05497093875182324, 0.06458979355799917]
[0.08620841002269383, 0.04667529952867319, 0.06095682154676431];[0.050767894079271875, 0.0016453882253727715, -1.0];[-1.0, 0.038868725991299674, 0.059622932920180914]
[0.0407511069522724, -1.0, 0.05960022552888186];[0.17823794945959093, -1.0, 0.12558242611188988];[0.18960306450857123, -1.0, 0.31499206549001907]
[0.008044054079544227, -1.0, -1.0];[0.05135302877743728, 0.0045652771843737614, 0.04559092747786404];[-1.0, 0.048004746640414625, -1.0]
[-1.0, -1.0, -1.0];[-1.0, -1.0, 0.9999808030239943];[-1.0, -1.0, -1.0]
[0.4913850682867902, 0.14521349216212187, 0.15089524865344492];[0.29579382633866713, 0.008746721300661082, 0.03864923722366342];[-1.0, 0.09524233198610559, -1.0]
[-0.9021898072864215, -1.0, 0.5127550578337023];[0.1923024060199662, -0.6874436318611823, -1.0];[-1.0, -0.3798452364871443, -1.0]
[-0.9096741628811856, -1.0, 0.9993051901764283];[-0.6846125490208316, -1.0, -1.0];[-1.0, -1.0, -1.0]
[-1.0, -1.0, 0.9999999864340314];[-1.0, -1.0, -1.0];[-1.0, -1.0, -1.0]
[1.3864681714303283E-6, 0.018946925841447197, 0.02415644512919997];[0.004542623783757272, -1.0, 0.028818055836752062];[-1.0, 1.3132952881734814E-4, 0.014562534047000305]
[-1.0, -0.9045701881800885, -1.0];[-1.0, -1.0, 3.732918078383896E-4];[-1.0, -1.0, 0.9976849606578302]
[-1.0, -1.0, -1.0];[-1.0, -1.0, -1.0];[-1.0, -1.0, 0.9999813228385559]
[0.3240040689962756, 0.04012139455722299, -1.0];[-0.2574756447587036, 0.060196800445739745, 0.05588704647783765];[-1.0, 0.0643581927676587, 0.03652572546198065]
[0.0673281382921923, -0.9052559081035877, 0.06192859741009987];[0.9164772351791778, 0.025011860071677175, -1.0];[0.03864481415996562, 0.05358122283100473, 0.014451314870888077]
[0.012866185249847562, -0.9014690000890804, 0.024408774859433283];[0.7263261010195863, -1.0, -1.0];[-1.0, 0.08151831618071737, 0.7129536754341596]
[-1.0, 0.06975076792853561, 0.19003051203672838];[0.18563200816891334, 0.13661464075471752, 0.04143959508108349];[-1.0, 0.09538213378944779, 0.3237192732537494]
[-1.0, 0.04669146403360187, 0.3151161428195576];[0.016517513494696903, 0.016694456255599, 0.06013483265234622];[0.06023330545514907, -1.0, 0.992486644593668]
[0.026324510494860055, 0.07716969804603536, 0.07704204279127744];[-1.0, 0.040346239820330976, 3.5153050466130156E-5];[0.0023929907671814466, 0.02958070255839265, 0.00660767721885337]
[-1.0, -1.0, 0.9997930476755683];[-1.0, -1.0, -1.0];[-1.0, -1.0, -1.0]
[0.570209435387404, 0.0451946665389541, 0.18477357907443134];[0.14093444935940663, 0.32372985251256686, -1.0];[-1.0, 0.11431966596379795, 0.04427554078928001]
[0.974142290770248, 0.029415935864057267, 0.07580798599433372];[-1.0, 0.060170169145157465, -1.0];[-1.0, -1.0, 0.06305391432793112]
[0.02314809955234384, 0.027108479733272507, 0.01997881199728726];[0.003483605997234418, 0.02315679292301416, -1.0];[-1.0, 0.07302676560919581, -1.0]
[0.0895978708214269, -1.0, -1.0];[-1.0, 0.7105338216933605, 0.04660166722910317];[-1.0, -1.0, -1.0]
[0.04970081736505841, 0.006736255751633946, -1.0];[0.038715039043659805, 0.0528840025363341, 0.06706927825894002];[0.017139683021598497, -1.0, 0.05163678828079631]
[-0.6787911467124901, 0.09084584775363516, 0.09327454114937543];[0.04924277046607727, 0.06491986801265233, 0.02741685268594576];[-1.0, -1.0, 0.012987537640971693]
[0.005065103378451519, 0.05648949037014786, -1.0];[0.048020052932938866, 0.9976529977612638, 0.056693897635530455];[-1.0, 0.05929843235336221, 0.052591237455999244]
[-1.0, -0.5395967686074613, -0.9055977733876941];[-1.0, 0.5413132267983494, -1.0];[-1.0, 0.026670728770339533, -0.6827929132893777]
[-1.0, -0.6984908835355699, -1.0];[-1.0, 0.006616951976827693, 0.002299481843185591];[-1.0, 0.007224659467152017, 0.7047462836321438]
[-1.0, -1.0, -1.0];[-1.0, -1.0, -1.0];[-1.0, -1.0, 0.9975804069021312]
[0.006144363954057897, 0.05124175592195636, 0.1125151794046784];[0.037204766331115996, 0.013599057053342588, -1.0];[-1.0, -1.0, 0.04239980640185499]
[0.21523291512679255, -1.0, -1.0];[-0.20158237492687575, -1.0, -1.0];[-1.0, -1.0, 8.133501113959197E-5]
[-1.0, 0.041389287157294695, -1.0];[0.9741257303649177, -0.9037048422802105, 0.046855518443981274];[-1.0, -0.9049681448371518, -1.0]
[-1.0, 0.01500679238812342, -1.0];[0.062480769820023145, 0.06627812139066323, 0.035638533287437484];[-1.0, 0.028286166963657034, -1.0]
[-1.0, -1.0, -1.0];[-1.0, -1.0, -1.0];[-1.0, 9.455870541079619E-27, -1.0]
[0.030393090409887615, 0.05906386141024176, 7.646328735937736E-4];[0.04256890014971214, 0.7228955848704717, 0.09453308952848168];[0.09512260589391444, 0.0998255816079856, 0.06040695070131041]
[-1.0, 0.10002905203579227, -1.0];[-0.5920655367442762, -1.0, -0.9997698774370186];[-1.0, -0.9975559153752689, -0.9729706397123894]
[-1.0, 0.08964159180325798, -1.0];[0.07677001253975146, 0.05737093536967929, 0.09996848196888419];[-1.0, 0.99254414374868, -1.0]
[-1.0, 0.03128277670495008, 0.014928663289723022];[-1.0, 0.43265463003158033, 0.04578909094869646];[0.01692074775751127, -1.0, 0.04419081550958624]
[0.028873718907370796, -1.0, -1.0];[-1.0, 0.017533700331109202, 0.0059260870537288235];[-1.0, -1.0, 0.002614906008343634]
[-1.0, -1.0, -1.0];[-1.0, 4.215439955256519E-6, -1.0];[-1.0, -1.0, -1.0]
[0.02203266138020791, 0.05415697294051436, -1.0];[0.7240383761622579, 0.027571806163889497, 0.40623319056703877];[0.05777448476310583, 0.014863781998461757, 0.30929778976587624]
[-1.0, -1.0, 0.007502007592410632];[-1.0, 0.008604016236786458, 0.004201608812861685];[-1.0, -1.0, 0.024427601269352596]
[-1.0, -1.0, -1.0];[-1.0, -1.0, 2.645399954258654E-6];[-1.0, -1.0, -1.0]
[0.14397205078002745, 0.06963771349723676, 0.05330043805607507];[0.249100804617225, 0.35757980141541945, 0.045697853339744264];[-1.0, -1.0, 0.046943495700216636]
[0.07130655619184449, 0.008217815708064525, 0.41087821208390635];[0.04902471762283377, 0.043356733101021686, 0.06829891459285302];[-1.0, -1.0, 0.031293855287765904]
[0.03228586966267383, 0.0741292150706288, 0.08907717411098708];[0.030897948223742033, 0.7069533887335047, 0.09890150548968578];[0.08834218283375679, 0.09964463066613524, 0.07750020879660624]
[0.004525487144140939, 0.013300277882110268, 0.05907870610533099];[-1.0, 0.18961597768388694, -1.0];[0.01650256712980799, 0.02260199499772736, 0.057769700770833265]
[-1.0, 0.39091276300819344, 0.7014000590798766];[-1.0, -1.0, -1.0];[0.05090526542422194, -1.0, 0.013046944410547115]
[-1.0, 1.5583251864613205E-6, -1.0];[-1.0, -1.0, -1.0];[-1.0, -1.0, -1.0]
[-1.0, -0.4415550314110932, 0.030297460672267303];[-1.0, -0.5704471353547905, -1.0];[-1.0, -0.5361900143117554, 0.03870819090198614]
[-1.0, -1.0, 0.9750404215469137];[-1.0, -1.0, -1.0];[-1.0, -0.6849413853870135, -0.9022115747340479]
[-1.0, -1.0, 0.999332954183328];[-1.0, -1.0, -1.0];[-1.0, -1.0, -1.0]
[-1.0, 0.4001479472662201, 0.05083183935774957];[0.00219217851975011, 0.04124992710757293, 0.06712551550173737];[-1.0, 0.0033652205133100077, 0.017850717085946922]
[0.022146228528587598, 0.037327793623345616, -1.0];[0.03001186892404716, 0.09904681584630208, 0.04824330593444259];[0.049802493435942265, -1.0, 0.7102954814372064]
[-1.0, 0.048758264696604256, 0.4656311186179174];[0.03898880803910252, 0.3941293468261115, 0.026500097428511095];[-1.0, -1.0, -1.0]
[0.07321203135524829, 0.026890269682448932, 0.05325655100293295];[0.037868459481429445, 0.060044012429708686, 0.055439042907167516];[0.07453753590097048, 0.05887045318301786, 0.020363920497778777]
[-0.6064386914813429, -1.0, -0.6845808124354666];[-0.6767165846190347, -1.0, -0.16497615354326034];[-1.0, 0.9130322955008736, -1.0]
[-1.0, -1.0, -1.0];[-0.6740048622982404, -1.0, 0.9739859041868723];[0.034878155666521526, 0.03107033052887308, -1.0]
[-1.0, 0.006691601204066045, 0.059826185253445345];[-1.0, 0.5134997909970895, 0.018991088266222714];[0.04327540729880172, 0.016455552444456824, 0.03940250808456217]
[-1.0, 0.06831352604472078, 0.7277129585642604];[0.015279714948977154, 0.038777293295000514, 0.02361846181750679];[-1.0, 0.027611289959818566, 0.08280191855270952]
[-1.0, 0.05097106388889225, -0.6889327446686541];[0.06456592931115547, -1.0, -0.6912966212421048];[0.011781169858375419, -1.0, 0.9749820481874862]
[0.33377155719600193, 0.09387930290021551, 0.07486927504305584];[0.08503769834882624, 0.03698497326898905, 0.061762414802123335];[0.09289111990146226, 0.0726065474280695, 0.3065252970121011]
[-0.970754461736972, 0.05775575020479065, -1.0];[-0.6846621075289675, 0.7023150773436483, -1.0];[-1.0, -1.0, -1.0]
[-1.0, -0.9914632598733302, -1.0];[-1.0, -0.9992399681464796, -0.972626987645438];[-1.0, -1.0, -1.0]
[0.06485067821468246, 0.016733295822416134, 0.07334699269990828];[0.03429244658894325, 0.03796572208108735, 0.03582225515734072];[0.06920858172733133, -1.0, 0.04705344938944135]
[0.05913723045977209, 0.01707778651589491, 0.0088250879419995];[-1.0, -1.0, 0.3105620034304695];[-1.0, 0.9923942974580018, -1.0]
[0.23906310910717896, -1.0, 0.06057178597634681];[0.22656811366799315, 0.2637997119883802, 0.05401497695811118];[-1.0, 0.11309873065186093, 0.20454302165559674]
[0.09471998173030592, 0.04723345193519615, 0.1807667898617788];[0.9927021491881287, 0.035086593213191276, 0.08942663486870729];[0.059769882469034266, 0.062049184445683164, 0.051870325336111286]
[-0.9886644876566111, -0.4927354596861283, -1.0];[0.11533451765395833, -1.0, -1.0];[-1.0, -0.6992753151031523, -0.9644351372519285]
[0.005741913529599796, 0.723579544476931, 0.0320813914583023];[0.0779612014167188, -1.0, -1.0];[-1.0, 0.006099915283331092, -0.9975242008856815]
[-1.0, 0.0017751926349896308, 0.015699092509815972];[-0.691502430900305, 0.05531454467346826, 0.009707419334959534];[-1.0, -0.6703332602126058, -1.0]
[-1.0, 0.010423938435155135, 0.08031075765927265];[0.07379272184302185, 0.016380245153301633, 0.06669897576271969];[4.136536786650269E-4, 0.06666819566947509, 0.031926147307865436]
[0.039813734377772705, 0.08934185181544775, -1.0];[-0.6715964219585736, -1.0, 0.08233084906537115];[0.06869389043180638, 0.052658012989506675, 0.7262073758561371]
[0.029731585752861847, -1.0, 0.013090466860295014];[0.02350123471342146, -1.0, -1.0];[-1.0, 0.043267285891712304, 0.9746217087255351]
[0.17402461084777857, 0.03186995088914232, 0.11018729282594754];[-1.0, 0.05358052320573974, 0.047982187556711034];[-1.0, 0.4660487332502401, 0.052780815438590076]
[-1.0, 0.03834565763221651, 0.5988729954369069];[-1.0, 0.01980066859268234, 0.04133891204406001];[0.044297528430664194, -0.04441030448157657, -1.0]
[0.08612159345444419, 0.9130008181347967, 0.03651673535994726];[0.009535971749918805, 0.048725463203425926, 0.02849546498514496];[0.007445047233963054, 0.0036946150099610555, 0.046980981997006656]
[0.02706169354239073, 0.01915053696025795, -1.0];[-1.0, 0.975089002991191, -1.0];[0.0589115973655064, -1.0, 0.033895988674459435]
[-1.0, -1.0, 0.991995344346026];[-1.0, -1.0, -1.0];[-1.0, -1.0, -1.0]
[-1.0, -1.0, -0.5216088177483607];[0.05835165754615906, 0.051192011283159804, -1.0];[-1.0, 0.055370918719082146, 0.052019140100985725]
[-1.0, -1.0, -1.0];[-0.6917668954230155, -1.0, -1.0];[-1.0, 0.9921244333884366, 0.005578068324847866]
[-1.0, -1.0, -1.0];[-1.0, -1.0, -1.0];[-1.0, 0.9999402659076593, -1.0]
[0.06595369074489031, 0.06234462977144928, -1.0];[0.014944065384976302, 0.7075479976208234, 0.03118857050843008];[-1.0, -1.0, 0.08572441292102762]
[0.09585851128220349, 0.35377660750339657, 0.08731113075352553];[-1.0, 0.3497748583519613, 0.07999842051364985];[-1.0, -1.0, -1.0]
[-0.6800187489654106, 0.034932024990896114, 0.997743220278309];[-1.0, 0.0328991341063807, 0.010697231824987875];[-1.0, -1.0, -1.0]
[0.06397594775128085, -1.0, -1.0];[0.052552572017470586, 0.05224923755989555, 0.04200677119082829];[-1.0, 0.06441246888254877, -1.0]
[0.914394425338159, -1.0, -1.0];[-1.0, 0.06820520044039706, 0.03888874748904202];[-1.0, 0.06546660846551036, 0.08051873563380488]
[0.04501692498545732, 0.056847220952466776, 0.1785646743851488];[0.06479007554805066, 0.04075982403405446, -1.0];[-1.0, 0.033560210839161476, 0.012012522888414468]
[-1.0, -0.6989487810523018, -0.6758402758440418];[0.053079218662631704, 0.7198960108184909, 0.0641797322458295];[-1.0, -1.0, 0.01807339981206646]
[0.06933101057656682, 0.05231167030465366, -1.0];[-0.8805418810044305, 0.014428260765797653, 0.3269361004200171];[0.008879118781080353, 0.3173337986407503, 0.01969811762371774]
[-1.0, 0.031736722013010935, 0.02186551095677827];[-0.674554647518474, 0.717357709679798, -0.6830870437777867];[0.006780176949818828, -1.0, 0.08906706375417744]
[-1.0, -0.5449743929606778, -1.0];[-1.0, -0.5778526419091614, -0.8916582944173735];[-1.0, -0.8711474455744505, -0.9718649748046957]
[0.08108174987889682, 0.06335469755281861, 0.051276222238477144];[0.003551179306743757, 0.0015104795231309033, -0.6802525271013076];[0.05350298974551973, 0.01800339791049238, 0.7287648880971672]
[0.028529489390603638, 0.06659702093353956, -1.0];[0.01558564163225623, 0.044537228237396684, -1.0];[-1.0, 0.022512676188076775, 0.03983638595045842]
[0.09861334754038131, 0.08571960625535119, -1.0];[0.0010263962518899106, 0.02844332372879409, -1.0];[0.04409160445966545, 0.01218890980163574, 0.04841922590374077]
[0.06474140940741901, 0.029930285471019825, -1.0];[0.0350833629229519, 0.06039561469426408, 0.00857512715771951];[0.042100496062638985, 0.2884550184824788, 0.038886066187857594]
[-1.0, 0.0934782079204925, -1.0];[0.9122550685768196, 0.4051526030913812, -1.0];[-1.0, -1.0, 0.3260943060264585]
[0.011663853333501308, 0.026846517166554465, 0.026136998811065428];[-1.0, 0.01591771569498591, 0.02581505914535528];[-1.0, 0.03260720252253178, 0.013987218919108502]
[-1.0, -1.0, -1.0];[-1.0, 0.997714152163968, -1.0];[-1.0, -1.0, -1.0]
[0.03382379569038672, 0.01340557501747235, -0.6787867493962416];[0.04453516922132521, 0.01628145843651635, 0.044934408369540116];[-1.0, 0.9753827360650685, 0.02237241698720669]
[-0.6890324269479943, -1.0, -0.6823376656276327];[0.03264442603442989, -1.0, 0.1877737461414965];[-1.0, -0.6908333184767887, -0.6883558493544092]
[0.07169615702366293, 0.0995953967942293, 0.06667945519945069];[0.07861909734058763, 0.09913824645718922, 0.010396009806856643];[0.009955632090414224, 0.006687113116301358, 0.017849941094117874]
[-1.0, -1.0, 0.9921766852037532];[-1.0, -1.0, -1.0];[-1.0, -1.0, -1.0]
[0.20039571388680677, -0.9726505992472326, 0.3935316488436593];[-1.0, -1.0, 0.9999983964698353];[0.14094179617525504, -1.0, 0.05822355599864091]
[0.5280037790219035, 0.3160194977552437, 0.3400880763466268];[-1.0, -1.0, 0.09151849061447823];[0.3285285591882509, 0.1480398994360524, 0.2872903526853641]
[0.3854968484247888, -1.0, 0.7298596593087082];[0.005624731076193212, -1.0, 0.05283056116688283];[0.06938549271437552, 0.05926755252751791, 0.06636626929653544]
[0.04766258617013811, 0.04404716192937212, 0.02938715860967053];[0.43067278462605074, -1.0, 0.015283233347081149];[-1.0, -1.0, -1.0]
[0.01765930212796888, 0.5502552523884, -1.0];[-1.0, -1.0, 0.012659016488192188];[0.0036301515136260456, -1.0, -1.0]
[0.9999999865850132, -1.0, -1.0];[-1.0, -1.0, -1.0];[-1.0, -1.0, -1.0]
[0.018664568506125113, 0.03904463929304816, 0.9752101055167863];[-1.0, 0.06667479531918481, 0.20839049053404413];[0.06651283773622978, 0.02460179249050112, 0.023196762129784512]
[0.4196642184705596, 0.022059186406233607, -1.0];[5.695600242188267E-5, -1.0, 0.004126302349541901];[0.0012286262092065384, 7.675278923602357E-4, 0.01160765642118701]
[-0.9074311646843776, 0.9999370926093966, -1.0];[0.01832404477239097, 0.004321401219157017, -1.0];[-0.9974539478390043, -1.0, 0.04901243033261451]
[0.016527518471345974, -1.0, -1.0];[0.1522080070211598, -1.0, 0.0594769568786158];[-1.0, 0.041701270482352976, 0.5016150421404217]
[1.8760610672167116E-9, -1.0, -1.0];[0.04120200073093275, -1.0, 2.463482796038464E-10];[-1.0, -1.0, -1.0]
[-1.0, -1.0, -1.0];[-1.0, -1.0, 0.999999953509433];[-1.0, -1.0, -1.0]
[0.547609120440069, -1.0, -1.0];[0.016878940943098785, -1.0, -1.0];[0.01930028256325317, 0.07362166363458165, 0.32237161843802137]
[-1.0, -1.0, -1.0];[0.025213498316533467, -1.0, 0.087282874254067];[0.9755351249089599, 0.08886906979484765, 0.07674071705972473]
[-1.0, -1.0, -1.0];[-1.0, -1.0, -1.0];[-1.0, 4.2866742947457524E-17, -1.0]
[-0.9901846100948191, -1.0, -0.9914334237015641];[-0.6910582851930352, -1.0, -0.9905933372529837];[-1.0, -1.0, 0.1381907224772154]
[-1.0, -1.0, -0.6704067426026494];[-1.0, -1.0, 0.9152220088095141];[-1.0, -1.0, 0.003036600630068418]
[-1.0, 0.023308472558525417, 0.7002904072013694];[-1.0, 0.013961872477409898, 0.01580641777796584];[-1.0, 0.00994980023480876, 0.02403087080230795]
[-1.0, -1.0, 0.9735206216661759];[-1.0, -1.0, -1.0];[-1.0, -1.0, -1.0]
[-0.6872015628349069, -1.0, -1.0];[-0.16540273225859903, -0.7123142612299199, 0.04584750581046744];[-1.0, -0.90439465201266, -1.0]
[0.02257597718412736, 0.03896592906834709, 0.06852985340250849];[0.42491936173542744, 0.05322400953309889, 0.03406941696005004];[0.06919919779395826, 0.020073865441619588, -1.0]
[-1.0, -1.0, -1.0];[-1.0, 6.210114350052814E-7, -1.0];[-1.0, -1.0, -1.0]
[0.9742526780787122, -1.0, 0.42615270641100567];[-1.0, -1.0, -1.0];[0.040747303680256974, -1.0, 0.4182301598618134]
[-0.6007633186050507, 0.3105120580270308, -1.0];[-0.6983118770878023, -1.0, -1.0];[-1.0, -1.0, -1.0]
[0.729797358072083, 0.08410476817779526, 0.014695081816551082];[-1.0, 0.041586939198793506, 0.04940863797708499];[-1.0, -1.0, -0.6778351837347316]
[0.9106011192878998, -1.0, 0.047263375961213806];[-1.0, 0.7002663797718853, 0.08558876942191429];[0.022636562573962973, -1.0, 0.009673520650746871]
[-1.0, 0.03965128690749946, 0.05323812483817403];[-1.0, 0.5466410769493014, 0.2172622126292609];[-1.0, -1.0, -0.27611180975482114]
[0.07836631421328143, 0.0845648656457689, 0.9180581049978817];[0.023847136525504898, -1.0, 0.042169337244864415];[-1.0, -1.0, 0.7067335806771112]
[-1.0, -1.0, -1.0];[-1.0, -1.0, -1.0];[-1.0, -1.0, 0.9993032693541505]
[-1.0, 0.029319870285823446, -1.0];[-1.0, -1.0, 0.7249939474491267];[0.06271129080229745, -1.0, -0.2713166509847894]
[-1.0, 0.4362187816914633, 0.0552852070212567];[0.7112483206230842, 0.008793072528644575, 0.004823949297355168];[0.05374558254579401, 0.047498279750412, 0.05557270770919316]
[-1.0, -1.0, -1.0];[0.9999998455550697, -1.0, -1.0];[-1.0, -1.0, -1.0]
[0.04187340443783727, -1.0, 0.9135389238720619];[-0.903233083943031, 0.06597965821800653, -0.6033054270690215];[-1.0, 0.010043195650285199, 0.036424712874835896]
[0.07680289671565603, 0.06600832166453442, 0.06931129995377683];[0.08493723727308672, 0.9182684296719578, 0.08390932726076475];[0.0511009228745687, 0.006022488355678446, 0.04739004626323172]
[0.04739584934775917, 0.0289425696984228, 0.053425140436090625];[0.9977046064125069, -1.0, -0.6832457922369222];[0.05112050610501665, -1.0, -0.39440228807080785]
[0.004760099129986517, 0.03312619877677036, 0.05096382743851723];[-1.0, -1.0, 0.0036217917627701214];[-1.0, 0.03748789808034438, -1.0]
[-1.0, -1.0, -1.0];[-1.0, -1.0, -1.0];[-1.0, 9.496812714859555E-11, -1.0]
[0.03772274324142629, 0.03457189484261869, 0.04809124833244882];[-1.0, 0.07091757436436072, 0.038262020635840444];[0.48102034856061615, -1.0, 0.030229378345373554]
[0.005099005326811224, -1.0, 0.03580422711976614];[0.053077209076476214, 0.061291478521396575, -1.0];[-1.0, -1.0, 0.916245872149482]
[-1.0, -1.0, 0.5772173668040197];[-1.0, 0.32672488679047224, -1.0];[-1.0, -1.0, 0.0032152662280707013]
[-1.0, -1.0, -1.0];[-1.0, 0.9999355557921948, -1.0];[-1.0, -1.0, -1.0]
[0.3172006212111373, 0.04450786516625702, 0.043924683477894924];[-1.0, 0.06255823551047271, -1.0];[0.7228558996276166, 0.0759523663267338, 0.07685385541308269]
[0.7296093098567751, 0.031443528492774764, -0.971604429420761];[0.09758581611845857, 0.04809130838806091, 0.019690359751125253];[0.06751226092247263, -1.0, 0.08903371998404495]
[0.9730431084589023, 0.06515551263554267, -1.0];[-1.0, -1.0, -1.0];[-1.0, -1.0, -1.0]
[-1.0, -0.5638185610812176, -0.9991225812853421];[0.004660151712832319, -1.0, -1.0];[-0.9974437237559614, -1.0, -0.8102820595785375]
[0.055582324642639125, -1.0, 0.04056155547272229];[-0.6860148387077599, -1.0, 0.0068431434702352694];[0.022182138733634872, -1.0, -0.6903625054442524]
[-1.0, 0.026461773073438867, 0.9155059624449833];[0.05239857834983627, -1.0, -1.0];[0.03728452888348251, 0.05172011899714514, 0.012498891550959247]
[0.03329068353941159, -1.0, -0.6752132424896343];[0.04933502160528922, 0.9188908820199546, -1.0];[0.3095624809105522, -1.0, 0.3129033410343864]
[-1.0, 0.005484972320318459, 0.1271922721471726];[0.08854540309922361, -1.0, 0.0556878534556923];[0.023758136081153097, -1.0, -1.0]
[0.018858237300275773, 0.9992848860558047, -1.0];[-1.0, -1.0, -1.0];[-1.0, -1.0, -1.0]
[-1.0, -1.0, 0.09350936534245842];[-1.0, 0.002472901712347886, 0.18718380912468027];[0.04310486304710329, -1.0, 0.055007894589687974]
[0.03329116848750483, -1.0, 0.012882757089168195];[-1.0, 0.052470535729261907, -1.0];[0.021234530296397814, -1.0, 0.4090509725140949]
[-1.0, -1.0, 1.0039810442880539E-26];[-1.0, -1.0, -1.0];[-1.0, -1.0, -1.0]
[0.022015923842023322, 0.9993353310843098, 0.018049427263561613];[0.0036591548556599075, 0.05197287362127792, 0.0674606015765687];[0.085335279675204, 0.04236966786947868, 0.0637970867771811]
[0.06977356766821775, -0.6981711775803409, 0.055383824959833766];[0.07096842607151573, 0.094313374085642, -1.0];[0.06511320410620036, 0.09271580061959235, 0.032697885541091036]
[0.061564510380755735, 0.06373254311474956, -1.0];[0.04418859525585768, 0.041213655839547385, 0.049452499618861646];[0.9750530505854291, 0.012454264143343685, 0.013781613949474204]
[-1.0, 0.07657164582248092, 0.06679579239458618];[0.011718240589414654, 0.05876027203365456, 0.08571555672166291];[0.9734535400036536, 0.07020271880432198, 0.0994668544535062]
[0.06202316943726637, 0.006110487378736185, 0.03859662709044217];[0.06756916445548103, 0.060448658443969086, -1.0];[0.01717109559194837, -1.0, -1.0]
[0.06672674951650305, -1.0, 0.5821130615304244];[0.7299753176830519, 0.06540619206657367, 0.00713595421483636];[-0.9093397929165894, 0.04048755506498661, 0.024283244436184615]
[-1.0, -0.9729535421118019, 9.180360196636646E-5];[-1.0, -1.0, -1.0];[-1.0, -1.0, -0.6821644992684515]
[-1.0, -1.0, 1.5937002066384725E-7];[-1.0, -1.0, -1.0];[-1.0, -1.0, -1.0]
[0.0013224472140494381, -0.37083713957317815, -0.6922018897588708];[-0.37282233444715, -1.0, -1.0];[-0.696557276523919, -1.0, -1.0]
[0.027383348011283032, 0.08295653430102239, 0.05188845026037797];[0.08427730743424838, -1.0, 0.08969233196513143];[-1.0, -1.0, -1.0]
[-0.9720203745243949, -0.9914561273654353, -1.0];[0.02243636173782156, -1.0, -1.0];[-0.9711104684395659, -1.0, -0.8999404232484367]
[-1.0, 0.0017111739122136372, 0.028940400152267256];[0.06262756344494047, 0.04528247305489367, -1.0];[0.9923234009390147, -1.0, -1.0]
[-1.0, -1.0, -1.0];[-1.0, -1.0, 0.004752614763549524];[0.9997830282823116, -1.0, -1.0]
[0.9132935435053027, -1.0, -1.0];[0.060678258718524704, 0.05208247463050293, -1.0];[-1.0, 0.053326518005746136, 0.019540085844912083]
[0.09985639433691262, 0.001059353860784884, -1.0];[-1.0, 0.05080698097645051, 5.478015330121821E-4];[-1.0, 0.053885492992595485, 0.050408779423980574]
[-1.0, -1.0, -1.0];[-1.0, -1.0, -1.0];[-1.0, 4.5411130848716826E-8, -1.0]
[0.017751530648447034, 0.03127807318237793, 0.006616881300473609];[0.02061984735515289, 0.023111627877944532, 0.7105978190465626];[0.030612733499762193, 0.03996798991015681, 0.05969186093416126]
[0.011165864501852663, -1.0, -1.0];[-1.0, 0.13695081618322424, 0.02724388353822396];[0.03180517458698674, -1.0, 0.04305722143713915]
[0.4266588585493766, -1.0, -1.0];[-1.0, -1.0, 0.017280156590352407];[-1.0, -1.0, -0.6111050178420518]
[1.065453370981233E-22, -1.0, -1.0];[-1.0, -1.0, -1.0];[-1.0, -1.0, -1.0]
[0.05451275809867351, -0.2631498409331824, 0.09349509548480747];[0.06410222452966237, 0.027661600717122602, 0.09200479366261777];[-1.0, 0.02661153167020911, 0.016146442471807132]
[0.048287738465901134, 0.04756687428044335, 0.005329643775407955];[0.050552920997047425, 0.04580857042253333, -1.0];[0.041423469698658455, 0.016741413911328516, -1.0]
[-1.0, -1.0, -1.0];[0.99998037171713, -1.0, -1.0];[-1.0, -1.0, -1.0]
[0.0049256995558458645, -0.6858607119054412, -1.0];[0.7082681683173568, -1.0, -1.0];[-1.0, -0.571858801734562, -1.0]
[0.17192739736157284, 0.052697192897908064, -1.0];[-1.0, 0.13944653761125186, 0.3102351474019148];[0.03442043303686231, 0.07633969673798775, 0.03445083443383991]
[0.06698812191415343, 0.05657755958164651, -1.0];[0.030738931673375203, -0.6079148713632806, 0.004380334767730754];[0.052278529709639136, 0.07130719238410678, 0.026456458099938265]
[0.07761387241212807, 0.0064261992840299875, 0.03014346650735186];[0.06497032037897911, 0.014229313909825902, 0.01834134414156422];[0.008047937328642363, 0.02442442762614997, -0.6767151364914875]
[-1.0, -1.0, -1.0];[-1.0, 0.7266269364637856, 0.052781560139038224];[0.016668050701674098, 0.036619044418787654, 0.07926531888681586]
[-1.0, -1.0, -1.0];[-1.0, 0.997754425858035, 0.0832706033712532];[-1.0, -1.0, -1.0]
[-1.0, 0.9731965217966578, 0.02890434969424448];[-1.0, -1.0, 0.030255162694844507];[-1.0, -1.0, 0.9920349425520104]
[0.9153503156645748, -1.0, -1.0];[0.042122695714502195, -1.0, -0.6875143560064614];[0.031564112823587835, -0.698343680493367, 0.01439595462633847]
[0.0999653679881233, 0.06550836001581316, 0.03335613800960233];[0.06304152519236259, 0.0037126085547901978, 0.003906537484177075];[0.027731557632579312, 0.015139461292398005, 0.03718654146284366]
[0.5436522728478881, 0.041751623420265976, 0.04974194906968702];[0.05552057053527318, 0.05824207244347606, 0.03282000631457167];[0.0012673338230693833, 0.05977293788590226, 0.001169898149520443]
[-1.0, -1.0, 0.06861445338450013];[0.025819061427916734, 0.7135352318167218, 0.09417192023165877];[-1.0, 0.07283558379513755, -1.0]
[0.9116904964155055, 0.0826258645773947, -1.0];[0.07603310030555832, -1.0, -0.6815032498067406];[-0.6730343291160097, -1.0, -1.0]
[0.020614636233785146, -1.0, 0.013859391413133238];[0.09912757628747673, 0.08122323371846957, 0.04842253517467635];[0.04154503289469194, 0.09833829002830928, 0.08611984256555871]
[-0.6734530604962953, 0.003955697693456483, -1.0];[0.04056182930548302, 0.05770547288331859, 0.0894063541045445];[0.7035895208812502, -1.0, -1.0]
[0.0653990440367469, 0.0834518725012988, -1.0];[-1.0, 0.9108155145095203, 0.09644220788571173];[0.009838229865696891, 0.06285727886238489, 0.1355701567578407]
[-0.6743534756872724, 0.07613447813233186, 0.09494050324571565];[-1.0, -1.0, 0.045001044029984776];[-1.0, 0.009313871630429849, -1.0]
[0.0014962663269698084, 0.04585916214555783, 0.04175478541796385];[0.07577234800535196, 0.03032949859281678, 0.05153245245181089];[0.09494242847310787, 0.055909879096070064, 0.08274302874328832]
[-1.0, 0.006484341713255915, 0.00427928334024863];[-0.6743003740456005, 0.023543230631838597, 0.016307907736009132];[-0.6834987889949709, -1.0, -1.0]
[0.01718046931924354, -1.0, -1.0];[-1.0, 0.9746696069317493, -1.0];[-1.0, -1.0, -1.0]
[-1.0, 0.08609893676035994, -1.0];[0.01715552732939171, 0.053083968476016166, 0.03578370095058131];[0.9920555816428941, -1.0, 0.0410870580608873]
[-1.0, -1.0, -1.0];[-1.0, -1.0, -1.0];[0.9997861374795303, -1.0, -1.0]
[0.05363306030539664, 0.06537909757978204, -1.0];[0.0567025223537915, 0.043593166973479563, -1.0];[0.06745701494478211, 0.4344762215353084, -1.0]
[0.09152563667673944, -1.0, -1.0];[0.0989194899007329, 0.9147567632621241, 0.019567946640619262];[0.02516491370470938, 0.4417539423351827, -1.0]
[0.03314588930397425, 0.012411165518106082, -1.0];[-1.0, 0.429504492543389, 0.03382139070349584];[0.03696475403666517, -1.0, -1.0]
[0.028057602160221184, 0.050589411568278536, -1.0];[0.040956426635351574, 0.05275118807575397, -1.0];[-0.6999444593207508, -1.0, -1.0]
[-1.0, -1.0, -1.0];[-1.0, -1.0, -1.0];[0.9993283961674926, -1.0, -1.0]
[0.009263121369413952, 0.42735581592872623, 0.01831709924011371];[0.01803676734290306, 0.04639485327962931, 0.0527852218167038];[0.018708875220176613, 0.05918835737815113, 0.03798395367755719]
[-1.0, -0.9914556863970514, 0.03318534141012376];[0.10689539852428631, -0.5802236912579012, -0.997487031769099];[-1.0, -1.0, -0.6890080865246957]
[-1.0, -1.0, -1.0];[2.481311138085223E-6, -1.0, -0.999160916770667];[-1.0, -1.0, -0.9994878660560615]
[0.0179685821721595, -1.0, 6.554060934692231E-4];[0.031555330996136194, -1.0, 0.019230323987115452];[-1.0, -1.0, -0.5225968536367158]
[-1.0, -1.0, 1.8680383282779443E-7];[8.489676877842041E-6, -1.0, 2.7558701356724457E-5];[-1.0, -1.0, -1.0]
[-1.0, -0.5705309642261228, 0.1266031836913099];[-0.9727677832207656, -1.0, 0.18610245417828328];[-1.0, -1.0, 1.7805041294525527E-4]
[-1.0, -0.9058369372068654, -0.9918244050653023];[-0.9707384379028348, -1.0, -1.0];[-1.0, -1.0, -1.0]
[0.03951855646083527, 0.04474287974114088, 0.0824899126414187];[0.0576524263548714, 0.07749919415838681, 0.0297136545766605];[-1.0, 0.05040105551671247, 0.9750668564570343]
[-1.0, -1.0, -0.934085332770746];[-0.9059473413111295, -1.0, 0.1761756873825387];[-1.0, 0.08396157822386374, 0.22630040602788623]
[-1.0, -1.0, -1.0];[0.01628948258152671, -1.0, -1.0];[-1.0, -0.5809590922277538, 0.4235131966933454]
[-1.0, -1.0, -1.0];[-1.0, 0.014262800657448406, -1.0];[0.050222344383694655, 0.05646575974946999, 0.9747784288455729]
[0.028646851073745386, 0.029307905179561722, -1.0];[0.03349798617969171, -1.0, 0.041242155334462835];[-1.0, -1.0, 0.027272189084527387]
[0.036398329103730864, -1.0, 0.056327815065325276];[0.01898542367173984, -1.0, -0.6803292625688216];[-1.0, -1.0, 0.05503079330021328]
[-1.0, -1.0, -1.0];[-1.0, -1.0, -1.0];[-1.0, -1.0, 1.1833641551282373E-10]
[0.03456199065803366, 0.08315596694494967, 0.03636889381121304];[0.06695621833729207, 0.7098692942046936, -1.0];[0.0470057621954405, 0.038359011502063736, 0.0859610260999376]
[0.028834763322002046, 0.07189872534158609, 0.05376012261251263];[0.028772929850546983, 0.7030092991236616, 0.03627068829292122];[0.09078844134787654, 0.09638449583367681, 0.0960810473337283]
[0.09068579152604886, 0.7227636429112847, 0.9168516142204332];[-1.0, 0.05327562507619842, 0.48327314053611936];[0.010365756171946428, 0.019750949237303906, 0.0236587062448964]
[0.05707564222924568, 0.04033096449260524, -1.0];[-1.0, 0.9975786721836724, 0.008763788892011126];[0.043017371358066735, -1.0, 0.05829327699254789]
[-1.0, -1.0, -1.0];[-1.0, 0.9745583365248285, -1.0];[-0.9913279432035622, -1.0, 0.3206524476221502]
[0.04156210217587523, 0.0896626652857616, 0.12535567477362503];[-0.06437621788995031, 0.5830450355931225, 0.04557975389127374];[0.07115881663340828, -1.0, -1.0]
[-1.0, -0.9036601216774245, -1.0];[-1.0, 0.9124913256447977, -0.9971318199947478];[-1.0, -1.0, -1.0]
[-1.0, 0.9999814083365898, 0.5919762509122047];[-1.0, -1.0, -1.0];[0.12729073951520897, -1.0, -1.0]
[1.0607680612962481E-42, -1.0, -1.0];[-1.0, -1.0, -1.0];[-1.0, -1.0, -1.0]
[0.3989626156182443, 0.01729973269404225, 0.06373737610670169];[-1.0, -0.9712470968096111, 0.010673835229778583];[0.03352527125506335, -1.0, -1.0]
[0.016392171438435067, -0.6777554761862492, -0.6755909458495871];[-1.0, 0.038538020510983595, -0.6750373595113901];[0.033805814313849804, -1.0, -1.0]
[0.039964687916425795, 0.02803789207014388, 0.029523494553987666];[-1.0, 0.060830918215500546, -1.0];[0.19053525453540437, -1.0, -1.0]
[3.608644012614287E-4, 0.9976620858176237, -1.0];[-1.0, -1.0, -1.0];[0.008215719761157734, -1.0, 0.03242455895407844]
[-1.0, -1.0, -1.0];[-1.0, -1.0, -1.0];[6.982977094539088E-45, -1.0, -1.0]
[0.07261786792793355, 0.013450333088232336, 0.08087038754651361];[-1.0, 0.9180012527950274, 0.023875944239354175];[-1.0, 0.004883098190405999, 0.05772958068857697]
[-1.0, -1.0, -1.0];[-0.9704876222667629, -1.0, -0.9019186977072363];[-0.999979375914079, -0.24501545122770685, 0.0015601594256178493]
[-1.0, 0.05332542720952647, 0.7258226577884461];[0.02883372814859471, -1.0, -1.0];[-1.0, -1.0, 0.9187638631893706]
[-0.9304282845361906, -1.0, 0.01608107038144942];[-1.0, -0.6994146054794222, -0.26696079948770435];[-1.0, -1.0, 0.046955025364677716]
[-1.0, -1.0, 0.026336892824170233];[-1.0, -0.9912059056663988, -0.688443636851022];[-1.0, -1.0, 8.742307493989293E-4]
[-1.0, -1.0, -1.0];[0.014696556742246715, -1.0, -1.0];[-1.0, -1.0, 0.97436699535963]
[0.5182543491539571, -1.0, 0.034268743238109224];[0.14626258139712622, -1.0, 0.008602356481056672];[-1.0, 0.9999995188020766, 0.07438711746025635]
[-1.0, 0.04823104606260518, -0.6792288106310488];[-0.972551841125879, -1.0, -0.9708789374569308];[-0.40704839761561945, -1.0, -1.0]
[-1.0, -0.9912789008940617, -0.9973501874075841];[-1.0, -1.0, -0.9726183613327178];[-1.0, -1.0, -1.0]
[-1.0, -0.6977609257584347, -0.9028328514937368];[-1.0, 0.03369514027216438, 0.03511467833521866];[0.9747285692957662, 0.006580766429280127, 0.025797199036504383]
[0.016905155450605325, 0.018013087763099244, 0.07188493619884806];[0.002744564549361306, 0.7277172590149626, 0.0441130020910515];[0.05361630709342975, 0.005159581395169888, 0.053316630906775866]
[0.027136927645437993, 0.03453496731314328, 0.09381399055183952];[0.0034429813614122676, -1.0, 0.06312726307050597];[-0.6721420401584512, 0.06272448459538267, 0.03978588935279669]
[0.07936451868587575, -1.0, 0.9977688864892343];[0.09125412735451896, -1.0, 0.07204894688401654];[-0.9034591579328547, 0.038678953289832924, -0.6936064627619785]
[-1.0, 0.05128816793858255, -0.6713082122633227];[-1.0, 0.048257436927618094, -1.0];[0.007437587774507688, -1.0, -0.5805916421929622]
[-1.0, 0.04132056520248391, 0.9183954852327352];[0.07006384947826799, 0.7012787589101901, -1.0];[-1.0, -1.0, 0.03816183232967629]
[0.0045004075120547125, 0.4224261619276927, -1.0];[-1.0, -1.0, -1.0];[-1.0, -1.0, 0.0017089876377785697]
[-0.688419786638041, -1.0, -1.0];[0.04925327497549643, 0.9149968204120064, 0.013081275848911035];[0.019235086331635898, -1.0, 0.019982741912914895]
[0.04123357590136634, 0.044470920078342024, 0.020411094137525024];[0.06372115434730594, 0.19070912580063887, 0.03663829409305935];[0.08001403360095875, 0.01435401901515273, 0.06759453179654505]
[-1.0, -1.0, 0.020404155493444077];[-1.0, 0.017242699930248656, 0.08293695571957078];[0.013636758276819361, -1.0, 0.036288945817829946]
[-1.0, -1.0, -1.0];[-1.0, 8.240244596619799E-7, -1.0];[-1.0, -1.0, -1.0]
[-1.0, -0.017063912293129396, -1.0];[0.5336546712649393, 0.04802426535048818, 0.2966456177195115];[0.14279230882039287, 0.1669918441765036, 0.06615354763287695]
[-1.0, 0.01430146771786236, -1.0];[-0.6958097802860336, 0.9922551433578324, 0.011990522521048264];[-1.0, -1.0, -1.0]
[-1.0, -1.0, -1.0];[-1.0, 0.31754510469100694, 0.011704042639218898];[0.019458638709248167, -0.24646809182173407, -0.2705520600922865]
[-1.0, -1.0, -1.0];[-1.0, -1.0, -1.0];[7.35991539929762E-5, -0.29130003573746077, -0.9038782328231865]
[0.03449188636799371, -1.0, -1.0];[-1.0, -1.0, 0.018467261368313274];[-0.677252605785176, 0.9923766564994942, -1.0]
[-1.0, -1.0, -1.0];[0.030475328719185124, 0.3123911094901867, 0.026687752083105067];[0.1610734132767624, 0.042731387422320515, -1.0]
[-1.0, 0.07625345905741349, -1.0];[0.008014754467495288, 0.001689712557823706, -1.0];[0.02112790139380278, -1.0, -1.0]
[-1.0, -1.0, -1.0];[-1.0, 0.9922195566649609, -1.0];[-1.0, -1.0, -1.0]
[0.020398330512148767, 0.011834063706126031, -0.6968134942510665];[0.13326407888934239, 0.046186724477900565, 0.06990402714989359];[-1.0, 0.9992724810377349, -0.6788974918185687]
[0.01613489351096267, 0.02795683443613728, 0.08119364625082533];[0.9926830230713647, 0.056937235728510296, 0.0756978299012639];[0.0869316206900147, 0.06105633605782186, 0.007826607657255125]
[0.9181320967868123, 0.010014563904416886, 0.0465061792904105];[-1.0, 0.05807313663905464, 0.03723268080456087];[-1.0, -0.6931401057440201, 0.0773668355376618]
[-1.0, 0.05628835519179241, 0.9732146448240303];[0.008654769535355279, 0.05164652840848673, 0.39816667841351866];[0.046694053061318345, 0.31326779870545335, 0.023023723900887427]
[-1.0, -1.0, 0.09068236255006995];[-1.0, -1.0, 0.12505327478458694];[-1.0, -1.0, 0.9924500629225763]
[-0.31426962340135745, -1.0, 0.020914184809939392];[0.07519863854617992, 0.07412241152043875, -1.0];[0.25061484713689336, -0.31156831209508, 0.039465587253120216]
[-0.6782037277522469, -1.0, 0.09195387019088502];[0.014396837319277035, 0.9755897004013673, 0.017808486701644245];[-1.0, 0.09500357788333753, -1.0]
[-1.0, -1.0, 0.00654102108404967];[-1.0, 0.7297860691695147, -1.0];[0.4101066275322477, 0.03637704803460012, 0.03311135958518784]
[-0.9932942298251197, -1.0, -1.0];[-1.0, -1.0, -0.6941744846026082];[0.10682358109936957, -0.5707844682274443, -0.9710981411612082]
[-0.9088712763098673, -1.0, -1.0];[-1.0, -1.0, -1.0];[-0.9050679932839648, -0.9914930102407851, -1.0]
[-1.0, -1.0, -1.0];[-1.0, 0.40498241392871515, 0.04872253757142468];[-0.5712906703216273, -0.5709894719978783, 0.007772774691168749]
[0.06017960586625945, 0.07294285673975882, -1.0];[-1.0, 0.9750108134913794, 0.06558859757427653];[-1.0, 0.008782248292721773, 0.01686707833855158]
[-1.0, -1.0, -1.0];[-1.0, -1.0, -0.9912932413003219];[-1.0, -0.991293692742646, 0.1370042641241777]
[0.721058101882431, -1.0, 0.05247426789129526];[0.034104979007607984, 0.057087228219316735, -1.0];[0.04566285811247145, -1.0, 0.058572560062569154]
[0.7100268469035425, 0.03695645088024383, 0.054004876325795786];[0.0725937020180147, 5.736346833207006E-4, 0.04137756431483456];[0.005800293245542876, 0.06352695123750422, 0.037393342673946]
[0.0326303900735192, -1.0, 0.0028338699506362365];[-1.0, 0.03857195284404499, -1.0];[-1.0, 0.03268299044606922, 0.04307367083319824]
[-1.0, -1.0, 0.9745865631275685];[0.03741674297890405, 0.035723751478623104, -1.0];[0.04008887265445336, 0.04533876750643998, 0.01466908938159558]
[-0.9802506394976542, -1.0, -0.7781615518426641];[-0.26421906023654307, -1.0, -1.0];[-0.591556922829026, -1.0, -0.020940224005219416]
[0.02484435081918899, 0.001728326118936563, -0.6736015141508569];[0.056477533946739565, 0.07545129211592186, -1.0];[-1.0, -1.0, 0.7144089665784346]
[-1.0, -1.0, -1.0];[-1.0, -1.0, 0.08337092605118367];[-1.0, -1.0, 0.9975740373060132]
[0.30482058171209636, -1.0, 0.02793073353656984];[-1.0, -1.0, -1.0];[0.39505373740976385, -0.36047074365354115, 0.05339624465330565]
[0.024480911621972967, -1.0, -1.0];[-1.0, -1.0, -1.0];[-1.0, 0.20018888723078265, 0.5158893439593585]
[0.008439103473092503, 0.017317175492125993, -1.0];[0.03522953030462235, 0.07388955911161797, 0.14391706291682133];[-1.0, 0.03050929410537765, 0.06602357835798812]
[0.04024196160382129, 0.03465297365528606, 0.03703452566100573];[0.09275670048602859, 0.05580066524446646, 0.05705232375069971];[0.02928283083512863, 0.010304976567609092, 0.06856236924461649]
[0.030035561680203028, -1.0, 0.058266136520939274];[0.4003803545840268, 0.06613758499470695, -1.0];[-1.0, -1.0, 0.7044719283196714]
[-1.0, -1.0, -1.0];[-1.0, -1.0, -1.0];[-1.0, -1.0, 0.9997983038507198]
[0.0922939366018416, 0.06568092133352532, 0.036223092035142714];[0.03446361696020144, -0.6799476244313183, 0.051487331252215066];[0.05535527649869093, 0.03461291659256912, 0.9159344481671814]
[0.0012409385855947043, -0.9727801583525564, -0.5470948714417438];[-0.9997735196859362, -1.0, -0.9992311788248371];[-1.0, -1.0, -1.0]
[-0.6905298052032454, 0.037272884296319274, 0.09240706785958919];[0.02964820115562042, -1.0, 0.058165186321059985];[0.006086664341353187, 0.09011332490610266, 0.9753681407164557]
[0.0017507800348160797, -1.0, 0.42363532451777347];[-1.0, -1.0, -1.0];[-1.0, -1.0, 0.7176278176602234]
[0.9997850463579607, -1.0, -1.0];[-1.0, -1.0, -1.0];[-1.0, -1.0, -1.0]
[-0.9997646014485334, -1.0, -0.9992555991719992];[-0.9997671233064648, -1.0, -1.0];[-1.0, -1.0, -1.0]
[-1.0, 0.0017377377369641733, 0.06037661431972935];[-1.0, -0.6971095719665819, 0.07684567303767553];[0.0650538440287983, -1.0, 0.03235258664348151]
[0.009497117326145211, 0.05328521902440029, 0.054681733834779964];[-1.0, -1.0, 0.32198887369834633];[0.9174105975480215, -1.0, 0.01491741295315845]
[-1.0, 0.021133486999819574, 0.07039291311466073];[-1.0, 0.06134007833839521, -1.0];[0.03998370997885633, 0.02166788030853746, 0.06348071287497727]
[-1.0, 0.9754241945522404, -0.6976539293022388];[0.029117265207229237, 0.04832498663017051, -1.0];[0.02248549447595929, 0.08122560364450365, 0.023332098735640683]
[-1.0, 0.9997872818074985, -1.0];[-1.0, -1.0, -1.0];[-1.0, -1.0, -1.0]
[-0.09381719443660516, -0.003755345006840771, 0.17257787615896408];[-1.0, 0.14779397904225766, -0.1019827793159907];[0.5901984637597443, -0.05905706548825947, -1.0]
[0.0037366487715091885, -0.6862601802712777, 0.23504511368646178];[-1.0, -1.0, -0.5160819333531848];[-0.6869761457819326, -1.0, -1.0]
[-0.6861507535429535, 0.011429477117541099, 0.03558060858281421];[-1.0, -1.0, 0.007185382026566667];[-0.6758288423639066, -1.0, -1.0]
[0.9999363904697489, -1.0, -1.0];[-1.0, -1.0, -1.0];[-1.0, -1.0, -1.0]
[0.268893564800737, -1.0, 0.06446526914350703];[-1.0, 0.34997586528088165, 0.17311991414234418];[0.23059690791371348, 0.1508300627348516, 0.1514077756244237]
[0.05363968120424034, 0.08195038308068844, 0.006549962019221145];[0.04857604322829188, 0.0015413120334197062, 0.06134770796544699];[-1.0, 0.010709961557057352, 0.0023098147138942418]
[-1.0, -1.0, -1.0];[-1.0, -1.0, 0.042228693082198156];[-1.0, -1.0, 0.999303187398824]
[0.24850547086284686, 0.03702466209901485, 0.16978362771485597];[-1.0, 0.11655445236120933, -1.0];[0.03382900773838775, 0.12133598467015302, 0.10827388113873772]
[-1.0, 0.047568779079313964, 0.053356983386437185];[-1.0, -1.0, -1.0];[-0.337383019453987, 0.5859368426183867, 8.088460836839283E-4]
[-1.0, -1.0, 7.656279949718513E-5];[-1.0, -1.0, -1.0];[0.003402269464887909, -1.0, 4.4082694538685735E-5]
[-1.0, -1.0, -1.0];[-1.0, -1.0, -1.0];[1.1793081555785045E-33, -1.0, -1.0]
[0.25358468849894694, 0.04278094293305512, 0.03696779497108074];[-1.0, 0.5846607665259064, 0.02052265341555424];[-1.0, 0.09884054286761965, 0.12825508941511077]
[0.03293815388102277, -0.597506649230046, -1.0];[-1.0, 0.9126476551029784, -1.0];[-1.0, -0.6849290649601092, 0.24248375048013654]
[0.03551512058655619, 0.06292846540124945, -1.0];[-1.0, 0.02921976941189325, -1.0];[0.3144491904714656, 0.06741705790912494, 0.07222790732135374]
[-1.0, 0.7139955242026093, -1.0];[0.009812829958405834, 0.05564910217450406, -1.0];[0.008258184009138626, 0.5961110068484371, -1.0]
[-1.0, -1.0, -1.0];[-1.0, -1.0, -1.0];[0.9999814984505753, -1.0, -1.0]
[-0.06882896572218695, 0.06593485059443582, 0.13988249213810466];[-1.0, 0.1352084674975143, 0.029914677916392785];[0.03309975270882867, -1.0, 0.06891021390036785]
[0.0518230138184866, 0.0675960483361806, 0.09483515566940931];[-1.0, 0.9153471690820696, -1.0];[-1.0, 0.09402591404412358, 0.04401620774959114]
[-0.9023284182094972, -1.0, -0.970404668379256];[-1.0, -1.0, -1.0];[-1.0, -1.0, -0.9910753537086358]
[-1.0, -0.8740463484501069, -0.9594514307261099];[-1.0, -0.6909616559375147, -0.5283560197160028];[-1.0, -1.0, -0.1976862677302207]
[-1.0, 0.42843228518337995, 0.5064341302602224];[-1.0, 0.06632759030347046, -1.0];[-1.0, 0.07982151096800277, -1.0]
[-1.0, -1.0, -1.0];[-1.0, 0.9992737387384883, -1.0];[-1.0, -1.0, -1.0]
[0.07403004885624874, 0.04875725497544505, 0.02902423550241273];[0.08356742920670175, 0.9182596425990645, 0.020650513533918904];[0.06050232259904367, 0.07684004637550616, 0.0613854534601082]
[-1.0, -0.6764358153396713, -1.0];[-1.0, 0.0336845478934828, 0.046973575101983];[-1.0, -0.6747190075811207, 0.04806126814971456]
[-0.504269128124002, 0.02143542909666364, 0.053312399924434165];[-1.0, -1.0, -1.0];[-1.0, 0.002278315601190752, 0.0010318825640340226]
[-0.971571401606832, 0.9997989920102355, 0.003753136879812302];[-1.0, -1.0, -1.0];[-1.0, -1.0, -1.0]
[0.7005075021925524, 0.049757881834887316, -1.0];[0.006848614306880197, 0.061041478543643446, 0.049791857550017096];[-1.0, -1.0, 0.004338945926446092]
[0.04338293466194176, 0.022106981956977512, 0.03220453886178622];[0.08193703189300583, 0.9177695344064041, 0.009145815078151376];[0.05637565981180412, 0.0023014212737198724, 0.06168655416063308]
[0.9923851827948102, 0.32497559478674615, 0.40271351154253576];[-1.0, -1.0, -0.6949303584118531];[-1.0, 0.010332252397850817, -1.0]
[0.1563678426326507, 0.041272670874164356, 0.06754005556702586];[0.06540956877577303, 0.03065536314148909, 0.04778562830908266];[0.06266594129226172, 0.033699246567457875, 0.03600154882578795]
[0.05299453404785023, -1.0, 0.09269058717746462];[0.009233372148344831, 0.7083779632178966, 0.037379034382171904];[-1.0, -1.0, 0.019990280627415036]
[-1.0, -1.0, 4.187892809448119E-7];[-1.0, -1.0, -1.0];[-1.0, -1.0, -1.0]
[-0.6883110653052156, 0.02614076045044257, 0.08906947707488608];[0.009472367267335781, 0.9738379681356916, 0.04335749103574482];[0.006442236312888417, 0.0530205986961863, 0.04125320210798331]
[0.12597464519786505, 0.13557352398371672, 0.09645098918168396];[-1.0, -1.0, -0.30856705130512857];[0.3300714738466378, 0.08254390539578796, 0.08551415598842196]
[-1.0, -0.9709309619045273, -1.0];[-1.0, -1.0, 0.016476014286089];[0.9999999988318266, -0.9032903312448247, -0.9617196225738626]
[6.58745694301155E-4, 0.021784748135013056, 0.026815755294627073];[0.04871059504110347, 0.05485848805256668, -1.0];[-1.0, 0.009918301710024714, -1.0]
[0.9162475752095902, 0.027268606767193185, 0.06305594870467195];[0.0025233243920419705, -1.0, -1.0];[-1.0, 0.4275662245683082, -1.0]
[-1.0, 0.9998017763542584, -1.0];[-1.0, -1.0, 0.022449185069184963];[-1.0, -1.0, -1.0]
[0.05240528853677884, 0.05339109967200012, 0.019461389782274945];[0.021356190639075415, -1.0, 0.04416387745844607];[0.42051820065154827, 0.014569795393121377, -1.0]
[-1.0, 0.0255664080505682, 0.013342811598536737];[-1.0, -1.0, -1.0];[-1.0, 0.9142409291136193, -1.0]
[-1.0, -1.0, -1.0];[-1.0, -1.0, -1.0];[-1.0, 0.9993070445410903, -1.0]
[0.061992554866118155, 0.06147978580975133, 0.06126247669214506];[0.07776190088260229, 0.036183513431754195, 0.021857603766010737];[-1.0, 0.05307157513669296, 0.08446595002782821]
[-1.0, 0.05426368791618097, -1.0];[0.07821589596550842, 0.05433149857927608, 0.05840658604820351];[0.02958329053720358, 0.572094595748017, 8.7486586757759E-4]
[-1.0, -1.0, 0.19368597057084017];[-1.0, -0.9715038779384412, -0.6895503762814327];[-0.8818830679643948, 0.03122420087870147, -1.0]
[-1.0, -1.0, -1.0];[-1.0, -1.0, 0.9139804993486991];[0.3080902938553684, 0.5111455800847214, -1.0]
[0.025449897064964668, 0.055548826122369145, 0.027540973323187657];[0.05216497219793129, 0.06825763471507672, 0.9756622096708023];[0.059674642695271056, 0.01460860915871205, 0.01599891752121865]
[0.059954414754392595, 0.0734781775883783, 0.03955873065291644];[0.03268149758243164, 0.34312757335014354, -1.0];[0.7016219900012209, 0.07889558099247693, 0.04094276710117134]
[0.010275036794339288, 0.9976362779256152, -1.0];[-1.0, -1.0, -1.0];[0.705647472439691, -1.0, -0.9058708347964098]
[0.08097410997344558, 0.9923646563014984, -1.0];[-1.0, 0.06063966560507999, -1.0];[-1.0, -1.0, -1.0]
[-1.0, -1.0, -1.0];[-1.0, -1.0, 0.9999983555092842];[-1.0, -1.0, -1.0]
[-0.5914817394046907, -0.516234356831722, -0.9893072481936469];[-1.0, -1.0, -1.0];[-0.9715579901944403, -1.0, -0.5410916384228937]
[-0.9036840263828377, -0.9038766671768206, -1.0];[-1.0, -1.0, -1.0];[-1.0, -1.0, 0.9737606778218408]
[-0.6812842467917686, 0.004518876637909031, -1.0];[-1.0, 0.02127013540002877, 0.01986389997932574];[-0.6859810805822395, -1.0, -0.6796132847866213]
[0.021329765614143528, 0.015667151683962256, 0.39223029212684757];[-1.0, -0.6799762431898153, 0.06529217570134126];[0.05477423970417357, -1.0, -1.0]
[0.08525235995908875, 0.01632127021624848, -1.0];[0.03191853197149474, 0.40777899623971975, 0.026727244833118627];[0.06458778482106539, 0.07939759396575646, 0.0803081623327259]
[-1.0, -1.0, -1.0];[-1.0, -0.6893798706585373, 0.020407327390818953];[0.0035750369451569733, 0.020772017489215967, -1.0]
[0.007385596303430897, 0.03926560844708886, -1.0];[0.004767427888725018, 0.04921982674760654, -1.0];[0.06756455468203554, -1.0, 0.036589644897312465]
[0.5935921873413738, 0.043201860836695985, -1.0];[-1.0, -1.0, 0.7163427293148539];[0.01727774160461959, -1.0, 0.06761461292296815]
[0.04580906147740796, 0.04809578110357413, 0.029723793207897854];[-1.0, -1.0, 0.99255170835117];[0.019193717847789046, -1.0, 0.4123076827529871]
[0.024409879349119257, -1.0, -1.0];[-1.0, -1.0, 0.9978021673433819];[-1.0, -1.0, 0.5838159264493658]
[-0.5814006676583331, -0.9057690362043318, -0.2492923893029861];[-1.0, -1.0, -1.0];[-1.0, -0.9723164616700498, 0.023740579864082553]
[0.5105689710779551, 0.042453428015211694, 0.051261623065535354];[0.064810402385981, 0.05739196750745639, 0.04868435514600187];[0.06432928493471522, 0.0499737441722407, 0.01733335220203408]
[0.07316175986573133, -1.0, -1.0];[0.05799906205306315, -1.0, 0.04562816641313882];[0.024014662167787765, -0.6774093006238979, 0.020114762175186096]
[0.9997933468606347, -1.0, -1.0];[-1.0, -1.0, -1.0];[-1.0, -1.0, -1.0]
[-0.999777232244841, -0.26337320425546706, 0.03855142888504544];[-1.0, -1.0, -0.9973983929367942];[-1.0, -1.0, -0.9050243777315077]
[-1.0, -0.9098264444208768, 0.4200189183797901];[-1.0, -1.0, -0.683511118225144];[-1.0, -1.0, -1.0]
[-1.0, 0.9999944870572859, -1.0];[-1.0, -1.0, -1.0];[-1.0, -1.0, -1.0]
[0.04374483442844566, -1.0, 0.0557120355051409];[-1.0, 0.9173892648395954, -1.0];[0.03971974609154976, 0.05244367383307847, 0.08113767973031726]
[0.033372962133117245, 0.034640232683240346, -0.6815428068263639];[0.018351392185648074, 0.028832336846920138, 0.040892693784100445];[0.015101367567255398, 0.03327150837590096, 0.055055625442643634]
[-1.0, -1.0, -1.0];[-1.0, 0.975152644146355, 0.0027556270011960928];[-1.0, -1.0, -1.0]
[-0.700947604771129, -1.0, -1.0];[-1.0, 0.13845939710382427, -0.40468306189222814];[-0.9970888605789249, -0.997672399954723, -1.0]
[0.9926164465265986, 0.09729953191834989, 0.02203943089973172];[0.08426046883076317, 0.04025535546026528, -1.0];[-1.0, 0.018913459229082476, -1.0]
[0.5430743503430883, 0.02210961486568032, -1.0];[-1.0, -1.0, 0.03150746444252457];[0.029668758937710062, 0.0668946114880786, 0.029503617753451485]
[-1.0, -0.45696792046503343, -0.9059912544078662];[-1.0, -1.0, -0.3963018000072448];[-0.9722144141906921, -1.0, 0.09722137855813243]
[-1.0, 0.0478096228024142, -1.0];[-1.0, -1.0, -0.9973970776074917];[0.9150077117915474, -1.0, -1.0]
[-0.6862834184611631, 0.05948178522609568, -1.0];[-1.0, -1.0, -0.2873991187911987];[-0.49051741513713765, -1.0, 0.030996231805897733]
[0.9134447868686322, 0.04225305246713207, 0.050340263354450715];[0.07967463198111445, -1.0, -1.0];[0.03124300235747586, 0.07915672685393751, -0.6874042112127897]
[0.3661653093963549, 0.03335927803837675, -1.0];[-1.0, 3.782475270155619E-4, 0.10329965730817484];[0.2520210519000402, 0.2364883482912849, 0.04604173512711759]
[0.057179682708846095, 0.03947071509656598, -1.0];[-1.0, 0.915495706128151, -1.0];[0.30842765125629373, 0.07821741964121043, -1.0]
[-1.0, 0.05266798397985832, 0.010119594032002866];[-1.0, -1.0, 0.05498109646152614];[0.004482803988390816, 0.09901298887894802, -1.0]
[-1.0, 0.01094692504336573, 0.03491574527279706];[-1.0, -1.0, -0.9010212819879909];[-1.0, -0.9720959164623019, -1.0]
[-1.0, -0.9797803830594063, -0.9675126374012433];[-1.0, -1.0, -0.9723424074251755];[-1.0, -0.9800352522577594, 0.42080325288017356]
[-1.0, 1.091361847752441E-9, -1.0];[-1.0, -1.0, -1.0];[-1.0, -1.0, -1.0]
[-1.0, -1.0, 0.9993200757019188];[-1.0, -1.0, -1.0];[-1.0, -1.0, -1.0]
[0.39919489976698713, 0.027866544074696787, 0.030819869441171956];[-1.0, 0.048857901112550145, 0.041410526359698656];[0.3183195074593908, 0.08580358228040029, 0.034614282362814455]
[-1.0, -1.0, 6.898485646761514E-4];[-1.0, 0.4206538515693137, -1.0];[-1.0, -1.0, 0.0016243441869383088]
[-1.0, -1.0, -1.0];[-1.0, 0.9992822289585581, -1.0];[-1.0, -1.0, -1.0]
[0.024896704755013346, 0.05253178378629622, 0.06222834698578438];[0.053785028852374274, 0.05000995513749839, 0.03643391077584335];[0.006890349215141567, -1.0, 0.21972734153891688]
[-1.0, 0.05082088024362751, 0.032313733938486376];[0.016542383852432452, 0.01586360604111728, 0.0030950896174824273];[0.06450358524858203, 0.07497527967233063, 0.01514916857867551]
[-1.0, -1.0, -1.0];[-1.0, -1.0, -1.0];[-1.0, -1.0, 3.107042325777258E-4]
[0.06443558687220499, -0.9040840654430089, 0.04790273437044138];[-1.0, -0.6991824447825529, 0.007413360707083572];[0.9738471362299669, 0.059984721597969595, 0.02148423035611289]
[-1.0, -1.0, -1.0];[-1.0, -0.9916710674181011, -0.9918117001216047];[-1.0, -1.0, -0.9964234099333824]
[0.032241625858963396, -1.0, -1.0];[0.006227264711515235, -1.0, -0.6864344429548825];[0.9749260554221827, 0.01651242419612812, -0.6861569289764488]
[-1.0, -0.674697275793976, -1.0];[-1.0, 0.5508427956613486, -1.0];[-0.6750895236028591, -1.0, -1.0]
[-1.0, 0.006320961601841401, -1.0];[0.010663429389074342, -0.6996359678513542, 0.05318432694209279];[-1.0, 0.06677611092966798, -1.0]
[-1.0, -1.0, -1.0];[-1.0, -1.0, 2.331906111803352E-12];[-1.0, -1.0, -1.0]
[0.9742591965219184, -1.0, 0.06439235722594218];[0.04035398734461716, 0.08412904447404258, 0.30496839444162577];[-1.0, 0.015963738969964426, -1.0]
[-1.0, -1.0, 0.04529032370385602];[-1.0, 0.0534132030966399, 0.30681943920058796];[0.9976051007047405, 0.15988721455025282, -1.0]
[-1.0, -1.0, 0.3935519291883478];[-1.0, -1.0, 0.037518775481723346];[0.9182230893819495, -1.0, 0.01464257737607293]
[-1.0, -1.0, -1.0];[-1.0, 0.4203383729302614, 0.1499066574389511];[0.9997868060983133, 0.009459630029032873, 0.26629566101940555]
[-1.0, 0.023453636305774753, -1.0];[0.009940216926353707, 0.026796183295919897, -0.686453896871141];[0.9742656329895739, 0.034395680511683034, -1.0]
[-1.0, -1.0, 9.643286410568204E-4];[0.1373884768813417, -1.0, 0.1100436700809489];[0.5999673957963721, 0.0056029409418068745, -1.0]
[0.040776852698546744, -1.0, 0.04085173445705357];[0.9993143178721184, -1.0, -1.0];[0.09861892894969192, -1.0, 0.08923740557845904]
[0.9736320516895376, 0.03791429039959709, -1.0];[-1.0, 0.1782430317515053, -1.0];[0.04330721064162335, 0.06059504325781179, 0.003670544515245988]
[-1.0, -0.9999540581187144, -1.0];[-1.0, -1.0, -1.0];[-1.0, -0.9999980572126076, -0.9999283786079913]
[-1.0, -1.0, -0.6868446211150938];[-1.0, 0.007120605375850297, -0.6915640439911734];[-1.0, -1.0, 0.009656882959136038]
[0.05472227527666861, 0.038989119961673396, -1.0];[0.08551171056732829, 0.03437194912975716, 0.05553809750330416];[-1.0, -1.0, 0.1433145353495013]
[-1.0, 0.7206518568264764, 0.0589377091506806];[-1.0, -1.0, -0.6884387779497771];[-1.0, 0.036369911524506526, 0.0131347165145845]
[-1.0, 0.9993199163111413, -1.0];[-1.0, -1.0, -1.0];[-1.0, -1.0, -1.0]
[-1.0, 0.05170495545557303, 0.9746811254630882];[0.026865299507055143, -1.0, 0.07163377136388571];[0.06676793153533217, 0.08992692250121075, -1.0]
[-1.0, -1.0, -1.0];[-1.0, -1.0, -1.0];[-1.0, 0.9999347910044646, -1.0]
[0.06158508524672664, 0.09989329427579965, -0.6805022746528135];[-1.0, -1.0, 0.07824781048928024];[-1.0, 0.07062068084796001, 0.7168681827025187]
[0.0265387430055439, 0.3283806265728525, 0.017045068054576284];[-1.0, 0.9178499777422358, 0.07042101353182117];[-1.0, 0.0017995848515189872, 0.018939944986118562]
[0.028031291405073634, 0.01179583495832014, 0.9976542615690973];[0.03424062970846875, 0.09171751272597835, 0.01169471943242071];[0.0962428727535294, 0.333896188665839, 0.042773180421139645]
[0.07275559235022976, 0.061981695519625735, 0.08324635357743482];[-0.4956746370893331, 0.5626388570741515, -0.6703151235302973];[-1.0, 0.03875089035725955, -1.0]
[0.0026763704950439338, 0.3960744178260009, -1.0];[0.0035662669805600292, 0.9755924775212977, 0.03555801372987229];[0.009089279611468815, 0.0546026201952179, -1.0]
[0.08708559346121975, 0.06401094804415787, 0.9755479747306283];[0.07676555026738091, 0.029987686567292872, 0.0563215738037956];[0.058091987451820065, 0.5285729438655054, -1.0]
[-1.0, 0.017094678017863806, -1.0];[0.9154983612799278, 0.03699661635545261, 0.06152855421081514];[0.059354451605204084, 0.08636780664628158, 0.04309909878333222]
[-1.0, -1.0, 0.09192940578669594];[0.9122559977594286, 0.09304208151473214, 0.04188632166901736];[0.09639505888081179, 0.7136103557431372, 0.0826828408050723]
[0.017511115922419253, -1.0, 0.011633705805832829];[0.029245858558519022, 0.915968174913196, 0.043760614508574706];[-1.0, 0.02134374438211947, 0.05076992151632455]
[0.7142549192051338, -0.6749101421865583, -1.0];[-1.0, -1.0, -0.6939482108954744];[-1.0, -1.0, -1.0]
[0.9743238161556449, 0.04671292999330641, -1.0];[0.004814094093058677, -1.0, -1.0];[-1.0, 0.024586650193408766, -1.0]
[0.9992895322269247, -1.0, -1.0];[-1.0, -1.0, -1.0];[-1.0, -1.0, -1.0]
[0.7131098820832323, -1.0, -1.0];[-1.0, -0.5687924180940326, 0.02676954073483177];[-1.0, 0.014974631051994425, -1.0]
[0.9101936759575828, -1.0, -1.0];[-1.0, -1.0, -1.0];[-1.0, -1.0, -1.0]
[-1.0, 0.38781675756343786, -1.0];[0.05438165684700774, -1.0, 0.029912078723475954];[-1.0, 0.9743313236213199, -1.0]
[0.06872541682504384, 0.06818920773044337, 0.0210113391714684];[0.014654594197580743, 0.026533505964153513, -1.0];[-1.0, 0.02715713674335564, -1.0]
[-1.0, -1.0, 2.6336159774951003E-11];[-1.0, -1.0, -1.0];[-1.0, -1.0, -1.0]
[0.04545234359852343, 0.010294433501213585, 0.07543856379402898];[0.028763102199498885, 0.2029256923235332, 0.05567304349241789];[0.053261660533796606, 0.06253184165026104, 0.05298711002970938]
[0.09470407920922713, -1.0, -1.0];[0.016943748769645706, 0.00869709778967297, 0.050625160104644386];[0.09614410199480462, 0.07308999026910262, -1.0]
[0.05505295326853043, 0.04008333253042348, 0.04608369266025413];[-0.6873619990264196, 0.7225084600115689, 0.06243722359963652];[-1.0, -1.0, 0.032581559872023706]
[0.05958190867190062, 0.08719722617805101, 0.02476651927616066];[0.008844393605612367, 0.016990991709662274, 0.7106608780140441];[0.01571660602934254, 0.03397868343699796, 0.06624732477748534]
[0.048837333974509727, 0.003036332640644557, -1.0];[0.02749382149929701, 0.7215595171382303, 0.004318616614000037];[0.01721713753887615, 0.037265276467989064, 0.06793923443552718]
[0.7226905164439847, 0.0733699323945888, -1.0];[0.0592075084861744, 0.03185084983637628, 0.04882714627562579];[0.02719553971064037, 0.030247779077514893, 0.04083546811906047]
[0.015665386655862434, 0.057728214080074385, 0.003658255482131734];[0.0612176037294732, 0.07827205007701216, -1.0];[-1.0, 0.12082198015195258, 0.0594071771951599]
[-1.0, -1.0, -1.0];[-1.0, -0.6916683151477737, -1.0];[-1.0, -0.971563735141552, 0.4275670964293316]
[0.41270586972400247, 0.06222303695858086, -1.0];[-1.0, 0.012137415353957189, -1.0];[0.38663203665229345, -1.0, -1.0]
[-1.0, -1.0, -1.0];[-0.9004351517047111, -0.9715068505383216, -1.0];[-0.9999300620882293, -0.5911520403562447, 0.07930786365100197]
[0.00978807340613831, 0.09939924913307056, 0.09131643873933663];[0.07623591145743314, 0.9157435047928333, 0.01058489921645488];[-1.0, -1.0, 0.05091437026774438]
[0.009355315321417413, -1.0, 0.020333000316987704];[0.030076942030383604, 0.06484964740763631, 0.007394265820946544];[0.006557133747551614, 0.9976056428080672, 0.04195345209233086]
[0.050115883316655924, 0.09810907908191274, 0.007821168607783924];[0.047574510199528054, 0.06497052885350213, 0.015149706361382055];[0.5740634472755111, 0.06479691087295794, -1.0]
[0.029392892288235162, -1.0, 0.012361450733437685];[0.05346297608948131, 0.04019380709585699, -1.0];[-0.25688195267384206, -0.6808994165997507, 0.020364224414290834]
[0.056868017864543687, -1.0, 0.0477619080841811];[0.08863931668357973, 0.013521902697313515, 0.03459823811733688];[0.025609377869451957, 0.03964614576248759, 0.0878141868276906]
[0.08747096543033431, 0.07787731436634224, 0.9169097372243692];[0.0056154990528443196, 0.06537722885711614, 0.05660395471653948];[0.0485293458291196, 0.0066992487052084165, 0.09813976761860745]
[-1.0, -1.0, 0.020454205493987927];[0.04156785591224382, 0.17926913682650542, 0.046352421030762495];[0.04843264918787614, 0.07453227763043219, 0.031038009596787812]
[0.4295510628875063, -1.0, -1.0];[-1.0, -1.0, -0.9041696628907321];[0.011091975229199028, -1.0, -1.0]
[-1.0, -1.0, -1.0];[-1.0, -1.0, -1.0];[-1.0, -1.0, 2.8472795997015653E-15]
[0.021935744436565353, -1.0, -1.0];[-0.20410569975545284, -1.0, -1.0];[-0.9066906833387152, 0.015177731158088237, 0.048367329919201243]
[3.592067704147883E-5, 0.09565396629684164, 0.014449822622107367];[0.07189357405942808, 0.022690426461498794, 0.03419911468628791];[0.02485025187398712, 0.051621342373446025, -0.686096681646893]
[-1.0, -1.0, -1.0];[-1.0, -1.0, -1.0];[-1.0, -1.0, 1.082208834235086E-23]
[0.023669934591213217, 0.08105750666483208, 0.0017822536416881585];[0.032490025149444816, 0.00693526658713447, 0.05706833395455251];[0.064429613841335, 0.011872965588323748, 0.0011287868892506327]
[-1.0, 0.0023423671782331736, 0.005368465096963815];[-0.2817007177312822, 0.5772605671004333, -0.04892004762772917];[0.06787061778612558, -0.6935598045290698, -1.0]
[0.05539678442121157, -1.0, 0.0751282245531169];[0.0430454826494383, 0.9744229764803654, -1.0];[0.09893693050151325, -0.8812169536638377, 0.08808675650598269]
[0.024633150871886767, -1.0, 9.600462773403207E-4];[0.02552799573196737, 0.012057897447028988, -0.6872372109605291];[0.05568930773385577, -0.6788808850797183, 8.294713750965355E-4]
[0.03500675486527782, 0.0485242472157046, 0.02454926328872058];[0.05984217288652288, 0.037629176914622336, 0.001490439808237254];[0.05278000491518134, 0.055329803795786836, 0.001689444108314786]
[-1.0, -1.0, 0.02264954437032576];[0.01719442032419376, 0.0051336720260021125, 2.4567362677266894E-4];[-0.42385122157487054, 0.03349625751525532, 0.00883810902978547]
[0.06820573464365703, 0.032573532143660024, 0.05848109339809852];[0.017245764696180676, 0.06575178602687606, 0.043882674629876176];[0.062358979081958435, 0.01512146759878773, 0.010614711051141468]
[-1.0, -1.0, -1.0];[0.9741794201157256, -1.0, -1.0];[0.03384812035508767, -1.0, 0.03101139693196306]
[-1.0, -1.0, -1.0];[-1.0, -1.0, -1.0];[-1.0, -1.0, 1.1429700903784334E-18]
[-1.0, -1.0, -1.0];[-0.28284642530349186, -0.6893324833552851, -0.27258171159783234];[-1.0, -0.7514759159805031, -0.6832963571893937]
[-1.0, -1.0, -1.0];[0.07638085021140267, 0.07971852779982093, 0.973840443831947];[0.027542096535513396, -1.0, -1.0]
[0.00208372656287501, -1.0, 0.9735606053220485];[0.03746803802788084, 0.013452444325565882, 0.03812030657449061];[0.05739015643224382, -1.0, -1.0]
[0.08172063264067066, 0.0021853158903953453, 0.917581711476617];[0.0642417805678867, -0.6797067638747734, 0.002210415968065127];[0.04148167216266927, 0.04737024402290423, -1.0]
[-1.0, -1.0, 0.7095516402817402];[-0.9086787903355211, -0.9018516004170165, -1.0];[0.3988979432908333, -0.9015543464522071, -1.0]
[0.32249696599228705, -1.0, 0.31148374193169254];[-1.0, 0.02028757019062364, -0.912859978884579];[0.02322359825378, 0.9999361262616315, 0.06043297190235625]
[0.9148153448232047, 0.031009275911491874, 0.049369964003526015];[-1.0, -1.0, -0.9012821943600398];[-1.0, 0.036422422907070116, -1.0]
[0.13608898813697987, 0.030007999393712383, 0.057210165883386024];[0.0967703431365702, 0.06725624940325624, 0.0339807291918436];[0.0891131281118308, 0.059353089292467714, 0.05399707331866946]
[-0.6732933059135415, 0.07429586183735808, 0.04217984008998911];[0.07262792410130524, 0.02678709883672883, 0.029448235090935172];[0.06634636704589993, 0.07111479046964725, 0.9108238291562843]
[0.38719953875697605, -1.0, -1.0];[-1.0, -1.0, 0.01784069718496621];[0.016461226500158483, 0.046907536396592064, 0.5386396881593648]
[0.004386240335973158, 0.07537996320282224, 0.08283167615750861];[0.0035400399426109732, 0.03574913143674622, 0.07775632646596836];[0.015197062496682557, 0.728984659950939, 0.028518340809749812]
[-1.0, -1.0, -1.0];[-0.6913160747532344, 0.00740973829690208, -0.9016063837647751];[-1.0, 0.9142547625480887, 0.04722824989093233]
[-1.0, -1.0, -1.0];[-1.0, 0.722558488537666, 0.06083190426546693];[-0.9094199896682785, -1.0, 0.09373937162204105]
[-1.0, -1.0, 0.012942047095529086];[0.09339444807137526, 0.9152649994542106, -1.0];[-1.0, 0.050292526538773086, 0.07842703931999669]
[0.28565435074124224, -1.0, 0.318596861574532];[0.08882056288250104, 0.5821514363745959, 0.019480495700815715];[0.09308236944335507, -1.0, 0.09106255147947007]
[-0.6896325794222044, -1.0, -1.0];[0.051732702078410846, -1.0, 0.4092245906608871];[0.09302467331390453, -1.0, 0.9755945643602878]
[0.08774658142335323, 0.017966699391129992, 0.08186032785732507];[0.04967419286419993, 0.3928014840622352, 0.08824902922115233];[-0.6930063284967132, -1.0, 0.03313935483899236]
[0.011104962669650255, 0.006079276911857102, -1.0];[0.01149467034094669, 0.7195748392232325, -1.0];[0.3230077714954453, -1.0, 0.06379528632822153]
[-1.0, 0.0908033236104383, -1.0];[0.9926891335451117, 0.09167836791688855, -0.6848021517171438];[-1.0, 0.02525816906296832, 0.03250523695299926]
[-1.0, 0.10316543578191094, 0.3574126885397743];[4.1659260666905324E-4, 0.33198815548319915, 0.03577561874698549];[-1.0, 0.14259549454478143, 0.17490564699354783]
[-1.0, -0.6031903777614998, -0.8805694669161549];[-1.0, -1.0, -1.0];[-1.0, -1.0, 0.9140283688031394]
[-1.0, 0.09714367428029447, 0.07555774399514707];[0.9128663958155135, -0.677115171741146, 0.06066885006755969];[0.07964033078878321, -1.0, -1.0]
[0.030839381044977, -1.0, 0.03217096651380513];[0.04429062180220095, 0.3145035060263327, -1.0];[0.013771003077351586, 0.053678491622809715, 0.06381488714240052]
[-1.0, -1.0, -1.0];[-1.0, -1.0, -1.0];[-1.0, -1.0, 0.9998020605533907]
[0.01065961993848169, 0.9188217583857523, 0.030635647169708347];[-1.0, 0.012199991951706636, 0.07283484667480333];[0.3296448010239569, 0.0573331198239404, 0.05066596500903323]
[-1.0, -0.9999264014332974, -0.990926699735234];[-0.9996235554304321, -1.0, -0.9991835809712922];[-1.0, 0.0035980473149031036, -1.0]
[-1.0, -1.0, -1.0];[-0.9094507698524555, -1.0, -0.9069170275825069];[-1.0, 0.9993255814132195, -1.0]
[-1.0, 0.9746197358657523, -1.0];[0.06361654232642215, 0.03971529119656339, 0.19825865607710363];[0.03131740675756011, 0.03578759563445113, -1.0]
[-1.0, -1.0, -1.0];[-0.999206158211011, -1.0, -0.999993722723127];[-1.0, 7.0629390465331534E-9, -1.0]
[-1.0, 0.05457542480007564, -0.9064343634873979];[-0.45137355788142525, -0.9973299153851111, -1.0];[-1.0, 0.027538702094615036, -1.0]
[0.00610640308132997, 0.9747317938520265, 0.021054790207587805];[-0.6888126301408775, -1.0, -1.0];[-1.0, 0.0313406754745306, -1.0]
[0.026002340806161074, 0.03275946672685365, -1.0];[0.0548404069599279, -1.0, -0.6851113455908023];[0.9169044275330156, 0.0023747604652140713, 0.06996074425700609]
[-1.0, -0.904595138719762, 0.4226942966634686];[0.9976737038356484, -0.9722263305466856, -1.0];[-1.0, -0.9094150073351108, -1.0]
[-1.0, -1.0, -1.0];[0.001569192231383432, -1.0, -1.0];[0.9999995087529739, 1.763655553352177E-5, -1.0]
[-1.0, -0.15619947777997553, 0.25706354255137104];[0.1521362524007273, 0.20567889433709308, -1.0];[0.19906575181977282, 0.04255066983676237, 0.045458328048341046]
[-1.0, -1.0, 0.010414047151195642];[-1.0, 0.4522238080093064, -1.0];[0.00312103003321752, 0.005941084720672802, 0.23610613618327086]
[-1.0, 0.035811040755806614, 0.4197772917914031];[0.006269377763496464, 0.04797907792869125, 0.045297468587166025];[0.9924811852705397, 0.0037231446142316884, 0.0268345642282696]
[0.017506346032623767, -1.0, -1.0];[-1.0, -1.0, -1.0];[0.7056222160250942, 0.023574455024311516, 0.9751244558518463]
[0.045000700626581264, 0.04851962090573846, 0.02944379054166345];[0.9977288164312145, 0.026895844457900886, 0.04104939521423115];[-1.0, 0.037306581292633326, 0.12285513502870116]
[-1.0, 0.010767995948086174, 0.30827814487512323];[0.02643766181038143, 0.9734717241789541, 0.004298977398768034];[0.032350706970417975, 0.033612628505969515, -1.0]
[0.032112147024026795, -1.0, -1.0];[0.29927743790268296, 0.0413356505564821, -1.0];[0.9748064665080048, 0.06249383705677404, 0.034946434935081316]
[-1.0, -1.0, -1.0];[0.004069100631280498, 0.992016806158278, -1.0];[-1.0, -0.6994822813845054, -1.0]
[0.0912768025302522, 0.7151500823547615, 0.06129898558189935];[0.07205412116692286, 0.024109861459243556, 0.009244503649609248];[0.05720918660565523, 0.005284843095619097, 0.07137882970032824]
[-1.0, -1.0, -1.0];[-0.909964496236253, -1.0, -1.0];[-0.9712280807370937, -0.9992045938821763, -1.0]
[0.01405639184738119, -0.6992853513267028, 0.051721344566458397];[0.9156884832240311, -1.0, 0.003843635043083271];[0.04205364741865977, -1.0, -1.0]
[-1.0, -0.6825199657353528, -0.6771826085894335];[-1.0, 0.9107939409979064, -1.0];[-0.6906733139047916, -0.6878771242712757, 0.0035652211478538146]
[-1.0, 0.974400958931928, -1.0];[0.4241560986394593, 0.01036213825209189, 0.018685683945589806];[0.3201520574483007, 0.0012329503199391856, 0.01131904301828305]
[-1.0, 0.9733352679871747, -1.0];[-1.0, 0.03519387024920485, -1.0];[-1.0, -1.0, 0.3931082357545373]
[-1.0, 9.934940562798201E-4, 0.06953110857827216];[-1.0, 0.9147192396266701, -1.0];[-1.0, -1.0, 0.05898634499447565]
[0.02126671338556582, -1.0, 0.001127160659793114];[-1.0, 0.9754063420622862, -1.0];[-1.0, -1.0, 0.02012595736841255]
[-1.0, 0.007815546710526242, -1.0];[-1.0, -1.0, 0.0517277344791198];[-1.0, -1.0, 0.9751820936206446]
[-1.0, 0.03866547035776881, 0.07898891736655841];[-1.0, 0.7158749289173478, 0.06967552439554718];[0.055437162820039326, 0.9106803925690699, -1.0]
[-1.0, 0.0867971754594924, 0.9174305062987189];[-1.0, 0.04982043291811109, 0.2284496438255036];[0.003046615907540533, 0.037824105915022485, -1.0]
[-1.0, 0.03183762434160519, 0.7217328002622148];[-1.0, 0.03947679912522248, 0.025368401981335498];[-0.6839210458106324, -1.0, 0.013396686301447159]
[-1.0, 0.03610804936006217, 0.025981061559992902];[0.03794293236331732, 0.036490187829191334, 0.03740368606456035];[0.11275677880006832, 0.05046593624249282, 0.03820923407324192]
[-1.0, -1.0, -1.0];[-1.0, 0.09879811147944176, -1.0];[-1.0, 0.018292114743216428, 0.08019246441578955]
[-1.0, 0.043019972636688816, 0.048414485431656974];[-1.0, -0.6840309895200919, -1.0];[0.9997936124899275, 0.049406639192633106, 0.002569907504426783]
[0.04495926452028905, 0.003495676880535448, 0.07685672793995285];[-0.6798598907930976, -1.0, 0.06564580789760197];[0.015844583032003336, -0.6915439683583937, 0.9993404726635825]
[-1.0, 0.03224785336408565, -1.0];[0.039547742635434674, 0.3161973952953344, 0.030506282105177772];[-1.0, 0.06136522647687951, 0.47139912456648575]
[0.04950342865290164, 0.4058183991544826, 0.04184670711717912];[0.040074918116392515, -1.0, 0.06671877567256153];[-1.0, 0.08657264109626013, 0.9146594788184146]
[-1.0, 0.08199186820651927, -1.0];[0.7161497362980181, 0.0028457935012497606, -1.0];[-1.0, 0.4140627913160715, 0.7101218881824469]
[0.041000022920378444, 0.09405964282592277, 0.059596428222546516];[-1.0, 0.0016344501363814157, 0.04388127947353272];[0.9142567995670541, -1.0, -0.581250457136439]
[-1.0, -1.0, 0.0026597423744416206];[0.03152687178120994, 0.027608367588200622, 0.02288481649773031];[0.7281216644877464, -1.0, -1.0]
[-1.0, -0.5969622387812421, -1.0];[-1.0, 0.5995640920667262, 0.09210932868286514];[-1.0, -0.45237865303129826, -0.6466654319103777]
[-1.0, 0.0015930665339109473, -0.9720988403037572];[0.9128004659623062, -1.0, -1.0];[-1.0, 0.7040855218468243, -1.0]
[-1.0, -0.5397419359442084, -1.0];[-0.5819181186367296, -0.9914830789989028, -1.0];[-0.9917722553290041, -1.0, 0.5137973111999696]
[-1.0, 0.9187826867318032, 0.023776564237430322];[-0.6080898803819768, -1.0, -1.0];[-1.0, -1.0, 0.03227339120669646]
[-1.0, -0.6951686011069005, -1.0];[-1.0, 0.005525816286802832, 0.9999381526240224];[-1.0, -0.6849408876258072, -1.0]
[-1.0, -1.0, 0.021699107199195225];[0.02088534097333409, 0.044108675388554223, -1.0];[0.9743095269265389, -0.688670972871222, 0.012268350396380601]
[0.06960179707942642, 0.011448316374657364, 0.03576442285229299];[-1.0, 0.041202018478573216, 0.07796785797525915];[0.06563342353842748, 0.02048522594521808, -0.6747383028413279]
[-1.0, 0.02974305767831661, -1.0];[0.04517817004574646, 0.017776002200008897, 0.02012944622380517];[0.005008355583026635, 0.03346448544357163, 0.0300439767645615]
[-1.0, -1.0, -1.0];[-1.0, -1.0, -1.0];[1.3044704951536425E-4, -1.0, -1.0]
[-1.0, -0.6905332000611754, -1.0];[0.04074664931579051, -1.0, 0.026941543909315087];[0.9153814951204647, 9.098406636837364E-4, 0.020370191476120528]
[-1.0, -1.0, -1.0];[-1.0, -1.0, 0.025073982410861975];[0.9976557591413833, -1.0, -1.0]
[0.009969806383561064, 0.7162353775561804, 0.027639080897589076];[0.25195668045176883, -1.0, 0.4022204786409191];[0.5069063849332728, 0.004847908941092616, -1.0]
