[0.008852698592565069, 0.008116436594004683, 0.009719563804013256];[0.006552988900158643, 0.12928334210943396, 0.002470111661378516];[0.009169883970026662, 0.006970270667783414, 0.008136175235757104]
[0.32451863285823646, -1.0, 0.3061994542412362];[-1.0, 0.35917894172730364, 0.1182186513973205];[0.006779657779067106, 0.2967703704817332, 0.05962003512238176]
[0.9156326390432528, 0.02242296628326589, -1.0];[0.011933651922276335, 0.05262919661421435, 0.04663610403062297];[-1.0, 0.04500461278479804, 0.04321340587314198]
[0.056312690759338715, 0.1041151931773519, 0.04512759527765294];[0.03300638498539255, 0.03673819578955989, 0.047825043196320596];[-1.0, -1.0, 0.052749608343093835]
[-1.0, 0.04344909730537183, 0.30729549244784415];[-1.0, 0.5367455952901313, 0.033562456618223165];[-1.0, -1.0, 0.04269237510635661]
[0.009325892785428192, 0.06129339028541358, 0.07195421712444783];[-1.0, 0.9750922899882906, -1.0];[0.006706620614564885, -1.0, -1.0]
[-1.0, -1.0, -1.0];[-1.0, 0.9920073203821218, -1.0];[-1.0, -1.0, -1.0]
[0.14336826119542084, 0.3725897148878339, -1.0];[0.096584905990137, 0.05368668397809797, 0.06292810169114146];[0.14848543978064563, 0.052410507474033606, -1.0]
[-1.0, 0.5999998719396433, -1.0];[0.599997502215611, -1.0, 0.5999714308333449];[1.0, 0.599999911700477, -1.0]
[-1.0, -1.0, -1.0];[-1.0, -1.0, -0.5624489347020497];[0.9999999996346717, 0.9999809360074918, -1.0]
[0.008257141449721589, -0.24918164620083633, 0.008601397155383314];[0.0088072722208056, -1.0, 0.003502575825477793];[0.0010922525025035274, -1.0, 0.007265269489855013]
[-1.0, 0.040083676985696384, 0.3201475149534793];[0.04861833336856468, -1.0, 0.025086887328251154];[0.4322290210380392, -1.0, -1.0]
[-1.0, -1.0, -1.0];[2.699429498091193E-4, -1.0, 4.3499291515220243E-4];[0.0011697487131175906, -1.0, -1.0]
[-1.0, -1.0, -1.0];[3.191482777080767E-17, -1.0, -1.0];[-1.0, -1.0, -1.0]
[0.09338630821723728, -1.0, -1.0];[0.053164758555689, 0.3077556608679601, 0.047636171781946776];[0.08541890119857137, 0.12314204626988158, 0.0668645477261483]
[-1.0, -1.0, -1.0];[0.33598032206967066, 0.5286842980631223, -1.0];[0.08194162606674232, 0.08787846508202515, -0.5135169794273593]
[-1.0, -1.0, -1.0];[-1.0, 8.967153207984206E-4, -1.0];[-1.0, 5.51788764578461E-4, 4.2653783016544404E-4]
[-1.0, -1.0, -1.0];[-1.0, -1.0, -1.0];[-1.0, 6.115665327417669E-11, -1.0]
[0.10131463664934443, 0.09473709136241465, -1.0];[0.02517043790373021, 0.09097387424402154, 0.15126518522903348];[0.10589174279583476, -1.0, 0.297449883030247]
[-0.8683053804812866, -0.991388832331056, -1.0];[-0.9045285257645492, -0.8806508674684119, 3.1022828923576214E-4];[-1.0, -1.0, -1.0]
[2.011571311475569E-5, -0.9713831067916349, -1.0];[-0.9992003474639949, -1.0, -1.0];[-1.0, -1.0, -1.0]
[-0.6979152297176918, 0.021626064726409135, -1.0];[0.0800239986055996, -1.0, -0.6755437038555189];[0.9923957292081093, -1.0, -1.0]
[-1.0, 0.3972394876882042, 0.09001262418037144];[0.08015958661621632, 0.013431574471801037, 0.04326242416283305];[0.38677368506270715, -1.0, 0.0434676358918655]
[-1.0, -0.6745861458321833, -1.0];[-0.6850531939134, -1.0, 0.06067054114365896];[-0.9052719526055757, -1.0, 0.5598565485071103]
[-1.0, -0.7245282390718688, -1.0];[-1.0, -1.0, -0.9974570057791875];[-1.0, -1.0, 3.064758736882841E-4]
[-1.0, -1.0, -1.0];[-1.0, 0.03500551316971153, -1.0];[-1.0, -1.0, 0.9744464544047633]
[-1.0, 1.0, -1.0];[-0.9972784128143306, -1.0, 0.15023860687777457];[-0.8991203203157594, -1.0, -0.9999759500091642]
[0.003378379960648858, -0.9729303942986715, 0.03719178028926372];[-1.0, -1.0, 0.03259286460021434];[-1.0, -1.0, 0.9999378691835771]
[0.004418762680116208, -0.6836667226581091, -0.9061967315290534];[-1.0, -1.0, 0.03629586832088999];[0.03662527489192215, -1.0, -1.0]
[-1.0, -1.0, 4.804662526884318E-53];[-1.0, -1.0, -1.0];[-1.0, -1.0, -1.0]
[0.006203657660698048, -0.2767730323652303, 0.04509305327988669];[0.045276501335101915, -1.0, 0.019978263929299234];[-1.0, -1.0, 0.04112520391065178]
[0.008829818572580984, -0.9062261892115329, 0.016112126401772887];[0.008457988431562369, 0.005920286589466428, 0.015219881773231326];[-1.0, 0.009826097056910699, -1.0]
[0.014743513384170251, -1.0, -1.0];[0.5993413644489178, -1.0, 0.5996780624228591];[1.0, 0.07053147176139793, -1.0]
[0.42002041406383456, -1.0, -1.0];[3.1617098760818485E-4, -1.0, -1.0];[0.999999999997036, -1.0, -1.0]
[0.030613764036696894, -1.0, -1.0];[-1.0, 0.05398662203179297, 0.043015788868709756];[-1.0, 0.0373971622725791, 0.053483385007673065]
[-1.0, -1.0, -1.0];[-1.0, -0.9914984765547974, -0.9723845498339274];[-1.0, -1.0, -0.9705191594645833]
[0.4233275890261604, 0.24809770145535182, -1.0];[0.04093801869968886, 0.054558050229012285, 0.06859087338887428];[0.043009652872030985, -1.0, 0.03519901286234406]
[0.9169456725758943, 0.051567663739800235, 0.029778496718719495];[0.07345877711324175, 0.012906395505975677, 0.06146182971960055];[0.056032539970230465, -1.0, 0.06881638998579458]
[0.7235112064036634, -1.0, -1.0];[0.05749059341117303, 0.005047434753751301, 0.03517568562421032];[0.057140108411018437, 0.056769850518487965, 0.9756018971411223]
[-0.972741362010139, 0.1317147894272112, -1.0];[-1.0, -0.9026328752609262, 0.02907488056818083];[0.5118100986047551, -1.0, -1.0]
[0.0016047116528142983, 0.0072272150131371185, -1.0];[0.008729631859198514, -1.0, 9.971405100385711E-4];[0.015465445837678771, 0.013333136641134715, 0.006529609777757583]
[0.7105986457704513, -1.0, -1.0];[0.4318438082381, -1.0, 0.549178937130329];[-1.0, 0.01996868066679968, 0.5749325086942507]
[0.9109930613710949, -1.0, -1.0];[0.008153391741306271, -1.0, -0.9718534284696502];[-1.0, -1.0, -1.0]
[0.9118711148660619, 0.027864355980184385, 0.057095449317015906];[0.03963036803335436, 0.05334779549041799, 0.03882325819334237];[0.007784444140755487, 0.08533978042911067, 0.09061406337539706]
[-1.0, -1.0, 0.010454344705764007];[0.009799048437445489, 0.017524161770180523, 0.05790610803695839];[0.10409036162265958, -1.0, 0.239008397493675]
[-1.0, -1.0, 0.060354961381659966];[-0.6904011762020025, -0.5744205087669532, 0.0346626266371224];[-0.9031569199314966, -1.0, 0.08690524658104946]
[6.816299613653912E-4, -1.0, -1.0];[-0.33163783299223903, 0.009020351168148422, 8.411978147192173E-4];[0.010965452575470411, -0.1138381093191097, 0.18536170045355774]
[-0.2991901764629552, -1.0, -1.0];[0.012830298761383856, -1.0, 0.14173911741198617];[0.014445439283866449, -1.0, 0.27567971449848244]
[-1.0, -1.0, -1.0];[-1.0, -1.0, -0.9999999999186417];[-0.29999462650927033, -1.0, -1.0]
[0.00370601090862303, -1.0, 0.011597808452427142];[0.0011830354259526727, -1.0, 0.010452347662802335];[0.0011180273359354188, 0.009037277043180018, 0.004444844258953248]
[0.018784736363185152, 0.016502348467792274, 0.519050333484138];[0.027602107181573687, -1.0, 0.032318095606435726];[0.00358344546877201, -1.0, 0.017143408552839436]
[0.9923718129638848, 0.06277425032263852, 0.020627621945840547];[-1.0, 0.06257561434500622, 0.7150968141485521];[0.08684532841190327, -1.0, 0.09123501284967328]
[-1.0, -1.0, -1.0];[0.4019973120917367, 0.999276639877372, 0.0549359466541043];[0.3995940745633598, -1.0, 0.004067831480280427]
[-1.0, -1.0, 0.020340435148545246];[0.018079500409243065, 0.9121339753740547, -0.6769329055590099];[-0.9092203087494309, -1.0, 0.022966793820232236]
[0.1534427333139474, -1.0, 0.2337599631242095];[0.07349254057548815, 0.13100782500557467, 0.1248260839639273];[0.18775703581583902, -1.0, 0.24623517841290782]
[-1.0, -1.0, 0.9756722701400609];[0.20113042589541086, 0.5526768716765018, -1.0];[0.5271317113262707, -1.0, 0.3106455041615426]
[0.013001995699324498, -1.0, 0.058468345659550294];[0.5940920507734172, -1.0, -1.0];[0.022454193232721565, -1.0, -1.0]
[-1.0, -1.0, -1.0];[-1.0, -1.0, -1.0];[0.999999846589082, -1.0, -1.0]
[-0.17247766913120233, -1.0, -0.9997110401164888];[-0.7542259705033444, -1.0, -0.958414418691026];[-0.7150512057957186, -1.0, -1.0]
[-1.0, -1.0, 0.9112277595044611];[-0.6748964603097473, -1.0, -1.0];[-0.6749159555124733, 0.009913834053661086, -1.0]
[-1.0, -1.0, -0.872069052639747];[-0.5936303980923935, -1.0, -1.0];[-0.9910269836529866, -0.9992531543546023, 0.016422684672627086]
[-1.0, -1.0, -1.0];[-1.0, -1.0, -1.0];[-0.9980663922522013, -0.9975547094264617, -0.9975255155713572]
[-1.0, -1.0, -0.9992503017890784];[-1.0, -1.0, -0.46762424966074345];[-0.9087769666781514, -0.5999133085059729, 0.06885002666454576]
[0.36346121062609454, -1.0, 0.04439897197442199];[0.0035206254571937164, 0.1879937726780841, -0.14128028754593];[-1.0, -0.1807860411451764, 0.1391170953110578]
[-1.0, 0.014958205525929148, 0.04620893025169744];[0.008955741088197444, 0.3126350829940083, 0.037427442890845014];[-1.0, 0.13749055739315355, 0.04322501527027361]
[-1.0, -1.0, 0.010562226131943724];[-1.0, 0.06177196857103957, 0.09680403853787029];[-1.0, -1.0, 0.0224119180648488]
[-1.0, -1.0, -1.0];[0.002616364961568174, 0.9921062092671811, -1.0];[-1.0, -1.0, -1.0]
[0.9158355717253727, 0.014757339106326463, 0.06300466086112419];[-1.0, 0.7012709656078434, 0.028631619306883474];[-1.0, 0.013750576597735598, -1.0]
[-0.48643856375749467, -1.0, -1.0];[-1.0, 0.4228152888840998, 0.006050347159577141];[0.03387827146881481, 0.03280383060868203, -1.0]
[0.017584492324067925, 0.020078788640321168, 0.0017871714210633606];[-1.0, 0.017313757501320734, 0.030792418181995664];[0.015179973618593731, 0.01094061933642292, 0.04642137971318632]
[-1.0, -1.0, -1.0];[-1.0, 1.5753420463131705E-8, -1.0];[-1.0, -1.0, -1.0]
[0.264739291809063, 0.052859892066926914, 0.06871648448737461];[0.3305999140974246, -1.0, 0.08066064088589135];[-1.0, 0.031242344022247966, 0.13509138671576798]
[-1.0, 0.5999163119953991, 0.5999999877334524];[-0.5965213371946458, -1.0, -1.0];[-1.0, 0.5999322001663119, 1.0]
[-1.0, -1.0, -1.0];[0.0013269692709868006, -1.0, -1.0];[-1.0, 0.42000056177038575, 1.0]
[-1.0, -1.0, -1.0];[6.722039130301593E-275, -1.0, -1.0];[-1.0, -1.0, -1.0]
[-1.0, -0.2094697265579092, 0.13717211049050362];[-0.11577181642954087, 0.061602995431408236, 0.023082910675577367];[0.39611509024950275, 0.049846840881222154, -1.0]
[-1.0, -0.46583931349621066, -1.0];[-0.9016319737874248, -0.9050100422022365, 0.023062026894554187];[-0.9918833712663224, -1.0, -1.0]
[-1.0, -0.9060133881294691, -1.0];[0.9999384635780248, -1.0, 4.149942389855835E-4];[-1.0, -1.0, -1.0]
[-1.0, -1.0, -1.0];[-1.0, -1.0, 7.1494006166262566E-6];[-1.0, -1.0, -1.0]
[-1.0, 0.18201448422517932, 0.0916424799497989];[0.02186090291107816, 0.3761665513235905, 0.21321570394239808];[0.36885505847444283, -1.0, 0.21820405917537306]
[-1.0, 0.9993240168219599, 0.07094611196479347];[-0.5699905155826159, 0.0628371653950778, 0.06849344900979282];[-1.0, -1.0, 0.051054501387645085]
[0.08930604444166017, 0.020651528371231964, -1.0];[0.029292419291856355, -1.0, 0.06164835973664469];[-1.0, 0.0961296260954479, 0.9977966404240654]
[-1.0, 0.06883180355532946, 0.29145731042861706];[-1.0, 0.10032357639709481, 0.04653386042399458];[0.14034803312326377, 0.08095918631820238, 0.20527611566270326]
[-1.0, -0.2941006377249544, 0.23636328792789973];[-1.0, -1.0, 0.0013595123413827296];[-0.9999978947454239, -1.0, 0.00140152831131235]
[0.04523292749181099, -1.0, -0.6724140407053824];[0.044260861790981924, -1.0, 0.5393595907066995];[-1.0, -1.0, 0.9740631516841091]
[-1.0, -1.0, 0.599952458649988];[-1.0, -1.0, 0.01690645104986302];[0.5547154078237312, 0.18509643538466236, 0.999999998820489]
[-1.0, 0.05407133927989363, 0.31326659289081077];[-1.0, -1.0, 0.05122493923134945];[0.999793590554058, 0.1899910953083564, -1.0]
[-1.0, 0.057592248815389616, 0.0795262847545915];[0.03921397440483074, 0.07411837184478641, -1.0];[0.06430849429383173, -1.0, -1.0]
[-1.0, -1.0, -1.0];[-1.0, -1.0, -1.0];[0.9927056959821606, -1.0, -1.0]
[0.35435897084658474, 0.034630362292361, -1.0];[0.04205738934530707, 0.049321907238969835, 0.03127126931379908];[-1.0, 0.05452286036320436, 0.19583006250401225]
[0.03511944719894167, 0.992398869380014, -1.0];[0.0029525460158467687, 0.025459375742906257, 0.04722220139550355];[0.03176858984288762, 0.23134486964689954, 0.0293958951822346]
[0.9748521860592565, -1.0, -1.0];[0.0853531574094579, 0.004687453627968574, -1.0];[-1.0, 8.777690315638465E-4, -1.0]
[0.30956415419929645, -1.0, -1.0];[-1.0, -0.9973995866665424, -0.7480862022783895];[-0.9974449171856191, -1.0, -0.9719803223783341]
[-0.9999999999999029, -1.0, -1.0];[-1.0, -1.0, -1.0];[-0.9999999999999134, -1.0, -0.9999999999998765]
[-1.0, -1.0, -1.0];[-1.0, -1.0, -1.0];[-1.0, -1.0, 1.0]
[-1.0, 0.044724895718288554, 0.04837470486612051];[-1.0, 0.037860619375108165, -1.0];[-0.44792654439759727, -1.0, 0.039764560371945416]
[-1.0, 0.9999999999999768, -1.0];[-1.0, -1.0, -1.0];[-0.9999802193118332, -1.0, -0.9992010198085577]
[-1.0, 0.4177896570120485, 0.05323330409557289];[0.03808269469674548, 0.017761636044441132, 0.0768944119969284];[-1.0, -1.0, 0.9993299309316583]
[-1.0, -1.0, 0.01760761525200647];[0.03642046530730848, 0.7214822079556398, 0.03372742130098432];[0.020058867441844166, 0.06220483208319138, 0.7043538445423265]
[-1.0, 0.04381435141825915, 0.03428931520877028];[0.03469318030926293, 0.033572791783072105, 0.040009972848262354];[0.05142911860418087, -1.0, 0.03259914650002991]
[-1.0, 0.043234930957911345, 0.7037179067759356];[-0.9706038058120932, 0.07275835414347734, 0.04721797408567105];[0.08241349383900816, 0.09874842408483302, 0.09087720344623496]
[-1.0, 1.0, 0.599997563201517];[0.5999921054119217, -1.0, 0.5999997896566306];[0.5999984070988971, -1.0, -1.0]
[-1.0, -1.0, 0.5999969504766999];[-1.0, -1.0, 0.9999999999999225];[-0.9997768407346137, -1.0, -1.0]
[0.05226609806456223, -1.0, 0.057600928650319065];[0.07280445004455542, 0.08158874536027451, 0.0017745585630128847];[0.7284914675209322, 0.029951781437254646, 0.02630921614338625]
[0.014908473817601365, 0.5272869010707769, 0.05287647577275951];[-0.5187946192436078, 0.031023256500485444, 0.0499996172404269];[0.05007730604891804, -1.0, 0.007823347675622939]
[-1.0, 0.7125859203618026, -1.0];[0.017327272416333007, 0.03967444396522847, 0.01835919811486678];[2.2819512726207636E-4, 0.007743908667759658, -1.0]
[-1.0, -1.0, -1.0];[-1.0, -1.0, 7.259975111045713E-279];[-1.0, -1.0, -1.0]
[0.17683468684726797, 0.017064559020362784, 0.15874566799406653];[0.09180415447220966, -1.0, 0.12614391164456598];[0.05210978256817154, 0.22630574453547686, -1.0]
[0.016349575958328942, 0.5999999137314922, -1.0];[1.0, -1.0, -1.0];[0.054887248765682864, 0.5999997142186939, -1.0]
[-1.0, -1.0, -1.0];[1.0, -1.0, -1.0];[7.215347581379921E-8, 3.395721889167284E-7, -1.0]
[-1.0, -1.0, -1.0];[1.0, -1.0, -1.0];[-1.0, -1.0, -1.0]
[0.5999997876011491, 1.0, -0.9999939621937282];[-1.0, -1.0, -0.9999987390629563];[-1.0, -1.0, -0.9694350158654814]
[0.4104003056423483, -1.0, 0.3600001275398033];[0.3796596044159324, -1.0, 0.3604192972563965];[0.3601224834575958, 0.020699322372465717, 0.3600370479655346]
[0.43166540940293824, -1.0, -1.0];[-1.0, -1.0, 0.5846277303654723];[0.9999999998925835, 0.04010439912708659, 0.4266254575428541]
[-0.9739429396329596, -1.0, -1.0];[-0.5986097500342007, -1.0, -0.3080230063776399];[-0.571144343447535, -1.0, -0.9997691933582552]
[-0.9999994482866119, -1.0, -1.0];[-1.0, -1.0, -1.0];[-0.6639272748186055, -1.0, -0.9999785954992055]
[0.15161065487032765, -1.0, 0.1889670237073167];[0.053403720791073486, 0.012079721957482682, 0.056678527676964796];[0.08061442384008294, -1.0, 0.16193718236906673]
[0.004762800705301736, -1.0, -1.0];[-0.9999228788139772, -1.0, -0.9997544607825654];[-0.6639994658934606, -1.0, -0.9999999449843773]
[-1.0, -0.9012073616459713, -0.9893838982147389];[-0.9060709736910102, 0.5965210612075895, -0.9998201916087661];[-1.0, -1.0, -1.0]
[-1.0, -1.0, 1.0];[-0.9999793368617482, -1.0, -0.5631994567593821];[-1.0, -1.0, -1.0]
[-1.0, 0.07945068195364147, 0.09989221645791639];[-1.0, 0.9976144789602466, -0.6860114452930306];[0.04186498159324205, -1.0, 3.119802713107856E-4]
[0.03439093120558293, 0.029440903825709255, -0.679204903203056];[0.04350149634305292, 0.07760465838304054, -1.0];[0.05057276748429308, -1.0, 0.03830760130772627]
[-1.0, -1.0, -1.0];[-1.0, 0.9978116439724733, -1.0];[-1.0, -1.0, -1.0]
[0.36013680949547805, 0.15318226021475267, 0.3751243065968096];[0.36040856439158653, -1.0, 0.3605453387604291];[0.3600109678508823, -1.0, 0.36016020656791414]
[-1.0, 0.017498375900715693, 1.0];[0.5999645796240484, -1.0, 0.59994446667008];[-1.0, -1.0, 0.011367507779869349]
[-1.0, -1.0, -1.0];[2.4329368980000043E-7, -1.0, 2.4801068159424436E-6];[-1.0, -1.0, 1.3750426019865128E-140]
[-1.0, -1.0, -1.0];[-1.0, -1.0, 1.879208691371962E-246];[-1.0, -1.0, -1.0]
[0.9999999999999754, 0.004937160171791823, 0.598271774522576];[-1.0, -1.0, 0.5948272709095489];[0.5485486883538945, -1.0, -1.0]
[0.9114531802301611, 0.06261081488878269, -1.0];[-1.0, -1.0, -1.0];[0.9750531433367441, -1.0, -1.0]
[-1.0, -1.0, -1.0];[-1.0, -1.0, -1.0];[0.99999999964803, -1.0, -1.0]
[0.5975839613756092, -1.0, 0.5916387303515385];[0.9999999862396212, -1.0, -1.0];[0.5891309410374701, -1.0, 0.581107032364544]
[0.5998775331967015, -1.0, -1.0];[-1.0, -1.0, -1.0];[0.9992742917591828, -1.0, 0.9999999996482559]
[-1.0, -1.0, -1.0];[-1.0, -1.0, -1.0];[-1.0, -1.0, 0.9999999958986816]
[1.0, -1.0, 0.5999696598778762];[0.5999996884197256, -1.0, 0.5989884548949531];[-1.0, -0.49771515829962854, -1.0]
[0.9741253563517154, -1.0, -1.0];[0.9999995186297957, -1.0, -1.0];[-1.0, 0.12243785565542942, -1.0]
[0.599972729563325, -1.0, -1.0];[1.0, -1.0, -1.0];[-0.999998021963627, -0.9810939038780785, -0.990849018673259]
[7.440174000942583E-7, -1.0, -1.0];[-1.0, -1.0, -1.0];[-0.9368009729557598, -1.0, -0.9999980159532836]
[0.0, -1.0, -1.0];[-1.0, -1.0, -1.0];[-1.0, -1.0, -1.0]
[-1.0, 0.04823551417317156, 0.9745642549767];[-1.0, 0.06477752678307312, 0.05851240662979458];[0.04761024798774914, -1.0, 0.3226993868389407]
[-1.0, -1.0, 0.7165518312958735];[0.0073137714304698405, 0.0024837974060609794, 0.12808024792326733];[-1.0, -1.0, 0.00851510391604946]
[-1.0, -1.0, 0.9999999987299778];[-1.0, -1.0, -1.0];[-1.0, -1.0, -1.0]
[-1.0, 0.05799550172788046, 0.01913574569685386];[-1.0, 0.17312670669184452, 0.0783180322599088];[-0.257975479948968, -1.0, -1.0]
[0.0893586666323273, 0.08834913957282314, 0.7265265141567705];[0.032097783403547644, 0.9747232894586444, 0.005199387346241424];[-1.0, 0.06790340913318005, 0.0444906684183885]
[-1.0, -1.0, -1.0];[-1.0, 0.04467755397219845, 0.31774499245809157];[-0.368245273604691, 0.045386310117720534, 0.5044692543463902]
[-1.0, -1.0, 0.036110826508872367];[-1.0, 0.9926039101783817, 0.06557320145382477];[-0.9049648267553495, -1.0, -1.0]
[-1.0, -1.0, 0.412419383343442];[-0.6782360252132891, 0.21241907032425345, -0.9045139605236973];[-1.0, -1.0, 0.9104994126486552]
[-0.905562386203261, -1.0, 0.03638249981565761];[0.012795403153911833, 0.5403540154265165, 0.043080373899676325];[-1.0, -0.6066385110984585, -1.0]
[-1.0, -1.0, -1.0];[0.004302864213544, 0.9170555581374743, 0.03412569145706961];[0.08004532751023985, 0.04150326961159148, -1.0]
[0.18499695876485917, -0.11060222394829583, 0.08277402980820298];[0.041216735967066244, 0.34900287679003006, -1.0];[0.02430909703348174, -1.0, 0.10146449506578191]
[-0.9028640138594017, -1.0, 0.4802760265308041];[0.031764551101990834, 0.9924299935740647, -1.0];[-0.4050190637937852, -1.0, -1.0]
[0.006285451960786104, 0.04590873895474687, -1.0];[0.031049946346705284, -1.0, -1.0];[0.06644720031849007, -1.0, -0.6794729776141364]
[-1.0, 0.08439500171146831, -1.0];[0.0034717271127001625, 0.07852541892156265, 0.01632409498787436];[-1.0, -1.0, 0.9748480444622629]
[-1.0, -0.9725722629839605, -0.6899662237276861];[-0.0894401013401474, -1.0, -1.0];[-0.6722171121804438, -1.0, 0.41227302283576905]
[-1.0, -1.0, 0.07065880130843626];[0.07157999921539318, 0.09243863474597076, -1.0];[0.09852202752866368, 0.04343645962742383, 0.9742162630569438]
[-1.0, 1.0, -0.9997530556094073];[0.5999997915696477, -1.0, -0.9662218511058891];[-1.0, -1.0, -0.6637330062191321]
[-0.9211209742662896, 1.0, -1.0];[0.11999999274603768, -1.0, 0.5999999999995641];[-0.7108561501986566, -1.0, -1.0]
[4.379012747952181E-8, -1.0, -1.0];[1.0, -1.0, -1.0];[-0.999999828582172, -1.0, -1.0]
[0.01843179687905322, 0.019952244893484107, 0.02887481925444929];[0.051128210461544386, 0.31998443082775646, -1.0];[0.012985735996114734, 0.005546209464189412, 0.053740142759311056]
[-1.0, 0.9999999998929701, -1.0];[0.1260903034540003, -1.0, -1.0];[-1.0, -1.0, -0.9917597801187097]
[-0.4938337390606865, -0.9918799818612651, 0.011854805638138882];[-0.9727809759690961, -1.0, -0.9716443602995912];[-1.0, -1.0, -1.0]
[0.023684741447257587, 0.07867738549846391, 0.07157415370221805];[0.08009602294394852, 0.06462692418714207, 0.044896306501384174];[0.06454451486920751, 0.008983840647401575, 0.059512452134425256]
[0.5306258821471549, -1.0, 0.04903213093973005];[0.004364812568118415, 0.04668748813374421, -1.0];[-1.0, 0.008805457119488559, -1.0]
[-1.0, -1.0, -1.0];[5.100879538869886E-67, -1.0, -1.0];[-1.0, -1.0, -1.0]
[0.9920843124959975, -1.0, -1.0];[-1.0, 0.5976720243544131, 0.04494515166534196];[0.43663176340062526, 0.41974631573997057, -1.0]
[0.7135692188966026, -1.0, -1.0];[0.005057708983717391, 0.7159521365628696, 0.09178748751360088];[-1.0, -1.0, -1.0]
[0.09402590961363318, 0.9921336427521087, -1.0];[0.4321838183770522, 0.05833625024030291, -1.0];[0.32090240876910264, 0.3876790273521925, -1.0]
[-1.0, 0.9109003329837279, -1.0];[-1.0, 0.9997883872048399, -1.0];[-1.0, -0.9729606611500806, -1.0]
[0.0948219038277333, 0.012449923018048571, 0.06758600499422111];[0.0665770277903165, 0.02434197924636791, 0.020311851637001246];[0.020461619868915284, 0.07099731723868101, 0.9922015752588218]
[0.03319844175716912, -1.0, -1.0];[-1.0, 0.027052671693485075, 0.09626117926665942];[0.035866279500605926, -1.0, 0.05871839156775924]
[-1.0, -1.0, 0.0057721485426421755];[-1.0, -0.6733804240855106, -0.6072179949677066];[0.9736045796664812, -1.0, -1.0]
[-1.0, -1.0, -1.0];[-0.5999798227175965, 0.59995204765138, -0.9992359881375242];[-1.0, -0.6567230390694999, 0.2234372619781232]
[-1.0, -1.0, -1.0];[-1.0, -0.9999936639015219, -0.9999935433652086];[-1.0, -0.9999994169964003, -1.0]
[-1.0, -0.7107311137071088, -1.0];[-1.0, 0.5041039917777023, 0.308721251236817];[0.9999379206041297, 0.047788142030908684, -1.0]
[-1.0, -0.9975454903988203, -1.0];[-1.0, -1.0, 0.9999999999991112];[0.9924869322194324, -1.0, -1.0]
[0.5881593553260033, 0.08439507483828917, 0.2088193648127112];[-1.0, -1.0, -0.5778272912947147];[0.40150961087919984, -1.0, 0.02544168587494791]
[-1.0, -1.0, -0.20911904660250535];[-1.0, -1.0, -0.908377614048558];[-1.0, -1.0, 0.0016308123959586072]
[-1.0, -1.0, 0.9976551436717267];[-0.9079855159223348, -0.8815283095074051, -0.051360506863167954];[-1.0, -1.0, 0.5572867814885542]
[0.0036956869144726292, -1.0, -1.0];[-0.6920154714798917, 0.9923668345914656, 0.31148962133020863];[-1.0, 0.051089180149982774, -1.0]
[-0.9886928910050367, -1.0, -1.0];[-1.0, -1.0, -1.0];[9.357986952705579E-5, -1.0, -0.6943180585820765]
[0.0597023940413928, -1.0, 0.9993181108116507];[-0.909332145708901, 0.06434630153574121, 0.06063303066786067];[-1.0, -1.0, -1.0]
[-1.0, -1.0, 0.9997961275600575];[-1.0, -1.0, -1.0];[-1.0, -1.0, -1.0]
[-0.6639999946825014, -1.0, -0.999971336730759];[-0.8964783990175889, -1.0, -0.9997550556487428];[0.01596121829503347, -1.0, -1.0]
[-1.0, -1.0, -1.0];[-0.9999992955500844, -1.0, -0.9992226453056658];[1.0, -1.0, -1.0]
[-1.0, -1.0, -1.0];[-1.0, -1.0, -1.0];[1.0, -1.0, -1.0]
[-0.31832357978322967, -1.0, 0.3599950504304962];[-0.2515850120254308, 0.015435414189864285, 0.184149999031779];[0.10983678459295404, -0.1579970288470484, -1.0]
[-1.0, -1.0, 0.5999999911534097];[0.5999983615956807, -1.0, 0.5999975318685845];[0.5999979181913468, 1.0, -1.0]
[-1.0, -1.0, 0.5999527216656716];[-1.0, -1.0, -1.0];[-0.968921312984334, 1.0, -1.0]
[-1.0, -1.0, -1.0];[-1.0, -1.0, -1.0];[1.0, -1.0, -1.0]
[-1.0, -1.0, -1.0];[-0.971460937688459, -0.9915914896642568, -0.5517442892669434];[-0.9909287895921284, -0.5928059133769628, -1.0]
[0.010744872258235505, -1.0, -1.0];[-0.6873886487903361, -0.6701804879444195, -1.0];[0.0036655579049462046, -1.0, -1.0]
[-1.0, -1.0, -1.0];[0.9999944463241217, -1.0, -1.0];[-1.0, -1.0, -1.0]
[-0.9999799758043388, -1.0, -1.0];[-0.9689435185147455, -1.0, 0.5999999338273108];[-0.6246880256889982, 1.0, -1.0]
[-0.7874239258267882, -1.0, -1.0];[-1.0, -1.0, 5.698290858740054E-5];[-1.0, 0.9999999999657005, -1.0]
[-1.0, -1.0, -1.0];[-1.0, -1.0, 1.7543278988399423E-97];[-1.0, -1.0, -1.0]
[0.9977420667884969, -1.0, -1.0];[-0.2709246348649933, 0.4265910939253698, -0.9053733724380936];[-1.0, 0.06465130034008607, -1.0]
[-1.0, -1.0, -1.0];[-1.0, -0.9914564016539457, -0.9974095707932156];[-1.0, -0.9911603965074228, -1.0]
[0.9993019830994939, -1.0, -1.0];[0.02413338806864749, -0.6828723488813312, 0.07193511355822425];[0.02619935481996044, -1.0, -1.0]
[0.09744597863188309, -1.0, 0.003889469053170858];[0.057212765320124453, 0.016823128422464983, -1.0];[0.039302789796994975, 0.18849070904342438, 0.08916546890459331]
[0.013946416648593911, -1.0, -0.6944896117745206];[-1.0, 0.03791761774373553, -1.0];[6.622640055167662E-4, -1.0, -1.0]
[-1.0, -1.0, -1.0];[-1.0, -1.0, -1.0];[3.77560084109896E-7, -1.0, -1.0]
[-1.0, -1.0, 0.9997986884350517];[0.5263740470602123, -1.0, 0.39345721166616426];[0.4306867997569863, -1.0, 0.0033011465764271972]
[-0.6333859847146384, -1.0, -0.9022419041314437];[0.42370437104845393, -1.0, -1.0];[-1.0, -0.9882065220500768, -0.9794374277961111]
[-1.0, -1.0, -1.0];[-0.9992633107521419, -1.0, -1.0];[-1.0, -0.9997782644026276, -0.9998429757782912]
[0.05691757715312988, 0.20362181804251653, -1.0];[0.039666987666521505, 0.4056684047830389, -1.0];[0.1053312665969299, 0.10302833568579636, 0.05723976229087824]
[-1.0, 0.9976412569542296, -1.0];[0.09496516883399628, 0.43571877803180326, -1.0];[-1.0, 0.05497093875182324, 0.06458979355799917]
[0.08620841002269383, -1.0, 0.06095682154676431];[0.050767894079271875, 4.936164676118315E-4, -1.0];[-1.0, -1.0, 0.4375814986689409]
[0.0407511069522724, -1.0, 0.05960022552888186];[0.17823794945959093, -1.0, 0.12558242611188988];[0.18960306450857123, -1.0, 0.31499206549001907]
[0.008044054079544227, -1.0, -1.0];[0.05135302877743728, 0.0045652771843737614, 0.04559092747786404];[-1.0, 0.048004746640414625, -1.0]
[-1.0, -1.0, -1.0];[-1.0, -1.0, 0.9999942409071982];[-1.0, -1.0, -1.0]
[0.35763179478292473, 0.08936218250656722, 0.12820925833105423];[0.5289621739013881, 0.054159856255365985, 0.07829272312915433];[-1.0, 0.0027856374213234506, -1.0]
[-0.9021898072864215, -1.0, 0.5464150118614394];[0.1923024060199662, -0.6874436318611823, -1.0];[-1.0, -0.3798452364871443, -1.0]
[-0.9999341524647404, -1.0, 1.0];[0.12000016760982213, -1.0, -1.0];[-1.0, -1.0, -1.0]
[-1.0, -1.0, 1.0];[-1.0, -1.0, -1.0];[-1.0, -1.0, -1.0]
[0.010000692891151113, 0.00535455240813199, 0.17579306725822416];[7.142347110503416E-8, -1.0, 0.006812482302011671];[-1.0, 0.011923423472638701, 0.011461061754095184]
[-1.0, -0.9045701881800885, -1.0];[-1.0, -1.0, 1.1198754235151691E-4];[-1.0, -1.0, 0.9999374939377614]
[-1.0, -1.0, -1.0];[-1.0, -1.0, -1.0];[-1.0, -1.0, 0.99999831905547]
[0.5246888085224527, 0.06761518620028628, -1.0];[-0.3337823432230575, 0.2516311823515707, 0.038360514353556474];[-1.0, 0.004231654516964504, 0.07365042084716461]
[-1.0, -0.9715767724310763, 0.06192859741009987];[0.9999391119044456, -0.6924964419784967, -1.0];[-1.0, 0.05358122283100473, 0.04620452509514261]
[0.012866185249847562, -0.9014690000890804, 0.024408774859433283];[0.7263261010195863, -1.0, -1.0];[-1.0, 0.08151831618071737, 0.7129536754341596]
[-1.0, 0.02861972444680464, 0.35177271140226324];[0.08067755039588088, 5.85662565248374E-4, 0.10444926587969573];[-1.0, 0.40985335423869074, 0.0526486789504286]
[-1.0, 0.31702996655144927, 0.3151161428195576];[0.016517513494696903, 0.016694456255599, 0.06013483265234622];[0.06023330545514907, -1.0, 0.999797139404029]
[0.026324510494860055, -1.0, 0.4324537305021079];[-1.0, 0.040346239820330976, 3.5153050466130156E-5];[0.0023929907671814466, 0.02958070255839265, 0.00660767721885337]
[-1.0, -1.0, 1.0];[-1.0, -1.0, -1.0];[-1.0, -1.0, -1.0]
[0.35997653448785094, 0.2349583728275548, 0.09190291411422546];[0.22370675867386153, 0.3599310869933289, -1.0];[-1.0, 0.3342283776375298, 0.23771499885810674]
[0.974142290770248, 0.029415935864057267, 0.07580798599433372];[-1.0, 0.4014607241203362, -1.0];[-1.0, -1.0, 0.02864202732604528]
[-1.0, 7.319375573543946E-4, 0.01997881199728726];[-1.0, 0.02315679292301416, -1.0];[-1.0, -1.0, -1.0]
[0.0895978708214269, -1.0, -1.0];[-1.0, 0.7105338216933605, 0.04660166722910317];[-1.0, -1.0, -1.0]
[0.04970081736505841, 0.09467636689665715, -1.0];[0.038715039043659805, 0.02063662665577403, 0.02266611603848052];[0.017139683021598497, -1.0, -1.0]
[-0.6787911467124901, 0.0024528378893577014, -1.0];[-0.6852271688601766, -1.0, -1.0];[-1.0, -1.0, -1.0]
[-1.0, 0.05648949037014786, -1.0];[-1.0, 0.9997887697985137, 0.4360481131995257];[-1.0, 0.05929843235336221, -1.0]
[-1.0, -0.9585637091746715, -0.9716793320163082];[-1.0, 0.5999891848553144, -1.0];[-1.0, 0.1381252082963056, -0.6635330520837731]
[-1.0, -0.6984908835355699, -1.0];[-1.0, 0.006616951976827693, 0.002299481843185591];[-1.0, 0.007224659467152017, 0.7047462836321438]
[-1.0, -1.0, -1.0];[-1.0, -1.0, -1.0];[-1.0, -1.0, 0.9999999999895844]
[0.5328515299941227, 0.05124175592195636, 0.320634745119067];[0.037204766331115996, 0.028343539142484594, -1.0];[-1.0, -1.0, 0.04239980640185499]
[-0.9999999947688207, -1.0, -1.0];[-0.9943299990935134, -1.0, -1.0];[-1.0, -1.0, 0.4210230800579999]
[-1.0, -0.9062749641558434, -1.0];[0.9997904184159558, -0.9037048422802105, 0.046855518443981274];[-1.0, 0.17592267793823524, -1.0]
[-1.0, 0.004502037716437026, -1.0];[-1.0, 0.005965030925159693, -1.0];[-1.0, 0.008485850900453229, -1.0]
[-1.0, -1.0, -1.0];[-1.0, -1.0, -1.0];[-1.0, 5.822591611333816E-283, -1.0]
[0.030393090409887615, 0.05906386141024176, 7.646328735937736E-4];[0.04256890014971214, 0.9168686754611415, 0.09453308952848168];[0.09512260589391444, 0.0998255816079856, 0.06040695070131041]
[-1.0, 0.5460028211806657, -1.0];[-0.6639993913574646, -1.0, -0.9909279999996552];[-1.0, -0.9999979998828566, -0.630964916760948]
[-1.0, 0.003402000000395691, -1.0];[-1.0, -1.0, -0.9998468999557649];[-1.0, 1.0, -1.0]
[-1.0, 0.005308091246113582, -0.3226385676031941];[-1.0, 0.583811218261051, 0.04578909094869646];[-1.0, -1.0, 0.04419081550958624]
[0.028873718907370796, -1.0, -1.0];[-1.0, 0.017533700331109202, 0.0059260870537288235];[-1.0, -1.0, 0.002614906008343634]
[-1.0, -1.0, -1.0];[-1.0, 2.7657501546438055E-10, -1.0];[-1.0, -1.0, -1.0]
[0.02203266138020791, 0.032219718683780624, -1.0];[0.9977647108469143, 0.027571806163889497, 0.5114297576238909];[0.05777448476310583, 0.014863781998461757, 0.30929778976587624]
[-1.0, -1.0, 0.007502007592410632];[-1.0, 0.0034227057434304767, 0.004201608812861685];[-1.0, -1.0, 0.008281671979880622]
[-1.0, -1.0, -1.0];[-1.0, -1.0, 9.223939294915224E-17];[-1.0, -1.0, -1.0]
[0.5957297313404257, 0.11415623022243102, 0.17844882606767493];[0.33982880402907023, 0.3615914108770314, 0.004606629866331352];[-1.0, -1.0, 0.10380505111949287]
[0.07130655619184449, 0.008217815708064525, -0.5745292611671486];[0.04902471762283377, 0.3193784606813749, 0.06829891459285302];[-1.0, -1.0, 0.031293855287765904]
[0.03228586966267383, 0.0741292150706288, 0.08907717411098708];[0.030897948223742033, 0.7069533887335047, 0.09890150548968578];[0.08834218283375679, 0.09964463066613524, 0.07750020879660624]
[0.004525487144140939, 0.013300277882110268, 0.05907870610533099];[-1.0, 0.05688479585693054, -1.0];[0.01650256712980799, 0.02260199499772736, 0.050908038315911674]
[-1.0, 0.0378854926212699, 1.0];[-1.0, -1.0, -1.0];[-1.0, -1.0, 9.511378496400245E-6]
[-1.0, 8.530897098434921E-47, -1.0];[-1.0, -1.0, -1.0];[-1.0, -1.0, -1.0]
[-1.0, -0.4415550314110932, 0.124380546906395];[-1.0, -0.5704471353547905, -1.0];[-1.0, 0.12882005926739537, 0.04026834973903423]
[-1.0, -1.0, 0.9999999988061911];[-1.0, -1.0, -1.0];[-1.0, -0.9716447246848312, -0.9706634724202143]
[-1.0, -1.0, 0.9999999999971286];[-1.0, -1.0, -1.0];[-1.0, -1.0, -1.0]
[-1.0, 0.42133462224538115, -1.0];[0.00219217851975011, 0.7123749781322718, 0.06712551550173737];[-1.0, 0.0033652205133100077, 0.017850717085946922]
[0.022146228528587598, 0.037327793623345616, -1.0];[0.03001186892404716, 0.09904681584630208, 0.04824330593444259];[0.049802493435942265, -1.0, 0.7102954814372064]
[-1.0, 0.048758264696604256, 0.5502464601639652];[0.03898880803910252, 0.16988961480546583, 0.026500097428511095];[-1.0, -1.0, -1.0]
[-1.0, 1.266566309079944E-32, -1.0];[-0.9999999986939273, -1.0, -0.7843299664345466];[-1.0, -1.0, -1.0]
[-0.8819316074444028, -1.0, -0.6845808124354666];[-0.9030149753857104, -1.0, -0.16497615354326034];[-1.0, 0.9976518719785236, -1.0]
[-1.0, -1.0, -1.0];[-0.6740048622982404, -1.0, 0.9992976194130455];[0.034878155666521526, 0.03107033052887308, -1.0]
[-1.0, 0.006691601204066045, 0.059826185253445345];[-1.0, 0.46725681512672634, 0.018991088266222714];[0.04327540729880172, 0.016455552444456824, 0.03940250808456217]
[-1.0, -1.0, 0.9993383424893112];[0.015279714948977154, -1.0, -1.0];[-1.0, 0.9124850160963837, 0.44484051460119817]
[-1.0, 0.05097106388889225, -0.6889327446686541];[-0.6806302212066534, -1.0, -0.6912966212421048];[0.011781169858375419, -1.0, 0.9999817619131287]
[0.4842403775355005, 0.09387930290021551, 0.07486927504305584];[0.08503769834882624, 0.03698497326898905, 0.061762414802123335];[0.09289111990146226, 0.0726065474280695, 0.3065252970121011]
[-0.970754461736972, -1.0, -1.0];[-0.6846621075289675, 0.9732083569609283, -1.0];[-1.0, -1.0, -1.0]
[-1.0, -0.9914632598733302, -1.0];[-1.0, -0.9992399681464796, -0.972626987645438];[-1.0, -1.0, -1.0]
[-1.0, -0.9084940033759825, -1.0];[-1.0, -0.9065830850127021, 0.010746676547202218];[-1.0, -1.0, -1.0]
[-0.5551998757531418, 0.01707778651589491, -0.90920574208522];[-1.0, -1.0, 0.5004308095436747];[-1.0, 0.999794646031366, -1.0]
[0.5851659845940878, -1.0, 0.01884401183153533];[0.06270833215018014, 0.3598512270354971, 0.02835968729157489];[-1.0, 0.06262645434666325, 0.05820765125063553]
[0.09471998173030592, 0.04723345193519615, 0.1807667898617788];[0.9993431934269316, 0.035086593213191276, 0.08942663486870729];[0.059769882469034266, 0.062049184445683164, 0.051870325336111286]
[-0.8976973933041492, -0.998999520546538, -1.0];[0.1808913059333749, -1.0, -1.0];[-1.0, -0.974480873968314, -0.8968553816691283]
[0.005741913529599796, 0.9751221590029238, 0.0320813914583023];[0.7233883604250156, -1.0, -1.0];[-1.0, 0.006099915283331092, -0.9992572602657045]
[-1.0, 0.0017751926349896308, 0.015699092509815972];[-0.9074507292700915, 0.5509455638895697, 0.009707419334959534];[-1.0, -0.9010999780637817, -1.0]
[-1.0, -1.0, -1.0];[0.2604290557417457, 0.016380245153301633, 0.06669897576271969];[4.136536786650269E-4, 0.06666819566947509, 0.5720613129112505]
[0.039813734377772705, -1.0, -1.0];[-0.6715964219585736, -1.0, 0.08233084906537115];[0.06869389043180638, -0.6842025961031479, 0.9178622127568411]
[0.029731585752861847, -1.0, -1.0];[-1.0, -1.0, -1.0];[-1.0, -1.0, 0.9923865126176605]
[0.27190462871113674, 0.04024022727732091, 0.21965274051277528];[-1.0, 0.3534298094114239, 0.09699765432590204];[-1.0, 0.33206438201488786, 0.033150197214130275]
[-1.0, 0.0038023440903916083, 0.5962483399022538];[-1.0, 0.1275110910893495, 0.08034665371803756];[-1.0, -0.07508950645887147, -1.0]
[0.08612159345444419, 0.9921700736321317, 0.03651673535994726];[0.009535971749918805, 0.048725463203425926, 0.4282630043462227];[0.007445047233963054, 0.0036946150099610555, 0.046980981997006656]
[0.02706169354239073, 0.01915053696025795, -1.0];[-1.0, 0.975089002991191, -1.0];[0.0589115973655064, -1.0, 0.033895988674459435]
[-1.0, -1.0, 0.9999805486867608];[-1.0, -1.0, -1.0];[-1.0, -1.0, -1.0]
[-1.0, -1.0, 0.14855660112302216];[-0.4907291408499779, 0.5902439976551384, -1.0];[-1.0, 0.42554718761299637, 0.3172983761589275]
[-1.0, -1.0, -1.0];[-0.9999998361922907, -1.0, -1.0];[-1.0, 1.0, 0.0037357362006483034]
[-1.0, -1.0, -1.0];[-1.0, -1.0, -1.0];[-1.0, 1.0, -1.0]
[0.06595369074489031, 0.06234462977144928, -1.0];[0.014944065384976302, 0.7075479976208234, 0.03118857050843008];[-1.0, -1.0, 0.08572441292102762]
[0.09585851128220349, 0.1536363551469037, 0.08731113075352553];[-1.0, 0.5872520964964246, 0.07999842051364985];[-1.0, -1.0, -1.0]
[-0.9913605062220661, 0.9976548848207278, 0.9999999555798047];[-1.0, -1.0, -1.0];[-1.0, -1.0, -1.0]
[0.31315763001042574, -1.0, -1.0];[0.052552572017470586, 0.05224923755989555, -0.27166175498496403];[-1.0, 0.06313292857898997, -1.0]
[0.9922954982804343, -1.0, -1.0];[-1.0, 0.06820520044039706, 0.03888874748904202];[-1.0, 0.43954970200999655, -1.0]
[0.04501692498545732, 0.2624041997329762, 0.1785646743851488];[0.06479007554805066, 0.04075982403405446, -1.0];[-1.0, 0.033560210839161476, 0.012012522888414468]
[-1.0, -0.6989487810523018, -0.6758402758440418];[0.053079218662631704, 0.7198960108184909, 0.0641797322458295];[-1.0, -1.0, 0.01807339981206646]
[0.06933101057656682, 0.05231167030465366, -1.0];[-0.8805418810044305, 0.992016868912203, -0.579182018573194];[0.008879118781080353, 0.3173337986407503, 0.01969811762371774]
[-1.0, 0.031736722013010935, -1.0];[-0.674554647518474, 0.9745621938711818, -0.6830870437777867];[0.006780176949818828, -1.0, 0.08906706375417744]
[-1.0, -0.5995868557078285, -1.0];[-1.0, -0.6382761920255694, -0.9674974883252121];[-1.0, -0.8711474455744505, -0.9342299867613156]
[0.08108174987889682, 0.06335469755281861, 0.051276222238477144];[0.003551179306743757, 0.0015104795231309033, -0.6802525271013076];[0.05350298974551973, 0.01800339791049238, 0.9186294664291501]
[0.028529489390603638, 0.06659702093353956, -1.0];[0.01558564163225623, 0.044537228237396684, -1.0];[-1.0, 0.022512676188076775, 0.03983638595045842]
[0.00887520127863432, -1.0, -1.0];[0.011256658076907212, -1.0, -1.0];[-1.0, -1.0, 0.0013075237831066695]
[-0.9712519819459997, -1.0, -1.0];[-0.2520171278295342, -0.9999304274437198, -1.0];[-1.0, -0.8936871399637984, 0.337456673626045]
[-1.0, 0.0934782079204925, -1.0];[0.9976308868515742, 0.4051526030913812, -1.0];[-1.0, -1.0, 0.3260943060264585]
[0.011663853333501308, 0.008054028665928501, -1.0];[-1.0, 0.01591771569498591, 0.02581505914535528];[-1.0, 0.03260720252253178, 0.013987218919108502]
[-1.0, -1.0, -1.0];[-1.0, 0.9997942736947572, -1.0];[-1.0, -1.0, -1.0]
[-0.9916260272549079, -0.7626359933888404, -0.9773876911790206];[0.5431457161071455, -1.0, 0.044934408369540116];[-1.0, 0.999800600162127, -1.0]
[-0.9700573226315949, -1.0, -0.6662748364061539];[-1.0, -1.0, 0.0022364728349488425];[-1.0, -0.9999999986691388, -0.9998404769274386]
[0.006452654132129665, -1.0, 0.5781487858226274];[-1.0, -1.0, -1.0];[0.009955632090414224, 0.006687113116301358, 0.42160577609571326]
[-1.0, -1.0, 0.9999998460136948];[-1.0, -1.0, -1.0];[-1.0, -1.0, -1.0]
[0.12000198743074286, -0.9972778062010442, -0.9999779742132463];[-1.0, -1.0, 1.0];[0.5999124626593263, -1.0, -1.0]
[0.3815842536443958, 0.3600011161329177, 0.361361792021728];[-1.0, -1.0, 0.11276942226602836];[0.5280000891847474, 0.5995502944818192, 0.36647957476402737]
[0.5803868358163499, -1.0, 0.9999999999971743];[-1.0, -1.0, 0.04531182022176597];[-1.0, 0.5953048425628742, 0.594615482677417]
[1.0, 0.006967116300604726, 0.5999999072677715];[0.5999914536037723, -1.0, 0.5999722770098448];[-1.0, -1.0, -1.0]
[0.9115893371915171, 0.5955229726973057, -1.0];[-1.0, -1.0, 0.9997840685269059];[-1.0, -1.0, -1.0]
[1.0, -1.0, -1.0];[-1.0, -1.0, -1.0];[-1.0, -1.0, -1.0]
[0.547679068368074, 0.4409665577538615, 0.999999999999993];[-1.0, -1.0, 0.0038835866495622127];[-1.0, -1.0, 0.594028023031172]
[0.024181605320028686, 0.18440001556365337, -1.0];[0.12065221806978932, -1.0, 0.10728981773670075];[0.016731049568698877, 0.12812539784201465, 0.41772789393457915]
[-0.999208307251651, 1.0, -1.0];[-0.9999998411023601, -1.0, -1.0];[-0.9991834991129122, -1.0, 0.5999986957268845]
[2.749100014031354E-5, -1.0, -1.0];[0.09073843234797066, -1.0, 0.5999924677840628];[-1.0, 4.309479794665286E-5, 0.6]
[1.2666322384343053E-127, -1.0, -1.0];[0.0034020018083932776, -1.0, 3.297714019176086E-15];[-1.0, -1.0, -1.0]
[-1.0, -1.0, -1.0];[-1.0, -1.0, 1.0];[-1.0, -1.0, -1.0]
[0.5999860119243863, -1.0, -1.0];[0.038348274053379094, -1.0, -1.0];[0.9999999999658051, 0.017220111386704956, 0.5761718047680623]
[-1.0, -1.0, -1.0];[0.011676260909653555, -1.0, -1.0];[1.0, 9.207730593106537E-5, -1.0]
[-1.0, -1.0, -1.0];[-1.0, -1.0, -1.0];[-1.0, 1.6304001087656035E-289, -1.0]
[-0.8991999999997168, -1.0, -0.8895398172162381];[-0.976337199967494, -1.0, -0.9999999987911761];[-1.0, -1.0, 0.004855732166371304]
[-1.0, -1.0, -0.9999935126159146];[-1.0, -1.0, 1.0];[-1.0, -1.0, 5.379246918147311E-9]
[-1.0, 0.023308472558525417, 0.9100871221604108];[-1.0, -1.0, 0.01580641777796584];[-1.0, 0.00994980023480876, -0.6927907387593076]
[-1.0, -1.0, 0.9999999859277727];[-1.0, -1.0, -1.0];[-1.0, -1.0, -1.0]
[0.1200126805312346, -1.0, -1.0];[-0.9998837635781411, -0.9999994903733443, 8.090599709613016E-4];[-1.0, -0.9730605427770109, -1.0]
[0.002031923236281947, 0.03896592906834709, 0.06852985340250849];[0.42491936173542744, 0.004790160857978901, 0.03406941696005004];[-1.0, -1.0, -1.0]
[-1.0, -1.0, -1.0];[-1.0, 1.2223368075208974E-11, -1.0];[-1.0, -1.0, -1.0]
[0.9997914466924376, -1.0, 0.12784686893910097];[-1.0, -1.0, -1.0];[0.040747303680256974, -1.0, 0.12546904795854402]
[-0.9892206096023364, -0.9997133910129095, -1.0];[-0.9975563262044111, -1.0, -1.0];[-1.0, -1.0, -1.0]
[0.729797358072083, 0.08410476817779526, 0.014695081816551082];[-1.0, 0.041586939198793506, 0.04940863797708499];[-1.0, -1.0, -0.9033505551204195]
[0.9106011192878998, -1.0, 0.047263375961213806];[-1.0, 0.7002663797718853, 0.08558876942191429];[0.022636562573962973, -1.0, 0.009673520650746871]
[-1.0, 0.14398685860330956, 0.048717937801061054];[-1.0, 0.5577075054363804, 0.2172622126292609];[-1.0, -1.0, -0.27611180975482114]
[0.07836631421328143, 0.0845648656457689, 0.9993362706504828];[-1.0, -1.0, 0.042169337244864415];[-1.0, -1.0, 0.7067335806771112]
[-1.0, -1.0, -1.0];[-1.0, -1.0, -1.0];[-1.0, -1.0, 1.0]
[-1.0, 7.124728479455104E-5, -1.0];[-1.0, -1.0, 0.9999999999999979];[-1.0, -1.0, -0.9999987091593078]
[-1.0, 0.5998805365677318, 0.9923478101768721];[0.9999994884850625, -1.0, -1.0];[-1.0, -1.0, 0.05557270770919316]
[-1.0, -1.0, -1.0];[1.0, -1.0, -1.0];[-1.0, -1.0, -1.0]
[-1.0, -1.0, 0.9999994894559916];[-0.9912909775548728, -1.0, -0.9642974884362119];[-1.0, -1.0, -1.0]
[0.07680289671565603, 0.06600832166453442, 0.06931129995377683];[0.08493723727308672, 0.9754805289015873, 0.08390932726076475];[0.0511009228745687, 0.006022488355678446, 0.04739004626323172]
[-1.0, 0.41962027602862484, -0.9051917373607519];[0.9999994979974224, -1.0, -0.9049737376710767];[-1.0, -1.0, -0.39440228807080785]
[1.463442782000857E-11, -1.0, -0.8992845083454063];[-1.0, -1.0, -1.0];[-1.0, -0.9999535216357234, -1.0]
[-1.0, -1.0, -1.0];[-1.0, -1.0, -1.0];[-1.0, 2.7629278462749135E-57, -1.0]
[0.03772274324142629, 0.03457189484261869, 0.04809124833244882];[-1.0, 0.07091757436436072, 0.038262020635840444];[0.48102034856061615, -1.0, 0.030229378345373554]
[0.005099005326811224, -1.0, 0.03580422711976614];[0.053077209076476214, 0.061291478521396575, -1.0];[-1.0, -1.0, 0.916245872149482]
[-1.0, -1.0, 0.5772173668040197];[-1.0, 0.32672488679047224, -1.0];[-1.0, -1.0, 0.0032152662280707013]
[-1.0, -1.0, -1.0];[-1.0, 0.9999806667376585, -1.0];[-1.0, -1.0, -1.0]
[0.3172006212111373, 0.04450786516625702, 0.043924683477894924];[-1.0, 0.06255823551047271, -1.0];[0.7228558996276166, 0.0759523663267338, 0.07685385541308269]
[0.9998028851868855, 0.9738489752693049, -0.971604429420761];[0.09758581611845857, -1.0, 0.019690359751125253];[0.06751226092247263, -1.0, -1.0]
[0.9999999996131981, -1.0, -1.0];[-1.0, -1.0, -1.0];[-1.0, -1.0, -1.0]
[-1.0, -0.5638185610812176, -0.9991225812853421];[0.004660151712832319, -1.0, -1.0];[-0.9974437237559614, -1.0, -0.8102820595785375]
[-1.0, -1.0, 0.7121684666418167];[-0.6860148387077599, -1.0, 0.0068431434702352694];[0.022182138733634872, -1.0, -0.6903625054442524]
[-1.0, 0.026461773073438867, 0.9155059624449833];[0.05239857834983627, -1.0, -1.0];[0.03728452888348251, 0.05172011899714514, 0.012498891550959247]
[-0.6900127949381765, -1.0, -0.9025639727468903];[0.04933502160528922, 0.9188908820199546, -1.0];[0.3095624809105522, -1.0, 0.3129033410343864]
[-1.0, 0.005484972320318459, 0.1271922721471726];[0.08854540309922361, -1.0, 0.0556878534556923];[0.007127440824345931, -1.0, -1.0]
[0.018858237300275773, 0.9992848860558047, -1.0];[-1.0, -1.0, -1.0];[-1.0, -1.0, -1.0]
[-1.0, -1.0, 0.09350936534245842];[-1.0, 0.002472901712347886, 0.18718380912468027];[0.04310486304710329, -1.0, 0.055007894589687974]
[0.03329116848750483, -1.0, 0.012882757089168195];[-1.0, 0.052470535729261907, -1.0];[0.021234530296397814, -1.0, 0.4090509725140949]
[-1.0, -1.0, 0.0];[-1.0, -1.0, -1.0];[-1.0, -1.0, -1.0]
[-1.0, 1.0, -0.9972799447061409];[-1.0, -1.0, -0.8988874390219999];[0.5999910976325831, -1.0, -0.9697662900132131]
[0.06977356766821775, -0.6981711775803409, 0.055383824959833766];[0.07096842607151573, 0.094313374085642, -1.0];[0.06511320410620036, 0.09271580061959235, 0.032697885541091036]
[0.061564510380755735, 0.06373254311474956, -1.0];[0.04418859525585768, 0.041213655839547385, 0.049452499618861646];[0.9750530505854291, 0.012454264143343685, 0.013781613949474204]
[-1.0, 0.07657164582248092, 0.06679579239458618];[0.011718240589414654, 0.05876027203365456, 0.08571555672166291];[0.9920360620010961, 0.07020271880432198, 0.0994668544535062]
[0.06202316943726637, 0.006110487378736185, 0.03859662709044217];[0.06756916445548103, 0.060448658443969086, -1.0];[0.01717109559194837, -1.0, -1.0]
[-1.0, -1.0, 0.5999999999769008];[1.0, -1.0, -1.0];[-0.9991828712062901, -1.0, -1.0]
[-1.0, -0.9729535421118019, 9.180360196636646E-5];[-1.0, -1.0, -1.0];[-1.0, -1.0, -0.6821644992684515]
[-1.0, -1.0, 4.781100619915419E-8];[-1.0, -1.0, -1.0];[-1.0, -1.0, -1.0]
[4.20938224515849E-4, -0.37083713957317815, -0.6922018897588708];[-0.37282233444715, -1.0, -1.0];[-0.696557276523919, -1.0, -1.0]
[0.027383348011283032, 0.08295653430102239, 0.05188845026037797];[0.08427730743424838, -1.0, 0.08969233196513143];[-1.0, -1.0, -1.0]
[-0.9720203745243949, -0.9914561273654353, -1.0];[0.24581845244031927, -1.0, -1.0];[-0.9711104684395659, -1.0, -0.8999404232484367]
[-1.0, 0.0017111739122136372, 0.028940400152267256];[0.06262756344494047, 0.04528247305489367, -1.0];[0.9923234009390147, -1.0, -1.0]
[-1.0, -1.0, -1.0];[-1.0, -1.0, 0.004752614763549524];[0.9999349084846935, -1.0, -1.0]
[0.9921964189154773, -1.0, -1.0];[0.060678258718524704, 0.4275302749591579, -1.0];[-1.0, 0.053326518005746136, 0.019540085844912083]
[0.09985639433691262, 0.001059353860784884, -1.0];[-1.0, 0.05080698097645051, 5.478015330121821E-4];[-1.0, 0.053885492992595485, 0.050408779423980574]
[-1.0, -1.0, -1.0];[-1.0, -1.0, -1.0];[-1.0, 2.0136498279391827E-50, -1.0]
[0.017751530648447034, 0.03127807318237793, 0.006616881300473609];[0.02061984735515289, 0.023111627877944532, 0.9739538037141906];[0.030612733499762193, 0.03996798991015681, 0.05969186093416126]
[0.011165864501852663, -1.0, -1.0];[-1.0, 0.13695081618322424, 0.02724388353822396];[0.03180517458698674, -1.0, 0.04305722143713915]
[7.782684826755154E-18, -1.0, -1.0];[-1.0, -1.0, -0.9810862118557393];[-1.0, -1.0, -0.990926015969537]
[0.0, -1.0, -1.0];[-1.0, -1.0, -1.0];[-1.0, -1.0, -1.0]
[-0.683646172570398, -0.2631498409331824, -1.0];[0.05122619387968318, -0.6917015197848632, -1.0];[-1.0, 0.05226228836225935, -1.0]
[-0.9942612218414792, -1.0, -1.0];[1.0, -1.0, -1.0];[-1.0, 0.011341098404166722, -1.0]
[-1.0, -1.0, -1.0];[1.0, -1.0, -1.0];[-1.0, -1.0, -1.0]
[-1.0, -0.9915182392214469, -1.0];[0.9999999999997253, -1.0, -1.0];[-1.0, -0.9696663655199393, -1.0]
[0.17192739736157284, 0.052697192897908064, -1.0];[-1.0, 0.37035612236583826, 0.3200515852695883];[0.03442043303686231, 0.07633969673798775, 0.03445083443383991]
[-1.0, -1.0, -1.0];[-1.0, -0.9968241104580425, -0.6986858995696807];[0.15975211144954338, 0.04413633580956862, -0.9975057108068172]
[0.07761387241212807, -1.0, -1.0];[-1.0, -1.0, -0.9083492790272591];[-1.0, -0.9078018015136465, -0.9709043622842339]
[-1.0, -1.0, -1.0];[-1.0, 0.7266269364637856, 0.052781560139038224];[0.016668050701674098, 0.036619044418787654, 0.07926531888681586]
[-1.0, -1.0, -1.0];[-1.0, 0.9993263277574105, -1.0];[-1.0, -1.0, -1.0]
[-1.0, 0.9999982414237951, -1.0];[-1.0, -1.0, -0.9997746831959187];[-1.0, -1.0, 0.9999999999990743]
[0.9997943012670649, -1.0, -1.0];[-1.0, -1.0, -0.9718762920405816];[-1.0, -0.9095031041480102, -1.0]
[0.0999653679881233, 0.06550836001581316, 0.03335613800960233];[0.06304152519236259, 0.0037126085547901978, 0.003906537484177075];[0.027731557632579312, 0.0199912071946266, 0.03718654146284366]
[0.5436522728478881, 0.3122102843891029, 0.04974194906968702];[-1.0, 0.05824207244347606, 0.03282000631457167];[0.0012673338230693833, 0.05977293788590226, 0.001169898149520443]
[-1.0, -1.0, -1.0];[-1.0, 0.9140605695450166, -1.0];[-1.0, -1.0, -1.0]
[0.9116904964155055, 0.0826258645773947, -1.0];[0.07603310030555832, -1.0, -0.6815032498067406];[-0.6730343291160097, -1.0, -1.0]
[0.020614636233785146, -1.0, 0.013859391413133238];[0.09912757628747673, 0.08122323371846957, 0.04842253517467635];[0.04154503289469194, 0.09833829002830928, 0.08611984256555871]
[-0.6734530604962953, 0.003955697693456483, -1.0];[0.04056182930548302, 0.05770547288331859, 0.0894063541045445];[0.7035895208812502, -1.0, -1.0]
[-0.5253207679187972, -1.0, -1.0];[-1.0, 0.9732446543528561, 0.20653496223935863];[-1.0, 0.05352661609999422, 0.1355701567578407]
[-0.6743534756872724, 0.07613447813233186, -1.0];[-1.0, -1.0, 0.045001044029984776];[-1.0, 0.0027941626530691753, -1.0]
[0.0014962663269698084, 0.04585916214555783, 0.04175478541796385];[0.07577234800535196, 0.03032949859281678, 0.05153245245181089];[0.09494242847310787, 0.055909879096070064, 0.08274302874328832]
[-1.0, 0.006484341713255915, 0.00427928334024863];[-0.6743003740456005, 0.023543230631838597, 0.016307907736009132];[-0.6834987889949709, -1.0, -1.0]
[0.01718046931924354, -1.0, -1.0];[-1.0, 0.9924008820795248, -1.0];[-1.0, -1.0, -1.0]
[-1.0, -1.0, -1.0];[3.3767224442441747E-7, -1.0, -1.0];[0.9999999999897405, -1.0, 8.98573959829018E-6]
[-1.0, -1.0, -1.0];[-1.0, -1.0, -1.0];[1.0, -1.0, -1.0]
[0.9744480926282457, 0.06537909757978204, -1.0];[0.3035895593227766, 0.42236592680974927, -1.0];[0.40297057196102815, 0.5906120273866101, -1.0]
[0.09152563667673944, -1.0, -1.0];[-1.0, 0.9744270289786372, -1.0];[-1.0, 0.5515830415609295, -1.0]
[0.03314588930397425, 0.012411165518106082, -1.0];[-1.0, 0.429504492543389, 0.03382139070349584];[0.03696475403666517, -1.0, -1.0]
[0.028057602160221184, 0.050589411568278536, -1.0];[0.040956426635351574, 0.05275118807575397, -1.0];[-0.6999444593207508, -1.0, -1.0]
[-1.0, -1.0, -1.0];[-1.0, -1.0, -1.0];[1.0, -1.0, -1.0]
[0.009263121369413952, 0.42735581592872623, 0.01831709924011371];[0.01803676734290306, 0.04639485327962931, 0.0527852218167038];[0.018708875220176613, 0.05918835737815113, 0.03798395367755719]
[-1.0, -0.9914556863970514, 0.03318534141012376];[0.10689539852428631, 0.21112374101365095, -0.997487031769099];[-1.0, -1.0, -0.6890080865246957]
[-1.0, -1.0, -1.0];[1.0746918036547659E-5, -1.0, -0.9908539055153042];[-1.0, -1.0, -0.7899999990957618]
[0.010593122384392313, -1.0, 6.539056252507825E-11];[0.016103103015396684, -1.0, 0.013422423468752186];[-1.0, -1.0, -0.5912703343796819]
[-1.0, -1.0, 7.790193509853458E-142];[0.12600849006522002, -1.0, 0.1260032240754];[-1.0, -1.0, -1.0]
[-1.0, -0.5705309642261228, 0.08012058785807752];[-0.9727677832207656, -1.0, 0.10897268215711445];[-1.0, -1.0, 1.7805041294525527E-4]
[-1.0, -0.9717510811620597, -0.9918244050653023];[-0.9707384379028348, -1.0, -1.0];[-1.0, -1.0, -1.0]
[0.03951855646083527, 0.04474287974114088, 0.0824899126414187];[0.0576524263548714, 0.07749919415838681, 0.0297136545766605];[-1.0, 0.05040105551671247, 0.9750668564570343]
[-1.0, -1.0, -0.999461611523228];[-0.7895101657151808, -1.0, -0.9999997962749683];[-1.0, -0.999998079794583, 0.4132912332482739]
[-1.0, -1.0, -1.0];[-0.9810982198581732, -1.0, -1.0];[-1.0, -0.9999975256053437, 9.672226518798673E-7]
[-1.0, -1.0, -1.0];[-1.0, -1.0, -1.0];[0.050222344383694655, -1.0, 0.9993190175788305]
[0.028646851073745386, 0.029307905179561722, -1.0];[0.03349798617969171, -1.0, 0.18429215351700518];[-1.0, -1.0, 0.027272189084527387]
[-1.0, -1.0, -1.0];[-0.972487393560863, -1.0, -0.971229633631194];[-1.0, -1.0, -0.7814535516679529]
[-1.0, -1.0, -1.0];[-1.0, -1.0, -1.0];[-1.0, -1.0, 6.987646999616741E-16]
[0.03456199065803366, -1.0, 0.03636889381121304];[0.32340726912217466, 0.912960788261408, -1.0];[0.0470057621954405, 0.038359011502063736, 0.0859610260999376]
[0.028834763322002046, 0.07189872534158609, 0.05376012261251263];[0.028772929850546983, 0.7030092991236616, 0.03627068829292122];[0.09078844134787654, 0.09638449583367681, 0.0960810473337283]
[-1.0, 0.9977543855075814, 0.99998181544803];[-1.0, -1.0, 0.5894945767865456];[-1.0, -1.0, -1.0]
[0.05707564222924568, 0.04033096449260524, -1.0];[-1.0, 0.9975786721836724, 0.008763788892011126];[0.043017371358066735, -1.0, 0.05829327699254789]
[-1.0, -1.0, -1.0];[-1.0, 0.9745583365248285, -1.0];[-0.9913279432035622, -1.0, 0.3206524476221502]
[0.04156210217587523, 0.0896626652857616, 0.12535567477362503];[-0.06437621788995031, 0.5830450355931225, 0.04557975389127374];[0.07115881663340828, -1.0, -1.0]
[-1.0, -0.9036601216774245, -1.0];[-1.0, 0.9124913256447977, -0.9971318199947478];[-1.0, -1.0, -1.0]
[-1.0, 1.0, 0.599999471793733];[-1.0, -1.0, -1.0];[-0.9696860389508741, -1.0, -1.0]
[0.0, -1.0, -1.0];[-1.0, -1.0, -1.0];[-1.0, -1.0, -1.0]
[0.3989626156182443, 0.01729973269404225, 0.06373737610670169];[-1.0, -0.9712470968096111, 0.010673835229778583];[0.03352527125506335, -1.0, -1.0]
[-1.0, -0.6777554761862492, -0.6755909458495871];[-1.0, -1.0, -0.902511207853417];[-1.0, -1.0, -1.0]
[0.039964687916425795, 0.02803789207014388, 0.029523494553987666];[-1.0, 0.060830918215500546, -1.0];[0.19053525453540437, -1.0, -1.0]
[0.0011207209175334424, 1.0, -1.0];[-1.0, -1.0, -1.0];[0.0388223967779117, -1.0, -1.0]
[-1.0, -1.0, -1.0];[-1.0, -1.0, -1.0];[0.0, -1.0, -1.0]
[0.07261786792793355, 0.013450333088232336, 0.08087038754651361];[-1.0, 0.9180012527950274, 0.023875944239354175];[-1.0, 0.004883098190405999, 0.05772958068857697]
[-1.0, -1.0, -1.0];[-0.9999847829129757, -1.0, -0.9972794924164858];[-0.999999965560835, -0.6279831486368428, 3.0544524301343696E-4]
[-1.0, -1.0, 0.9999999988197564];[-0.9972783508382442, -1.0, -1.0];[-1.0, -1.0, 0.9999999999999993]
[-0.9994364691047432, -1.0, 0.01608107038144942];[-1.0, -0.6994146054794222, -0.26696079948770435];[-1.0, -1.0, 0.24820514640037472]
[-1.0, -1.0, 0.026336892824170233];[-1.0, -0.9912059056663988, -0.688443636851022];[-1.0, -1.0, 8.742307493989293E-4]
[-1.0, -1.0, -1.0];[-1.0, -1.0, -1.0];[-1.0, -1.0, 0.9976930295823667]
[-0.6639999635731604, -1.0, -0.9999978360975968];[-0.9999997664105909, -1.0, 0.1505552516176074];[-1.0, 1.0, -1.0]
[-1.0, 0.0017016273140645242, -0.6910002583476885];[-0.9729629460190655, -1.0, -0.2977048521374742];[-0.5306142310444273, -1.0, -1.0]
[-1.0, -0.0710788077291716, -0.9997615168666826];[-1.0, -1.0, -0.9975356525199446];[-1.0, -1.0, -1.0]
[-1.0, -0.6977609257584347, -0.9028328514937368];[-1.0, 0.03369514027216438, 0.03511467833521866];[0.9747285692957662, 0.006580766429280127, 0.025797199036504383]
[0.016905155450605325, 0.018013087763099244, 0.07188493619884806];[0.002744564549361306, 0.7277172590149626, 0.0441130020910515];[0.05361630709342975, 0.005159581395169888, 0.053316630906775866]
[0.027136927645437993, 0.03453496731314328, 0.09381399055183952];[0.0034429813614122676, -1.0, 0.06312726307050597];[-0.6721420401584512, 0.06272448459538267, 0.03978588935279669]
[0.07936451868587575, -1.0, 0.9999945783941688];[0.09125412735451896, -1.0, 0.07204894688401654];[-0.991311324213957, 0.038678953289832924, -0.6936064627619785]
[-1.0, 0.05128816793858255, -0.6713082122633227];[-1.0, 0.048257436927618094, -1.0];[0.007437587774507688, -1.0, -0.5805916421929622]
[-1.0, 0.04132056520248391, 0.9183954852327352];[0.07006384947826799, 0.7012787589101901, -1.0];[-1.0, -1.0, 0.03816183232967629]
[0.0045004075120547125, 0.12672784862800912, -1.0];[-1.0, -1.0, -1.0];[-1.0, -1.0, 5.126962913336534E-4]
[-0.688419786638041, -1.0, -1.0];[0.04925327497549643, 0.9744990461236019, 0.013081275848911035];[0.019235086331635898, -1.0, 0.019982741912914895]
[0.39697441966449193, 0.044470920078342024, 0.020411094137525024];[0.06372115434730594, 0.19070912580063887, 0.03663829409305935];[0.08001403360095875, 0.01435401901515273, 0.06759453179654505]
[-1.0, -1.0, 0.020404155493444077];[-1.0, 0.017242699930248656, 0.441818920036261];[0.013636758276819361, -1.0, 0.036288945817829946]
[-1.0, -1.0, -1.0];[-1.0, 2.0023794369786126E-9, -1.0];[-1.0, -1.0, -1.0]
[-1.0, -0.2565024205996208, -1.0];[0.4150511084940729, 0.04795368455830065, 0.053541380094774486];[0.29303569741028634, 0.3195153621011961, 0.26087504599418077]
[-1.0, 0.01430146771786236, -1.0];[-0.6958097802860336, 0.9922551433578324, 0.011990522521048264];[-1.0, -1.0, -1.0]
[-1.0, -1.0, -1.0];[-1.0, 0.5840800982253738, 0.003520486285168935];[0.005844911378701844, -0.19882543668447256, -0.4888935006065919]
[-1.0, -1.0, -1.0];[-1.0, -1.0, -1.0];[1.7884594420584282E-7, -0.29130003573746077, -0.9974047122862261]
[-1.0, -1.0, -1.0];[-1.0, -1.0, 1.495848170833376E-4];[-0.998298828478802, 1.0, -1.0]
[-1.0, -1.0, -1.0];[0.030475328719185124, 0.09371733373698635, 0.01404583953408952];[0.1610734132767624, 0.042731387422320515, -1.0]
[-1.0, 0.07625345905741349, -1.0];[0.0024044266524440323, 0.001689712557823706, -1.0];[0.02112790139380278, -1.0, -1.0]
[-1.0, -1.0, -1.0];[-1.0, 0.9976658669994882, -1.0];[-1.0, -1.0, -1.0]
[-1.0, -1.0, -0.9999999999999744];[0.5999918240060801, -1.0, -0.9909280001096816];[-1.0, 1.0, -0.8684374727906103]
[0.01613489351096267, -1.0, -1.0];[0.9999999961114584, -1.0, 0.0756978299012639];[-1.0, 0.7183169008173466, -0.909295605310847]
[0.9993368699839732, -1.0, -1.0];[-1.0, -1.0, -1.0];[-1.0, -0.907942031723206, 0.0773668355376618]
[-1.0, -1.0, 0.9732146448240303];[0.008654769535355279, 0.05164652840848673, 0.39816667841351866];[0.046694053061318345, 0.31326779870545335, 0.3107848985627303]
[-1.0, -1.0, 0.9999403396698069];[-1.0, -1.0, -0.9997539508488046];[-1.0, -1.0, 0.9999999999991225]
[-0.35187291327627235, -1.0, 0.402052053231739];[0.23005193025140414, 0.411452596622907, -1.0];[0.033415524840614004, 0.10074878609360391, 0.11242105221494325]
[-0.6782037277522469, -1.0, 0.09195387019088502];[0.014396837319277035, 0.9755897004013673, 0.017808486701644245];[-1.0, 0.09500357788333753, -1.0]
[-1.0, -1.0, 0.00654102108404967];[-1.0, 0.7297860691695147, -1.0];[0.4101066275322477, 0.03637704803460012, 0.03311135958518784]
[-0.9999456832615835, -1.0, -1.0];[-1.0, -1.0, -0.9975228133252811];[3.953924186547912E-6, -0.14647656967303563, -0.9973988327045088]
[-0.9997785572014329, -1.0, -1.0];[-1.0, -1.0, -1.0];[0.22042469523715802, -0.9999310933829504, -1.0]
[-1.0, -1.0, -1.0];[-1.0, 0.531162396964517, -0.40191896052847254];[-0.5910511758298581, -0.5709894719978783, 0.007772774691168749]
[0.06017960586625945, 0.07294285673975882, -1.0];[-1.0, 0.9750108134913794, 0.06558859757427653];[-1.0, 0.008782248292721773, 0.01686707833855158]
[-1.0, -1.0, -1.0];[-1.0, -1.0, -0.9999980958318724];[-1.0, -0.9999294789112154, 7.888094197762163E-9]
[0.9924685687508257, -1.0, -1.0];[0.1990591419647327, 0.057087228219316735, -1.0];[0.04566285811247145, -1.0, 0.0376874213851708]
[0.9130080540710628, 0.03695645088024383, 0.054004876325795786];[0.02177814175352899, 5.736346833207006E-4, 0.04137756431483456];[0.005800293245542876, 0.06352695123750422, 0.037393342673946]
[0.189367297522375, -1.0, 0.0028338699506362365];[-1.0, 0.005886296722724599, -1.0];[-1.0, 0.03268299044606922, 0.037017894105224776]
[-1.0, -1.0, 0.9745865631275685];[0.03741674297890405, 0.035723751478623104, -1.0];[0.04008887265445336, 0.04533876750643998, 0.01466908938159558]
[-0.9934660139189327, -1.0, -0.5876529650487252];[-0.27007735558786994, -1.0, -1.0];[-0.9907041767674957, -1.0, -0.9908471619816839]
[0.02484435081918899, 0.001728326118936563, -0.9020804542452571];[-0.683056739815978, 0.07545129211592186, -1.0];[-1.0, -1.0, 0.7144089665784346]
[-1.0, -1.0, -1.0];[-1.0, -1.0, -1.0];[-1.0, -1.0, 0.9999999522497763]
[0.5907881201453351, -1.0, 0.011882959899668043];[-1.0, -1.0, -1.0];[9.87352608436797E-4, -0.532329499451421, 0.05339624465330565]
[0.9976294886152414, -1.0, -1.0];[-1.0, -1.0, -1.0];[-1.0, -0.6315949668950821, 0.5924300213042717]
[0.008439103473092503, 0.017317175492125993, -1.0];[0.03522953030462235, 0.07388955911161797, 0.0319808385250913];[-1.0, 0.03050929410537765, 0.04324335291007235]
[0.04024196160382129, -1.0, 0.03703452566100573];[-1.0, 0.05580066524446646, 4.923957622695921E-4];[0.02928283083512863, -1.0, -1.0]
[0.030035561680203028, -1.0, 0.058266136520939274];[0.4003803545840268, 0.06613758499470695, -1.0];[-1.0, -1.0, 0.7044719283196714]
[-1.0, -1.0, -1.0];[-1.0, -1.0, -1.0];[-1.0, -1.0, 0.9999995098783573]
[0.0922939366018416, 0.06568092133352532, 0.036223092035142714];[0.03446361696020144, -0.6799476244313183, 0.051487331252215066];[0.05535527649869093, 0.03461291659256912, 0.9159344481671814]
[3.9731871096566364E-4, -0.9999999956602781, -0.5999676299759493];[-0.9999785280678933, -1.0, -0.2829143634897652];[-1.0, -1.0, -1.0]
[-0.9071589415609735, 0.09340632554961115, -0.7453881870985356];[0.02964820115562042, -1.0, -1.0];[-1.0, -1.0, 0.9999946130123747]
[0.0017507800348160797, -1.0, 0.42363532451777347];[-1.0, -1.0, -1.0];[-1.0, -1.0, 0.915288345298067]
[0.999994196251665, -1.0, -1.0];[-1.0, -1.0, -1.0];[-1.0, -1.0, -1.0]
[-0.9999980932717332, -1.0, -0.9999939703532932];[-0.9999981136987823, -1.0, -1.0];[-1.0, -1.0, -1.0]
[-1.0, 0.0017377377369641733, 0.06037661431972935];[-1.0, -0.6971095719665819, 0.07684567303767553];[0.0650538440287983, -1.0, 0.03235258664348151]
[0.009497117326145211, 0.05328521902440029, 0.054681733834779964];[-1.0, -1.0, 0.32198887369834633];[0.9174105975480215, -1.0, 0.01491741295315845]
[-1.0, 0.021133486999819574, 0.07039291311466073];[-1.0, 0.06134007833839521, -1.0];[0.03998370997885633, 0.02166788030853746, 0.06348071287497727]
[-1.0, 0.9999999999999998, 0.12022041028553843];[-1.0, -1.0, -1.0];[0.5998736324540895, -1.0, -1.0]
[-1.0, 1.0, -1.0];[-1.0, -1.0, -1.0];[-1.0, -1.0, -1.0]
[-0.07526137930111032, -0.14748907314925847, 0.11630353849603131];[-1.0, 0.13274665016312165, -0.15146914513044646];[0.3612577023055101, 0.13525003743773917, -1.0]
[0.010131355159267486, -0.971763416224415, -0.7407516158248064];[-1.0, -1.0, -0.5156598152975321];[-0.9718278531203739, -1.0, -1.0]
[-0.6861507535429535, 0.011429477117541099, -0.9720393235682641];[-1.0, -1.0, -1.0];[-0.6758288423639066, -1.0, -1.0]
[0.9999809171409246, -1.0, -1.0];[-1.0, -1.0, -1.0];[-1.0, -1.0, -1.0]
[0.3258884667999193, -1.0, 0.06446526914350703];[-1.0, 0.5785931218649907, 0.17311991414234418];[0.10737913646004281, 0.10242671355879772, 0.18595982633789454]
[1.464458309228638E-11, -1.0, -1.0];[-1.0, -1.0, -1.0];[-1.0, 4.610287270673746E-11, 0.037800744228942265]
[-1.0, -1.0, -1.0];[-1.0, -1.0, -1.0];[-1.0, -1.0, 0.9999999999900016]
[0.10806507712470187, 0.036402834224504854, 0.2750032284836493];[-1.0, 0.07049891113436695, -1.0];[0.1328506509093102, 0.10665834931428045, 0.17242246464574545]
[-1.0, 2.0793839152426607E-6, 0.4220435458377318];[-1.0, -1.0, -1.0];[-0.48267568916124215, 0.022247486992476216, 5.3769686717700425E-5]
[-1.0, -1.0, 0.42000006696157755];[-1.0, -1.0, -1.0];[1.464458095862908E-11, -1.0, 3.567016544920468E-87]
[-1.0, -1.0, -1.0];[-1.0, -1.0, -1.0];[0.0, -1.0, -1.0]
[-0.02287103327115851, 0.004943574487027221, 0.20756063817248932];[-1.0, 0.1285833000133147, -0.0514766682999111];[-1.0, 0.0037141385824892023, 0.20520135317516172]
[0.03293815388102277, -0.597506649230046, -1.0];[-1.0, 0.9126476551029784, -1.0];[-1.0, -0.6849290649601092, 0.24248375048013654]
[0.03551512058655619, 0.06292846540124945, -1.0];[-1.0, 0.02921976941189325, -1.0];[0.3144491904714656, 0.20867799218814578, 0.07222790732135374]
[-1.0, 0.7139955242026093, -1.0];[0.009812829958405834, 0.05564910217450406, -1.0];[0.7024774552027415, 0.5961110068484371, -1.0]
[-1.0, -1.0, -1.0];[-1.0, -1.0, -1.0];[0.9999983348605518, -1.0, -1.0]
[-0.2539018837815441, 0.03335144970338894, 0.17887486361276395];[-1.0, 0.32672192889517704, 0.002973160211093114];[0.45805413068506834, -1.0, 0.31486115645882307]
[0.0518230138184866, 0.0675960483361806, 0.09483515566940931];[-1.0, 0.9746041507246209, -1.0];[-1.0, 0.09402591404412358, 0.04401620774959114]
[-0.9997626580562491, -1.0, -0.999760277813872];[-1.0, -1.0, -1.0];[-1.0, -1.0, -0.9997590345501332]
[-1.0, -0.9965992514081529, -0.9594514307261099];[-1.0, -0.5590320506880382, -0.578174188299895];[-1.0, -1.0, -0.5713265536058324]
[-1.0, 0.42843228518337995, 0.5613038014186634];[-1.0, 0.06632759030347046, -1.0];[-1.0, 0.07982151096800277, -1.0]
[-1.0, -1.0, -1.0];[-1.0, 0.9999982351851345, -1.0];[-1.0, -1.0, -1.0]
[0.07403004885624874, 0.04875725497544505, 0.02902423550241273];[0.08356742920670175, 0.9182596425990645, 0.020650513533918904];[0.06050232259904367, 0.07684004637550616, 0.0613854534601082]
[-1.0, -0.6764358153396713, -1.0];[-1.0, 0.0336845478934828, 0.046973575101983];[-1.0, -0.6747190075811207, 0.04806126814971456]
[-0.5972480867130405, 0.4224858452327444, 1.2869807390736233E-4];[-1.0, -1.0, -1.0];[-1.0, 0.5522429091397437, 0.10673169374816677]
[-0.2999792755517714, 1.0, 0.12600082081103564];[-1.0, -1.0, -1.0];[-1.0, -1.0, -1.0]
[0.7005075021925524, 0.049757881834887316, -1.0];[0.006848614306880197, 0.061041478543643446, 0.049791857550017096];[-1.0, -1.0, 0.004338945926446092]
[0.04338293466194176, 0.022106981956977512, 0.03220453886178622];[0.08193703189300583, 0.9177695344064041, 0.009145815078151376];[0.05637565981180412, 0.0023014212737198724, 0.06168655416063308]
[0.9999983346394772, -0.602507321563976, 0.5048597121047875];[-1.0, -1.0, -0.6949303584118531];[-1.0, -0.6969003242806447, -1.0]
[0.1563678426326507, 0.041272670874164356, 0.06754005556702586];[0.06540956877577303, 0.03065536314148909, 0.04778562830908266];[0.06266594129226172, 0.033699246567457875, 0.03600154882578795]
[0.05299453404785023, -1.0, 0.09269058717746462];[0.009233372148344831, 0.7083779632178966, 0.037379034382171904];[-1.0, -1.0, 0.019990280627415036]
[-1.0, -1.0, 1.2563678428344357E-7];[-1.0, -1.0, -1.0];[-1.0, -1.0, -1.0]
[-0.6883110653052156, -1.0, 0.08906947707488608];[0.009472367267335781, 0.9976454171322122, -1.0];[0.006442236312888417, 0.0530205986961863, -1.0]
[0.0028873298747922357, 0.001090188745616305, 0.0010607674277441502];[-1.0, -1.0, -0.2073130987076092];[2.755720480818981E-7, 0.006355987549547455, 0.0013979758503332347]
[-1.0, -0.9912792885713582, -1.0];[-1.0, -1.0, -0.9725551476142756];[0.9999999999999234, 0.13817241801291635, -0.9965547660316476]
[6.58745694301155E-4, 0.03633949128113602, 0.026815755294627073];[0.04871059504110347, 0.021231919999164885, -1.0];[-1.0, 0.009918301710024714, -1.0]
[1.0, 0.5999996956270457, -1.0];[-1.0, -1.0, -1.0];[-1.0, 0.5999996937774108, -1.0]
[-1.0, 1.0, -1.0];[-1.0, -1.0, -1.0];[-1.0, -1.0, -1.0]
[0.05240528853677884, 0.05339109967200012, 0.005948227284158137];[0.021356190639075415, -1.0, 0.04416387745844607];[0.534884545125512, 0.014569795393121377, -1.0]
[-1.0, 0.007669922415170467, 0.013342811598536737];[-1.0, -1.0, -1.0];[-1.0, 0.9922816836202257, -1.0]
[-1.0, -1.0, -1.0];[-1.0, -1.0, -1.0];[-1.0, 0.9999994948354705, -1.0]
[0.061992554866118155, 0.06147978580975133, 0.06126247669214506];[0.07776190088260229, 0.036183513431754195, 0.021857603766010737];[-1.0, 0.05307157513669296, 0.08446595002782821]
[-1.0, 0.05426368791618097, -1.0];[0.07821589596550842, 0.05433149857927608, 0.05840658604820351];[0.02958329053720358, 0.572094595748017, 8.7486586757759E-4]
[-1.0, -1.0, 0.19368597057084017];[-1.0, -0.9715038779384412, -0.6895503762814327];[-0.8818830679643948, 0.03122420087870147, -1.0]
[-1.0, -1.0, -1.0];[-1.0, -1.0, 0.9139804993486991];[0.3080902938553684, 0.5111455800847214, -1.0]
[-0.9992524470250397, -1.0, -1.0];[-1.0, -1.0, 0.9999999998952338];[-1.0, 1.0649676076701095E-5, -1.0]
[0.059954414754392595, 0.0734781775883783, 0.03955873065291644];[0.03268149758243164, 0.34312757335014354, -1.0];[0.9104865970003663, 0.07889558099247693, 0.04094276710117134]
[0.010275036794339288, 0.9976362779256152, -1.0];[-1.0, -1.0, -1.0];[0.705647472439691, -1.0, -0.9058708347964098]
[0.08097410997344558, 0.9977093968904496, -1.0];[-1.0, 0.06063966560507999, -1.0];[-1.0, -1.0, -1.0]
[-1.0, -1.0, -1.0];[-1.0, -1.0, 1.0];[-1.0, -1.0, -1.0]
[-0.5990233401350256, -0.42006287239660334, -0.9990376523374283];[-1.0, -1.0, -1.0];[-0.9914673970583321, -1.0, -0.3789797993329812]
[-0.9036840263828377, -0.9038766671768206, -1.0];[-1.0, -1.0, -1.0];[-1.0, -1.0, 0.9737606778218408]
[-0.6812842467917686, 0.004518876637909031, -1.0];[-1.0, 0.02127013540002877, 0.01986389997932574];[-0.6859810805822395, -1.0, -0.6796132847866213]
[0.021329765614143528, -1.0, -0.9890837361190813];[-1.0, -0.6799762431898153, -0.2650243523568246];[0.05477423970417357, -1.0, -1.0]
[0.08525235995908875, 0.01632127021624848, -1.0];[0.03191853197149474, 0.40777899623971975, 0.026727244833118627];[0.06458778482106539, 0.07939759396575646, 0.0803081623327259]
[-1.0, -1.0, -1.0];[-1.0, -0.9068139611975612, 0.020407327390818953];[-0.698927488916453, -1.0, -1.0]
[0.007385596303430897, 0.03926560844708886, -1.0];[0.004767427888725018, 0.04921982674760654, -1.0];[-0.6797306335953894, -1.0, 0.036589644897312465]
[0.5999692748647917, 5.7090925807463174E-5, -1.0];[-1.0, -1.0, 1.0];[0.5841769866737289, -1.0, 0.5926199074282874]
[-1.0, -1.0, -1.0];[-1.0, -1.0, 1.0];[8.380196984519426E-6, -1.0, 0.0034940731172072304]
[-0.6926770361952641, -1.0, -1.0];[-1.0, -1.0, 0.9999999999999979];[-1.0, -1.0, 0.599868909004239]
[-0.5097902436941701, -0.997455763977517, -0.3636108524561868];[-1.0, -1.0, -1.0];[-1.0, -0.12614282690714163, -0.8991543372747188]
[0.5742910446543606, 0.042453428015211694, 0.051261623065535354];[0.064810402385981, 0.05739196750745639, 0.04868435514600187];[-0.6807012145195854, -0.6850078767483279, -1.0]
[0.9165845583879157, -1.0, -1.0];[-1.0, -1.0, 0.04562816641313882];[0.024014662167787765, -0.9032227901871693, 0.020114762175186096]
[0.9999814012174572, -1.0, -1.0];[-1.0, -1.0, -1.0];[-1.0, -1.0, -1.0]
[-0.999777232244841, -0.23085591406406814, 0.0016361700434257215];[-1.0, -1.0, -0.7854888219975682];[-1.0, -1.0, -0.7242877879884342]
[-1.0, -0.9918843799978789, 0.003402153238876302];[-1.0, -1.0, -0.9914548001920789];[-1.0, -1.0, -1.0]
[-1.0, 0.9999983461171857, -1.0];[-1.0, -1.0, -1.0];[-1.0, -1.0, -1.0]
[0.04374483442844566, -1.0, 0.0557120355051409];[-1.0, 0.9173892648395954, -1.0];[0.03971974609154976, 0.05244367383307847, 0.08113767973031726]
[0.033372962133117245, 0.034640232683240346, -0.6815428068263639];[0.018351392185648074, 0.708649701054076, 0.040892693784100445];[0.015101367567255398, 0.03327150837590096, 0.055055625442643634]
[-1.0, -1.0, -1.0];[-1.0, 0.975152644146355, 0.0027556270011960928];[-1.0, -1.0, -1.0]
[-0.9706923441297705, -1.0, -1.0];[-1.0, -0.9663116989698591, -0.2754486748534814];[-0.9900021614535586, -0.9999994909538701, -1.0]
[0.9993354801873939, 0.09729953191834989, 0.04662817752612801];[-1.0, 0.3177875645235903, -1.0];[-1.0, 0.018913459229082476, -1.0]
[0.5721431489421436, 0.02210961486568032, -1.0];[-1.0, -1.0, 0.03150746444252457];[0.029668758937710062, 0.0668946114880786, 0.029503617753451485]
[-1.0, -0.5570875997499034, -0.9059912544078662];[-1.0, -1.0, -0.3963018000072448];[-0.9722144141906921, -1.0, 0.008756444963889404]
[-1.0, 0.0478096228024142, -1.0];[-1.0, -1.0, -0.9973970776074917];[0.9150077117915474, -1.0, -1.0]
[-0.6862834184611631, 0.1931193440724709, -1.0];[-1.0, -1.0, -0.7862197356373596];[-0.49051741513713765, -1.0, 0.13517618972256734]
[0.9740334360605897, 0.04225305246713207, 0.050340263354450715];[0.07967463198111445, -1.0, -1.0];[0.03124300235747586, 0.07915672685393751, -0.6874042112127897]
[0.3646923899983358, -0.1494179272162606, -1.0];[-1.0, 0.16307130251347424, 0.02426975311357131];[-0.10696243517339156, 0.17216162799675416, 0.033623405640243714]
[0.057179682708846095, 0.03947071509656598, -1.0];[-1.0, 0.915495706128151, -1.0];[0.30842765125629373, 0.07821741964121043, -1.0]
[-1.0, 0.01583898170834979, 0.010119594032002866];[-1.0, -1.0, 0.05498109646152614];[0.004482803988390816, 0.09901298887894802, -1.0]
[-1.0, -1.0, 0.0010205997622802607];[-1.0, -1.0, -0.868937451614779];[-1.0, -0.9997739769233447, -1.0]
[-1.0, -0.7836124134569521, -0.9168787863469915];[-1.0, -1.0, -0.9999999999892849];[-1.0, -0.7891930889515222, 1.3179293905229936E-12]
[-1.0, 3.082328207937707E-22, -1.0];[-1.0, -1.0, -1.0];[-1.0, -1.0, -1.0]
[-1.0, -1.0, 0.9999816420439518];[-1.0, -1.0, -1.0];[-1.0, -1.0, -1.0]
[0.39919489976698713, 0.027866544074696787, 0.030819869441171956];[-1.0, 0.048857901112550145, 0.041410526359698656];[0.3183195074593908, 0.08580358228040029, 0.034614282362814455]
[-1.0, -1.0, 6.898485646761514E-4];[-1.0, 0.4206538515693137, -1.0];[-1.0, -1.0, 0.0016243441869383088]
[-1.0, -1.0, -1.0];[-1.0, 0.9999354006062702, -1.0];[-1.0, -1.0, -1.0]
[0.42411859384357514, -1.0, 0.39484323226307166];[0.053785028852374274, -0.5360995555146977, -1.0];[0.006890349215141567, -1.0, 0.04822798429235953]
[-1.0, 0.05082088024362751, -1.0];[0.016542383852432452, 0.004759081812368792, 0.0030950896174824273];[0.019481571352257254, -1.0, 0.01514916857867551]
[-1.0, -1.0, -1.0];[-1.0, -1.0, -1.0];[-1.0, -1.0, 2.0385304699424603E-8]
[0.06443558687220499, -0.9040840654430089, 0.04790273437044138];[-1.0, -0.6991824447825529, 0.007413360707083572];[0.9738471362299669, 0.059984721597969595, 0.02148423035611289]
[-1.0, -1.0, -1.0];[-1.0, -0.9916710674181011, -0.9918117001216047];[-1.0, -1.0, -0.9989270229800147]
[0.032241625858963396, -1.0, -1.0];[0.006227264711515235, -1.0, -0.6864344429548825];[0.9749260554221827, 0.01651242419612812, -0.6861569289764488]
[-1.0, -0.674697275793976, -1.0];[-1.0, 0.5508427956613486, -1.0];[-0.6750895236028591, -1.0, -1.0]
[-1.0, 0.0018962897712358267, -1.0];[-1.0, -0.6996359678513542, -0.6840447019173722];[-1.0, -1.0, -1.0]
[-1.0, -1.0, -1.0];[-1.0, -1.0, 1.4184210398757882E-51];[-1.0, -1.0, -1.0]
[0.9976833276869727, -1.0, 0.5364344852955335];[0.04035398734461716, 0.08412904447404258, 0.13919156482927936];[-1.0, 0.3110052008235273, -1.0]
[-1.0, -1.0, 0.04529032370385602];[-1.0, 0.0534132030966399, 0.30681943920058796];[0.9976051007047405, 0.15988721455025282, -1.0]
[-1.0, -1.0, 0.3935519291883478];[-1.0, -1.0, 0.037518775481723346];[0.9182230893819495, -1.0, 0.01464257737607293]
[-1.0, -1.0, -1.0];[-1.0, 0.4203383729302614, 0.39750979787254553];[0.9999942437646544, 0.009459630029032873, 0.26629566101940555]
[-1.0, 0.023453636305774753, -1.0];[0.009940216926353707, 0.026796183295919897, -0.686453896871141];[0.9742656329895739, 0.034395680511683034, -1.0]
[-1.0, -1.0, 2.4800580009608296E-6];[0.6, -1.0, 0.017775636508715754];[0.5999999983186144, 0.016070124447836252, -1.0]
[-1.0, -1.0, -0.5703313186420108];[0.9999814865825472, -1.0, -1.0];[0.586462711067287, -1.0, -1.0]
[0.9736320516895376, 0.03791429039959709, -1.0];[-1.0, 0.1782430317515053, -1.0];[0.04330721064162335, 0.06059504325781179, 0.003670544515245988]
[-1.0, -0.9754299635059412, -1.0];[-1.0, -1.0, -1.0];[-1.0, -1.0, -0.9999861884112303]
[-1.0, -1.0, -0.6868446211150938];[-1.0, 0.007120605375850297, -0.6915640439911734];[-1.0, -1.0, 0.009656882959136038]
[0.13952995216286546, 0.41210970845747125, -1.0];[-0.04142517142527703, -1.0, -0.5744661617030287];[-1.0, -1.0, -0.8971016918185448]
[-1.0, 0.9748586671143828, 0.0589377091506806];[-1.0, -1.0, -0.9065316333849331];[-1.0, 0.036369911524506526, 0.0131347165145845]
[-1.0, 0.9997959748933424, -1.0];[-1.0, -1.0, -1.0];[-1.0, -1.0, -1.0]
[-1.0, 0.5999999992915357, 1.0];[-1.0, -1.0, -1.0];[-1.0, 0.5999969861962321, -1.0]
[-1.0, -1.0, -1.0];[-1.0, -1.0, -1.0];[-1.0, 1.0, -1.0]
[0.06158508524672664, 0.09989329427579965, -0.6805022746528135];[-1.0, -1.0, 0.07824781048928024];[-1.0, 0.07062068084796001, 0.7168681827025187]
[0.0265387430055439, 0.3283806265728525, 0.017045068054576284];[-1.0, 0.9178499777422358, 0.07042101353182117];[-1.0, 0.0017995848515189872, 0.018939944986118562]
[-1.0, 0.5999199732015117, 1.0];[-1.0, -1.0, 7.802449866006146E-5];[-1.0, 0.5999275861985122, 0.5999982205494289]
[-1.0, -1.0, 0.08324635357743482];[-0.4956746370893331, 0.5946307045684335, -0.6703151235302973];[-1.0, -0.9065124198678467, -1.0]
[0.0026763704950439338, 0.3960744178260009, -1.0];[0.0035662669805600292, 0.9755924775212977, 0.03555801372987229];[0.009089279611468815, 0.0546026201952179, -1.0]
[-1.0, 0.599999694805436, 1.0];[0.5999999999136332, -1.0, 0.5999743176920921];[-1.0, 0.5999968156537269, -1.0]
[-1.0, 0.017094678017863806, -1.0];[0.9977184557545581, 0.03699661635545261, 0.06152855421081514];[-1.0, 0.5081939584385582, 0.04309909878333222]
[-1.0, -1.0, 0.09192940578669594];[0.9122559977594286, 0.09304208151473214, 0.04188632166901736];[0.09639505888081179, 0.7136103557431372, 0.0826828408050723]
[0.017511115922419253, -1.0, 0.011633705805832829];[0.4284827162748136, 0.9747904524739588, 0.043760614508574706];[-1.0, 0.02134374438211947, 0.05076992151632455]
[0.974282942728462, -0.6749101421865583, -1.0];[-1.0, -1.0, -0.6939482108954744];[-1.0, -1.0, -1.0]
[1.0, 3.0620189805992285E-4, -1.0];[1.6785708254328794E-13, -1.0, -1.0];[-1.0, -1.0, -1.0]
[0.999999844620698, -1.0, -1.0];[-1.0, -1.0, -1.0];[-1.0, -1.0, -1.0]
[0.9741798893874909, -1.0, -1.0];[-1.0, -0.5687924180940326, 0.02676954073483177];[-1.0, 0.014974631051994425, -1.0]
[0.9997817706325769, -1.0, -1.0];[-1.0, -1.0, -1.0];[-1.0, -1.0, -1.0]
[-1.0, 0.38781675756343786, -1.0];[0.05438165684700774, -1.0, 0.011719520294023462];[-1.0, 0.9976898191259188, -1.0]
[0.06872541682504384, 0.06818920773044337, 0.0210113391714684];[0.014654594197580743, 0.007960051789246057, -1.0];[-1.0, 0.02715713674335564, -1.0]
[-1.0, -1.0, 3.503445252844267E-54];[-1.0, -1.0, -1.0];[-1.0, -1.0, -1.0]
[0.04545234359852343, -1.0, 0.07543856379402898];[0.028763102199498885, 0.2029256923235332, 0.016713598068238536];[0.053261660533796606, 0.4687032683267279, 0.05298711002970938]
[-1.0, -1.0, -1.0];[-1.0, 0.0026091293369018918, 0.050625160104644386];[-1.0, 0.9165780991242192, -1.0]
[0.05505295326853043, 0.04008333253042348, 0.04608369266025413];[-0.6873619990264196, 0.9167525380034707, 0.06243722359963652];[-1.0, -1.0, 0.032581559872023706]
[0.9977147840380727, -0.9911937024679578, -1.0];[0.008844393605612367, -1.0, 0.999999999626347];[-1.0, -1.0, -1.0]
[0.048837333974509727, 0.003036332640644557, -1.0];[0.02749382149929701, 0.9164678551414691, 0.004318616614000037];[0.01721713753887615, 0.037265276467989064, 0.06793923443552718]
[0.7226905164439847, 0.0733699323945888, -1.0];[0.0592075084861744, 0.03185084983637628, 0.04882714627562579];[0.02719553971064037, 0.030247779077514893, 0.04083546811906047]
[-1.0, -1.0, 0.9730987728980175];[0.0612176037294732, 0.5316430013911497, -1.0];[-1.0, 0.12082198015195258, 0.0594071771951599]
[-1.0, -1.0, -1.0];[-1.0, -0.6916683151477737, -1.0];[-1.0, -0.971563735141552, -0.5717298710712004]
[0.5438115461419156, 0.06222303695858086, -1.0];[-1.0, 0.012137415353957189, -1.0];[0.16079478916647266, -1.0, -1.0]
[-1.0, -1.0, -1.0];[-0.9991935247288082, -0.7008840331805178, -1.0];[-0.6673104639957368, -0.9639645658588752, -0.5981602131897034]
[0.00978807340613831, 0.09939924913307056, 0.09131643873933663];[0.07623591145743314, 0.9157435047928333, 0.01058489921645488];[-1.0, -1.0, 0.05091437026774438]
[0.5468418542869844, -1.0, 0.5385647832854741];[-1.0, -1.0, -1.0];[0.30748834190636243, 0.9999999999969079, 0.5943734299377316]
[0.050115883316655924, -1.0, -0.9092960948252995];[0.047574510199528054, 0.06497052885350213, 0.015149706361382055];[0.5992914270608355, 0.992424854978071, -1.0]
[0.9976414247282603, -1.0, -1.0];[0.02826409629640969, -1.0, -1.0];[-0.4967551763180522, -0.6808994165997507, 0.020364224414290834]
[0.17125445155880403, -1.0, 0.4486859355069251];[-1.0, -1.0, -1.0];[0.06187193576096901, 0.01776847567477185, 0.06800655042763311]
[0.08747096543033431, 0.07787731436634224, 0.9925218763501932];[0.0056154990528443196, 0.06537722885711614, 0.05660395471653948];[0.014558803760701865, 0.0066992487052084165, 0.09813976761860745]
[-1.0, -1.0, 0.18864713074073403];[0.04000808900298347, 0.27849827487499945, 0.13423989156058005];[0.2793773225296551, -0.2107032557313752, 0.08612954000413045]
[-0.9965261909171833, -1.0, -1.0];[-1.0, -1.0, -0.7892178394154833];[0.42000825326000174, -1.0, -1.0]
[-1.0, -1.0, -1.0];[-1.0, -1.0, -1.0];[-1.0, -1.0, 6.414465243823206E-53]
[-1.0, -1.0, -1.0];[-0.9283695129779908, -1.0, -1.0];[-0.9916021615004844, -1.0, -0.2974522577164017]
[-1.0, -1.0, -0.5656960704787668];[-0.24351579231952022, -0.9997763376037329, -1.0];[-1.0, -0.684513597287966, -0.9736232659536695]
[-1.0, -1.0, -1.0];[-1.0, -1.0, -1.0];[-1.0, -1.0, 0.0]
[0.023669934591213217, 0.08105750666483208, 0.21319710395702013];[0.032490025149444816, 0.00693526658713447, 0.05706833395455251];[0.064429613841335, -1.0, 0.0011287868892506327]
[-1.0, -1.0, -1.0];[-0.5519488818920297, 0.5999439692351997, -0.06575225009130709];[-0.9620717970676017, -0.9975178344166855, -1.0]
[0.05539678442121157, -1.0, 0.0751282245531169];[0.0430454826494383, 0.9744229764803654, -1.0];[0.09893693050151325, -0.8812169536638377, 0.08808675650598269]
[-1.0, -1.0, -0.9099135958350393];[0.02201439185880901, -0.6963826307658911, -0.27886444097388463];[-1.0, -0.9913297838971524, -1.0]
[-1.0, 0.0485242472157046, 0.02454926328872058];[-1.0, 0.037629176914622336, 0.001490439808237254];[0.04300519531545122, -0.6834010588612638, 0.001689444108314786]
[-1.0, -1.0, -1.0];[0.01492950650038576, 0.5582186844482722, 2.4567362677266894E-4];[-0.42385122157487054, -0.5077839288399232, 0.036985128970832136]
[-1.0, 0.032573532143660024, 0.4270204735711331];[0.04225778517093973, 0.06575178602687606, 0.043882674629876176];[0.062358979081958435, 0.01512146759878773, 0.23012090404911315]
[-1.0, -1.0, -1.0];[0.9999999999999998, -1.0, -1.0];[0.001020799869765885, -1.0, 0.03789246266101376]
[-1.0, -1.0, -1.0];[-1.0, -1.0, -1.0];[-1.0, -1.0, 0.0]
[-1.0, -1.0, -1.0];[-0.518785167948837, -0.6893324833552851, -0.575669974097755];[-1.0, -0.9254427747941509, -0.6685281982275003]
[-1.0, -1.0, -1.0];[0.07638085021140267, 0.07971852779982093, 0.9921521331495841];[0.027542096535513396, -1.0, -1.0]
[0.00208372656287501, -1.0, 0.9735606053220485];[0.03746803802788084, 0.013452444325565882, 0.03812030657449061];[0.05739015643224382, -1.0, -1.0]
[-1.0, 0.0021853158903953453, 0.9752745134429851];[0.0642417805678867, -0.903912029162432, 0.002210415968065127];[0.04148167216266927, 0.04737024402290423, -1.0]
[-1.0, -1.0, 0.9738596476253566];[-0.9726036371006563, -0.9018516004170165, -1.0];[0.3988979432908333, -0.9704663039356621, -1.0]
[0.5998951704438354, -1.0, -0.8989212429960207];[-1.0, -1.0, -0.8991364749258522];[-1.0, 1.0, -0.9997545534903898]
[0.9999999987776933, -1.0, -1.0];[-1.0, -1.0, -0.9911153974924036];[-1.0, 0.9999810339025501, -1.0]
[0.050895727168178265, -1.0, 0.057210165883386024];[0.0967703431365702, 0.02103850505397163, 0.0339807291918436];[0.0891131281118308, 0.059353089292467714, 0.05399707331866946]
[-0.6732933059135415, 0.07429586183735808, 0.04217984008998911];[0.07262792410130524, 0.02678709883672883, 0.029448235090935172];[0.06634636704589993, 0.07111479046964725, 0.9732471487468853]
[0.5986158216792002, -1.0, -1.0];[-1.0, -1.0, 7.359569239865158E-4];[0.4214875306626853, 1.0, 0.5999952683885097]
[0.9919355285467214, -1.0, -1.0];[-1.0, -1.0, -1.0];[0.598578714823444, 0.9999983996815185, -1.0]
[-1.0, -1.0, -1.0];[-0.9999981772522898, -1.0, -0.9999282710537645];[-1.0, 0.9999999999997309, -1.0]
[-1.0, -1.0, -1.0];[-1.0, 0.722558488537666, 0.06083190426546693];[-0.9094199896682785, -1.0, 0.09373937162204105]
[-1.0, -1.0, -1.0];[0.09339444807137526, 0.9745794998362631, -1.0];[-1.0, -1.0, -1.0]
[0.28565435074124224, -1.0, 0.318596861574532];[0.08882056288250104, 0.47532386666181436, 0.39167493530600334];[0.09308236944335507, -1.0, 0.727318765443841]
[-0.9997737421503988, -1.0, -1.0];[-1.0, -1.0, 0.03691062411680193];[0.09302467331390453, -1.0, 0.9926783693080863]
[0.08774658142335323, 0.017966699391129992, 0.08186032785732507];[0.04967419286419993, 0.14603668001189302, 0.08824902922115233];[-0.6930063284967132, -1.0, 0.03313935483899236]
[0.011104962669650255, 0.006079276911857102, -1.0];[0.01149467034094669, 0.7195748392232325, -1.0];[0.3230077714954453, -1.0, 0.06379528632822153]
[-1.0, 0.0908033236104383, -1.0];[0.9926891335451117, 0.09167836791688855, -0.6848021517171438];[-1.0, 0.02525816906296832, 0.03250523695299926]
[-1.0, 0.10316543578191094, 0.4297104116220781];[0.2172972116744779, 0.03184346782742503, 0.02443160999728343];[-1.0, 0.1054193602075296, 0.17490564699354783]
[-1.0, -0.8901213233002757, -0.9999999982863024];[-1.0, -1.0, -1.0];[-1.0, -1.0, 1.0]
[-1.0, 0.09714367428029447, 0.07555774399514707];[0.9128663958155135, -0.677115171741146, 0.06066885006755969];[0.07964033078878321, -1.0, -1.0]
[-1.0, -1.0, 0.03217096651380513];[0.04429062180220095, 0.5133473480979717, -1.0];[0.013771003077351586, -1.0, 0.06381488714240052]
[-1.0, -1.0, -1.0];[-1.0, -1.0, -1.0];[-1.0, -1.0, 0.9999999999999233]
[0.01065961993848169, 0.9188217583857523, 0.030635647169708347];[-1.0, 0.012199991951706636, 0.07283484667480333];[0.3296448010239569, 0.0573331198239404, 0.05066596500903323]
[-1.0, -0.990903917578164, -0.9999264780246765];[-0.9845018484593202, -1.0, -0.9999999997032325];[-1.0, 0.2433251420811709, -1.0]
[-1.0, -1.0, -1.0];[-0.9999999996102152, -1.0, -0.9697396427539322];[-1.0, 1.0, -1.0]
[-1.0, 0.9746197358657523, -1.0];[0.06361654232642215, 0.03971529119656339, 0.19825865607710363];[0.03131740675756011, 0.03578759563445113, -1.0]
[-1.0, -1.0, -1.0];[-0.9999999899557651, -1.0, -0.9999983876911057];[-1.0, 1.043964752692956E-50, -1.0]
[-1.0, -0.26557895323316466, -0.9064343634873979];[-0.8354120673644275, -0.9973299153851111, -1.0];[-1.0, 0.05810082402167388, -1.0]
[-1.0, 0.9924195381556079, 0.021054790207587805];[-0.9066437890422632, -1.0, -1.0];[-1.0, 0.0313406754745306, -1.0]
[0.026002340806161074, 0.03275946672685365, -1.0];[0.0548404069599279, -1.0, -0.6851113455908023];[0.9169044275330156, 0.0023747604652140713, 0.06996074425700609]
[-1.0, -0.904595138719762, 0.4226942966634686];[0.9993021111506946, -0.9722263305466856, -1.0];[-1.0, -0.9094150073351108, -1.0]
[-1.0, -1.0, -1.0];[3.0617984579406636E-4, -1.0, -1.0];[1.0, 3.062018964315508E-4, -1.0]
[-1.0, 0.28152975442406836, 0.5852216868350322];[0.07015979042829602, 0.20567889433709308, -1.0];[0.464839246300723, 0.31649710237448037, 0.18148214242450417]
[-1.0, -1.0, 0.010414047151195642];[-1.0, 0.5947057768489881, -1.0];[0.00312103003321752, 0.005941084720672802, 0.23610613618327086]
[-1.0, 0.035811040755806614, 0.4197772917914031];[0.006269377763496464, 0.04797907792869125, 0.045297468587166025];[0.9924811852705397, 0.0037231446142316884, 0.0268345642282696]
[-1.0, -1.0, -1.0];[-1.0, -1.0, -1.0];[0.7056222160250942, 0.5844344826855147, 0.9993283603079999]
[-1.0, 0.04851962090573846, -1.0];[0.9999816034130928, -1.0, 0.47710196204606753];[-1.0, 0.4309048044185728, 0.34341727969877317]
[-1.0, 0.010767995948086174, 0.30827814487512323];[0.02643766181038143, 0.9734717241789541, 0.004298977398768034];[0.032350706970417975, 0.033612628505969515, -1.0]
[0.032112147024026795, -1.0, -1.0];[0.29927743790268296, 0.0413356505564821, -1.0];[0.9924419399524015, 0.06249383705677404, 0.034946434935081316]
[-1.0, -1.0, -1.0];[0.21036374831600357, 0.999281512554245, -1.0];[-1.0, -0.6994822813845054, -1.0]
[0.0912768025302522, 0.9743635074119286, 0.06129898558189935];[0.07205412116692286, 0.024109861459243556, 0.009244503649609248];[0.05720918660565523, 0.005284843095619097, 0.07137882970032824]
[-1.0, -1.0, -1.0];[-0.9999803092353269, -1.0, -1.0];[-0.9997630842316291, -0.99999942014894, -1.0]
[0.01405639184738119, -0.9097856053980108, -0.6844835966300624];[0.9977235890470488, -1.0, -1.0];[-1.0, -1.0, -1.0]
[-1.0, -0.6825199657353528, -0.6771826085894335];[-1.0, 0.973238182299372, -1.0];[-0.6906733139047916, -0.6878771242712757, 0.0035652211478538146]
[-1.0, 0.9923202876795784, -1.0];[0.4241560986394593, 0.01036213825209189, 0.018685683945589806];[0.3201520574483007, 0.0012329503199391856, 0.01131904301828305]
[-1.0, 0.9733352679871747, -1.0];[-1.0, 0.03519387024920485, -1.0];[-1.0, -1.0, 0.3931082357545373]
[-1.0, 9.934940562798201E-4, 0.06953110857827216];[-1.0, 0.9147192396266701, -1.0];[-1.0, -1.0, 0.05898634499447565]
[0.02126671338556582, -1.0, -1.0];[-1.0, 0.9926219026186859, -1.0];[-1.0, -1.0, -1.0]
[-1.0, 0.03882134406645213, -1.0];[-1.0, -1.0, 0.12600000603243972];[-1.0, -1.0, 1.0]
[-1.0, 0.03866547035776881, 0.07898891736655841];[-1.0, 0.9147624786752043, 0.06967552439554718];[-1.0, 0.9992765111798094, -1.0]
[-1.0, 0.0867971754594924, 0.9174305062987189];[-1.0, 0.04982043291811109, 0.2284496438255036];[0.003046615907540533, 0.037824105915022485, -1.0]
[-1.0, 0.03183762434160519, 0.7217328002622148];[-1.0, 0.03947679912522248, 0.025368401981335498];[-0.6839210458106324, -1.0, 0.013396686301447159]
[-1.0, 0.03610804936006217, 0.025981061559992902];[0.03794293236331732, 0.036490187829191334, 0.03740368606456035];[0.056277507193047416, 0.05046593624249282, 0.03820923407324192]
[-1.0, -1.0, -1.0];[-1.0, 0.029639433443832533, -1.0];[-1.0, 0.005487664473191557, 0.5793180393272586]
[-1.0, -0.6870940082089934, -1.0];[-1.0, -0.9974406510151127, -1.0];[0.9999983282611684, 0.06512305459389997, 0.2500161215735786]
[-1.0, -0.9999999421254467, -1.0];[-0.9992220595346272, -1.0, -1.0];[-0.8989556724744383, 0.10970397302261736, 1.0]
[-1.0, 9.233775425519244E-4, -1.0];[-1.0, 0.15353522474238712, 0.012140026420454506];[-1.0, 0.16872484503742485, 0.5996933757798928]
[-1.0, 0.599999649906042, -1.0];[0.5999999106865441, -1.0, 0.5999175603022354];[-1.0, 0.5999993267328089, 1.0]
[-1.0, 0.08199186820651927, -1.0];[0.9997930731577612, -1.0, -1.0];[-1.0, 0.4140627913160715, 0.9739109699364202]
[0.041000022920378444, 0.09405964282592277, 0.059596428222546516];[-1.0, 0.0016344501363814157, 0.04388127947353272];[0.9142567995670541, -1.0, -0.581250457136439]
[-1.0, -1.0, 0.0026597423744416206];[0.03152687178120994, 0.027608367588200622, 0.02288481649773031];[0.7281216644877464, -1.0, -1.0]
[-1.0, -0.5999540571442941, -1.0];[-1.0, 0.5999989201515064, -0.5689695137616735];[-1.0, -0.5607008495061929, -0.9997424190998626]
[-1.0, 0.0015930665339109473, -0.9720988403037572];[0.9128004659623062, -1.0, -1.0];[-1.0, 0.7040855218468243, -1.0]
[-1.0, -0.5397419359442084, -1.0];[-0.5819181186367296, -0.9914830789989028, -1.0];[-0.9975316765987012, -1.0, 0.5707563816808202]
[-1.0, 0.9999946713320764, -1.0];[-0.996825528031094, -1.0, -1.0];[-1.0, -1.0, 0.9738713815625808]
[-1.0, -0.9999940000035756, -1.0];[-1.0, -1.0, 0.9999999999999928];[-1.0, -0.9997544978822341, -1.0]
[-1.0, -1.0, -1.0];[-1.0, -1.0, -1.0];[0.9999999999999758, -0.9672382348802578, 0.9733312454607023]
[0.06960179707942642, 0.011448316374657364, 0.03576442285229299];[-1.0, 0.041202018478573216, 0.07796785797525915];[0.06563342353842748, 0.02048522594521808, 0.20724917281376176]
[-1.0, 0.02974305767831661, -1.0];[0.04517817004574646, 0.017776002200008897, 0.02012944622380517];[0.005008355583026635, 0.03346448544357163, 0.0300439767645615]
[-1.0, -1.0, -1.0];[-1.0, -1.0, -1.0];[2.8528769729010195E-8, -1.0, -1.0]
[-1.0, -0.6905332000611754, -1.0];[0.04074664931579051, -1.0, 0.026941543909315087];[0.9153814951204647, 9.098406636837364E-4, 0.020370191476120528]
[-1.0, -1.0, -1.0];[-1.0, -1.0, 0.025073982410861975];[0.9976557591413833, -1.0, -1.0]
[0.009969806383561064, 0.7162353775561804, 0.027639080897589076];[0.25195668045176883, -1.0, 0.4022204786409191];[0.5069063849332728, 0.004847908941092616, -1.0]
[-1.0, 0.9999388541020168, -1.0];[-1.0, -1.0, 0.0024665861388236234];[-1.0, 0.05517011805011737, -1.0]
[-1.0, -0.9916388807536353, -1.0];[0.9997948931509678, -1.0, -1.0];[-1.0, -1.0, 0.9999994864428184]
[0.024442267333667944, 0.06990628969781572, -1.0];[0.025926118714721946, 0.715259884762921, 0.05931002963979813];[0.06000895631298375, -1.0, 6.318074393470319E-4]
[-1.0, 0.3950643325628072, 0.016060474445716646];[-1.0, 0.009825682836536988, -1.0];[0.02918331499659116, 0.020959978546576788, -1.0]
[-1.0, -1.0, -1.0];[-1.0, 0.9732563389710924, -0.9062600027351515];[-1.0, -1.0, -0.6849789027290336]
[-1.0, 0.59665399430365, -1.0];[-1.0, -1.0, 0.46445112127272503];[0.003402211949027272, 0.5999133007087415, 1.0]
[-1.0, -0.725298999998965, -1.0];[-1.0, -1.0, 1.1460675366686199E-39];[-1.0, -0.9369987499267389, -1.0]
[-1.0, 1.5473079534615467E-259, -1.0];[-1.0, -1.0, -1.0];[-1.0, -1.0, -1.0]
[-1.0, -1.0, 0.04431279958013351];[-1.0, 0.7160406646099965, 0.011202490941099753];[0.049778845148254626, -0.673614208970438, 0.02793733826887487]
[-1.0, 0.5999671180642029, 0.5999996265098279];[-1.0, -1.0, 0.03201856347855414];[-1.0, 0.599965604486814, 1.0]
[-1.0, -1.0, -1.0];[-1.0, -1.0, 0.599994268650099];[-1.0, 0.9999358299229072, 0.9999999999664592]
[-1.0, 3.5432308438439956E-4, -1.0];[-1.0, -1.0, -1.0];[0.03780901426206382, -1.0, 0.9999999999677435]
[-1.0, 0.5808551061406932, 0.5932204127390855];[-1.0, -1.0, -1.0];[0.5832004904026807, 0.42383943980159444, 0.9999999999999928]
[-1.0, 0.9161631510476741, -1.0];[-1.0, -1.0, 0.5987721257995238];[-1.0, -1.0, 0.9999999957144983]
[-1.0, -0.8856697859828326, -0.996364386901639];[-0.9964533224656108, -1.0, -0.9890360147522579];[0.5999999999999999, -1.0, -1.0]
[-1.0, -0.9999999999616557, -1.0];[1.0, -1.0, -1.0];[2.0045129676719553E-8, -1.0, -1.0]
[-1.0, 0.9174613350489518, 0.06647617788944639];[0.06112804410911622, 0.006543180477725386, 0.030856459093545223];[0.31606071278906267, -1.0, 0.060979175542151536]
[-1.0, 0.911756500548654, -1.0];[-1.0, 0.005612955837732925, 0.014568569831385138];[0.005634473215149172, -1.0, -1.0]
[0.1456777042057164, -1.0, 0.014341427509381156];[-1.0, 0.014032871205474418, 0.045476916468835886];[0.15362062133312507, -1.0, 0.04223652418272617]
[-1.0, -1.0, 9.053616729579011E-4];[-1.0, -1.0, -0.6994057270663476];[-1.0, -1.0, -0.9708730334017065]
[-1.0, -1.0, -1.0];[-1.0, -1.0, 5.3983673343818676E-27];[-1.0, -1.0, -1.0]
[-0.6786926070459868, 0.018850244996194754, 0.09885424768567108];[0.06806647185787933, 0.7267797157299256, -1.0];[-1.0, 0.07172575990270207, 0.011207702020993238]
[0.002511896393270574, 0.041020265662341834, 0.05502468376053297];[-1.0, 0.21252703968380277, 0.0463640119027193];[0.03880448062626788, 0.05089374661881755, -1.0]
[-1.0, 0.12600000004417067, 0.5460000000112767];[-1.0, -1.0, 1.0];[-1.0, -1.0, -1.0]
[-1.0, -1.0, -1.0];[-1.0, -1.0, 1.0];[-1.0, -1.0, -1.0]
[-1.0, -1.0, 0.023275686418117107];[-1.0, 0.5953726098928775, 0.3176815225640727];[-1.0, 0.01943443127259184, 0.033510075163585895]
[-1.0, -1.0, -1.0];[-1.0, 0.5506970253960225, -0.6396456644591434];[-1.0, -1.0, -0.9619899155271894]
[-1.0, 0.05636160129552397, -1.0];[-1.0, 0.05800776435710239, 0.051965404323420464];[-1.0, 0.056613242762274044, 0.31752694369628326]
[-1.0, 0.051789878459432, -1.0];[0.028200974826691507, 0.025439083978519274, 0.91242432113221];[0.0590471824404064, -1.0, 0.03620234821611136]
[-0.9999999951871056, -1.0, 0.003394337600827163];[-1.0, -1.0, -0.9999999952941026];[-1.0, -0.997712187955357, -0.9999529390637641]
[0.9992834323719348, -1.0, -1.0];[-1.0, -1.0, -1.0];[-1.0, 0.027456931246378182, 0.01573831853279244]
[0.27958404263849385, -1.0, 0.06877392462025271];[-1.0, 0.018189404755038226, -1.0];[0.07367675381487108, 0.054140662068434, 0.015142880906438595]
[-1.0, -1.0, 2.755620000009501E-5];[-1.0, -1.0, -1.0];[-0.663753071967195, -0.9999540395192169, -1.0]
[-0.9086657233533499, -0.28036654598824795, -1.0];[-1.0, 0.13121798611997237, 0.03530802341889842];[-1.0, 0.07444666696179689, -1.0]
[-1.0, -1.0, 0.06785371112072396];[-1.0, 0.7166083449930293, -1.0];[-1.0, -1.0, 0.06812122873324898]
[-1.0, 1.9884541506629504E-4, 0.5999566320089468];[-1.0, -1.0, 1.0];[0.5998574022695029, -1.0, 0.12626074549827587]
[-1.0, -1.0, 0.0];[-1.0, -1.0, -1.0];[-1.0, -1.0, -1.0]
[0.08652594631257912, 0.031248441263879267, -1.0];[-1.0, 0.709724081938048, 0.015603583738914418];[0.06911057726371886, 0.5122097625504612, 0.07528278087235937]
[-1.0, -1.0, 0.006910725255470174];[0.017604815662594753, 0.006386585751564023, -1.0];[0.019158498941029903, 0.0489155256959612, -1.0]
[0.05695640612030405, -1.0, 0.015273549775156615];[-1.0, 0.7120763246413714, 0.057175114195072096];[0.0051928351447931955, 0.002886690292630412, 0.05469762439143974]
[0.975457872460154, -1.0, -0.9892734264276465];[-1.0, -1.0, -0.6855574916467606];[-1.0, -1.0, -1.0]
[0.9923334944202262, 0.011535658751918355, -1.0];[0.05014076253898574, -1.0, -1.0];[-1.0, 0.04757042209284784, 0.05195207056772688]
[0.029791418170148434, -1.0, -1.0];[-1.0, 0.04034521377271706, 0.05099670788392141];[0.049957090448329355, 0.2017953511503522, 0.05359096987784165]
[0.057820960967323004, 0.07240828239284353, 0.029256893878545676];[0.08089503809157678, 0.1217978326449809, 0.06993255065008738];[0.554582129729442, -1.0, -1.0]
[-0.582395084553551, -1.0, -0.6707898347064476];[-1.0, 0.536367456632331, -0.7500012767997966];[-0.6921555773296804, -1.0, -1.0]
[-1.0, -1.0, 0.5500479589799856];[-1.0, -1.0, 0.9999352609474015];[0.009609727814206093, -1.0, -1.0]
[-1.0, -1.0, -1.0];[-1.0, -1.0, -1.0];[1.0, -1.0, -1.0]
[0.025632156930895513, -1.0, -1.0];[-1.0, 0.30307049325829305, -1.0];[-1.0, 0.004151616564086047, -1.0]
[-1.0, -1.0, 0.007255053615430007];[0.04392025344384403, 0.9128181726405455, -1.0];[-1.0, -0.9096333091097414, 0.035366886999911994]
[-1.0, -0.6773699522449542, 0.002794165821514405];[0.053296928028441326, 0.025696013161027487, 0.013733751309936393];[0.9744655478925663, -1.0, 0.010143496892480298]
[-1.0, 0.54630618, 2.4286505915804986E-127];[-1.0, -1.0, -1.0];[-1.0, 0.4200082674512039, -1.0]
[-1.0, -1.0, 0.0];[-1.0, -1.0, -1.0];[-1.0, -1.0, -1.0]
[-1.0, 0.12083685936720101, -1.0];[-1.0, -1.0, -1.0];[-1.0, -0.9999936531362331, 0.9999999999999157]
[0.12594716216543478, -1.0, -1.0];[-1.0, 0.09064897156008084, -1.0];[0.5424558832304434, -1.0, 0.012408581082154903]
[0.05425423361128378, 0.09203963769338591, -1.0];[0.09143631226287004, 0.9155607845665947, -1.0];[0.06882916121402695, 0.04824978163152426, 0.05207447577778951]
[1.0, -1.0, -1.0];[-1.0, -1.0, -1.0];[-0.9991834582902118, -0.9999999848122182, -1.0]
[0.07779039247249087, -1.0, -1.0];[-1.0, 0.029238093984096394, -1.0];[0.519762322085729, -1.0, 0.013773673477510781]
[-1.0, 0.03375753291194792, 0.038952958910130564];[-1.0, 0.243824002616323, 0.04648945746239305];[-0.09047682283632036, 0.11157338148396424, 0.02723467870193057]
[-1.0, 0.030064725960004614, 0.02736986216523506];[-1.0, 0.9103584774701923, -1.0];[-0.9060800940958219, 0.007568296634054295, 0.0014434559916906454]
[-1.0, 0.02464398303397656, -1.0];[0.02015909480235685, 0.05841781251417793, -0.673085139676146];[-0.3904402595777491, -1.0, -0.6802591652197154]
[-1.0, -0.08085593324119725, 0.03291036893936089];[-1.0, -1.0, -1.0];[-0.991273240275304, 0.08945275837426925, 0.032320215936483945]
[-1.0, -0.8816683672528429, -1.0];[-1.0, -1.0, -1.0];[0.036279520305553696, -0.9028699942959855, 0.9741478293886453]
[-1.0, -1.0, -1.0];[-1.0, -1.0, 0.9999999999999998];[0.9999983630886171, -0.9970475234271977, -1.0]
[-1.0, -1.0, -0.9997606347847264];[-1.0, -1.0, 0.9977391667345487];[-1.0, 0.999999956124998, -1.0]
[-1.0, -1.0, 0.5999999641477712];[-1.0, -1.0, 1.0];[-0.8992191896035947, -0.9696064779702829, -0.9696866099078263]
[-1.0, -1.0, -1.0];[-1.0, -1.0, 0.9115975635352578];[0.9999377586500803, -1.0, 0.5844478964606165]
