[0.12367873247022039, 0.08931075783573889, 0.06558172336799582];[0.03324462414019571, 0.053946739277716996, 0.002470111661378516];[0.03714925195585372, 0.06802480648514232, 0.008136175235757104]
[0.016462605315976285, -1.0, 0.06530638052793519];[0.05491032490038218, 0.15075616051779436, 0.039824009653654104];[0.041730634435338705, 0.07404358411406617, 0.06354693318922187]
[0.032377635509495566, -1.0, -1.0];[0.011933651922276335, -0.6840434893508592, 0.028954396751662483];[-0.6792702770197111, 0.04500461278479804, 0.03061078483096688]
[0.05731326070194716, 0.02732115651321327, 0.08944799463347651];[-0.006956048963162431, 0.24347095136221647, -0.17063383084034625];[0.078282678840089, -1.0, 0.06946184910703421]
[-1.0, 0.031492823595482625, 0.022191277247593698];[-0.07383013129067034, 0.022430876320767207, 0.01837089788356818];[-1.0, 0.003048110448256125, 0.02863969485536203]
[0.009325892785428192, -0.6719651431312295, -0.6784137348626657];[-1.0, 0.03827682093580582, -0.6880356963719677];[0.006706620614564885, 0.0373899428360426, -1.0]
[-1.0, -1.0, -0.691979863524367];[-1.0, 0.7039748289674757, -1.0];[-1.0, -1.0, -1.0]
[0.02466589821374334, 0.026453251179688164, -1.0];[0.032156618207682265, 0.3202199419918008, 0.06760150950657226];[0.031722859779475476, 0.02926026420350184, 0.034831723918124516]
[-0.7310230355815143, -0.006659222226218842, -1.0];[-0.9709067561660449, -1.0, -0.9723804272295351];[0.13010922122774482, -0.8801846437848884, -1.0]
[-1.0, -1.0, -1.0];[-0.758271412448838, -1.0, -0.781836732793187];[-0.6828929198541691, -0.891146406392525, -1.0]
[-1.0, 0.020002509124066828, -0.1989037374884341];[0.44681737090859086, -1.0, 0.006242145828617535];[0.0631082940640404, -1.0, 0.005540739846502666]
[-1.0, 0.0012676677733094949, -1.0];[-0.6741790782935788, -1.0, -0.6714168941027082];[-0.698227668614535, -1.0, -1.0]
[-1.0, -1.0, -1.0];[2.6938347180085706E-4, -1.0, -1.0];[6.526067589057924E-4, -1.0, -1.0]
[-1.0, 0.014427840594830578, 0.007182590036593284];[0.04650248038288918, 0.5981033322067333, 0.06029311451650231];[0.041054526221949376, 0.058801749300982364, 0.05390415611551533]
[-1.0, -1.0, -1.0];[-1.0, -0.5736854085648366, -1.0];[0.002260807873204857, -0.2790678306598068, -0.6960473734092513]
[-1.0, -1.0, -1.0];[-1.0, 2.3242131210615355E-4, -1.0];[-1.0, -0.6888490490485502, -1.0]
[-0.6281231288949056, -0.6867203108583059, -1.0];[-0.18678947936389534, 0.002989017793566773, -0.19033997712808964];[-1.0, -1.0, 0.3449524373654578]
[3.785015664717784E-4, 0.016472598991499124, -1.0];[0.02640694760246729, 0.5454516235994006, -1.0];[0.02223441971550996, -1.0, -1.0]
[0.9999941677303675, 0.006173375681708016, -1.0];[-1.0, -1.0, -1.0];[-1.0, -1.0, -1.0]
[-0.6850568903966113, -0.6810678641131853, -0.6789141131696491];[-0.1732680012880483, 2.926395276500071E-4, -0.5875440585883046];[0.4579058860776783, 0.014760609022472239, -1.0]
[0.07884126658866684, 0.059884933643151575, 0.06993846278072387];[0.09691705899193799, 0.005696756724812325, 0.08146702926981554];[0.9127248278239976, 0.061427393411556334, -1.0]
[0.006949234274360583, 0.021626064726409135, -1.0];[0.04094920190590353, 0.04548944229058392, 0.05394196752405367];[0.5162710974674343, -1.0, 0.05932180368335604]
[-1.0, -0.2733303011425653, -1.0];[-1.0, -1.0, 0.014816603986546155];[0.011586026819841309, -1.0, 0.9997874605503307]
[-1.0, -0.902375843749655, -1.0];[-1.0, -1.0, -1.0];[-1.0, -1.0, 0.9999387489877537]
[-0.671232555710457, 0.3175924005174515, -1.0];[-0.9916422421370022, -1.0, -0.966159122422454];[-0.7587305838856346, -1.0, -0.9063674037173832]
[0.06490382459181658, 0.9999999996275555, -1.0];[0.43496612737121654, 0.03500551316971153, 0.42747381157925224];[-1.0, -1.0, 0.05357238536160537]
[-0.5805735047114271, -0.6784147716557624, -0.7502498786649274];[-0.9052231700641725, -1.0, -0.8673601373437243];[-1.0, -1.0, 0.4496295357989053]
[-0.6953291998607394, 0.0025779889380951994, -0.9055823596731862];[-1.0, -1.0, -1.0];[-1.0, -1.0, 0.01370317430634016]
[-1.0, 2.5960789400055175E-8, 2.2457919994092232E-8];[-1.0, -1.0, -1.0];[-1.0, -1.0, -1.0]
[0.11436767909875772, 0.03778229321503479, 0.26593348867148736];[0.029587265235645994, -1.0, -1.0];[0.04546339158900897, -1.0, 0.5783684736596387]
[0.006203657660698048, 0.43203125080982663, 0.9736080729460541];[0.021251307526807803, -1.0, 0.019978263929299234];[0.020329849538118585, -1.0, -1.0]
[0.008829818572580984, -1.0, 0.9734350274128478];[0.008457988431562369, 0.005920286589466428, 0.015219881773231326];[-1.0, 0.009826097056910699, -1.0]
[-0.5880525429204337, -1.0, -1.0];[-0.27273741386485517, -1.0, -0.9016129174912948];[5.050750149692921E-8, -1.0, -1.0]
[0.024074140380155387, -1.0, 0.023501665647302983];[-1.0, 0.03038283560288796, 0.022474570907269384];[0.033142005803342735, 0.007937861128394664, 0.2813373106382834]
[-1.0, 0.018050048990221425, 0.03370165194884548];[0.04357049329939492, 0.004005448679120678, 0.010009795751345363];[-1.0, 0.595492700963004, 0.01761878451472625]
[0.014821186324336622, 0.014593802366903953, 0.03178459510545761];[0.07059476999550045, 0.04957079570402874, 0.02279445059527946];[0.055476676067151745, 0.06104028889440736, 0.9998013948083369]
[0.054506729081870806, 0.010070059242601116, 0.03333472537637318];[0.05814580747077429, 0.050754047442239145, 0.020525705832130772];[0.028314708831182357, -1.0, 0.025738407663725784]
[0.07717413973215984, 0.051567663739800235, 0.029778496718719495];[0.07345877711324175, -0.6961280813482071, 0.0699595806367679];[-0.6712001280815089, 0.06010103241368625, 0.06948515741117127]
[0.057347092576594316, 0.056351405609789684, -1.0];[0.05749059341117303, 0.04223838910647576, 0.03517568562421032];[0.057140108411018437, 0.056769850518487965, 0.2597485947725412]
[0.009579184809662267, -0.6955368544123613, 0.06789021920017994];[0.05626763187496867, 0.08185694154526496, 0.030605448896224498];[0.9175037064012839, 0.04578967124040904, 0.042870357145726026]
[0.3457293328092019, -1.0, -1.0];[0.036837691502208586, -1.0, 0.16131585136206977];[0.04992320156590465, 0.03843375745894464, -0.9089183986176577]
[0.024383048422571423, -1.0, 0.010495229258327833];[-0.6871962643415361, -1.0, -0.5844715952370527];[-1.0, -1.0, 0.02035577121428757]
[0.9992790437971059, -1.0, -1.0];[-0.6975539824776081, -1.0, -1.0];[-1.0, -1.0, -1.0]
[0.020790165178465648, 0.027864355980184385, -1.0];[0.03963036803335436, 0.05469228598564363, 0.03882325819334237];[0.007784444140755487, -1.0, 0.03454436695609494]
[-1.0, -1.0, 0.010454344705764007];[0.004093236444338433, 0.9734731523677949, -1.0];[0.011915974728074197, -1.0, -1.0]
[-0.9267692132953423, -1.0, -1.0];[3.81891599770206E-4, -1.0, -0.5956094122270964];[-0.34358045330881826, 0.33436051879446727, -0.89068259544607]
[-1.0, -1.0, -1.0];[0.03380457555368859, 0.022388127074100074, -0.5828000040232014];[0.009428301327447798, -1.0, 0.5959860784134277]
[-1.0, -1.0, -1.0];[-1.0, -1.0, 0.7030345922493969];[0.9997901519360292, -1.0, -1.0]
[0.06694464538576421, -1.0, 0.11699563627072623];[0.0358971847713392, -1.0, 0.10286872518155177];[0.022883872412329934, 0.033733236896477406, -1.0]
[0.05437789270632792, 0.06711216624524648, 0.04118360452013541];[-0.6710990467508874, 0.08761306704389256, 0.022261370247753733];[0.06096074268446475, 0.019491909475962712, 0.09261543837116021]
[-0.8860658773640787, -1.0, -1.0];[-0.9914616385430155, 0.060070265009618345, 0.032318095606435726];[0.0340206686104084, -1.0, 0.0365291514763407]
[-1.0, -1.0, 0.020627621945840547];[-1.0, 0.5992377343998572, 0.05032271382850722];[-0.9021839204429287, -1.0, -0.5698430586112584]
[0.0522780069446783, 0.06883148547556243, -1.0];[0.062163470479870475, 0.7023209371901094, 0.9999983523847797];[-1.0, -1.0, -1.0]
[-1.0, -1.0, 0.08659566253929746];[-0.16753686979758275, -0.6912673687109872, -0.1772228333418665];[0.008663236117433816, -1.0, -0.9063933928420616]
[0.01700324765530996, 0.03586071734251587, 0.021029235581074612];[0.03374319257078456, -0.2730176607462345, -1.0];[0.05518470350524557, -1.0, 0.050558124674103644]
[-1.0, -1.0, -0.9910983189579817];[-1.0, -1.0, -1.0];[-0.9918822654325801, -1.0, -1.0]
[0.013001995699324498, -1.0, 0.04000369920337796];[0.049787172803717805, -1.0, 0.4932182981472991];[0.300432936723457, -1.0, 0.0617029847654883]
[-1.0, -1.0, 0.05121130925692057];[0.015255393842585308, 0.0450040043579141, -0.6036271551144312];[0.0377676421974181, -1.0, -1.0]
[0.02233752957710261, -1.0, 0.9997994482910622];[0.9155686262777536, -1.0, -1.0];[-1.0, -1.0, -1.0]
[0.24113675722067104, -1.0, 0.17901394283544528];[0.06633160959025092, -1.0, 0.014506693845478636];[0.030772003822405747, 0.009913834053661086, 0.08840297892817062]
[-1.0, -1.0, 0.5471887284563896];[0.02640762627358947, 0.012982559390642946, -1.0];[0.006037529958666166, 0.024479623316533083, 0.001997491268699503]
[-1.0, -1.0, -1.0];[-1.0, -1.0, -1.0];[-1.0, 5.663175384534626E-4, 0.9992843453285929]
[0.025472980382767362, -1.0, 0.10492561007522194];[-1.0, -1.0, 0.07747226180744589];[0.24132743686984742, 0.06300362445165203, -0.128879709283573]
[-1.0, -1.0, 0.02476123129274931];[-1.0, -1.0, 0.008629749634265339];[0.0244679361298623, 0.015325679244638646, 0.9999365547125504]
[0.031160294519488735, -1.0, -0.054713163732471176];[0.008955741088197444, 0.08189197970797804, 0.03673873623482457];[-1.0, 0.21381728804864922, 0.02627722641863499]
[-1.0, 0.03896846978893681, -0.675484911932543];[0.053340610560444014, 0.04305878567446622, 0.020166535451761586];[0.016078626838743625, 0.03632411900144269, 0.04475302966709247]
[-1.0, -1.0, -1.0];[0.002616364961568174, 6.873642239369365E-4, -1.0];[-1.0, -1.0, -0.6863589959797385]
[-0.6805480942487576, 0.014757339106326463, 0.06300466086112419];[-1.0, 0.004236552026144947, 0.028631619306883474];[-1.0, 0.013750576597735598, -0.6735658763564363]
[0.022461646862875995, 4.5259711706672204E-4, 0.018012284554488923];[0.02809307462681222, 0.04053792652890977, 0.06610594828162411];[0.06513211947198125, 0.01661938935340463, 0.049068734254281134]
[0.05843234854423825, 0.020078788640321168, 0.0017871714210633606];[0.06189504212914827, 0.05771252500440243, 0.030792418181995664];[0.03032404477049291, 0.044782161618344696, 0.04642137971318632]
[0.02487898044053767, 0.0343817721279658, 0.024990480267512095];[0.0029177080176796435, 0.0988094662319472, -1.0];[0.016112669550285487, 0.05308726856966203, 0.0755405807769753]
[0.01474461700769003, -0.02383279045620775, 0.09566813095173998];[-0.19151851494205802, -1.0, 0.015847349179721908];[0.022938613455792796, 0.00853996281280786, 0.02370597792145636]
[-1.0, -0.6356654780881134, -0.692123305631077];[-0.024408444313738772, -1.0, -0.6814435628068344];[-1.0, -0.9599720958967384, 0.47389733384732546]
[-1.0, -0.6983303214312357, -1.0];[-0.9058665906995043, -1.0, -1.0];[-1.0, -0.678799209514076, -0.6807761883550862]
[-1.0, -1.0, -1.0];[-0.9084093675550009, -1.0, -1.0];[-1.0, -1.0, 6.359266250386379E-5]
[-1.0, -0.15759783599447114, -0.07797368791874579];[0.02660790114914426, 0.282595630104601, 0.0884797059925058];[0.013105259391998955, 0.029830436512042785, -0.06300916342601595]
[-1.0, 0.006914806070929369, 0.3596172544281121];[0.022485945072632376, 0.054289347913729386, 0.04953200885189545];[0.04598349350297627, -1.0, 0.029416382522114672]
[-1.0, -0.2075985315519419, -1.0];[0.030606258816834528, -0.688814732568363, 0.9999999546208095];[-1.0, -1.0, -1.0]
[0.03038205118424896, -1.0, 0.011724209303551404];[0.012405703242120238, 0.026529455175897533, 0.9999809604460554];[-1.0, -1.0, -1.0]
[-1.0, 0.003941041975268756, 0.0010858044524415412];[-0.2938450679968784, -0.5651832216423742, -0.9073580705228388];[-0.9050031265718029, -1.0, -0.6832580751097596]
[0.002189482055559089, 0.07272540735244859, 0.07094611196479347];[0.08115694506274967, -0.6733853564603209, -1.0];[-1.0, 0.04455360629579224, 0.04028998563613663]
[-1.0, 0.020651528371231964, 0.01331031814569651];[-1.0, 0.03670674755366166, 0.024772545714675995];[-0.2604829324712314, -1.0, 0.02790009472422039]
[-1.0, -0.6825192086689262, -0.6715840030496216];[-1.0, -1.0, 0.9992711570861371];[-1.0, -1.0, 0.44649078190609787]
[-1.0, 0.004986456060562539, 0.05329187601876011];[0.07732235644824664, 0.00912772974373196, 0.9999818644011316];[-1.0, 0.04888272686645276, 0.05071411489357779]
[-1.0, -0.9714214298680726, -0.9013503637318782];[-1.0, -1.0, -0.9794409503359932];[-0.37284580116508587, -0.732828442473496, -0.3780912644783329]
[-1.0, -0.2637936663895156, -0.6862490102191754];[-1.0, 0.025652683564048644, -0.16566135890165723];[0.4070711266362572, 0.11098310883140772, -1.0]
[-1.0, 0.05450516734065444, 0.03200131448196341];[-1.0, -1.0, 0.0024812310083899506];[0.5510144977123649, 0.05527420823865441, -1.0]
[0.03561926897521385, 0.05271806703588455, -0.6761421145736224];[0.03921397440483074, 0.07411837184478641, 0.049343747211026794];[0.06430849429383173, 0.06127656114115167, 0.012723214056367282]
[-1.0, 0.23251024816361643, -1.0];[-0.25409445461141356, -0.29179418286700676, -0.7522713754172393];[-1.0, -0.6485913862997381, -0.9057025875171678]
[-0.6743500402945938, -1.0, 0.06590421253682402];[0.054491858740937704, 0.06009183401551909, -0.672921712673438];[0.010108805314354187, 0.028165888027499586, 0.0450466767709459]
[0.03511944719894167, 0.014710010116791628, -1.0];[0.0029525460158467687, 0.14824774262687154, 0.018676269365098263];[0.17969056879040468, 0.012226315728084547, 0.0293958951822346]
[0.9999999866354207, -1.0, -1.0];[-1.0, -1.0, 0.5397210935041726];[0.04215910724117404, -1.0, 0.4269143342592531]
[-1.0, -1.0, -1.0];[-1.0, -1.0, -1.0];[-0.9716101909513234, -1.0, 0.9992985312957849]
[-1.0, 0.5501464218946475, 0.10277803005692343];[0.04319043107591783, 0.13781063238701924, 0.03839668414266595];[0.04362628437334168, -1.0, -0.20059674561791507]
[-1.0, 0.03468692962167842, 0.4585443410812235];[-1.0, -1.0, -1.0];[-0.2072225778475923, -1.0, -0.9728070947692451]
[0.05983269791077759, 0.9999999528222052, -1.0];[-1.0, -1.0, 0.03433889467871094];[-0.9046326737972512, -1.0, -1.0]
[-1.0, -0.6906566350415939, -0.6994933957757241];[-0.741535956520322, -0.903119044287386, -0.6422902516931136];[-1.0, -1.0, -0.05441959826823392]
[0.05879676881149698, -1.0, 0.025434097460291707];[-0.6885751915909762, 0.017761636044441132, -1.0];[-1.0, -1.0, -0.6806663353377115]
[-1.0, -0.670584346568096, -0.6683685752592698];[-0.6890738604078075, -0.6811691223270262, -0.684722110108637];[0.05295007034184513, -1.0, 0.014512815141088521]
[-1.0, -0.6868556945745222, 0.03428931520877028];[0.0028985549697382873, -0.6856917602683666, -1.0];[-1.0, -1.0, 0.03259914650002991]
[-1.0, 0.2453862639913274, -0.6484165876516699];[-0.9706038058120932, -1.0, -0.687777463590581];[-0.23281650567112566, -1.0, -0.23236365955883845]
[-1.0, -0.6899631785836053, -0.8723470414496475];[-1.0, -1.0, 0.23071468760462954];[-0.6859539332028889, -1.0, -1.0]
[-1.0, 0.026193606120563446, -1.0];[-0.6794326273569256, -0.6863196825716178, 0.042007831331044354];[-1.0, -1.0, -1.0]
[-1.0, 1.5337077031441282E-8, -1.0];[-1.0, -1.0, -0.9918856260756396];[-1.0, -1.0, -1.0]
[-0.02976028513217266, -0.2925635271583864, -0.9352811767557534];[0.25420766688527113, -1.0, -1.0];[-0.16667128451377106, -0.9059676526911191, -1.0]
[-1.0, -0.9052015248737234, -1.0];[2.9135024705216917E-10, -1.0, -1.0];[-0.6892658752346542, -0.2727592083029726, -1.0]
[-1.0, -1.0, -1.0];[9.489426997524043E-21, -1.0, -1.0];[-0.9097386486038266, -1.0, -1.0]
[-0.5544881096089335, 0.09673488636773517, -0.2712074940228282];[-0.9717351214289927, -1.0, -0.9718913210631948];[-1.0, -1.0, -0.9734437723546132]
[0.999982005915541, 0.3143874754764052, 0.05056722379188016];[0.022570042754026676, 0.0049531978424886885, -1.0];[0.026141831317486874, 0.07091672928732844, 0.07975097561586751]
[-0.9074946223656063, -1.0, -1.0];[-0.6721529189044361, -1.0, -0.2812170571871613];[0.07950963115184105, -0.6810566145767427, -0.6834543981841728]
[0.5999924976331066, 0.007325844233291901, -1.0];[-1.0, -1.0, 0.023298937723768134];[0.030279697483802714, -1.0, 0.5682608869787138]
[-0.6986042213141876, -1.0, -1.0];[-1.0, -1.0, -1.0];[0.9999941920200031, -1.0, -1.0]
[0.5206041953614529, -1.0, 0.1275935764483111];[0.008624874391512894, -1.0, 0.014615731227843105];[0.014956250019607743, -1.0, 0.03610786581223844]
[0.9999999998883038, -1.0, -1.0];[0.002446115391892312, -1.0, 0.030936964449744586];[-1.0, -1.0, 0.5474296937099425]
[-1.0, -0.5504121736473672, -0.6959806793085731];[-0.7800313791864816, -1.0, 0.23770790327244018];[-1.0, -1.0, -1.0]
[-1.0, -1.0, 0.992010108096156];[0.005115981854599128, -1.0, -1.0];[-1.0, -1.0, -1.0]
[0.011138800095838619, -1.0, -0.6777280245376922];[-0.6837088255772416, 0.014813590867670668, -0.6447194485814123];[0.10533688068749578, -1.0, -0.6864832079676733]
[0.021322641377229237, 0.038014476109782216, 0.04907417132701435];[0.05237119610878367, 0.0398591467340072, 0.023751737270487773];[0.0561870887419669, 0.0010393341579734928, 0.04607556832576731]
[0.05779697250008721, 0.047138094517450116, -0.691917972053447];[0.07003354510606229, 0.08385447942352116, 0.0577578671865554];[0.008619507068497822, 0.07199003680831645, 0.09779683907182486]
[-0.6843392898829759, -0.6908503889266103, -0.28189550044640266];[-0.2408028166964824, -1.0, -0.6465474832095115];[-1.0, -1.0, -0.45127889124926457]
[-1.0, -1.0, 5.205069682479802E-6];[-0.6812785250774294, -1.0, -0.6988971810491013];[-1.0, -1.0, -0.8134864544985638]
[-1.0, -1.0, -1.0];[2.5687198575609353E-7, -1.0, 1.067625023805545E-7];[-1.0, -1.0, -1.0]
[0.029966160826947384, 0.037516804150651575, -0.6848537828235709];[0.03169064259949733, -1.0, -0.6886682337024063];[0.032814639647284996, -1.0, -1.0]
[0.011139916955016838, 0.022670598692566782, 0.06043652188606165];[0.029074263049123708, -1.0, 0.05660500819946783];[0.09712033522863112, 0.08390496138219848, 0.004863890009536765]
[-0.6713381587067183, 0.02642519281301116, 0.052983722728460206];[0.06598207644715857, 0.01936563649210852, 0.07332020247975701];[-0.6771139208384631, 0.02981920874054943, 0.007986823002026345]
[0.005450813427398594, -1.0, -0.9043249622514897];[0.04313943019314398, -1.0, -1.0];[0.026324309817024518, 0.01519889797359291, 0.017432571678952215]
[0.06841895238403617, 0.00569180078272793, 0.05185363729317171];[0.04261527434241978, 0.06231197842311856, -1.0];[0.03252034717540847, 0.006772721710408392, -0.6035332330637613]
[-1.0, -1.0, -1.0];[-1.0, -1.0, -1.0];[-0.9974758507509884, -1.0, -0.9727620179270783]
[0.3960844921809248, -0.2673453121944318, 0.010999950850375204];[-0.69245391751118, -1.0, -0.004840414038619595];[-1.0, 0.0063568988817380954, -1.0]
[0.17931765323221338, -1.0, -0.9705683749205235];[-0.683653227952418, -1.0, -1.0];[-1.0, -0.6835619355616197, -1.0]
[0.9999998418604874, -1.0, -1.0];[0.005213915509777553, -1.0, -1.0];[-0.6881619207592634, -1.0, -0.67314192279932]
[0.992645054367602, 0.03397005891879329, -1.0];[-1.0, 0.0042659156557729675, 0.003957012233508673];[0.004515444695186266, 0.06538638551695045, 0.027626086333066013]
[-1.0, -1.0, 0.09186801459366567];[-1.0, -0.7538850518406853, -0.6728146628961956];[-0.6920713135794643, -0.6850768061112277, -0.13453614742830988]
[0.006360060907608334, -1.0, 0.029016887250035806];[-1.0, 0.03369111458358898, 0.05413115732237698];[0.02649616662080806, 0.006774032717976253, -0.6804735930469229]
[-1.0, -1.0, 5.4098350590470645E-5];[-1.0, -1.0, -0.6760846230271821];[-1.0, -1.0, -1.0]
[-1.0, 0.034526514332712276, 2.2989576495855424E-4];[0.04158205275602295, 0.0436654080351389, -0.685111611702223];[-0.6771039838266611, 0.038775066583746964, 0.025066570946329515]
[-1.0, 0.030187249516446815, 0.002632649164946521];[3.4885107285875797E-5, -0.6792681275756475, -0.6878952063031271];[-0.6851777998018199, -0.18753748088769903, 0.018566405471476057]
[0.03051961018884345, 0.01752939659220476, 0.029909049704100122];[-1.0, 0.029574572117091004, 0.006588576792581147];[-0.6862504097964949, -0.6866220034328865, 0.03877358236208215]
[-1.0, 0.04823551417317156, 0.057935369507405944];[-1.0, 0.974748993223143, 0.05851240662979458];[0.054749010841760586, 0.037277849156240765, -1.0]
[0.02290610044164574, -1.0, 0.9744896648166286];[0.0073137714304698405, 0.004333344727396349, 0.02645024400991086];[0.020567111530772043, 0.04152780853865737, 0.00851510391604946]
[-1.0, -1.0, -1.0];[-0.6744612126804238, 0.705586610944432, -0.9073226891470603];[-1.0, -0.5807991966195989, 0.0038465740182088816]
[0.08125709218107915, -1.0, -0.19814175989845123];[0.10357743964615157, 0.4127556838879388, -1.0];[0.03536516601662453, 0.03227344989624923, 0.052230695171062935]
[-1.0, 0.08834913957282314, 0.9926162158822328];[0.032097783403547644, 0.06382553550534685, 0.005199387346241424];[0.014016906948583896, 0.06790340913318005, 0.0444906684183885]
[-0.6729357494764654, -0.6815435997097853, -1.0];[0.03350636328865591, 0.04467755397219845, 0.04491313401216132];[0.047177264189421045, 0.039224241878065995, 0.1408571746055488]
[0.04352555909098778, 0.04001635165593788, 0.036110826508872367];[0.017512390974217442, 0.3230647156005218, -1.0];[0.055946369385005114, -1.0, 0.05300748585611226]
[-1.0, -0.9034855496422333, -1.0];[-0.6782360252132891, -1.0, -1.0];[-0.5294369060588484, -1.0, 0.7016647088288506]
[-0.6843122175905342, -0.7614818752525239, -1.0];[-0.9099688443132653, -1.0, -1.0];[-0.6860294847446324, -1.0, -1.0]
[-1.0, -0.9068980795783963, -1.0];[-0.6987091407359368, -1.0, -1.0];[-0.9027959205240784, -1.0, -0.907522839848189]
[0.013266116680334906, 0.07815647560592553, 0.9920913084680062];[0.011812618346085602, 0.002464538872604072, 0.0517519550480003];[0.08443400922363672, 0.06518645652855491, 0.0022362627522453772]
[0.4734268463825578, 0.03511042200539165, -1.0];[0.03298052643667193, 0.0322989414502653, 0.004440758421483094];[-1.0, -1.0, 0.003551566343667845]
[0.006285451960786104, 0.037186278232155145, -1.0];[0.031049946346705284, 0.019909369643974897, 0.04089423840212193];[-1.0, -1.0, -1.0]
[9.068377180939564E-4, -1.0, -1.0];[0.0034717271127001625, -1.0, -1.0];[-1.0, -1.0, -1.0]
[-0.2553276510474702, -1.0, -1.0];[-0.2779303689348509, -0.6424939860041858, -0.29106763181335094];[-0.9059978295604805, -0.9052602376381964, -1.0]
[0.014004241761631332, 0.014062812393830249, 0.07065880130843626];[0.07157999921539318, -0.6722684095762086, 0.08351365368094492];[0.0699290401819691, 0.04343645962742383, 0.045046779886805055]
[0.7288374513738357, 0.0942310010771627, 0.06302038946014403];[0.017379387989182826, 0.019387666954152963, 0.09045696990253885];[0.060668197361327086, 0.06953972664546654, 0.0875400257157179]
[-1.0, 0.024579385566334478, -1.0];[-0.2515596479467711, 0.009015364382736734, -0.691019281487864];[-0.6889527026622224, -0.6846697221389823, -1.0]
[0.007415896540080569, -0.6966248549644978, 0.024875972632081092];[-0.9054709016640043, 0.5247074136157557, -1.0];[-1.0, -0.6872887594811925, -1.0]
[-1.0, -0.6940143265319547, 0.02887481925444929];[-1.0, 0.9993297417877411, -1.0];[0.012985735996114734, -1.0, 0.04375699453173907]
[0.041696581460964555, -1.0, 0.045880407611625595];[0.0368692808251199, 0.05021883150656757, 0.03452497909403244];[0.050410501313015756, 0.05090293652993794, 0.5834600389930609]
[-1.0, 0.0024713751524457097, -1.0];[0.008112001144588621, 0.008363059386437877, 0.011833333180490058];[0.5978506647440999, 0.021430147019550618, -0.5792909328701561]
[0.023684741447257587, -1.0, -1.0];[-1.0, -0.6752576019323997, -1.0];[0.9158090063382287, 0.008983840647401575, -1.0]
[-1.0, -1.0, -1.0];[0.019878457532444528, 0.12471446362092911, 0.37630955153969925];[0.030904844177892264, 0.03664827125988114, 0.09372022928170834]
[-1.0, -1.0, -1.0];[-1.0, 0.016300617952146792, 0.013327976791440066];[-1.0, 0.3496338097284904, 0.5998471504393666]
[-1.0, 0.020748847741374865, -1.0];[0.07454801778881918, 0.050821346294382744, 0.974171801297721];[0.08927221444178314, 0.9993376128483998, -1.0]
[-1.0, 0.035046586339181916, 0.029605410172252725];[-1.0, -1.0, 0.9999999864750274];[-0.6058312256356571, -0.6640351111327103, -1.0]
[0.0275609857861085, 0.02884478421094763, 0.052805312068592264];[-1.0, 0.05731197061983012, 0.030513010260140118];[0.060341093124741556, 0.01825826276327838, 0.015174215503148137]
[-1.0, -1.0, -1.0];[-1.0, -1.0, 0.009369389529952966];[-1.0, -1.0, 0.9976478576602534]
[-1.0, -1.0, 0.2820811432117809];[-0.7544779731641955, 0.02434197924636791, 0.020954515645250783];[-1.0, -0.30284223308568947, -0.93075755161851]
[-1.0, -1.0, -0.9011683480583181];[-0.9020633360384774, -0.8617092232840972, -0.9036330574937803];[-1.0, -1.0, -1.0]
[0.02214357337779395, -1.0, 0.0057721485426421755];[-1.0, 0.39790309143828645, 0.009134338320857794];[0.02239183949930339, 0.05303675889304835, 0.034718002563533974]
[-1.0, -1.0, -1.0];[-1.0, -1.0, -1.0];[0.9999805617564341, -1.0, -0.9066157875630803]
[-1.0, -1.0, 0.007910180808927355];[-0.5735557826393144, -1.0, -0.48724557580238925];[-0.6863043683790496, -1.0, -1.0]
[-1.0, -1.0, 0.7064325346285593];[-0.6884643438506352, -1.0, -1.0];[-1.0, -1.0, 0.020107875342526085]
[0.0513186716943997, 0.010086255629482966, 0.05137286995890268];[0.03176008017117863, 0.030597499474490808, 0.0558798863016479];[0.05507741716084959, -1.0, 0.43543179254953257]
[-0.9014063741061495, -1.0, -1.0];[-0.9718833802898731, -1.0, -0.5696267073596039];[0.999994098503821, -1.0, -1.0]
[-1.0, -1.0, -1.0];[-0.9014737179562644, -1.0, -1.0];[0.9992731693783319, -1.0, -1.0]
[-0.9220220857714192, -1.0, -0.6312191995791806];[-0.27010652262623136, -1.0, -0.8874685537101803];[0.2097791260298798, 0.5791937792956687, -1.0]
[-1.0, -1.0, -0.6907858904431844];[-1.0, -1.0, -0.46251995609590935];[-0.906436212107955, -0.5073092847528424, -1.0]
[-1.0, -1.0, -1.0];[-1.0, -1.0, -1.0];[-0.9096882959623628, -0.9911256586758007, -1.0]
[-1.0, -1.0, 0.12731808131612193];[-0.17043610276152255, -0.2451109788079326, 0.2148673097691245];[0.3334917280061832, -0.683492469831301, -1.0]
[0.016617625938007297, -1.0, -1.0];[0.022700248837754112, 0.007062948002614655, -1.0];[0.43531219141375244, 0.12066598283236402, -1.0]
[-1.0, -1.0, -1.0];[7.504739317721106E-4, -0.671845584281789, -1.0];[-1.0, -1.0, -1.0]
[-0.6906619197124685, 0.050647982133665226, -1.0];[0.06854192796786696, 0.014558767462743039, 0.9999983895415673];[-1.0, 0.0031813938691772504, 0.02484831977485732]
[-1.0, 0.08338257971309203, 0.0247597568160422];[0.05977544058791984, 0.0735949611121453, 0.9977960057385606];[0.07456275667858343, 0.02684188348475175, 0.02535590372698029]
[0.42901402745450073, 0.04071415376841606, -1.0];[0.011239780769454389, -0.6775327689433284, 0.054417135644718];[0.060567495656989746, 0.006010979752191859, 0.009410014372644016]
[0.02537432123250204, -1.0, -1.0];[-1.0, 0.9752538573801178, 0.07857477364192957];[-1.0, 0.7190789024506549, -1.0]
[-1.0, 0.0386287304502001, 0.035323896740907156];[0.03675874806345145, 0.032217784563206064, -0.6718421606328997];[0.9976099842389788, 0.016809467164686544, 0.039959709760769416]
[0.006911548035740178, -1.0, 0.002705933142140715];[0.024296869596481193, 0.10577339961361876, -1.0];[0.04370556211806388, 0.016773339697986944, 0.008190316903997075]
[0.010587517191351748, 0.008597537329226069, 0.007766655629175615];[-1.0, 0.01640111048227239, -1.0];[0.018275864423131206, -1.0, -1.0]
[-1.0, -1.0, 3.198086839956364E-4];[-1.0, -1.0, -1.0];[-0.6975366998668966, -1.0, -1.0]
[-1.0, -1.0, 0.2786812040770569];[-0.6274016975778793, -1.0, -0.9056727173508186];[0.10474969112959709, 0.11844681222483294, 0.05754867431429039]
[0.07786013309962886, -1.0, 0.016109297549261103];[0.16619773087231057, 0.011470239221152801, 0.09410204007107686];[-1.0, 0.03330595386212234, 0.005803560173041011]
[0.5996894802497534, -1.0, 0.018506175537316462];[0.014127244828886887, -1.0, 6.331434287488946E-4];[-1.0, 0.01630045870426483, 0.017831962137316273]
[0.04941762860818626, 0.09093377831706018, 0.07103210555137039];[0.09073353239707477, 0.09909362044279543, 0.08529452525089075];[0.016077606612766217, 0.09471397852990152, 0.9999822651083955]
[-1.0, 0.11114150184090239, -1.0];[-0.2756474188797714, 0.041216816795015654, -1.0];[-0.6872089678810961, -0.20117525437535133, -0.971734061555405]
[0.030490047731191874, 0.048217423589918096, -1.0];[0.062410045897945424, 0.054765227907950104, 0.06602024970553662];[0.02035356995156138, 0.005773240019317361, 0.02731234540215485]
[-0.32158108350629333, 0.017184920740078026, -1.0];[0.02413338806864749, -1.0, 0.4230887957006073];[0.037165223172852604, -1.0, 0.24381673527661352]
[-0.9012298619231305, 0.018816621172369898, 0.003889469053170858];[0.057212765320124453, 0.016823128422464983, 0.4318929937868224];[0.039609853747053614, -1.0, -1.0]
[-0.9041118019019381, -1.0, -1.0];[-1.0, -1.0, 9.417504568694506E-5];[-1.0, -1.0, -1.0]
[0.03954381496697515, 0.006547565800097641, -0.16511236883426478];[0.006216914008809934, 0.1483530507773877, 0.022598963452212843];[-1.0, 0.005966545695633988, -0.05425061530994138]
[0.3476797386977022, -1.0, 0.47982130478839236];[0.04555425699555441, 0.038615579683067586, 0.16016579638899553];[-1.0, 0.036425760889724504, -1.0]
[-0.9059494518501139, -1.0, 0.991917761608538];[-0.6701378488885756, -1.0, -1.0];[-1.0, -0.6870725343814519, -1.0]
[-0.9997609283585588, -1.0, 0.999999953152494];[-1.0, -1.0, -1.0];[-1.0, -1.0, -1.0]
[-1.0, -0.9028910135424605, -1.0];[-1.0, -1.0, -1.0];[-1.0, -1.0, 1.0965779410983007E-5]
[-1.0, -0.6899664699554833, -1.0];[-0.39894502974154894, -0.9044364676115717, -0.6856904492942397];[-1.0, -0.6734876435204987, -0.5730683644354804]
[-1.0, 0.04667529952867319, -1.0];[0.4009439731193931, 0.044045738949828266, 0.07378677410397964];[-1.0, 0.038868725991299674, 0.9977590217909181]
[0.0913926377051142, -1.0, -1.0];[0.7019430240843159, -1.0, -1.0];[0.011844854088103762, -1.0, 0.9999822785242343]
[-1.0, 0.06442651462885039, 0.010708319500318276];[-1.0, 0.0045652771843737614, 0.04559092747786404];[0.06452162157748366, 0.048004746640414625, -0.27201276544509356]
[-1.0, 0.0561607541069844, 0.9992823518162455];[0.019266360792930082, -1.0, 0.02469257706114294];[-1.0, -1.0, -0.6746841018808618]
[0.2562351666930794, 0.029430653580142224, -0.6928830756269558];[-1.0, 0.012497560422197596, -1.0];[-1.0, -0.17412288058608183, -0.8894992490234794]
[0.019945688428786357, -0.2710650854436269, 0.045795931392246775];[0.016654673998555938, 0.005495368503634202, -1.0];[-1.0, -1.0, 0.027607368203148575]
[-1.0, -0.6712814643488318, -1.0];[-1.0, 0.003331363109466662, -1.0];[-1.0, -1.0, -1.0]
[0.004822857003514747, 0.00954478122869048, -1.0];[0.03639308864595243, -0.6915231333445944, 0.020965979430718464];[-1.0, 0.024594663068329744, -1.0]
[0.042090771600278715, 0.02502521459194762, -1.0];[0.030817594108016114, 0.05450767551595707, -1.0];[-1.0, -1.0, -1.0]
[0.05667448977655233, 0.992388683063792, -1.0];[0.05980108959154883, 0.02047846886477366, -1.0];[-1.0, -1.0, 0.04730891268730378]
[0.01865780753384667, 0.013577501008019854, 0.08048983552032933];[-0.6750646840913559, 0.0335554865495339, -0.6789504527108813];[-1.0, 0.04493480897933636, 0.051101892797707896]
[-1.0, -0.09684592669996706, -0.6012001808497605];[-0.20628629754109556, -0.958512179688636, -1.0];[-1.0, -0.039073675757096527, 0.30065174697835384]
[-1.0, 0.05607619380537447, -0.6824830263578036];[-1.0, 0.025011860071677175, 0.037176688619633295];[0.03864481415996562, 0.045899633044600735, 0.014451314870888077]
[0.012866185249847562, -0.6715633336302681, 0.024408774859433283];[-1.0, -1.0, 0.0021785554726050037];[-1.0, -1.0, 0.7129536754341596]
[0.027073019879790487, -1.0, 0.028505749088358397];[0.02342041285479606, 0.02252970257394591, -1.0];[-1.0, 0.025414769776561603, 0.025859533367629885]
[-0.6983402858324007, -1.0, 0.5106739485310703];[-0.27970939894493624, -1.0, -1.0];[-1.0, -1.0, -0.5792482581093166]
[0.007897353148458016, 0.07716969804603536, -1.0];[-1.0, 0.05928515333081024, 3.5153050466130156E-5];[0.0023929907671814466, 0.02958070255839265, 0.9975860566556418]
[0.08548399695540825, 0.08871232801591054, -1.0];[0.05136639101459996, 0.06444770562910211, 0.008415578086833787];[0.006209291224141456, 0.09195604885722164, 0.040534370469216485]
[-1.0, 3.286010891418603E-11, -1.0];[-1.0, -1.0, -1.0];[-1.0, 2.2570757721281425E-11, -1.0]
[0.035147236814979804, -0.6846522922892135, -1.0];[-0.6901149506557448, 0.13628932657636245, -1.0];[0.03318118537618803, 0.03255255568635856, -0.18840765517003677]
[-1.0, -0.07241968787896169, 0.04240963271271882];[-0.9722019077056924, -1.0, -0.011577703028670505];[-1.0, -0.17721752620357345, -0.6765305148786346]
[-1.0, 0.9999994955604001, -1.0];[-0.6707293927608011, -1.0, -0.686019499831269];[-1.0, 0.011364655385272749, -1.0]
[-1.0, 0.2529019362538164, 0.3595445742144187];[-1.0, 0.05508169383702762, 0.03993636693498789];[-1.0, -0.3742592040147673, 0.3209034086861416]
[-1.0, -1.0, 0.017134384404027724];[0.04924277046607727, 0.02827382870853596, 0.02741685268594576];[0.034868529399787296, 5.084757147439834E-4, 0.3041070380282682]
[0.005065103378451519, -1.0, -1.0];[-1.0, 0.003073991157918633, 0.001530735236159323];[-1.0, -1.0, -1.0]
[-1.0, -1.0, -1.0];[0.006332122807786077, -0.6919169714594058, -0.6818090558658307];[-1.0, 0.003271835234449272, -0.6901547345231636]
[-1.0, 0.005030388214766479, -1.0];[-1.0, 0.004818228151671855, 0.002299481843185591];[-1.0, 0.007224659467152017, 0.015820945440479284]
[0.04680243083066687, 0.035110940806817696, 0.030557702058803295];[0.07076767088252083, 0.06288865197911721, 0.06886260308367947];[0.05509117973594634, 0.014250515915354223, 0.0042826757741805666]
[0.006144363954057897, 0.05124175592195636, 0.004517111218360448];[0.05906220961493729, 0.9170763895371292, -0.6745972678764183];[0.07283185628576622, 0.029811360978977422, 0.04239980640185499]
[-1.0, 0.01118863550179301, 0.45884616425084385];[0.03977198117865523, 0.03388767425594607, -1.0];[-1.0, 0.03444598939393935, 0.03103519161416131]
[-1.0, -0.6945369932103485, 0.43146623386247906];[-1.0, -1.0, -1.0];[-1.0, -0.6875106900907745, -0.9063883038526135]
[-1.0, -0.6851005429216306, 2.23704675956034E-4];[-1.0, -1.0, -1.0];[-1.0, -1.0, -1.0]
[0.014112896232633855, -0.6884684814428857, 0.5999971533979679];[-1.0, 0.05110865022627015, 0.039287704199880105];[-1.0, 0.0036902426370830706, 0.013744082023422633]
[-1.0, -1.0, 0.973020645087587];[-1.0, -1.0, -1.0];[-1.0, -1.0, -0.9045633744368821]
[-1.0, 0.03723188655156, 0.023553195462161527];[0.0400259809722016, 0.04164636373286343, 0.03257385786040174];[-1.0, 0.04031469612211763, 0.24383099597817315]
[0.05641473428670997, -0.6731075224590226, -1.0];[0.07677001253975146, 0.05737093536967929, -1.0];[0.04593426808907384, 0.07952391959012248, 0.32263043187270884]
[-1.0, 0.03086003865881202, 0.014928663289723022];[-0.27612973340542946, -0.6551299800684545, 0.019634309754409232];[0.01692074775751127, 0.049906126799255365, -1.0]
[0.028873718907370796, -0.6070793090732777, 0.03944508666328036];[0.03782407213855784, 0.029328450487719607, 0.0059260870537288235];[0.0140432844950098, -1.0, 0.0013409329337320975]
[-1.0, 0.9120436365349047, -1.0];[0.008198381100137046, 0.019274988364227332, -1.0];[-1.0, -1.0, 0.0068983539965478576]
[-0.9080170604757813, -0.8723685492417148, -0.6883062121004696];[-0.7775948360501145, -1.0, -0.6810411648533806];[-1.0, 0.4364749161604311, -1.0]
[-0.6820772815730783, -1.0, 0.007502007592410632];[-0.6825077260362262, 0.030640495444060358, 0.042416065731653];[-1.0, 0.9923527449000478, -1.0]
[-1.0, -1.0, -1.0];[-1.0, -1.0, -0.9726734074130545];[-1.0, 0.9923782942554624, 0.03970470467743992]
[0.03606014169634349, -1.0, 0.012994164062421317];[0.030234440229505905, 0.01847999746083574, 0.29207451902530734];[-1.0, 0.037128256340280434, 0.024436577832793734]
[-1.0, 0.008217815708064525, -0.6897018875499505];[-1.0, 0.019305935788587303, -0.6795103256221441];[-1.0, -0.6807257389694186, 0.029835585747650557]
[0.03228586966267383, 0.3176126018878123, -1.0];[0.030897948223742033, 0.0231779624450158, -1.0];[-1.0, -1.0, -1.0]
[-1.0, 0.013300277882110268, -1.0];[-0.6710141473551307, 0.9977314811630823, 0.08216958713069512];[-1.0, 0.02260199499772736, -1.0]
[0.018623572671483065, 0.018150314706845444, 0.4329895170422564];[0.041726680516441725, 0.430593259263515, 0.03278016195275481];[-1.0, -1.0, -1.0]
[0.07864028673666436, 0.07917112160043278, 0.044169671187604];[-1.0, 0.9977242319810604, 0.5968448286244513];[0.07429250659755605, -1.0, 0.03798434963507518]
[-1.0, 0.9999810897052738, -1.0];[-1.0, -1.0, 0.7067621028336188];[-1.0, -1.0, -1.0]
[-1.0, -0.6431773787624977, -0.5753268864157182];[-0.2890260593952349, -0.2005052409654165, -0.7512984122948545];[-1.0, -0.9084744943477018, -1.0]
[-1.0, -1.0, -1.0];[-1.0, 0.008557093142385334, 0.9997844913748736];[-1.0, -1.0, -1.0]
[-1.0, -1.0, -0.6915688650448576];[0.024417957142825842, -0.17372645795821096, -0.6744741471537095];[-1.0, -0.1766739789805325, -0.9083934354622648]
[-0.2201470519586886, 0.2867796595420018, -1.0];[0.08906022109407741, -1.0, 0.017946770394610838];[-1.0, 0.024789827425743587, 0.11920574900290382]
[-1.0, 0.005192042687169951, -1.0];[0.9992941300234183, -1.0, 0.026500097428511095];[-1.0, 0.5023691664908536, -0.6864901260719951]
[-1.0, 0.026890269682448932, -1.0];[0.9997895818320885, -1.0, -1.0];[-1.0, -1.0, 0.020363920497778777]
[0.04650125349431559, 0.07319015851595341, 0.0946705856477366];[0.07761138460321762, 0.9138370807225248, 0.06058545978937144];[0.036638665687787675, -1.0, 0.0692670338616166]
[-1.0, 0.07609281271129247, -1.0];[0.08665045900586504, 0.0695263267461963, 0.03651496988416019];[0.034878155666521526, 0.03107033052887308, 0.009168973785758983]
[-1.0, 0.006691601204066045, 0.059826185253445345];[-0.6710091738541651, -1.0, 0.018991088266222714];[0.04327540729880172, 0.016455552444456824, 0.045867981074854326]
[-1.0, 0.03429855043220631, 0.009298885618472127];[0.015279714948977154, 0.014302800382458368, 0.02361846181750679];[-1.0, -0.2755300073905912, -0.2764373424096031]
[-1.0, -0.928473542556582, -1.0];[-1.0, -0.9716098575632598, -0.9690253194464575];[-1.0, -0.9052501826911499, -1.0]
[-0.10626622096032941, -0.679009805829323, -0.6931304865889928];[-1.0, -0.6889045080193033, -0.9044413826678089];[-1.0, -1.0, -0.6870890105455609]
[-1.0, -0.686537521115091, -0.6743149243677009];[-1.0, 0.007716924478827891, 0.008783951225151288];[0.038710550464958984, 0.04292459447631102, 0.03822989179384935]
[0.028073742914889146, -0.6838244397529679, 0.02402103655824117];[0.02684789232993714, 0.04256770030219073, 0.013815272391183353];[-1.0, 0.0039700926163025564, -0.6728186814339835]
[-1.0, 0.04204766527461517, -0.6827001543898497];[0.03429244658894325, -1.0, -1.0];[-1.0, 0.004221488167575882, -0.5759899122519567]
[-1.0, -1.0, -1.0];[-0.6745271041258127, -1.0, -1.0];[-1.0, 3.6034284688329555E-7, -1.0]
[-1.0, 0.030728814666934647, 0.01589748968389051];[-1.0, 0.011740938120834089, -0.685507896455694];[0.002518574518719352, 0.027330678091384997, 0.512512676866383]
[-0.9014752016442724, -0.6987229195503877, -0.6917163762427091];[-1.0, -1.0, -0.9705854808585449];[-1.0, -1.0, -1.0]
[0.3960612734118983, 0.031212786442715953, -1.0];[-0.684341736736364, 0.015333479416067719, 0.017867265844168503];[0.009584332381936811, 0.02662219179722692, -1.0]
[0.005741913529599796, -1.0, -1.0];[-1.0, -0.6944628504379096, 0.005403398365819101];[-1.0, -0.6981700254150007, -1.0]
[0.05425952579245083, 0.0017751926349896308, 0.015699092509815972];[0.028325230332316154, 0.03752725883776892, 0.009707419334959534];[-1.0, 0.042054632553636534, 0.049296646190971974]
[-0.6792902976219136, -0.6968728184694535, -0.6759067727022181];[-1.0, 0.016380245153301633, -1.0];[4.136536786650269E-4, 0.06666819566947509, 0.013582214598722787]
[-1.0, -0.6731974444553657, -1.0];[-1.0, 0.9922256258942272, -1.0];[-1.0, -1.0, -1.0]
[0.029731585752861847, -1.0, 0.013090466860295014];[0.02350123471342146, 0.02790127436878901, -0.5818705657493796];[0.010852743563847855, -0.6870198142324861, -1.0]
[0.35824829431455407, 0.034073103796748806, -1.0];[0.0023515211223745004, -0.1890202995786856, -0.7564388774560593];[-1.0, 0.03748912010155166, 0.035554439711143075]
[-1.0, 0.7058766744547528, 0.02194587542028491];[0.01742956373661029, 0.04717899023861614, 0.00701348420821627];[0.044297528430664194, -1.0, 0.5988900419448417]
[-1.0, 0.03334242371996337, 0.03651673535994726];[0.009535971749918805, 0.048725463203425926, -1.0];[0.007445047233963054, -1.0, 0.9142282883797306]
[0.02706169354239073, 0.42646677702344327, -1.0];[0.03055731559508313, 0.026007021861473308, -1.0];[-1.0, 0.020675372937664707, 0.010168796740297793]
[0.01034268762866272, -1.0, 0.011770906916785296];[0.002723871776173359, 0.01584326442668421, 0.013633031979581845];[-1.0, -1.0, 0.02251951081824212]
[-1.0, -1.0, -1.0];[1.2761507505344998E-5, -1.0, -1.0];[-1.0, -1.0, -0.6781696082264524]
[0.021268438130019742, -1.0, -1.0];[0.029563301894190784, 0.0018530879449187299, 0.04194213743303479];[-1.0, 0.03750780408191039, 0.35308842331813495]
[0.004984023617720279, 0.04739557831929099, 0.01332595969844318];[0.04153980661856815, 0.06805474889255507, -1.0];[0.05318159730170368, -0.6731325667157546, 0.9999945048374802]
[-1.0, -0.6812966110685651, -1.0];[0.014944065384976302, 0.007547997620823501, -1.0];[-1.0, -1.0, -1.0]
[0.04340293130458529, 9.692144840657281E-5, 0.00954365872626255];[-0.6828699918462198, -0.6786481570232795, -1.0];[0.02268213861993329, 0.028914940527154778, -1.0]
[-0.23980657732400035, 0.034932024990896114, 0.06113626301408673];[0.031104408449538115, 0.0328991341063807, 0.010697231824987875];[0.010353103686567333, 0.05887420253822591, 0.06300752845304287]
[-0.6757080231180208, -1.0, 5.728235045831746E-4];[-1.0, -1.0, -1.0];[-1.0, -1.0, -1.0]
[-0.34677960614735104, -0.6858802175728858, -0.8998579121481636];[-1.0, -1.0, 0.4582176461877457];[-0.6632862275178464, -0.2451464970882724, -1.0]
[-0.9059484767513089, -0.68294583371426, 0.07447297968397362];[-1.0, -1.0, 0.0046318112245143156];[-1.0, -0.045902974484495235, 0.012012522888414468]
[0.0013981281938569654, -0.6989487810523018, -0.3629694337216171];[-1.0, -1.0, -0.69554266987198];[-1.0, -1.0, -1.0]
[-0.997401525644299, -1.0, -1.0];[-1.0, -1.0, -0.9992168345083303];[-1.0, -1.0, -1.0]
[-0.6756513120961227, 0.031736722013010935, -1.0];[0.04358049808934933, 0.05785903226599318, -1.0];[-1.0, 0.05127769512523894, 0.9999998547678668]
[0.5608184647944504, 0.020982836440501487, -1.0];[0.030824203866003232, -1.0, 0.0027422952476128014];[-1.0, -1.0, 0.0140450988746183]
[-0.9992118914043383, -1.0, -1.0];[-1.0, -1.0, 2.0656554138699263E-13];[-1.0, -1.0, -1.0]
[-0.6918768037929278, -1.0, -1.0];[0.01558564163225623, -1.0, -1.0];[-0.6950228325617691, -0.6932461971435769, -1.0]
[-1.0, -1.0, -1.0];[-1.0, -1.0, -1.0];[2.8928501685986536E-6, -0.6963433270595092, -1.0]
[0.005973193095473754, -1.0, -0.3625179853324946];[-1.0, -1.0, 0.00857512715771951];[-1.0, -1.0, 0.999299347942251]
[-1.0, -1.0, -1.0];[-1.0, -1.0, 0.008219876458012178];[-1.0, -1.0, 0.9999984011542875]
[0.03659515988511937, 0.026846517166554465, 0.026136998811065428];[-0.6855938059543779, 0.01591771569498591, 0.02581505914535528];[-1.0, 0.03260720252253178, 0.013987218919108502]
[-1.0, -1.0, 1.9201718032137127E-7];[-1.0, -1.0, -1.0];[-1.0, -1.0, -0.6711283587448871]
[-0.3704768387819993, 0.01340557501747235, -1.0];[0.027803563349710576, 0.01628145843651635, -1.0];[0.014989785753057672, -0.2712054386433674, 0.02237241698720669]
[0.03812807321553707, 0.0033208996061624752, 0.03662016633916508];[0.03264442603442989, 0.030511411431582626, 0.03486494054116281];[-1.0, 0.030555605077370752, 0.26204262138695295]
[0.044299596031894886, -1.0, 0.06667945519945069];[-1.0, -0.6702585260628433, 0.010396009806856643];[0.009955632090414224, 0.006687113116301358, 0.011677669665013303]
[0.05027856476945587, 0.03851641810460296, 0.03415866713003305];[0.05151196742764594, 0.02810285946574871, -1.0];[0.055758416269843736, 0.03994032017348867, 0.06175495183738694]
[0.01754374569633175, 0.012940768621015853, 0.03340467185592046];[0.03206074395677782, 0.048034524808920794, -1.0];[-1.0, 0.03039400400582857, -1.0]
[0.97432416501877, 0.016143605795831194, -1.0];[0.024983048715422753, 0.009335540237139705, 0.006501540565220488];[-1.0, -1.0, 0.045177353068633797]
[5.853806736373035E-4, -1.0, 0.09953219769569432];[0.005624731076193212, 0.9920812648439943, 0.048618309443028335];[0.06938549271437552, -1.0, -0.673304040604478]
[-1.0, 0.025941147520795085, 0.023707620991570547];[-0.22762572963976313, -0.6847291197297256, 0.015283233347081149];[-1.0, -1.0, -0.6913140691137968]
[-1.0, -0.9050859115526905, -0.9031157890732585];[-1.0, -1.0, -0.6962022950535423];[-1.0, -1.0, -0.905312554826639]
[-1.0, -1.0, -0.9070651146747608];[-1.0, -1.0, -1.0];[-1.0, -1.0, -0.9711451427586996]
[-1.0, -0.9042833584432982, -0.6965804080400272];[-1.0, -1.0, -0.7625519990099721];[-1.0, -1.0, -0.9079122914083194]
[-1.0, 0.9921591689337794, -1.0];[0.026222414101673575, -1.0, 0.0044708285022841635];[-1.0, -1.0, -1.0]
[0.02854261461802733, -0.6876423895902888, 9.795000570007596E-5];[0.01832404477239097, 0.004321401219157017, -1.0];[-1.0, 0.03366456662933687, 0.025329519371898382]
[-1.0, -1.0, -0.9916165386448719];[-0.6928869228686766, -1.0, -1.0];[-1.0, -1.0, -1.0]
[0.015156878251739295, -1.0, 0.004380554419721972];[-0.6951228834699948, -1.0, 0.010511927668213062];[-1.0, -1.0, -1.0]
[-1.0, -1.0, 0.910489046247313];[-0.698210697465462, -1.0, -1.0];[-1.0, -1.0, -1.0]
[0.028588488214000608, -0.6736673791147985, -1.0];[0.032296350334668905, 0.039565156335756066, 0.0011313597564923117];[0.01930028256325317, 0.02605357137964638, 0.03635601235177651]
[0.011856032985320786, 0.9735396581231219, -1.0];[0.033101355577116603, 0.022885697606757606, -0.6738151377237799];[-1.0, -1.0, -0.6769777848820825]
[-1.0, -1.0, 1.9956202571448456E-5];[-1.0, -1.0, -1.0];[-1.0, -0.698313571768041, -1.0]
[-1.0, 0.04356523699729332, -1.0];[0.046454143243960556, -0.6852821997324671, 0.008490820515198972];[-1.0, -1.0, 0.01207009247941341]
[-0.7497371314043273, -0.696445900968328, -0.13645744912527302];[-0.6931272295947575, -0.682927757711557, -1.0];[-1.0, -1.0, 0.39153824549158633]
[-0.3978953936336014, -1.0, -0.6997095927986305];[-1.0, -0.37727156972262504, -1.0];[-1.0, -1.0, -0.6914160923379502]
[-1.0, -1.0, -1.0];[-1.0, -0.9918550128029248, -1.0];[-1.0, -1.0, -0.9992520562971732]
[-0.6820266204826757, 0.03065782858450203, -0.6915607244555637];[-0.6529379399400106, 0.5586799634122814, -1.0];[0.2461163489547811, -1.0, 0.035619919309177454]
[0.03108234791663891, 0.03896592906834709, 0.06852985340250849];[0.05317303628223055, -1.0, 0.03406941696005004];[0.5678439598148085, -1.0, 0.06864382272581715]
[0.9976534442875434, -0.6734286869747872, 0.08397028806569912];[-1.0, -1.0, -1.0];[0.006258131475133411, -1.0, -1.0]
[-1.0, 0.02357177148465328, 0.26504963936840226];[0.020372861983771015, 0.03525956155044571, -1.0];[0.04795727901177496, 0.029016835221093464, 0.17710016778290133]
[-1.0, 0.01630060809555405, 0.5992107023926688];[0.9731519310620977, -1.0, 0.05104529526619496];[0.06008022965656039, -1.0, 0.023152481582990804]
[-1.0, -1.0, 0.9992817127146443];[-1.0, -1.0, -1.0];[-1.0, -1.0, -0.6778351837347316]
[0.0066791031988864494, -1.0, -0.685492804082091];[0.016082705757365767, 8.879325729510224E-4, -0.6743233691734256];[0.19169925240591362, -1.0, 0.02374579981211176]
[-1.0, -0.28170966747512893, 0.12735171074738605];[-1.0, -1.0, -1.0];[0.0035672607089288436, -1.0, 0.014723675632373937]
[-1.0, 0.025369459693730674, -1.0];[-1.0, -1.0, 3.496031770587105E-4];[-0.9033841009306458, -1.0, -1.0]
[-1.0, -1.0, 0.028960993700911486];[0.026243541993217136, 0.01480601276049225, 0.025846682360375173];[0.04649645955344611, -1.0, 0.02415593716503823]
[-1.0, -1.0, 0.003942223816850454];[0.001144787285759652, 0.009080266787907533, -1.0];[0.014715098663899796, -1.0, 0.026643050873562495]
[-1.0, -1.0, -0.9050243313680868];[-1.0, -1.0, -1.0];[-1.0, -1.0, 1.0938376058400504E-6]
[0.021244568536932674, 0.05327277370834498, 0.05862799307241176];[0.031282053605862024, 0.9751449437001165, -1.0];[0.05899307713854941, -1.0, -1.0]
[0.04187340443783727, -1.0, -0.6882035870931271];[0.038590729898219434, -0.680206102534598, -0.6873755535360523];[0.03575499604004116, 0.010043195650285199, -1.0]
[0.03916139721525972, -1.0, -1.0];[0.03879067248244207, 0.015558865044989746, 0.03549041491499856];[0.030317422092596902, 0.006022488355678446, 0.02258337484535634]
[0.04739584934775917, -1.0, -0.03353248356947003];[-1.0, 0.020908991863585462, 0.03499730829315211];[0.0385211913734912, -1.0, 0.025584558477595915]
[0.9925584118472658, -1.0, 0.05096382743851723];[0.053439120340785684, 0.0742121216706167, 0.0036217917627701214];[-0.681322906958092, 0.03748789808034438, 0.03052895871669812]
[0.013077630381314565, -1.0, 0.01484104683919736];[0.014318906302303636, 0.004539481664619027, -1.0];[0.03664015802197398, 0.022061640223095116, 0.03328981035396815]
[-0.14404498758080142, -1.0, -0.6896368681669997];[6.283334583341935E-7, -1.0, -1.0];[-0.697807172973001, -1.0, -1.0]
[-1.0, -0.06022089860089766, -0.906777619559221];[-1.0, -1.0, -1.0];[9.937381230053395E-4, -1.0, -0.679180426168393]
[0.03338997823214834, 0.016563686625284735, 0.9997984540423753];[0.060734608744823296, 0.07338918779573429, -1.0];[-1.0, 0.05463285709893814, -1.0]
[0.999293393068187, 0.04274258093595956, 0.03523194495556934];[0.05487133007152229, 0.017768513867828118, 0.031493790752688176];[0.048946883664218906, 0.04123460208293975, 0.03420029105061989]
[-1.0, 2.5084691680242554E-6, -1.0];[-0.6795664378613919, -1.0, -1.0];[-1.0, -1.0, -1.0]
[-0.6829076124508892, 0.031443528492774764, -1.0];[0.9999984014003457, 0.04809130838806091, 0.019690359751125253];[0.06751226092247263, 0.018754957471141077, -1.0]
[-1.0, -0.9041360038628011, -1.0];[-1.0, -1.0, -1.0];[8.762697051962852E-5, -1.0, -1.0]
[0.45844015455617904, -1.0, -1.0];[-0.20148949128426374, 0.03091351087665157, -0.6842458235548917];[-1.0, 0.028021670631995444, -0.6928456963620859]
[0.028273637230895498, -1.0, 0.04056155547272229];[-1.0, 0.04001641739303379, 0.0068431434702352694];[0.022182138733634872, -0.6876302822879987, 0.03212498185249205]
[-1.0, 0.026461773073438867, -1.0];[-1.0, 0.02994975152548962, -1.0];[0.03728452888348251, 0.015516035699143546, 0.012498891550959247]
[0.02795194083870213, -0.6891852522417167, -1.0];[0.021882545559263864, -0.6703637266001511, 0.018704522361569078];[0.011590707902793929, -0.685539338873665, -1.0]
[0.056391600827146136, 0.06050908823583975, 0.027828027148205238];[-1.0, -1.0, 0.0556878534556923];[0.018224314460712265, 0.008913511755817128, -0.6781801704290711]
[0.9735091724071074, -1.0, -1.0];[-1.0, -1.0, -1.0];[-1.0, -1.0, 0.0023744927558398167]
[-0.6857656567224144, -0.6889818222717535, -1.0];[0.016471159745119358, 0.002472901712347886, -1.0];[-1.0, -0.6865049346858906, 0.04049241086716299]
[-0.6063976585313684, 0.02494892278337263, -1.0];[0.5871180644391715, -1.0, -1.0];[-1.0, 0.9975702146116936, -1.0]
[-0.6935080105283367, -1.0, -1.0];[2.0027310655728947E-11, -1.0, -1.0];[-1.0, -1.0, -1.0]
[-1.0, -1.0, -1.0];[0.701097746456698, -1.0, -1.0];[-1.0, 0.9922431943097427, -1.0]
[-1.0, 0.006096074732196599, -1.0];[-1.0, 0.04906406206561449, 0.05496528123814537];[-1.0, -0.6814381336354528, 0.04580989948542573]
[-1.0, -1.0, -1.0];[0.04418859525585768, 0.041213655839547385, 0.9144507249656975];[-1.0, 0.012454264143343685, -1.0]
[0.05744619940542707, -1.0, -1.0];[-1.0, 0.9152884244830288, -0.9022855998950503];[-1.0, -1.0, -1.0]
[-1.0, 0.006110487378736185, -1.0];[-0.6724408653168983, 0.0654842251201607, -0.6884712164648494];[0.06566593008793424, -1.0, 0.9977800911426915]
[0.03868709480114134, 0.03434572527133606, -1.0];[0.05781749304409574, 0.050402820419955606, 0.00713595421483636];[0.007335634260117918, 0.04048755506498661, 0.024283244436184615]
[0.02458600622576115, 0.0017206625258585962, -1.0];[0.013165837887323228, 0.015890544041422816, 0.0376798332259867];[0.029916105088050062, 0.052659629247490555, -1.0]
[-0.6765911706196719, 0.0444588373630028, 0.02698945293973598];[-1.0, 0.01378575813896147, 0.008504914593433877];[0.07469025438707792, 0.057592374962548154, 0.04915577542135411]
[-0.6996032658357851, -1.0, -1.0];[-0.6945680889339826, -0.6708019771354108, -1.0];[0.026739535629133084, -1.0, -1.0]
[0.006666835887165612, -1.0, -1.0];[-0.6747168077697254, 0.02535032461268419, -0.6802435733913391];[-1.0, -0.07279812695005994, 0.03352043389909198]
[-0.6823672658119943, 0.05479909068699969, -1.0];[-1.0, 0.04255844757893254, 0.0532728100163819];[-1.0, 0.03246117937464167, 0.0135426239965049]
[0.0024434002667084176, -1.0, -1.0];[-1.0, 0.04528247305489367, 0.005330769815701394];[-1.0, 0.9999999987702587, -1.0]
[0.028274399659465623, 0.0356942403629468, -1.0];[0.0278205245878955, 0.07461421134773685, 0.034699750264620084];[0.06614176673502963, -1.0, 0.001151330168227749]
[0.14090660574142322, 0.06737013055670396, -1.0];[0.04471624746244497, 0.034007544178939746, -1.0];[0.04374823864431864, 0.038007791991789955, 0.019540085844912083]
[-1.0, 0.001059353860784884, 0.045912792945524195];[-0.6763193695625342, 0.9145726282878806, 5.478015330121821E-4];[-1.0, -1.0, 0.04840058877278082]
[0.025550268526071823, 0.0211490555945026, -1.0];[0.024870393683779406, 0.016473852567469423, -1.0];[0.030944079793382526, -1.0, -0.3612201256720943]
[-1.0, -1.0, -1.0];[-1.0, -1.0, -1.0];[5.422953901282384E-8, -1.0, -0.6820924417197516]
[0.14249281490640098, -1.0, -1.0];[-0.6792550792685316, 0.02827440904174483, -1.0];[-0.20597829172134757, -0.6847641709657174, -0.23644090366877957]
[-0.9079774875968493, -1.0, -1.0];[-0.6726941413463281, -0.6843407217879579, 0.02079325684616832];[-1.0, -0.6844668635814364, 0.007051447949832679]
[-1.0, -1.0, 0.057964589715618076];[0.9999983582569776, 0.06785402371110488, 0.021973044860252568];[0.0574690420012731, 0.0203430025168575, -1.0]
[-1.0, 0.061868834626790575, -1.0];[0.06410222452966237, 0.014728679030808746, 0.32467030490559196];[0.0621641331915435, 0.02661153167020911, 0.016146442471807132]
[-1.0, -0.685729937715867, 0.005329643775407955];[-1.0, -1.0, -1.0];[-0.9062718877271206, -1.0, -1.0]
[0.05132794970053865, 0.030468113599123214, -1.0];[-1.0, -1.0, -0.33461128146341557];[0.027309260447619423, 0.015553135127121274, 0.03022567368368816]
[0.0049256995558458645, -1.0, -1.0];[0.02756056105785636, -1.0, -0.9054843661679914];[-1.0, 0.43024858746438355, -0.6873093096669542]
[0.914026353798182, -1.0, -1.0];[-1.0, 0.03353151985858779, 0.016458107619312424];[-1.0, 0.04370554545288864, 7.807283771418816E-4]
[-1.0, 0.5464658335839344, -1.0];[0.999999986092163, -1.0, 0.004380334767730754];[-1.0, -1.0, -0.6920630625700185]
[-1.0, -1.0, -1.0];[-1.0, -1.0, 5.755708138156116E-14];[-1.0, -1.0, -0.9030145409474463]
[-1.0, -1.0, -0.6898404698803439];[-0.6854674934241197, -1.0, -0.9052496595874865];[-1.0, -1.0, 4.647640961604677E-6]
[-1.0, -1.0, -1.0];[2.744052501316861E-12, -1.0, 8.710399226902341E-13];[-1.0, -1.0, -1.0]
[-1.0, 0.0413515389258961, 0.02890434969424448];[0.034153324596129686, -1.0, 0.4323237876785798];[-1.0, -1.0, -1.0]
[0.05944795182860984, 0.013374171808361058, 0.12863246663592293];[0.042122695714502195, -1.0, -1.0];[0.031564112823587835, 0.005521065022109629, 0.01439595462633847]
[-1.0, -1.0, 0.03335613800960233];[-0.9043262627326873, 0.0037126085547901978, 0.003906537484177075];[0.00875641240166789, 0.015139461292398005, 0.9133467887316559]
[-1.0, -1.0, -1.0];[-1.0, -1.0, 2.6584205114803076E-4];[-1.0, -1.0, 0.973031587250037]
[0.03685055829347607, -1.0, -0.6794156639846499];[0.025819061427916734, 0.018176781986465555, -1.0];[0.030620354615178993, -1.0, 0.040893240783971774]
[-1.0, -0.9707691016564104, -0.9087147770975905];[-1.0, -1.0, -1.0];[-1.0, -1.0, -1.0]
[-0.6938156091298644, -0.2158274787604789, -0.7545273963516141];[-1.0, -0.6881003093622349, -0.982876699210734];[-1.0, -1.0, -0.2045779180239286]
[-1.0, 0.003955697693456483, -1.0];[0.04056182930548302, 0.5857444813228526, 0.030953962774956052];[-0.6964104791187498, -1.0, -0.6811772838863748]
[-1.0, -1.0, -1.0];[-1.0, 0.9732446543528561, -1.0];[-0.6970485310402909, -1.0, -1.0]
[-0.5715501113289545, 0.023888519438945238, -1.0];[0.03973563870992186, 0.3982263994229401, 0.045001044029984776];[0.02985084038782212, 0.03104622583543039, -1.0]
[0.0014962663269698084, -0.6862422513563325, -1.0];[0.07577234800535196, 0.9993407349798078, -1.0];[0.08414696649099256, 0.055909879096070064, 0.08274302874328832]
[-1.0, -0.9918474768321226, -1.0];[-1.0, -1.0, -1.0];[-0.9973348377762646, -1.0, -1.0]
[0.01718046931924354, 0.029102754878615023, 0.0252697093438901];[-1.0, -0.6814488118694519, 0.007002452266484416];[0.14527702623168132, 0.01849815606068105, -1.0]
[-1.0, -1.0, 0.012490964700885088];[0.02621814394529344, -1.0, 0.9976569543933099];[0.01920761023383434, 0.006042136739071425, -1.0]
[0.04528926964615969, 0.04896931570939386, 0.04132160975603704];[-1.0, 0.03600604018772935, 0.024461983647288677];[0.02211924796619923, 0.014827854706574262, 0.057777875001235574]
[-0.9051032238860366, 7.24478135969482E-9, -0.2725774765436271];[-1.0, -1.0, -1.0];[-0.6066269260749125, -1.0, -1.0]
[-1.0, 7.56276926569123E-18, -1.0];[-1.0, -1.0, -1.0];[-0.9723205473299729, -1.0, -1.0]
[-0.9264866620485106, -1.0, -0.04639257928040845];[-0.9672123888436026, -1.0, -0.18616679224616434];[-1.0, 0.11948086464842961, -0.8981415727832726]
[-1.0, -1.0, -0.872952882868374];[-0.6877130720093944, -1.0, -0.9706436170881454];[-1.0, -1.0, 0.9999803870544527]
[0.5919523047842806, -1.0, -1.0];[-1.0, 0.019061396488252537, 0.16460796681354017];[-1.0, 0.018970744390639463, 0.031839709106536884]
[0.009263121369413952, -1.0, 0.01831709924011371];[0.01803676734290306, -0.6860815440161111, -1.0];[0.018708875220176613, -1.0, 0.9134185558309801]
[-1.0, -1.0, -1.0];[-1.0, 0.9999999540404239, 0.9130728974407752];[-1.0, -1.0, -1.0]
[0.04309319577087614, 0.09845350499118684, -0.6704050484569454];[0.06359997569478998, -1.0, -1.0];[0.07186905873833661, 0.9977858046490206, -1.0]
[-1.0, 0.034863120816009195, 0.03570103804168784];[0.01592426058480866, 0.18354760736430975, -0.6414130689613289];[0.03572606060968155, -1.0, -1.0]
[0.029908411847776428, 0.9920181103990903, 0.09446867175844366];[0.09056246873240073, -1.0, 0.01502395067118404];[0.002166046797655341, 0.013710701703227702, 0.018205832387117926]
[0.020165023671081507, 0.03194003658026837, 0.00563931934350791];[-1.0, 0.5376424513453937, 0.03873538225757283];[0.04755040432880502, 0.0627589887184072, -1.0]
[0.07582733794080594, 0.04625625325705079, 0.009332707987366273];[0.08376155915426581, 0.017531169406667824, 0.9978099792959976];[0.01338375489808551, 0.046766888998269834, 0.05770253645339074]
[0.03951855646083527, 0.04474287974114088, 0.0824899126414187];[0.0576524263548714, 0.07749919415838681, 0.0297136545766605];[0.9975992985136147, -1.0, 0.07655023914941686]
[0.01502929137993424, -0.6802217960688121, -0.27819369826111534];[-1.0, 0.03401249669683214, -0.6060173943240981];[0.031054046487649197, 0.06948507026163872, -1.0]
[-1.0, 0.040293165144717716, 0.04119259351394822];[-1.0, 0.03683838129496252, -1.0];[-0.6739666251635211, -0.6872870302966263, -1.0]
[-1.0, -1.0, -0.6861384732500144];[-1.0, -1.0, -1.0];[-1.0, 0.9999814284155492, -1.0]
[-1.0, 0.0022853089499923706, -0.6933282679312454];[0.01159220618367911, 0.01405829016734289, 0.013132394581991058];[-0.6801702175468307, -1.0, 0.01262687409490193]
[0.4718856246932746, 0.005150746794061337, -1.0];[-1.0, -1.0, 0.010488517449082222];[-1.0, 0.017123094950244968, 0.026406195547401996]
[2.6327532259981905E-5, -1.0, -1.0];[-1.0, -1.0, -1.0];[-1.0, -1.0, -0.9075258795214265]
[-0.6896314028025898, -1.0, -1.0];[-1.0, 0.0328976473489788, 0.03335443845536422];[-0.6865748150657713, 0.038359011502063736, -1.0]
[0.028834763322002046, -1.0, 0.03542057545517015];[0.028772929850546983, 0.010030997078872306, 0.1453347250450559];[-1.0, 0.02721675220782853, -1.0]
[0.009265961497469152, -1.0, 0.04842581763583248];[-1.0, 0.5504205924295392, 0.03244944030659867];[-1.0, -1.0, 0.0236587062448964]
[-1.0, -1.0, -1.0];[-1.0, -0.6989293600404567, 7.098669002529018E-5];[-1.0, -1.0, -1.0]
[0.006648393207554626, -1.0, -1.0];[-0.903247539441897, 0.9745583365248285, -0.6823572182428952];[-1.0, -1.0, -0.6750169805441895]
[-1.0, 0.04448714776370203, 0.03829920054516348];[-1.0, 0.1297939000058147, 0.006089902316721097];[0.032211159581010354, 0.03293713112368118, 0.006573729224732695]
[-1.0, -1.0, 0.06286172535930609];[-1.0, 0.02768139605330773, -1.0];[0.9999983499946038, 0.024782248732106896, 0.007614870740137131]
[-1.0, -1.0, -1.0];[-1.0, -1.0, 0.025735151623467893];[0.015383167722188385, 0.01453128661775388, -0.5924599924132112]
[-1.0, -1.0, -1.0];[0.0028668393053546183, 0.002037167722289457, 0.007077741622499904];[0.01909926225132376, -1.0, -1.0]
[0.03708194081326952, 0.01729973269404225, 0.04984204464005951];[-0.6722959731309575, 0.0649223403847756, 0.013022473803446566];[0.03352527125506335, 0.044154714208800884, 0.057890556667144155]
[0.016392171438435067, -1.0, -0.6755909458495871];[0.7134673787529174, 0.038538020510983595, -1.0];[0.033805814313849804, 0.006285115906553895, 0.012768796771801828]
[0.039964687916425795, 0.02803789207014388, 0.046913752490268225];[-1.0, -0.6755788451387468, 0.04741095444105719];[0.029907902134536857, 0.08087915823304592, 0.045519999524450884]
[-1.0, 0.0378953981990555, -0.6791917286655793];[0.021476752052086625, -1.0, 0.031057987364086905];[0.027385732537191357, 0.4788493366626585, 0.03242455895407844]
[0.03994278406017331, 0.0013808128058190317, -0.6930472326623484];[-1.0, -1.0, 0.027453626939113764];[0.05249255723842179, 0.010452707370402149, 0.99770281399614]
[0.07261786792793355, -1.0, 0.08087038754651361];[0.21574376421456953, 0.5970569075194895, -1.0];[-1.0, 0.004883098190405999, 0.05772958068857697]
[0.0838126764489682, 0.006329924893105666, 0.024693147830358232];[-1.0, 0.08701961380778916, -0.6730623256907878];[0.052140344977930755, 0.05349017661389606, 0.013699211400581668]
[0.4164795503664478, 0.05332542720952647, -1.0];[-1.0, -1.0, -1.0];[0.9178443783554407, 0.4419817811275648, 0.05112662982207113]
[0.7075662424399316, -1.0, -1.0];[-1.0, 0.00195131506859223, -1.0];[0.9999983209575124, -1.0, 0.018300604421163158]
[0.01293344350532483, -1.0, -1.0];[-1.0, -1.0, -0.24861368254347055];[0.006507937757524907, 0.042975235291957195, 0.2112685096041953]
[0.022516168196312594, -1.0, -1.0];[0.014696556742246715, 0.005860371217732075, -1.0];[-0.6859347741487285, -1.0, -1.0]
[0.03670839872314488, -1.0, 0.03436529867532878];[-1.0, 0.0447892466563323, -1.0];[0.06788498995714559, 0.022580135503701693, 0.03802077736263648]
[0.00944360717790299, 0.03470360965322267, 0.1962635400922561];[0.016598476819296548, 0.054351339825545235, -1.0];[0.056244637917573226, -0.6726141114824287, 0.0017064144045566998]
[0.4352713159662311, -1.0, -0.9586078531647823];[0.0034153651739369352, -1.0, -1.0];[-1.0, 0.03198463627731649, 0.5992960759492365]
[-1.0, 0.007463580805217119, -0.6761095049791228];[-1.0, -1.0, -1.0];[-1.0, 0.006580766429280127, 0.9736965243739856]
[0.16291605565204548, -1.0, -0.2818480559697486];[-1.0, -1.0, 0.015703753530929666];[-1.0, -0.7627368045837066, -0.6061087183550236]
[-0.9075576765119105, -1.0, -1.0];[-1.0, 2.1010489219805973E-4, -1.0];[-1.0, -1.0, 0.9999370003522005]
[0.023809715226542794, -1.0, -1.0];[0.0675447410377037, 0.0015843803132707614, 0.07204894688401654];[0.07267602296828107, 0.038618624892020184, 0.02131179079340484]
[3.969045595372061E-6, -1.0, -1.0];[-1.0, -1.0, -0.6929120741442787];[-1.0, -1.0, -1.0]
[0.011168540261974714, 0.04132056520248391, -1.0];[0.9999389868891643, 0.02578222769344998, 0.014649713001891058];[0.014737018777487343, -1.0, 0.03816183232967629]
[0.014178563232412945, 0.015123245548725663, 0.015254487174998133];[0.7175024777023284, 0.03895861141019816, -1.0];[0.024239208866596963, -1.0, 0.0017089876377785697]
[0.03860071120652984, 0.03152285216156206, -1.0];[0.04925327497549643, -0.57231958715253, 0.013081275848911035];[0.019235086331635898, 0.026830487248550472, 0.019982741912914895]
[0.9999811286004745, 0.004195425696093455, 0.020411094137525024];[0.04499989861809167, -1.0, -1.0];[-1.0, -1.0, -1.0]
[0.028706907667502148, 0.03427064858126643, 0.009403160005999878];[0.009722794676277124, -1.0, -1.0];[0.013636758276819361, 0.01583729042296166, 0.5807215043172639]
[-0.972894887683865, -1.0, -1.0];[-1.0, -1.0, -1.0];[-1.0, -1.0, -0.9917414567426818]
[0.9753628210815749, -1.0, 0.9993359530664576];[-1.0, -1.0, -1.0];[-1.0, -1.0, -1.0]
[0.017660580078409583, 0.01430146771786236, -1.0];[-1.0, 0.19450761382517673, 0.011990522521048264];[0.007121584383047852, -1.0, -0.2442368818271735]
[0.06292725798795155, 0.03986448826427719, 0.011122983585282254];[0.059544298923084785, -1.0, 0.04162472933494263];[0.7245703725226423, 0.05509545473929598, 0.024226486516520863]
[-1.0, 0.5464297325125879, -0.9045327245798312];[-1.0, -1.0, -1.0];[0.9919735954193858, -1.0, -0.6920789207598133]
[0.10831637916932109, -0.011510423752333555, -0.0874762272030927];[-1.0, 0.1107214092508785, 0.07385073557998331];[0.10065547170117498, 0.01608111095054225, 0.02804137937780754]
[-0.05353128851469058, 0.05318131816005524, 0.5062883506662482];[-1.0, 0.11286786855787939, 0.23964754410357225];[0.03475768149810016, -1.0, -1.0]
[0.7091696971767034, 0.07625345905741349, 0.08420464487446394];[-1.0, 0.01857401818179647, 0.05731796908315491];[0.015194321813266132, -1.0, -1.0]
[0.9976305465216679, -1.0, -1.0];[-1.0, -1.0, -1.0];[-0.9913981183753385, -1.0, -1.0]
[0.006119499522094169, 0.011834063706126031, -1.0];[-1.0, -1.0, 0.0016319395351817715];[-1.0, 0.0020316018312540153, -0.9014690120381255]
[-1.0, -1.0, -1.0];[-1.0, -1.0, -1.0];[-1.0, -0.6816830991826534, 6.339552202376655E-5]
[0.014742796485292982, 0.010014563904416886, 0.0465061792904105];[-1.0, -1.0, 0.03723268080456087];[0.007129297425881885, 0.010212536685374134, 0.1933618540054891]
[-1.0, -1.0, -0.9729356065152237];[-1.0, -1.0, -1.0];[-0.9071060536846318, 3.310723536482832E-6, -0.6994332065531077]
[-1.0, -1.0, 1.983223268970032E-5];[-1.0, -1.0, -1.0];[9.957032643696885E-6, -1.0, -1.0]
[-0.6861025233861565, -0.6931960177385489, -0.6435519687203594];[-1.0, 0.33282769539111795, -1.0];[-1.0, -0.6889634047535933, -0.6555883054212914]
[0.07265424082584383, 0.027297703377821038, 0.09195387019088502];[0.014396837319277035, 0.9926769101204101, 0.017808486701644245];[0.03354263413628718, 0.09500357788333753, 0.035526670417813336]
[-1.0, -1.0, 0.00654102108404967];[-1.0, 0.0992868972317158, 0.9999998507420573];[0.32396430958380146, -0.6885934568033659, 0.03311135958518784]
[0.008931049035855699, 0.01685493951855475, 0.018409263258915377];[-1.0, 0.02576862344526916, 0.007831231544038043];[0.0249835170644859, -0.11319227068225368, 0.045302718745850776]
[0.01254137433480741, 0.043973331023286856, -1.0];[0.04238685999381534, -0.26499376734524616, -1.0];[0.019035366681020863, -0.6849263052142633, -1.0]
[-1.0, -0.9973348225716543, -1.0];[-1.0, -1.0, -1.0];[-0.9912772253501237, -1.0, -1.0]
[-0.9055374192363126, -0.6771425208781804, 0.024306335941960727];[-1.0, 0.29192861960611016, -1.0];[-0.6819526548386411, 0.008782248292721773, 0.01686707833855158]
[0.06483955879767031, 0.05715691530262891, 0.05414310592380104];[-1.0, 0.31940923585300585, -1.0];[-1.0, -1.0, 0.9749150986214727]
[0.07019367294143701, -1.0, 0.7157422803673885];[-1.0, -1.0, -1.0];[0.04195007859718587, 0.004670242018564408, 0.9999405317969805]
[-1.0, 0.03111316267889657, 0.10845917970527391];[-1.0, 0.23975199286341184, 0.034625834301261885];[-1.0, 0.029110563185585574, 0.12350900855493091]
[-1.0, -0.9004943055402391, 0.0028338699506362365];[-1.0, 0.5089715364113929, 0.02348635218426808];[-1.0, -1.0, 0.02736967335184988]
[-1.0, -1.0, -0.9047114562414381];[-1.0, -0.689282874556413, -1.0];[-1.0, -1.0, -1.0]
[-0.6549404219176775, -0.18425654137386738, 0.04239653403696027];[-1.0, 0.37444611877943695, -1.0];[0.04639947533846358, 0.05122810024938546, 0.014022437052221615]
[0.02484435081918899, 0.001728326118936563, 0.04387054830065031];[0.07153915001747475, 0.9977533466398417, 0.07138191875612555];[0.01622859660688548, 0.033524330429667855, 0.04802988859478209]
[-1.0, 0.002428616684017582, -1.0];[0.021477450131136888, 0.992236961204422, -1.0];[-1.0, 0.005825500947910689, 0.0016614428038097097]
[-0.04587813949102268, -0.01554258897396827, -0.7803600924008657];[-1.0, -1.0, 0.018160219210584496];[-1.0, 0.5995759154244982, -0.960727556403589]
[-0.9087253181145831, 2.6269092941299637E-5, -0.21448124051330708];[-1.0, -1.0, -1.0];[-1.0, -1.0, -0.9031359114130277]
[0.008439103473092503, 0.017317175492125993, 0.09631257020927966];[0.05625231796032363, 0.07388955911161797, 0.024427511137573188];[0.09701120222752775, -1.0, -0.6754579096714711]
[-0.3172490863554156, -0.6912133882031787, -0.9884395408860838];[-1.0, 0.16734878634231187, -0.904865290862437];[-1.0, -0.6553882374865143, -1.0]
[0.030035561680203028, -0.6860445467340804, -1.0];[-1.0, -1.0, -0.581983426494224];[0.021967122808795793, -0.6061523274811343, 0.01490642773223836]
[-0.685008157736505, 0.0144574981230422, 0.02714531189069699];[0.027941280783882107, 0.03250510437201994, 0.005644142861669921];[-0.6851790103385813, -1.0, -1.0]
[-1.0, -1.0, -0.6891330723894571];[-1.0, 1.624242421063212E-4, -1.0];[-1.0, -1.0, -1.0]
[0.06160299280574904, 0.008142283238653581, 0.06022931763144007];[0.07108637946637267, 0.9130170731183695, 0.07174594933573646];[0.008857303702186526, -0.9033354937018124, -0.18330401816912612]
[-1.0, -0.05533609505257725, -0.8580609404036366];[-1.0, -1.0, -0.7152565120136739];[0.3845916069058573, -0.6955749429093011, -0.9351954159285006]
[0.0017507800348160797, 0.00949411260183175, 0.024431616828082016];[-1.0, 0.02711267463230988, -1.0];[0.03495633704104384, 0.03395921456930451, -1.0]
[3.12109007590363E-6, -0.20593778296409743, -0.6813921329366802];[-1.0, -1.0, -1.0];[-1.0, -0.6856434595653262, -1.0]
[-0.9709384504362197, -0.97194656169063, -1.0];[-1.0, -1.0, -1.0];[-1.0, -1.0, -1.0]
[-0.6954273812319561, -0.688330271781469, -0.9045661047112243];[-1.0, -1.0, -1.0];[-1.0, -0.6918754104378833, -1.0]
[-1.0, -0.9052043302878039, -1.0];[-1.0, -1.0, -1.0];[-1.0, 2.0479172924434192E-8, -1.0]
[-0.2664213004461326, 0.021133486999819574, 0.07039291311466073];[-1.0, 0.07876795101181513, 0.04706709301130102];[0.012734399674720932, 0.02166788030853746, 0.06348071287497727]
[0.015923072719311815, -1.0, 0.007820235659204023];[-1.0, 0.04832498663017051, 0.04231124511428357];[0.03631288648590149, 0.05694824078614673, -1.0]
[-1.0, -1.0, -1.0];[0.00694257088926582, -0.5734509627671264, 0.005461179830482745];[0.010076171847890048, 0.005040659555244159, -1.0]
[-1.0, -1.0, -1.0];[-1.0, -1.0, -0.9718564970145814];[-0.9912959619134187, -1.0, -1.0]
[-1.0, -0.692452663812934, -0.9060886483276762];[0.0021276354481479243, -0.7427084302476213, 0.03401733163997299];[0.3383872930573688, -1.0, -0.6832039062739281]
[-1.0, -0.3765537853112915, -1.0];[-1.0, -0.906385341874753, -1.0];[-0.9027486527091719, -1.0, -0.6774597056314849]
[-1.0, 0.9975721472406671, -1.0];[-1.0, -1.0, -1.0];[-0.6903339131920659, -1.0, -1.0]
[0.05722064750386975, 0.021987515692875118, 0.042933759599588756];[-1.0, 0.046540108895400924, 0.04340539784808261];[0.1867903881264461, -1.0, 0.050339232473401954]
[0.04563455997768196, -1.0, 0.006549962019221145];[0.04857604322829188, 0.0015413120334197062, -0.6815956876103658];[0.027973946395453878, 0.035699871856857836, -0.6832028002005153]
[-1.0, -1.0, -1.0];[-1.0, -1.0, 4.4172704494087703E-13];[-1.0, -1.0, -0.9974627086705867]
[0.4340822983106601, 0.9999983315003199, -1.0];[0.03795603693609648, -1.0, 0.06741564545897945];[-0.6866222466815919, 0.03635973813094441, 0.01023029417682485]
[-1.0, 0.9977022076379309, -1.0];[-1.0, -1.0, -1.0];[-1.0, -1.0, 0.9107304958161861]
[0.03892838643142506, 0.05550883947384532, 0.08351719950308976];[0.04293369429050323, 0.9157461196532013, 0.02981240698154465];[0.0925852247653444, 0.0796886953300525, 0.07129690178031535]
[0.415569609154312, -1.0, 0.034031322514429384];[-1.0, 0.01750397499943157, 0.0647112466390564];[0.9999983928023863, 0.08035702407090044, 0.027732724127533626]
[-1.0, 0.08032225028294687, 0.004838283097204222];[0.03418631453051373, 0.03729233605273518, 0.03686698688970807];[0.00809465262199789, 0.007986876382207297, 0.04095156822304523]
[0.024265473599631215, 0.01492158047707115, 0.030535368330366238];[-1.0, 0.01799922296976849, -1.0];[0.02532242803109156, -1.0, 0.10537163044048692]
[0.01663622725683178, 0.06292846540124945, 0.01772269093455984];[0.0586874729261911, 0.5377984995133469, 0.0113981177576019];[0.0026466631082720073, -1.0, 0.07222790732135374]
[-0.18569343921366943, -0.20377596408731302, -0.80742551472627];[-1.0, -1.0, 0.007160250984213228];[-0.6975225447972585, -1.0, -0.6913421748933142]
[-0.9021005282122208, -1.0, -1.0];[-1.0, -1.0, 0.4702571261146573];[-0.9097693696098222, -1.0, -0.6993633050656238]
[0.0807832112046627, 0.08001408693119788, 0.06413168567347229];[-1.0, -1.0, -1.0];[0.06752271754566236, 0.358370107441216, 0.30291774971829366]
[0.03554776489586248, 0.08966510900461566, 0.9978004494282766];[0.07590723821943426, 0.059412989800773724, 0.004152616795304842];[0.08237564464604344, 0.09402591404412358, 0.04401620774959114]
[0.08523979767225312, -1.0, 0.5978813784351616];[-1.0, 0.039353839569372676, 0.30472790362305197];[0.027804442123017515, 0.19778735295753633, -1.0]
[0.025738360591700926, 0.0502127628081291, 0.04005741826931487];[0.037253907030093736, -1.0, 0.3991110034180668];[0.037239755786469646, 0.015159719735311473, 0.05279634548536452]
[0.9736377034738333, -1.0, -1.0];[-1.0, -1.0, -1.0];[-1.0, -0.6760535467095992, -1.0]
[0.08566282224726468, 0.04356466239286193, 0.0039378859790634825];[-1.0, -1.0, 0.09327229232821146];[0.5638784759714912, -1.0, 0.14705795592779763]
[-1.0, 0.01184747452212273, 0.9999999998854817];[-1.0, -1.0, 0.007571087626166335];[-1.0, -1.0, 0.001674199699044684]
[-1.0, 1.5460461555641611E-6, -1.0];[-1.0, -1.0, -0.9717317134722465];[-1.0, -1.0, -1.0]
[0.028713515675984187, -1.0, 0.01356774301308057];[-1.0, 0.39906774399051165, -1.0];[-1.0, -0.6888600660122183, -1.0]
[-1.0, -1.0, 0.012510456266041005];[0.012662715574614004, 0.9126193092024552, 0.008821197209007392];[-1.0, -0.6839226777631748, -1.0]
[0.0016916739751748344, 0.003823844182586855, -1.0];[-1.0, -1.0, -1.0];[0.0026448370297412075, -1.0, -0.23901840003855745]
[0.15380214634640188, 0.05428276090623037, 0.03220453886178622];[-1.0, -1.0, -0.6316738368985507];[-1.0, 0.22492713931202107, -0.16001359738488719]
[-1.0, -0.5184990034883821, -0.5273338483816453];[-1.0, -1.0, -0.6984423041959377];[0.0014915824983812243, -1.0, -1.0]
[-1.0, 0.041272670874164356, -1.0];[-1.0, 0.03065536314148909, 0.02031738142656532];[0.9999815504537224, 0.033699246567457875, 0.03600154882578795]
[0.5886702968142483, 0.01619453527921344, -1.0];[-1.0, -1.0, -0.6940254760405105];[-1.0, -1.0, 0.029649612397524665]
[4.632396457823708E-4, -1.0, -1.0];[-1.0, -1.0, -1.0];[-1.0, -1.0, -0.9033249880535243]
[-0.6883110653052156, -1.0, -1.0];[0.009472367267335781, 0.5949776117181588, -1.0];[-0.5734209230600331, -0.8462731120817093, -1.0]
[0.019200094483308634, 0.041646358022753044, -0.19401305949804432];[-1.0, -1.0, -0.2740075941759105];[0.3337698678972351, 0.021293621034531064, -1.0]
[0.0028099665332705914, -1.0, 0.11983665283247918];[-1.0, 0.021432469396474196, 0.039754731341677924];[0.04557720500438573, 0.0173353074740462, -1.0]
[-1.0, -1.0, 0.9740896816553278];[-1.0, -1.0, -1.0];[-1.0, 0.009918301710024714, -1.0]
[-1.0, -0.691819417969842, -0.6888663584222827];[-1.0, -1.0, 0.009200143954476096];[-1.0, 0.016067715027917748, -1.0]
[-1.0, -0.06780546840192384, -0.7719501436264437];[-1.0, -0.6944823034530087, -1.0];[0.010689306561316933, -0.6919891222955824, -0.669900074786387]
[0.06911628075762864, 0.05339109967200012, 0.026641709491003186];[0.021356190639075415, 0.0646160037030293, 0.04416387745844607];[-0.2754011277891579, 0.014569795393121377, 0.001515690832213268]
[-1.0, -1.0, -0.6811553447385584];[-1.0, -0.6875842345579178, -1.0];[0.0025891796066536865, -1.0, -0.9706182641336248]
[-1.0, -1.0, -0.6844340525263961];[-1.0, 8.448329222654851E-5, -1.0];[-1.0, -1.0, -1.0]
[0.0414169958631314, -1.0, -1.0];[0.07776190088260229, 0.0070455461323333584, -1.0];[0.09929341596115525, 0.034491929992265004, 0.08446595002782821]
[0.013477113849331979, 0.05426368791618097, 0.004898443956440346];[-1.0, 0.016299449573782827, -1.0];[0.02958329053720358, 0.017206347715704253, -0.6997375402397268]
[-1.0, -0.8711638585173688, 0.9999999999999998];[-1.0, -1.0, -1.0];[0.3171193296416409, -0.6906327397363894, -1.0]
[0.0733464364892402, 0.051475393044211976, 0.030468256154609377];[-1.0, -1.0, -0.6867316688376696];[0.026201243910280628, 0.05922440582942576, 0.9999402679560125]
[-1.0, -1.0, -1.0];[-1.0, -0.7527298871808806, -0.6704198925466414];[0.2707716573605577, -1.0, -0.6952003247436345]
[-0.4006979178494944, 0.014115394558947555, -1.0];[-1.0, 0.002453637107857709, -1.0];[0.005406633337403189, -1.0, -1.0]
[-1.0, -0.6918175400475087, -1.0];[-1.0, 0.9997989608194527, 0.016706977882876808];[0.018824908132303177, -1.0, -1.0]
[-1.0, 0.974548854338328, 0.030065219365695475];[-1.0, 0.04980455234263613, 0.050522431387136996];[0.029272104341785378, 0.0410331730227415, 0.0023722662572555064]
[0.4900178404715868, 0.03198141746320382, 0.025760619520532338];[-1.0, 0.039682040247627774, 0.02953659920426255];[-1.0, 0.03639522151035437, -0.905451196764484]
[-1.0, -1.0, -0.009919749674035513];[-1.0, -0.5654962392546214, 0.020073366170810833];[-0.282912315209061, -0.6090544051519748, -0.9056520096800882]
[-1.0, -1.0, -0.6736909606196518];[-1.0, -0.16351134805302314, -0.682475101245937];[0.008823313318877115, -1.0, 0.028173252660773897]
[-1.0, 0.004518876637909031, -1.0];[-1.0, -0.6936189593799914, -0.2765820936997636];[-0.6897520764070456, -0.673884265949687, -1.0]
[-1.0, -1.0, -0.9408788674666488];[-0.6918427750228584, -1.0, -0.7738116204023797];[-0.9329100108941295, -0.9383982296830423, -0.3075799549680557]
[-1.0, 0.0048436304606692465, -0.6874983187266961];[0.0028819244164633674, -1.0, -1.0];[-0.6806236645536803, -0.902854216543082, -1.0]
[0.4332303474118847, 0.42660222349222154, -1.0];[-1.0, 0.03540043113820882, 0.020407327390818953];[-1.0, 0.020772017489215967, 0.9999999862926795]
[-1.0, 0.012523737527262414, 0.040956864071973735];[0.004767427888725018, 0.02410774085722808, 0.035323669033214];[-1.0, -1.0, 0.9999999542661826]
[0.04057983612901728, 0.06436260942524655, 0.042806223077515276];[-1.0, 0.028363355077260233, 0.05447576438284655];[0.01727774160461959, 0.029162353897648676, -1.0]
[0.04580906147740796, 0.04809578110357413, 0.029723793207897854];[-1.0, 0.9752550074972878, 0.08045782113210717];[-1.0, 0.04144117668663652, 0.003565335575477602]
[0.024409879349119257, 0.974287653656141, 0.004288833625180011];[0.01768136546220267, 0.02148342042071868, -1.0];[-1.0, 0.03521462836321043, -0.6852013382019911]
[0.05908434356970825, 0.04701070884075639, 0.02791926474353499];[0.017958805020491787, 0.05587168834276485, 0.04790174066837453];[-1.0, 0.02531623444259894, 0.053001548427309794]
[0.029148594739696932, 0.042453428015211694, -0.9013040393036174];[-1.0, -1.0, 0.04868435514600187];[-1.0, -0.6850078767483279, 0.01733335220203408]
[-1.0, 0.0034072094419666855, -1.0];[-1.0, -1.0, -1.0];[0.0029313389651881906, -1.0, 0.9118103285957667]
[-0.6853605145272958, -0.6436465958105015, -1.0];[0.0035335157610169366, 0.007885637587404971, -0.6813394477395709];[0.01012710937572039, 0.04376974878816429, -0.6823619460926125]
[0.08304920973618088, 0.044704806216043495, 0.07776955364669486];[0.04898648635404018, 0.0450856199710032, 0.0706201906196522];[0.0273358494028194, 0.010818325748348302, -0.6737701236110019]
[0.005155688166110306, 0.001928395323591181, 0.08278404704616488];[0.0770812522991457, 0.7158996340449758, 0.05496293924951994];[0.010907972820162282, 0.07456120828455508, 0.036774980321811805]
[-1.0, -0.6800865068382409, -1.0];[-0.19975877638652356, -0.567743674529412, 0.02071131197511504];[0.01730923372154123, 0.013554116046639099, 0.018010907452776892]
[0.016831643331550652, -1.0, -1.0];[0.03993007119269185, -0.6753691172013485, 0.0018618135021721605];[0.0015532793395632517, -0.6864863727814565, -1.0]
[0.033372962133117245, 0.034640232683240346, -1.0];[-0.6944945823443055, -0.6913502989459239, -0.6877321918647699];[0.015101367567255398, -0.6900185474872297, -1.0]
[0.99993740924825, 0.005020622877003023, -0.6637257126568064];[-1.0, -1.0, 0.0027556270011960928];[-1.0, -1.0, -1.0]
[0.013344137465191764, 0.001795797121323506, 0.017381123769946362];[0.0027847561601218596, -1.0, -0.6860256041184102];[-1.0, -1.0, 0.0032201297184449307]
[6.448018739387934E-5, -0.670810140424495, -1.0];[-1.0, -1.0, -1.0];[-1.0, -1.0, -1.0]
[-0.9077299508087664, -1.0, -1.0];[-1.0, -0.9034999607577363, -1.0];[-1.0, -1.0, -1.0]
[-1.0, -1.0, -1.0];[-1.0, -1.0, -0.9718302986726506];[-1.0, 4.938347954989453E-6, -1.0]
[0.06674492406089577, -0.6856571131592758, 0.13360572418286043];[-1.0, -0.6916267694546899, 0.07116147839847319];[0.05564124212830425, 0.04141853954393169, -1.0]
[-1.0, 0.015200827308235798, 0.006227142107651085];[0.03441357905617272, 0.017354381248318743, 0.013555974798698127];[-1.0, -1.0, -1.0]
[0.038275409651468965, -1.0, 0.015102079006335214];[-1.0, 0.026790438454274826, 0.01761197834305447];[0.03124300235747586, -1.0, 0.04198596262403423]
[0.06533336653066628, 0.06441532406002362, 3.9251105725648385E-4];[0.06020022555377785, 0.027310476417382802, 0.058325354471447925];[0.031530581956432956, 0.05015776666798785, 0.0416862321472638]
[0.057179682708846095, 0.03947071509656598, -1.0];[-1.0, 0.0610634014239008, 0.03682818683885786];[-1.0, 0.007039567767708942, -1.0]
[0.01121701070157971, 0.09344633912884853, 0.010119594032002866];[0.012415312069273056, 0.9999406688983496, 0.08632498225207608];[0.004482803988390816, 0.013430271604976764, 0.022244500280794922]
[0.04710259970170552, -1.0, 0.014522341829809583];[0.39883962953457675, 0.04827133104452156, 0.9993437276158973];[0.08451106872622435, 0.03348457547029972, 0.07010921316174627]
[0.47378478220612663, -0.6852434621218342, -1.0];[-1.0, -1.0, -0.6975071172094136];[-1.0, -1.0, -0.6747205639728286]
[0.029611150737028125, 0.07605888363151557, 0.04937867812748336];[-1.0, 0.7228233292920131, 0.06657418112010265];[0.012598236959693077, 0.015156881121140798, 0.07406659363521444]
[-1.0, -1.0, -1.0];[0.9999360407112554, -1.0, -1.0];[-1.0, -1.0, 0.012123920434704429]
[0.009396207875701069, 0.027866544074696787, 0.030819869441171956];[-1.0, -0.18924080432295554, -1.0];[-1.0, -0.6742589253158798, 0.31155173194258257]
[-1.0, 0.05297690409801702, 0.37730798271026156];[0.09221625554846946, 0.24506841963652135, -1.0];[0.0585835283999792, 0.04157003120746263, 0.01792946248824745]
[-1.0, -1.0, -1.0];[-1.0, -1.0, 0.09714298950223926];[-1.0, -0.6763028396470467, 0.9975977924906073]
[0.024896704755013346, -1.0, 0.015800687299613037];[-1.0, -0.39363218506436254, -1.0];[0.006890349215141567, -1.0, -1.0]
[1.2777025507092904E-8, -1.0, -1.0];[-1.0, -1.0, -1.0];[-0.9708991398125477, -1.0, -1.0]
[-1.0, 0.009822404220546378, -1.0];[-0.8568966240593788, 0.5999199057006342, 0.059476637260847724];[-0.6806896603078794, -1.0, 0.03835854723181799]
[-0.6873457814262923, -1.0, -0.9056887539066603];[-0.9712137471518982, -1.0, -1.0];[-0.6893369857032008, 0.11685421993110906, -0.5386670320637095]
[0.0485694089946345, 0.052572078284207284, 0.0787832828684077];[0.07921070579878622, 0.028263281715920043, 0.010901219554984532];[0.035374746155256286, -0.27649985686371537, 0.01293051906051601]
[-1.0, -1.0, -0.9914749340246335];[0.006227264711515235, -1.0, -1.0];[-1.0, -0.6950462727411615, -1.0]
[0.08281080182017565, -1.0, 0.035162460603133765];[0.07153820956075356, -1.0, -1.0];[0.0830349213238028, 0.013797670001113718, -0.9011654135928575]
[-1.0, -1.0, -0.06966872318818784];[0.010663429389074342, 0.1778664348545282, 0.030227781760118762];[0.020467247967556106, 0.010631898890175875, 0.45591569251446956]
[0.03377722686677325, 0.026914810197486694, 0.018628138733487853];[-1.0, -1.0, -0.12087750572865097];[0.9993197659716656, 0.04302795858799134, -1.0]
[0.04663690821920085, -1.0, -1.0];[-1.0, 0.08412904447404258, -1.0];[0.9977437767442212, 0.015963738969964426, 0.08685777752756818]
[-1.0, 0.08141217358936982, 0.04356553961038854];[0.06307534631184873, 0.0717017838026623, 0.9999982801112194];[0.014444734461100318, 0.0640077269551025, 0.08430199213460572]
[-0.6901527069041935, 0.012983950111484144, -1.0];[-1.0, 0.38496853515500373, 0.04015891705378823];[-1.0, -0.6884534965864753, 0.01464257737607293]
[0.31931192873668224, -1.0, 0.058297648322849366];[0.9999982626942175, 0.05076952177030807, 0.0540609259513883];[0.013904629316909906, 0.009459630029032873, 0.05571659237300789]
[0.02538609787573284, -1.0, 0.5999485465665744];[0.009940216926353707, 0.026796183295919897, 0.04515367709619648];[0.04687529591014622, -1.0, 0.06824796447790989]
[0.00954585198683345, -1.0, -1.0];[-1.0, 0.015508190164372472, 0.007960403321310636];[0.006749668378048113, -1.0, -1.0]
[0.040776852698546744, -1.0, 0.04085173445705357];[0.04307253673571655, 0.0582505712909743, 0.023690932029063416];[0.05629727942122297, 0.05605343544370213, -0.21429843301155388]
[0.02340932183472555, -1.0, 0.04090947222292272];[0.9157239144434961, 0.02929631001444143, -1.0];[0.04330721064162335, 0.06059504325781179, 0.003670544515245988]
[0.006432980745775763, 0.03710237869072126, -1.0];[0.08017172227306629, 0.43637954146734087, 0.059406542200313564];[0.03887565761674431, 0.02116807168145741, 0.598998388286916]
[-1.0, -1.0, 0.04385126294968701];[0.05077937644316358, 0.007120605375850297, 0.0281198533627549];[0.3205590158642796, 0.047800596595360186, 0.009656882959136038]
[-1.0, 5.8795233591302234E-5, -1.0];[0.037094716320140456, 0.03437194912975716, 0.043226043239041716];[0.03135200288156737, 0.008291402646270906, 0.03352988659668246]
[-1.0, -1.0, -1.0];[-0.6704997214909963, 0.9741241138707935, 0.03451723320847373];[0.004688754747494229, 0.036369911524506526, 0.0131347165145845]
[0.0481130697158081, 0.06710056397984225, 0.06188979488552914];[0.7263301307665229, 0.04189107652822972, 0.06968732699831677];[0.007538962754766277, -1.0, 0.02523931693350765]
[-1.0, -1.0, 0.06226390604030453];[0.026865299507055143, 0.04339943414448049, -1.0];[0.9748027341514539, -1.0, 0.02234674862326831]
[-1.0, -1.0, 0.007077055299738056];[0.06238694763946128, 0.5074203673069106, 0.011016110918258305];[0.024294466965234376, 0.006111941237780239, 0.05226069542024741]
[-1.0, -1.0, -0.6825077960333749];[0.12831407338835465, -1.0, -1.0];[-0.5244218099328711, -1.0, -0.5390913026615601]
[-1.0, -1.0, -1.0];[1.5725104189707964E-9, -1.0, -1.0];[-1.0, -1.0, -0.6943180165041642]
[-1.0, -1.0, -1.0];[0.7102721889125406, -0.9017454238546619, 0.01169471943242071];[-1.0, -0.6718784512190445, -1.0]
[0.07275559235022976, 0.061981695519625735, -0.6750260939267695];[0.06745531522200289, 0.04096292134720453, -0.6703151235302973];[0.08292659196182546, 0.03875089035725955, 0.034950887801144324]
[0.0026763704950439338, 0.03565475294858147, 0.9999408908824451];[-0.698930119905832, -1.0, -1.0];[0.009089279611468815, -0.5388931085070193, -1.0]
[-1.0, -1.0, 0.05396984964664355];[-0.9030911004759357, -1.0, 0.0563215738037956];[0.9999999864846495, -1.0, -1.0]
[-1.0, -1.0, -1.0];[0.0016495083839783505, -1.0, 0.999999995782724];[-1.0, -1.0, -1.0]
[-0.6031358935431261, -1.0, 0.010090229038764064];[-1.0, -1.0, -0.9062302310497884];[-0.6244741072508027, 0.03310149974021144, -0.686030192977033]
[0.9920418400389716, -1.0, 0.011633705805832829];[-1.0, -1.0, -0.9060615446942282];[-1.0, -0.6935968766853641, -0.6894436409973745]
[0.9993056394536685, -1.0, -1.0];[-1.0, 0.025383216672168953, 0.020172630348418097];[0.0138276015479051, 0.006241430170955065, -1.0]
[0.02785248761691622, 0.01575389188791685, 0.039995550829480336];[-1.0, 0.046348545745332016, 0.034531116933223804];[-1.0, 0.024586650193408766, 0.010962493680723795]
[-0.692373569166762, -1.0, -1.0];[0.02141304953364298, 0.023248295591515145, -0.6853027155006027];[-1.0, -1.0, 0.017415097488031606]
[-1.0, -1.0, -1.0];[-1.0, 0.9977958746004322, 9.944805591491467E-4];[-1.0, -1.0, 0.7201167952902774]
[-0.6993544134747238, -1.0, -1.0];[-1.0, -1.0, -0.6721808502428721];[-0.6974504841453708, -0.6992823151638223, -1.0]
[0.03135598509500942, 0.02489614856722824, -1.0];[-1.0, 0.04684676547916105, 0.029912078723475954];[0.911645150891764, 0.049308282271107166, -0.6839293393789608]
[0.52981861477262, 0.06818920773044337, -1.0];[0.035466981356718975, -1.0, -0.6983679648799767];[0.0206742451910381, 0.9997872392658058, -1.0]
[-1.0, 0.010776643085436279, -1.0];[-1.0, 0.41950349889856614, 0.01193475054498126];[-1.0, 0.0092420607926098, 0.04421193752859287]
[-1.0, 0.010294433501213585, -1.0];[-1.0, 0.0023873053609914383, -1.0];[-1.0, -1.0, 0.003781976157567434]
[-1.0, -1.0, -1.0];[-1.0, 0.0015231017476111468, -1.0];[-0.6711567694015586, -1.0, -1.0]
[-0.6834841140194409, 0.04008333253042348, 0.04608369266025413];[0.04212666991193469, -0.677491539988431, -0.9043806498760326];[-1.0, 0.03356805814086894, 0.032581559872023706]
[-1.0, 0.018914580307668995, 0.03626766984594529];[0.008844393605612367, 0.016990991709662274, -1.0];[0.01571660602934254, -1.0, 0.017756493027561302]
[0.048837333974509727, 0.003036332640644557, 0.04983250224527575];[0.02749382149929701, 0.0718650571274345, 0.004318616614000037];[0.01721713753887615, 0.037265276467989064, 0.06793923443552718]
[-1.0, -1.0, -1.0];[-0.6822377474541476, 0.9128665764852739, -1.0];[0.02719553971064037, 0.030247779077514893, -1.0]
[0.015665386655862434, -0.9048044607327933, 0.003658255482131734];[0.0647044248589035, -1.0, 0.03414064622965456];[-1.0, -1.0, 0.9999945653673494]
[-1.0, -0.9716168864860311, -1.0];[-1.0, 0.027772282840754305, -1.0];[0.00294549738838803, -1.0, 0.9999367861462326]
[-1.0, -1.0, -0.9033318949952467];[-1.0, -1.0, -1.0];[-1.0, -1.0, -0.6969022096185946]
[-1.0, -0.2194917215039696, 0.0013305612984473732];[-0.061369117723586386, -1.0, -0.2704198924128144];[0.1788767084111335, -0.5008975878107802, -1.0]
[-1.0, -1.0, -0.6560876788584517];[-0.903138767968831, -1.0, -0.6968245302350634];[-1.0, 0.9999999999665563, -1.0]
[-1.0, 0.42043166675138877, -1.0];[0.07347523245406876, -1.0, 0.48319134379556195];[-1.0, 0.9999999999999925, -1.0]
[0.050115883316655924, -1.0, 0.007821168607783924];[0.047574510199528054, -1.0, 0.015149706361382055];[-1.0, 0.9999815923975968, -1.0]
[0.029392892288235162, 0.04228778156993905, 0.012361450733437685];[0.04090471947268114, 0.04019380709585699, -1.0];[0.09958744107211995, 0.024515079709478256, 0.020364224414290834]
[-1.0, 0.003416215945855572, -1.0];[0.035345406325234266, -0.6973378201830713, 0.03459823811733688];[0.025609377869451957, 0.9135681531186238, -1.0]
[-1.0, -1.0, -1.0];[-1.0, -0.687307631499892, -0.6830188135850382];[0.017520798725116523, 0.0066992487052084165, -1.0]
[0.010731367616874954, -1.0, -1.0];[-1.0, 0.04564583397699924, -1.0];[0.027597680069507215, 0.9993103915607243, -1.0]
[-1.0, -1.0, -1.0];[-0.6908316589559556, -1.0, -0.6946798520719134];[0.4347078655288743, -0.6841727976131531, -1.0]
[-1.0, -1.0, -1.0];[-0.9033463787435331, -1.0, -1.0];[1.2047520235735139E-7, -1.0, -1.0]
[-1.0, -1.0, -1.0];[-0.9712317117674245, -1.0, -1.0];[-0.696394837569271, -0.908634004195772, -0.6984418939456831]
[3.592067704147883E-5, -0.9036753376036294, -0.6844362463952521];[-0.6076028337535802, 0.022690426461498794, -1.0];[0.02485025187398712, 0.024815608682564737, -1.0]
[0.014278051728603925, -1.0, -0.6796317272498571];[-0.6733577341802186, 0.0019262034447975363, 0.03147566422484315];[0.060919998212189796, -1.0, -1.0]
[-1.0, -1.0, -1.0];[-1.0, -0.9093758260071578, -1.0];[-0.9705445565057631, -1.0, -1.0]
[-1.0, -1.0, -1.0];[0.38652324689981854, 0.5995160870490863, -1.0];[-0.676287797065776, -0.49616193915901297, -1.0]
[-1.0, -0.7323341237201808, -0.8981699916999681];[-0.7140252362831478, -1.0, -1.0];[-0.9338056080573525, -0.9098418109788012, 0.5187053684747851]
[-1.0, -0.9059877330950227, 0.21007840602120387];[-1.0, -1.0, -1.0];[-1.0, -0.1938533869853346, 0.5892541738841715]
[0.03500675486527782, 0.0485242472157046, 0.02454926328872058];[0.9999999999672187, 0.037629176914622336, 0.001490439808237254];[0.05278000491518134, -1.0, 0.001689444108314786]
[0.045560418080084576, -0.6744348765408132, 0.02264954437032576];[0.9999374147070923, 0.0051336720260021125, 2.4567362677266894E-4];[-1.0, 0.019965172250641997, -0.6718047757225981]
[0.06820573464365703, 0.032573532143660024, 0.05848109339809852];[0.017245764696180676, 0.7262113465859348, 0.043882674629876176];[0.07647599025487681, 0.01512146759878773, 0.010614711051141468]
[0.016714731538009998, 0.03395522033980174, 0.015736063701019886];[-1.0, 0.9739490668766464, -1.0];[-1.0, -0.680224500435362, -0.6747569764859975]
[-1.0, -0.6730891708193694, -1.0];[-1.0, 0.7173386073496063, 0.039885781378917566];[0.007195834755795627, 0.028322320700898285, 0.01850444097568027]
[-1.0, 0.022228720872535992, -0.6874273763928948];[-1.0, 0.9132002549934145, 0.002858010255030552];[-1.0, 0.03568397128467141, -1.0]
[0.055968795180915715, 0.012502964361575043, 0.712214743002806];[0.07638085021140267, 0.9925457200751785, 0.03112754933137121];[0.027542096535513396, 0.04124018021355874, 0.0065232412893652895]
[0.00208372656287501, 0.02985397532272744, 0.020763160075870847];[0.03746803802788084, 0.013452444325565882, 0.02893676835988881];[0.35153762491247786, 0.03363563130152628, 0.02956372914376363]
[-1.0, 0.0021853158903953453, -1.0];[0.03604297062376291, -0.2677599693824695, 0.002210415968065127];[0.04148167216266927, -0.6857889267931286, 0.0068494231164839565]
[-1.0, -1.0, -1.0];[-1.0, -1.0, -1.0];[-1.0, -0.671847821507357, 6.998810505516818E-9]
[-1.0, 0.022555388968656054, 0.024382016642946293];[-1.0, 0.9735477643951468, -1.0];[-1.0, 0.999998275409064, -1.0]
[-1.0, -0.934426007245476, -1.0];[-1.0, -0.8987424338500093, -0.8998891899769317];[0.2240277714148195, -0.9069813335694742, -0.9903818389791823]
[0.012415814655773662, 0.030007999393712383, -1.0];[-1.0, -0.6572671616814718, 0.0339807291918436];[0.037984519944975356, 0.04165039157045229, 0.974457920979604]
[-1.0, -1.0, -1.0];[-1.0, 0.9999808442504664, -1.0];[-1.0, -1.0, 0.009153657292048567]
[-1.0, -0.9017844894354936, -1.0];[-0.9235876966888845, -1.0, -0.9912728740594712];[-0.44357446843179393, -0.8902452287990017, 0.1683445070001588]
[-1.0, -1.0, -1.0];[-1.0, -1.0, -0.6766731020602095];[-1.0, -1.0, 1.8710883405276865E-6]
[-1.0, -0.18619737276916093, -1.0];[-0.6959850543527443, -1.0, -1.0];[-1.0, -0.6954935535520551, -0.9600613754292364]
[0.07288300183962114, 0.023000625948776044, 0.03001968773453271];[0.028302876313483685, 0.722558488537666, 0.07202078691829775];[0.006444559241349546, 0.023873053568783376, -0.6718781885133875]
[0.06409166040035955, -1.0, 0.012942047095529086];[-1.0, -1.0, 0.01975282406595106];[0.9999983855920641, -0.684912242038368, 0.07842703931999669]
[0.033645942468060776, 0.035757075988249565, 0.07828689397011301];[0.08882056288250104, 0.03510276803387043, 0.019480495700815715];[0.09308236944335507, 0.04814960761271593, 0.09106255147947007]
[0.034558068592652105, 0.040631813279220046, 0.028832707297764472];[0.051732702078410846, 0.03415318659429078, -1.0];[-1.0, 0.9977701048783104, -1.0]
[-1.0, 0.02368072365694607, -1.0];[0.24184433164395314, -0.18166354235864374, -0.07015086481971522];[0.28577146239005313, 0.048923056186522464, 0.009976180185452377]
[-1.0, 0.006079276911857102, 0.08283590847600256];[0.01149467034094669, -1.0, 0.004571345255373049];[0.059670610761638834, -1.0, 0.99979525202912]
[-1.0, -0.6727590029168684, -1.0];[-1.0, -1.0, -1.0];[-1.0, -1.0, 0.9999999537250254]
[-1.0, -0.9805156137060476, -1.0];[-1.0, -1.0, 0.5572562137952652];[-1.0, -0.9908606768174167, -0.9973344634717421]
[-1.0, 0.03998533121039535, -1.0];[-1.0, -1.0, -1.0];[-0.9033920485587605, -0.970860369259318, 0.9999999862933451]
[0.06280721749975197, 0.3313050706587555, 0.07555774399514707];[0.03184884239459512, 0.07628276086284647, 0.06066885006755969];[0.07964033078878321, 0.06492931337566864, 0.010868845990990961]
[-1.0, -1.0, -1.0];[-1.0, 0.006456731635973625, -1.0];[-0.6958686990767946, -1.0, -1.0]
[-1.0, 0.026541480222583645, 0.04420952909276643];[-1.0, 0.1809937299559582, 0.999788565959898];[0.418572726427221, -1.0, -1.0]
[-1.0, -0.6705941387141587, -1.0];[-1.0, -1.0, -1.0];[0.9999995115071247, -1.0, 0.05066596500903323]
[-1.0, -0.6916043526721605, -1.0];[-1.0, -1.0, -0.3697363659116416];[-0.6857024850518807, -0.6884682673692746, -1.0]
[-1.0, -0.6993510620807536, -1.0];[-0.6981692328415184, -1.0, -0.9069170275825069];[-1.0, -1.0, -0.9087673945669095]
[-1.0, -0.6820029348249742, -1.0];[0.019549985881808125, 0.022465347032874918, -1.0];[0.03131740675756011, -1.0, 0.0181703476963512]
[0.010988707751607318, 0.03330233387312992, 0.04871517483557184];[-1.0, 0.012862923234507684, -0.677443591424715];[-1.0, 0.04413912561980789, 0.03950870484329499]
[-1.0, 0.006610879932395975, 0.013147584495183485];[-1.0, 0.9743487154447341, 0.01592202345359314];[-1.0, -1.0, 0.025188433408841915]
[0.00610640308132997, -0.6807578460885942, 0.021054790207587805];[0.03729123286374197, -1.0, -0.6890523776354497];[0.006541988826426204, 0.029074673888315035, 0.039582240704776187]
[0.026002340806161074, 0.03275946672685365, 0.02680093919022354];[-1.0, 0.9130474578532284, -1.0];[0.028579518997851328, 0.007915868180672903, -1.0]
[-1.0, -0.9045739816228833, -1.0];[-1.0, 0.1774548910614152, -0.7516311064629153];[-1.0, -0.9918473506601599, -1.0]
[-1.0, -0.2918574535513274, -1.0];[-1.0, -1.0, -1.0];[-0.26675284156624385, -0.6760731949527077, 1.3647022898765215E-9]
[-1.0, -0.9063695619142681, -0.9016073659585012];[-1.0, -1.0, -0.693729892613788];[-1.0, -1.0, -0.7175973041836189]
[-1.0, -0.9716709781459321, -0.27259992685810563];[0.0012107209149858108, -1.0, -1.0];[0.9992732752308942, -1.0, -1.0]
[-1.0, 0.035811040755806614, 0.009916968191321242];[0.006269377763496464, 0.04797907792869125, 0.045297468587166025];[0.9977443555811619, 0.0037231446142316884, 0.0268345642282696]
[0.017506346032623767, 0.00588071131243525, 0.08227503063287543];[-0.6744713754870172, 0.04992373927714865, 0.07946455104499044];[0.0187407200836477, 0.023574455024311516, 0.07868355006837913]
[-1.0, -1.0, -0.6911668628375008];[-1.0, -1.0, -0.6877892291697875];[0.006353753165061732, -1.0, -0.20671355667939034]
[-1.0, -1.0, -1.0];[-1.0, -1.0, 2.0561875630008183E-10];[-1.0, -1.0, 7.201774145048272E-11]
[0.032112147024026795, 0.019204645702435786, 0.009388814757601938];[-1.0, 0.0413356505564821, -1.0];[-1.0, -0.684105038358718, -0.6895160695194756]
[0.04360789226496556, -1.0, 0.08151203417596907];[-1.0, 0.0144205133676517, -1.0];[-1.0, -1.0, 0.997641987644616]
[0.05984668853143037, 0.03323624849306503, 0.4971369098617358];[-1.0, 0.163770190566709, 0.009244503649609248];[0.05720918660565523, 0.21535349822147073, -1.0]
[-1.0, -0.6663479912568564, -0.16561198801026955];[-1.0, -1.0, 8.279649655902269E-6];[-1.0, -0.6852848244335532, -1.0]
[-1.0, -1.0, -0.9716035236967056];[-1.0, -1.0, 2.0426652509312197E-9];[-1.0, -1.0, -1.0]
[-1.0, -1.0, -0.22068388715938558];[-1.0, 0.008821566643404688, 0.014883375754653962];[0.031088953650694785, -1.0, 0.015817810870780893]
[-1.0, -1.0, -1.0];[-1.0, 0.9975951799959526, -0.694394294816323];[-1.0, 0.0012329503199391856, -1.0]
[-1.0, 0.012417332858322472, -1.0];[-1.0, 0.011049518297560044, 0.021922579896492635];[-1.0, 0.009203129671390621, 0.4748267103193745]
[0.03846327302283071, 0.026211386342497908, -1.0];[-1.0, 0.03235084581124216, 0.02464157495970779];[0.0149670898599241, 0.32933060101052625, 0.5658026073853502]
[0.02126671338556582, 0.09145396016894516, 0.001127160659793114];[0.09127094624065481, 0.08912378008467532, 0.05827451566897181];[0.02153049932378657, -0.6705880224534732, 0.02012595736841255]
[0.9977665185346006, 0.0193456168875087, 0.0014551870463583305];[-1.0, -1.0, -1.0];[0.04818037257306852, 0.04768735777232894, 0.08081828224609498]
[0.09577388283557539, -1.0, 0.060180771108186266];[0.014761876129593588, 0.05291642972449293, -1.0];[0.055437162820039326, 0.007559917434109387, -1.0]
