[0.03503989476108376, 0.08931075783573889, 0.06558172336799582];[0.03324462414019571, 0.053946739277716996, 0.002470111661378516];[0.03714925195585372, 0.06802480648514232, 0.008136175235757104]
[0.054473926314454205, -1.0, 0.12235271954756438];[0.07416691410891267, 0.3078376359515058, -0.039126602577428365];[0.035121786142509825, 0.09600464062654784, 0.007978548734079945]
[0.25827500880562404, -1.0, -1.0];[0.011933651922276335, -0.6840434893508592, 0.028954396751662483];[-0.6792702770197111, -0.6864986161645605, -0.6908167645507098]
[0.05731326070194716, 0.02471913798983186, 0.04017533243285313];[-0.006956048963162431, 0.24683535080748673, -0.16234870795134532];[0.078282678840089, -1.0, 0.06946184910703421]
[-1.0, 0.016091327644372763, 0.022191277247593698];[-0.07383013129067034, 0.022430876320767207, 0.01837089788356818];[-1.0, 0.003048110448256125, -0.3718344854374034]
[0.009325892785428192, -0.6719651431312295, -0.6784137348626657];[-1.0, 0.3137952127632633, -0.6880356963719677];[0.006706620614564885, 0.0373899428360426, -1.0]
[-1.0, -1.0, -0.691979863524367];[-1.0, 0.7039748289674757, -1.0];[-1.0, -1.0, -1.0]
[0.04671384718661341, 0.014824240106823743, -1.0];[-0.009872797708737863, 0.21999293251066374, -0.14105551397017507];[0.08145683927753883, 0.027133482139349165, -0.014364828305975144]
[-0.870292406896003, -0.46799017497934686, -1.0];[-0.897782666808331, -1.0, -0.9999363482812469];[0.4327869568335818, -0.5540230955358847, -1.0]
[-1.0, -1.0, -1.0];[-0.9997543603560662, -1.0, -0.9916448528703621];[-0.9914381088360625, -0.6631546824347476, -1.0]
[-1.0, -0.2665326453912421, -0.1989037374884341];[0.3555296016619478, -1.0, 0.006242145828617535];[0.003018533697386052, -1.0, 0.005540739846502666]
[-1.0, 1.2474970802845575E-4, -1.0];[-0.6741790782935788, -1.0, -0.6714168941027082];[-0.698227668614535, -1.0, -1.0]
[-1.0, -1.0, -1.0];[2.424451246207714E-5, -1.0, -1.0];[5.286114747136922E-6, -1.0, -1.0]
[-1.0, 0.014427840594830578, 0.007182590036593284];[0.04650248038288918, 0.23763907792461259, 0.06029311451650231];[0.262276025045087, 0.058801749300982364, 0.19671497624392476]
[-1.0, -1.0, -1.0];[-1.0, -0.5736854085648366, -1.0];[0.002260807873204857, -0.2790678306598068, -0.6960473734092513]
[-1.0, -1.0, -1.0];[-1.0, 6.972639363184607E-5, -1.0];[-1.0, -0.6888490490485502, -1.0]
[-0.6281231288949056, -0.9060160932574918, -1.0];[-0.18678947936389534, 0.002989017793566773, -0.19033997712808964];[-1.0, -1.0, 0.51768113690441]
[3.785015664717784E-4, 0.016472598991499124, -1.0];[0.02640694760246729, 0.16512544811634194, -1.0];[0.02223441971550996, -1.0, -1.0]
[0.9999999858275848, -0.6981479872954874, -1.0];[-1.0, -1.0, -1.0];[-1.0, -1.0, -1.0]
[-0.6850568903966113, -0.6810678641131853, -0.6789141131696491];[-0.1732680012880483, 2.926395276500071E-4, -0.5875440585883046];[0.318947756648307, 0.014760609022472239, -1.0]
[0.07884126658866684, 0.059884933643151575, 0.06993846278072387];[0.09691705899193799, 0.005696756724812325, 0.08146702926981554];[0.9127248278239976, 0.061427393411556334, -1.0]
[0.006949234274360583, 0.021626064726409135, -1.0];[0.04094920190590353, 0.04548944229058392, 0.05394196752405367];[0.5748813233989387, -1.0, 0.05932180368335604]
[-1.0, -0.4901788190888937, -1.0];[-1.0, -1.0, 0.014816603986546155];[0.011586026819841309, -1.0, 0.9999808714495297]
[-1.0, -0.902375843749655, -1.0];[-1.0, -1.0, -1.0];[-1.0, -1.0, 0.9999944874088978]
[-0.5321415343376776, 0.46442171947207517, -1.0];[-0.7708802577532506, -1.0, -0.6288926598623283];[-0.9967936118668879, -1.0, 0.12027522569805238]
[-1.0, 1.0, -1.0];[-0.9669641542001663, -1.0, -0.9999999772645494];[-1.0, -1.0, 0.49835822216588865]
[-0.8981807936164516, -0.9913171988347056, -0.022534570197600856];[-0.8864366200591896, -1.0, -0.8569212357343697];[-1.0, -1.0, 0.48192469620139816]
[-0.6953291998607394, 0.0025779889380951994, -0.9055823596731862];[-1.0, -1.0, -1.0];[-1.0, -1.0, 0.4241086163033383]
[-1.0, 2.715590265532766E-19, 2.6101975038102327E-18];[-1.0, -1.0, -1.0];[-1.0, -1.0, -1.0]
[0.11436767909875772, 0.03778229321503479, 0.26593348867148736];[0.029587265235645994, -1.0, -1.0];[0.04546339158900897, -1.0, 0.36637989078645455]
[0.006203657660698048, 0.43203125080982663, 0.9736080729460541];[0.021251307526807803, -1.0, 0.019978263929299234];[0.020329849538118585, -1.0, -1.0]
[0.008829818572580984, -1.0, 0.999784823722044];[0.008457988431562369, 0.005920286589466428, -1.0];[-1.0, 0.009826097056910699, -1.0]
[-0.9999993426064342, -1.0, -1.0];[-0.726799256229063, -1.0, -0.725280672512758];[4.676933336029963E-159, -1.0, -1.0]
[0.024074140380155387, -1.0, 0.023501665647302983];[-1.0, 0.03038283560288796, 0.022474570907269384];[0.033142005803342735, 0.007937861128394664, 0.2813373106382834]
[-1.0, 0.018050048990221425, 0.03370165194884548];[0.04357049329939492, 0.004005448679120678, 0.010009795751345363];[-1.0, 0.5976574450996399, 0.01761878451472625]
[0.014821186324336622, 0.014593802366903953, 0.03178459510545761];[0.07059476999550045, 0.04957079570402874, 0.02279445059527946];[0.055476676067151745, 0.06104028889440736, 0.999940418442501]
[0.23841759414281463, 0.010070059242601116, 0.03333472537637318];[-0.683654221574231, -0.6732871429889347, -0.6938422882503608];[0.16330481736250424, -1.0, -0.6363052860696349]
[0.4421709115783312, 0.051567663739800235, 0.029778496718719495];[0.07345877711324175, -0.6961280813482071, 0.0699595806367679];[-0.6712001280815089, 0.06010103241368625, 0.06948515741117127]
[0.057347092576594316, 0.056351405609789684, -1.0];[0.05749059341117303, 0.04223838910647576, 0.03517568562421032];[0.057140108411018437, 0.056769850518487965, 0.1241952638679194]
[-0.9918224086030417, 0.2113122377492641, -1.0];[-1.0, -1.0, -0.6908183653311325];[1.0, -1.0, -1.0]
[0.5686754146749567, -1.0, -1.0];[-0.9957396064266061, -1.0, -0.22130093781879467];[-0.641796544192766, -0.19276058195637769, -0.9728080787587835]
[0.5994184216559297, -1.0, -1.0];[-0.9718476637907383, -1.0, -0.17534118001690002];[-1.0, -1.0, 0.02035577121428757]
[0.9997837131391317, -1.0, -1.0];[-0.6975539824776081, -1.0, -1.0];[-1.0, -1.0, -1.0]
[0.020790165178465648, 0.027864355980184385, -1.0];[0.03963036803335436, -0.6835923142043068, 0.03882325819334237];[0.007784444140755487, -1.0, 0.03454436695609494]
[-1.0, -1.0, 0.010454344705764007];[0.004093236444338433, 0.9920419457103384, -1.0];[0.011915974728074197, -1.0, -1.0]
[-0.9352534845317457, -1.0, -1.0];[-0.9500105869911303, -1.0, -0.6850583765210302];[-0.8628778714341736, 0.006805999294739622, -0.6088443951693698]
[-1.0, -1.0, -1.0];[-0.0843253171638626, -1.0, -0.9697531647948169];[-0.9898660413571564, -1.0, 0.6]
[-1.0, -1.0, -1.0];[-1.0, -1.0, 0.9992783740591661];[1.0, -1.0, -1.0]
[0.03928986479665496, -1.0, 0.05264285927108493];[0.22247392254893972, -1.0, 0.08411139583383073];[-0.1825390939573902, 0.11217259526227008, -1.0]
[-0.6985258455368648, -1.0, -1.0];[-0.9013297140252662, -1.0, 0.2257297653992395];[-0.6817117771946606, -1.0, -1.0]
[-0.989745928962767, -1.0, -1.0];[-0.9914616385430155, 0.36148094970542266, 0.2355707984775364];[0.09091714510872251, -1.0, 0.04519054372199416]
[-1.0, -1.0, 0.020627621945840547];[-1.0, 0.5992377343998572, 0.05032271382850722];[-0.9021839204429287, -1.0, -0.5698430586112584]
[-1.0, -1.0, -1.0];[-1.0, 0.9106962811570328, 0.999999995996295];[-1.0, -1.0, -1.0]
[-1.0, -1.0, 0.26923342428162034];[-0.7502610609392748, -0.6912673687109872, -0.6924736635716888];[-0.624694606229202, -1.0, -0.9063933928420616]
[0.01700324765530996, -1.0, -0.37411942866576514];[-0.6898770422287646, -0.49849584970555394, -1.0];[-0.6834445889484262, -1.0, -1.0]
[-1.0, -1.0, -0.9997596546118654];[-1.0, -1.0, -1.0];[-0.9918822654325801, -1.0, -1.0]
[0.40506277217034464, -1.0, 0.32879408398316845];[0.5280911710017663, -1.0, 0.41494042593344516];[0.35912742336783915, -1.0, 0.38015452686309337]
[-1.0, -1.0, 0.5999999066811417];[0.42457414557129797, 0.0450040043579141, -0.6036271551144312];[-0.6886697073407745, -1.0, -1.0]
[0.02233752957710261, -1.0, 0.9999998537978042];[0.9155686262777536, -1.0, -1.0];[-1.0, -1.0, -1.0]
[0.5828914568223965, -1.0, 0.17782271552611795];[0.031179888249142224, -1.0, -1.0];[-0.26818022811544, 0.21200959087206384, 0.01935548823791263]
[-1.0, -1.0, 0.5999954258796255];[0.02640762627358947, 0.012982559390642946, -1.0];[0.006037529958666166, 0.024479623316533083, 0.001997491268699503]
[-1.0, -1.0, -1.0];[-1.0, -1.0, -1.0];[-1.0, 5.0968578460811644E-5, 0.9999999999999925]
[0.04952046524494244, -1.0, 0.19920964938138558];[-1.0, -1.0, -0.47243706679480535];[0.019799137273526494, -0.33258841693045704, -0.258685557824023]
[-1.0, -1.0, -1.0];[-1.0, -1.0, 0.008629749634265339];[0.007340383679204875, 0.16073537281808448, 1.0]
[0.031160294519488735, -1.0, -0.006186394265695061];[0.008955741088197444, 0.24707902425843717, 0.18323585687288627];[-1.0, 0.06888967541227695, 0.02627722641863499]
[-1.0, 0.03896846978893681, -0.675484911932543];[0.053340610560444014, 0.04305878567446622, 0.020166535451761586];[0.016078626838743625, 0.03632411900144269, 0.04475302966709247]
[-1.0, -1.0, -1.0];[-1.0, 2.0620926718108097E-4, -1.0];[-1.0, -1.0, -0.6863589959797385]
[-0.6805480942487576, 0.014757339106326463, 0.06300466086112419];[-1.0, 0.004236552026144947, 0.028631619306883474];[-1.0, 0.013750576597735598, -0.6735658763564363]
[0.21801370890698146, -1.0, -1.0];[-0.21776630342520198, 0.003293061333687273, -0.21333109011101523];[-0.04430032677055323, 0.042853123615192855, -1.0]
[0.15333805264981326, 0.020078788640321168, 0.0017871714210633606];[-1.0, 0.01733768901637569, 0.030792418181995664];[0.014346188808470862, 0.016146475772612332, -1.0]
[6.717324718945176E-4, -1.0, -1.0];[-1.0, 8.003566764787724E-4, -1.0];[-1.0, -1.0, -1.0]
[0.010747070918851352, -0.11850167304191826, 0.008386798685945059];[0.006472887060749971, -1.0, 0.008697923016280352];[0.013750006741077346, -0.010912301742100033, 0.2641535017811374]
[-1.0, -0.07390035449783675, -0.9962336153856892];[-0.4565315683002421, -1.0, -0.9914194481356277];[-1.0, -0.5514038046677177, 0.06176746206476543]
[-1.0, -0.9998289951528889, -1.0];[-0.9746882752298109, -1.0, -1.0];[-1.0, -0.987316381653149, -0.26924046369381227]
[-1.0, -1.0, -1.0];[-0.997527052923985, -1.0, -1.0];[-1.0, -1.0, 1.5217681481163774E-30]
[-1.0, -0.11346397222547935, -0.01051732021354515];[0.08678744518921092, 0.1541144422974468, 0.036078128570136106];[-0.18930248962329743, 0.054843577585430264, -0.015354235494690616]
[-1.0, 0.006914806070929369, 0.3596172544281121];[0.022485945072632376, 0.054289347913729386, 0.04953200885189545];[0.04598349350297627, -1.0, 0.029416382522114672]
[-1.0, -0.06222435548325106, -1.0];[0.4282002015668682, -0.688814732568363, 0.9999999987747619];[-1.0, -1.0, -1.0]
[0.03038205118424896, -1.0, 0.011724209303551404];[0.012405703242120238, 0.026529455175897533, 0.9999999999898816];[-1.0, -1.0, -1.0]
[-1.0, 0.3046568777784003, 0.0010858044524415412];[-0.2938450679968784, -0.5651832216423742, -0.9073580705228388];[-0.9050031265718029, -1.0, -0.6832580751097596]
[0.002189482055559089, 0.07272540735244859, 0.07094611196479347];[0.08115694506274967, -0.6733853564603209, -1.0];[-1.0, 0.04455360629579224, 0.04028998563613663]
[-1.0, 0.020651528371231964, 0.01331031814569651];[-1.0, 0.19221384898466637, 0.024772545714675995];[-0.2604829324712314, -1.0, 0.25862176880133697]
[-1.0, -0.6825192086689262, -0.970442560274466];[-1.0, -1.0, 0.9999999999997177];[-1.0, -1.0, 0.1661841698678589]
[-1.0, -1.0, 0.05329187601876011];[0.07732235644824664, 0.00912772974373196, 0.9999999999971086];[-1.0, -1.0, 0.015214234468073337]
[-1.0, -0.574657945688116, -0.9172971331028564];[-1.0, -1.0, -0.9972170644616536];[-0.6209552220113579, -0.7709730489594422, 0.006515275717571475]
[-1.0, -0.2637936663895156, -0.6862490102191754];[-1.0, -0.6941714650109492, -0.16566135890165723];[0.5847506242823657, 0.11098310883140772, -1.0]
[-1.0, 0.05450516734065444, 0.03200131448196341];[-1.0, -1.0, 0.0024812310083899506];[0.5853041388463133, 0.05527420823865441, -1.0]
[0.03561926897521385, 0.05271806703588455, -0.6761421145736224];[0.03921397440483074, -1.0, 0.049343747211026794];[0.99242089880378, 0.06127656114115167, 0.012723214056367282]
[-1.0, -0.022218112486240005, -1.0];[-0.7173792810533682, -0.787538254860102, -0.9777044237875515];[-1.0, -0.6485913862997381, -0.9057025875171678]
[0.21080631130121852, -1.0, -1.0];[-0.9050957327133156, -1.0, -0.9018765138020314];[-1.0, -0.907465070077525, -1.0]
[0.03511944719894167, 0.5430842465154156, -1.0];[0.0029525460158467687, 0.32818213647871813, 0.018676269365098263];[0.2588309642286575, -1.0, 0.0293958951822346]
[1.0, -1.0, -1.0];[-1.0, -1.0, 0.5999996385126417];[-0.633446698982762, -1.0, 0.2235223583207807]
[-1.0, -1.0, -1.0];[-1.0, -1.0, -1.0];[-0.9997700425467058, -1.0, 1.0]
[-1.0, 0.05726105683901493, 0.10277803005692343];[0.04319043107591783, 0.13781063238701924, 0.04589073008094438];[0.04362628437334168, -1.0, -0.20059674561791507]
[-1.0, 0.43515103078245493, -0.6546810553183281];[-1.0, -1.0, -1.0];[-0.7899995132694297, -1.0, -0.6189708222353058]
[-1.0, 1.0, -1.0];[-1.0, -1.0, -1.0];[-0.9999937429497279, -1.0, -1.0]
[-1.0, -0.6361590976797163, -0.9098480187327173];[-0.786569290329976, -0.9912807139858647, -0.7379575132373484];[-1.0, -1.0, -0.49560773519692247]
[-1.0, -1.0, -0.5829880052348431];[-0.6885751915909762, 0.017761636044441132, -1.0];[-1.0, -1.0, -0.6806663353377115]
[-1.0, -0.670584346568096, -0.6683685752592698];[-0.6890738604078075, -0.6811691223270262, -0.684722110108637];[0.05295007034184513, -1.0, 0.014512815141088521]
[-1.0, -0.6868556945745222, 0.03428931520877028];[0.0028985549697382873, -0.6856917602683666, -1.0];[-1.0, -1.0, 0.03259914650002991]
[-1.0, 0.17724351575369662, 0.22104500252452974];[-0.9292741907047523, -1.0, -0.972044411914012];[-0.8991197080969875, -1.0, -0.9936296014705123]
[-1.0, -0.9974133874879006, -0.9989660110357421];[-1.0, -1.0, -0.9982312426376179];[-0.9916768618720261, -1.0, -1.0]
[-1.0, 0.026193606120563446, -1.0];[-0.6794326273569256, -0.6863196825716178, 0.042007831331044354];[-1.0, -1.0, -1.0]
[-1.0, 1.579880197603211E-42, -1.0];[-1.0, -1.0, -0.999999995687689];[-1.0, -1.0, -1.0]
[-0.7214576112232224, -0.6280596013976443, -0.9838524749893889];[0.3392900755996404, -1.0, -1.0];[-0.8663841864972808, -0.9688828632625535, -1.0]
[-1.0, -0.2999987566599235, -1.0];[4.209756054614833E-158, -1.0, -1.0];[-0.6890371417878314, -0.6001762426911836, -1.0]
[-1.0, -1.0, -1.0];[1.4641671540323678E-233, -1.0, -1.0];[-1.0, -1.0, -1.0]
[-0.8383105133088792, 0.06318438351577327, -0.5743643025417079];[-0.9743784832036135, -1.0, -0.733681481881127];[-1.0, -1.0, -0.6845301542465512]
[1.0, 0.04946680696226602, -0.9992341364938557];[-1.0, -1.0, -1.0];[-1.0, -1.0, -0.7636581575384899]
[-0.9098930921667503, -1.0, -1.0];[-0.7369039964842992, -1.0, -0.7430648863405276];[0.0716533054744099, -0.7519149846862204, -0.7258307594850508]
[0.5999999542094941, 0.007325844233291901, -1.0];[-1.0, -1.0, 0.42698724196553167];[0.030279697483802714, -1.0, 0.5904759755303534]
[-0.9095812663942563, -1.0, -1.0];[-1.0, -1.0, -1.0];[0.9999982576060009, -1.0, -1.0]
[0.1729864103345955, -1.0, 0.07983319993931565];[0.0960089631317978, -1.0, -0.03476653843067212];[0.02315029308541807, -1.0, 4.971498189756947E-4]
[1.0, -1.0, -1.0];[0.3930483208544009, -1.0, -0.6603790814513636];[-1.0, -1.0, 0.5999996895762912]
[-1.0, -0.9694838003905155, -0.9992612330507198];[-0.9921864771769328, -1.0, -0.8686906941954577];[-1.0, -1.0, -1.0]
[-1.0, -1.0, 0.9999999999999999];[-0.9975575681640934, -1.0, -1.0];[-1.0, -1.0, -1.0]
[-1.0, -1.0, -0.20792587366053594];[-0.7743805651090977, 0.3649128588162644, -0.7528722020335465];[0.2165862293401457, -1.0, -0.905944962390302]
[0.021322641377229237, 0.038014476109782216, 0.04907417132701435];[0.05237119610878367, 0.0398591467340072, 0.023751737270487773];[0.915056837986777, 0.0010393341579734928, 0.04607556832576731]
[0.05779697250008721, 0.047138094517450116, -0.691917972053447];[0.07003354510606229, 0.08385447942352116, 0.0577578671865554];[0.008619507068497822, 0.07199003680831645, 0.09779683907182486]
[-0.9621580877048691, -0.9697981073819791, -0.28062223367270545];[-0.9924102654704717, -1.0, -0.9881877233569571];[-1.0, -1.0, -0.6829922846780081]
[-1.0, -1.0, 2.4736112354307494E-151];[-0.7841125442245723, -1.0, -0.08365278536150628];[-1.0, -1.0, -0.6007489993913817]
[-1.0, -1.0, -1.0];[1.2450392581809652E-151, -1.0, 5.1746984543360535E-152];[-1.0, -1.0, -1.0]
[-0.20720238638362073, -0.9013177094683882, -0.9109240161090222];[-0.9842971891287785, -1.0, -0.9926535285964401];[-0.9523796234090228, -1.0, -1.0]
[-0.8718992222423243, -0.6931988203922299, -1.0];[-1.0, -1.0, -0.9049055492620479];[-0.9012591698294232, -1.0, -1.0]
[-0.9704204342836047, -1.0, -1.0];[-1.0, -1.0, -1.0];[-0.9709402528754617, -1.0, -1.0]
[-0.7075925647839238, -1.0, -0.6582603728158326];[0.06962428970211468, -1.0, -1.0];[-0.985981983507318, -0.9440395651222142, -0.9954628599123148]
[-0.6794743142847891, -1.0, -1.0];[-0.818732639567994, -1.0, -1.0];[-0.9070731687542133, -1.0, -0.8894767655961701]
[-1.0, -1.0, -1.0];[-1.0, -1.0, -1.0];[-0.9997728265675889, -1.0, -0.9997793723452093]
[0.042445573016870713, -0.911922295143017, -0.8530281946861824];[-0.8653392439048996, -1.0, -0.9297895797803581];[-1.0, -0.8336160444853866, -1.0]
[-0.9880646141938845, -1.0, -0.5327216125326395];[-0.6614375911464146, -1.0, -1.0];[-1.0, -0.9715205742005457, -1.0]
[1.0, -1.0, -1.0];[0.1373799807783755, -1.0, -1.0];[-0.6847452320524385, -1.0, 0.1317565422976965]
[1.0, -1.0, -1.0];[-1.0, -1.0, -1.0];[-1.0, -1.0, 1.631292771881217E-7]
[-1.0, -1.0, -0.312886848285295];[-1.0, -0.7538850518406853, -0.6728146628961956];[-0.18328853888072882, -0.6850768061112277, -0.13453614742830988]
[0.006360060907608334, -1.0, 0.029016887250035806];[-1.0, 0.03369111458358898, -0.3655703312152297];[0.02649616662080806, 0.006774032717976253, -0.6804735930469229]
[-1.0, -1.0, 3.495338732371278E-32];[-1.0, -1.0, -0.9973762854465202];[-1.0, -1.0, -1.0]
[-1.0, 0.034526514332712276, 2.2989576495855424E-4];[0.04158205275602295, 0.0436654080351389, -0.685111611702223];[-0.6771039838266611, 0.038775066583746964, 0.025066570946329515]
[-1.0, 0.23958960228946863, 0.002632649164946521];[3.4885107285875797E-5, -0.6792681275756475, -0.6878952063031271];[-0.6851777998018199, -0.18753748088769903, 0.018566405471476057]
[-1.0, 0.01752939659220476, -1.0];[-1.0, 0.39178774725411375, 0.006588576792581147];[-0.6862504097964949, -0.6866220034328865, -1.0]
[-1.0, 0.04823551417317156, 0.057935369507405944];[-1.0, 0.9924246979669429, -0.6824462780110616];[-1.0, 0.037277849156240765, -1.0]
[0.02290610044164574, -1.0, 0.9977040698334966];[0.0073137714304698405, 0.004333344727396349, 0.02645024400991086];[0.020567111530772043, 0.04152780853865737, 0.00851510391604946]
[-1.0, -1.0, -1.0];[-0.6744612126804238, 0.9976152515486499, -0.6905741983295559];[-1.0, -0.5807991966195989, 0.0038465740182088816]
[0.08125709218107915, -1.0, -0.7594425279695354];[0.03697771376412949, 0.5281738078144864, -1.0];[-0.6893904501950125, 0.03227344989624923, 0.052230695171062935]
[-1.0, 0.08834913957282314, 0.9977848647646699];[0.032097783403547644, 0.06382553550534685, 0.005199387346241424];[0.014016906948583896, 0.06790340913318005, 0.0444906684183885]
[-0.9018807248429396, -0.6815435997097853, -1.0];[0.03350636328865591, 0.04467755397219845, 0.04491313401216132];[0.047177264189421045, -1.0, 0.13867692719824243]
[0.04352555909098778, 0.04001635165593788, 0.036110826508872367];[0.017512390974217442, 0.3230647156005218, -1.0];[0.055946369385005114, -1.0, 0.05300748585611226]
[-1.0, -0.9034855496422333, -1.0];[-0.6782360252132891, -1.0, -1.0];[-0.5294369060588484, -1.0, 0.7016647088288506]
[-0.999748862116316, -0.9989330757826893, -1.0];[-0.29431157039016553, -1.0, -1.0];[-0.9922111154895645, -1.0, -1.0]
[-1.0, -0.9720694238735189, -1.0];[0.14702792833084166, -1.0, -1.0];[0.13075530507267707, -1.0, -0.9723006205363576]
[0.42368868053387726, 0.07815647560592553, 0.9999807818795773];[0.011812618346085602, 0.002464538872604072, 0.0517519550480003];[-1.0, 0.06518645652855491, 0.0022362627522453772]
[0.4734268463825578, 0.03511042200539165, -1.0];[0.03298052643667193, 0.0322989414502653, 0.004440758421483094];[-1.0, -1.0, 0.003551566343667845]
[0.006285451960786104, 0.037186278232155145, -1.0];[0.031049946346705284, 0.019909369643974897, 0.04089423840212193];[-1.0, -1.0, -1.0]
[2.1700565766090938E-29, -1.0, -1.0];[-0.9992684691109348, -1.0, -1.0];[-1.0, -1.0, -1.0]
[-0.44858401907103995, -1.0, -1.0];[-0.9791137553350314, -0.9991312603859902, -0.6617581327443893];[-0.870443921423197, -0.9914734213874377, -1.0]
[0.014004241761631332, 0.014062812393830249, -1.0];[-1.0, -0.6722684095762086, -0.6749459038957165];[-0.6018728675105194, 0.04343645962742383, 0.045046779886805055]
[0.7288374513738357, 0.0942310010771627, 0.06302038946014403];[0.017379387989182826, -0.6941836999137542, 0.09045696990253885];[0.060668197361327086, 0.06953972664546654, 0.0875400257157179]
[-1.0, 0.23752906516687844, -1.0];[-0.2515596479467711, 0.009015364382736734, -0.691019281487864];[-0.6889527026622224, -0.6846697221389823, -1.0]
[0.007415896540080569, -0.6966248549644978, 0.024875972632081092];[-0.9054709016640043, 0.5247074136157557, -1.0];[-1.0, -0.6872887594811925, -1.0]
[-1.0, -0.9082042979595863, -1.0];[-1.0, 0.9999396767608967, -1.0];[0.012985735996114734, -1.0, 0.04375699453173907]
[0.2865167430371849, -1.0, -1.0];[-1.0, 0.19794878302006896, 0.013407526324738408];[0.050410501313015756, 0.07852000907522877, 0.3814664264442568]
[-1.0, 0.0024713751524457097, -1.0];[0.008112001144588621, 0.008363059386437877, 0.011833333180490058];[0.5992635976744636, 0.021430147019550618, -0.5792909328701561]
[0.023684741447257587, -1.0, -1.0];[-1.0, -0.6752576019323997, -1.0];[0.9158090063382287, 0.008983840647401575, -1.0]
[-1.0, -1.0, -1.0];[-0.2753076158755767, 0.5988450561465989, 0.3617810470135509];[-0.5101576104856708, 0.25561322892093064, 0.25895716340299507]
[-1.0, -1.0, -1.0];[-1.0, 0.016300617952146792, 0.013327976791440066];[-1.0, 0.3496338097284904, 0.5999999747781273]
[-1.0, -1.0, -1.0];[-1.0, -1.0, 0.9976754621167949];[-1.0, 1.0, -1.0]
[-1.0, -0.6639999504940427, -1.0];[-1.0, -1.0, 1.0];[0.15405174529123367, -0.9697599985537813, -1.0]
[0.4113686096574467, -1.0, -0.6841584063794223];[-1.0, -1.0, -0.690846096921958];[-1.0, -1.0, -0.6954477353490556]
[-1.0, -1.0, -1.0];[-1.0, -1.0, 0.00281081685898589];[-1.0, -1.0, 0.9999994855864703]
[-1.0, -1.0, -0.31036638128513416];[-0.7544779731641955, -0.972342766560348, -0.9326873333978081];[-1.0, -0.9603354580588501, -0.9792272654855531]
[-1.0, -1.0, -0.9703505044174954];[-0.9706190008115432, -0.9585127669852291, -0.9710899172481341];[-1.0, -1.0, -1.0]
[0.02214357337779395, -1.0, 0.0057721485426421755];[-1.0, 0.049634885941850504, 0.009134338320857794];[0.02239183949930339, 0.05303675889304835, 0.034718002563533974]
[-1.0, -1.0, -1.0];[-1.0, -1.0, -1.0];[0.9999982505580791, -1.0, -0.9066157875630803]
[-1.0, -1.0, 0.14103006254581918];[-0.5735557826393144, -1.0, -0.48724557580238925];[-0.6863043683790496, -1.0, -1.0]
[-1.0, -1.0, 0.9119297603885678];[-0.6884643438506352, -1.0, -1.0];[-1.0, -1.0, 0.020107875342526085]
[0.04140247472437153, -1.0, 6.498108222000403E-4];[-0.2643961793669981, -1.0, -0.4573655985177413];[0.08006487481648394, -1.0, 0.04377664664086253]
[-0.9991770512765854, -1.0, -1.0];[-0.6639999955173026, -1.0, -0.8870926578698985];[1.0, -1.0, -1.0]
[-1.0, -1.0, -1.0];[-0.9911326346160638, -1.0, -1.0];[0.9999999999999999, -1.0, -1.0]
[-0.025812147832402488, -1.0, -0.6246793378252221];[-0.7093464105404672, -1.0, -0.6712214611056546];[-0.6629318909480608, 0.4703344690470607, -1.0]
[-1.0, -1.0, -0.991651219041966];[-1.0, -1.0, 0.47544974683697];[-0.9604607185659453, -0.8958744266560796, -1.0]
[-1.0, -1.0, -1.0];[-1.0, -1.0, -1.0];[-0.9999999856013974, -0.9999999842793705, -1.0]
[-1.0, -1.0, 0.5326621378652913];[-0.17043610276152255, -0.9796179964278142, 0.2504170946016603];[-0.4691553581527582, -0.683492469831301, -1.0]
[0.016617625938007297, -1.0, -1.0];[0.022700248837754112, 0.007062948002614655, -1.0];[0.5999804029197071, 0.12066598283236402, -1.0]
[-1.0, -1.0, -1.0];[6.754265385948999E-5, -0.671845584281789, -1.0];[-1.0, -1.0, -1.0]
[-0.605836147294839, -1.0, -1.0];[-0.8991993498369104, -1.0, 1.0];[-1.0, 0.5573423192361306, -1.0]
[-1.0, -1.0, -1.0];[-1.0, -1.0, 1.0];[-1.0, 6.522577686794676E-5, -1.0]
[0.584310408592297, 0.04071415376841606, -1.0];[0.011239780769454389, -0.9032598306829985, 0.054417135644718];[0.060567495656989746, 0.006010979752191859, 0.009410014372644016]
[0.02537432123250204, -1.0, -1.0];[-1.0, 0.9999398668734336, 0.07857477364192957];[-1.0, 0.9157236707351964, -1.0]
[-1.0, -1.0, -1.0];[-1.0, -1.0, -0.9973419215011265];[0.9999999999990741, -1.0, -1.0]
[0.006911548035740178, -1.0, -0.0794987820033296];[0.03141589644662761, 0.02980406072692196, -1.0];[0.3552442644233123, 0.022190916236339356, 0.008190316903997075]
[0.010587517191351748, 0.008597537329226069, 0.007766655629175615];[-1.0, 0.01640111048227239, -1.0];[0.018275864423131206, -1.0, -1.0]
[-1.0, -1.0, 9.594260519869092E-5];[-1.0, -1.0, -1.0];[-0.6975366998668966, -1.0, -1.0]
[-1.0, -1.0, 0.5227922807063435];[-0.5631185127697438, -1.0, -0.9686162098837686];[-0.5220886904050709, -0.7206290137491269, -0.7247655209177217]
[0.01237157494866633, -1.0, 0.12332722299530063];[0.4893367649265542, -1.0, 0.19784041577499206];[-1.0, -0.33519174346651226, -0.2396939449784281]
[0.5999999897239273, -1.0, -1.0];[0.9999999528460117, -1.0, -1.0];[-1.0, -0.6984745905212476, 0.017831962137316273]
[0.04941762860818626, 0.09093377831706018, 0.07103210555137039];[-1.0, 0.09909362044279543, 0.08529452525089075];[-1.0, 0.008524258067691137, 1.0]
[-1.0, -0.2121326290175446, -1.0];[-0.2756474188797714, -0.5703171683735634, -1.0];[-0.346724374548956, -0.7603525763126053, -0.971734061555405]
[0.030490047731191874, 0.048217423589918096, -1.0];[0.062410045897945424, 0.054765227907950104, 0.06602024970553662];[0.02035356995156138, 0.005773240019317361, 0.02731234540215485]
[-0.3886549812947823, 0.017184920740078026, -1.0];[0.02413338806864749, -1.0, 0.0401658105367471];[0.032917283616513186, -1.0, 0.13665840805412133]
[-0.9012298619231305, 0.018816621172369898, 0.003889469053170858];[0.057212765320124453, 0.016823128422464983, 0.4318929937868224];[0.039609853747053614, -1.0, -1.0]
[-0.9041118019019381, -1.0, -1.0];[-1.0, -1.0, 6.865360830578303E-8];[-1.0, -1.0, -1.0]
[-0.2113933240181656, -0.03680599913446418, 0.07687732371805661];[-0.09038630251206087, 0.16326134713072782, -0.012995174217730499];[-1.0, -0.09487063370449778, 0.051975392790880925]
[-0.02375439612330954, -1.0, 0.0170889551037164];[0.03154226242131129, -0.25525537048691094, -0.23448180044875905];[-1.0, 0.035034669961445476, -1.0]
[-0.9059494518501139, -1.0, 1.0];[-0.9010413546665726, -1.0, -1.0];[-1.0, -0.5606652875284898, -1.0]
[-0.999993545065681, -1.0, 1.0];[-1.0, -1.0, -1.0];[-1.0, -1.0, -1.0]
[-1.0, -0.9028910135424605, -1.0];[-1.0, -1.0, -1.0];[-1.0, -1.0, 2.3982159571819853E-9]
[-1.0, -0.991629094688798, -1.0];[0.030634105761563238, -0.9044364676115717, -0.9604668957568441];[-1.0, -0.730133119603773, -0.8588505564806521]
[-1.0, 0.04667529952867319, -1.0];[0.4009439731193931, 0.044045738949828266, 0.07378677410397964];[-1.0, 0.038868725991299674, 0.9993277065372754]
[0.0913926377051142, -1.0, -1.0];[0.7019430240843159, -1.0, -1.0];[0.011844854088103762, -1.0, 0.9999999569368139]
[-1.0, 0.06442651462885039, 0.010708319500318276];[-1.0, 0.0045652771843737614, 0.04559092747786404];[0.06452162157748366, 0.048004746640414625, -0.27201276544509356]
[-1.0, -1.0, 1.0];[-1.0, -1.0, 0.02469257706114294];[-1.0, -1.0, -0.9992094823675705]
[0.34730589073464035, 0.029430653580142224, -0.6928830756269558];[-1.0, 0.012497560422197596, -1.0];[-1.0, -0.17412288058608183, -0.6540549324121456]
[0.007886568483434143, -0.2710650854436269, 0.045795931392246775];[0.016654673998555938, 0.005495368503634202, -1.0];[-1.0, -1.0, 0.027607368203148575]
[-1.0, -0.6712814643488318, -1.0];[-1.0, 0.003331363109466662, -1.0];[-1.0, -1.0, -1.0]
[0.004822857003514747, 0.00954478122869048, -1.0];[-0.17939916997511368, -0.6915231333445944, 0.012240572095931657];[-1.0, 0.027047297536962955, -1.0]
[0.04989463776036886, 0.02502521459194762, -1.0];[0.010185703693057161, 0.0171891573896776, -1.0];[-1.0, -1.0, -1.0]
[0.05667448977655233, 0.9977166049191376, -1.0];[0.05980108959154883, 0.02047846886477366, -1.0];[-1.0, -1.0, 0.04730891268730378]
[0.01865780753384667, 0.013577501008019854, 0.08048983552032933];[-0.6750646840913559, 0.0335554865495339, -0.6789504527108813];[-1.0, 0.04493480897933636, 0.051101892797707896]
[-1.0, -0.918716133402997, -0.7271162251212081];[-0.4388602025166835, -0.9875536539065908, -1.0];[-1.0, -0.6874849631745895, -0.6098044759064938]
[-1.0, -0.6831771418583876, -0.6824830263578036];[-1.0, 0.025011860071677175, 0.037176688619633295];[0.03864481415996562, 0.045899633044600735, 0.4242509419265217]
[0.012866185249847562, -0.6715633336302681, 0.024408774859433283];[-1.0, -1.0, -1.0];[-1.0, -1.0, 0.9993024774313051]
[0.10934882117106715, -1.0, -0.10207717662376126];[0.02342041285479606, 0.12816920808894722, -1.0];[-1.0, 0.08458968751271503, -0.30634610194874556]
[-0.9728506257249161, -1.0, 0.011774830358094644];[-0.9686543388458048, -1.0, -1.0];[-1.0, -1.0, -0.6261323432298386]
[4.6633080606329825E-8, -1.0, -1.0];[-1.0, -1.0, -1.0];[-1.0, -1.0, 1.0]
[0.08548399695540825, 0.08871232801591054, -1.0];[0.05136639101459996, 0.06444770562910211, 0.008415578086833787];[0.006209291224141456, 0.09195604885722164, 0.040534370469216485]
[-1.0, 1.5927048450161063E-155, -1.0];[-1.0, -1.0, -1.0];[-1.0, 3.6466256875217175E-155, -1.0]
[0.035147236814979804, -0.905395687686764, -1.0];[-0.6901149506557448, 0.5954511986007867, -1.0];[0.03318118537618803, 0.03255255568635856, -0.18840765517003677]
[-1.0, -0.5200802976034706, 0.037811063432199254];[-0.556162058879492, -1.0, -0.6009395709210352];[-1.0, -0.6435873140395558, -0.8585839457539102]
[-1.0, 1.0, -1.0];[-0.89335436565894, -1.0, 0.4643692620672562];[-1.0, 0.5586757928493958, -1.0]
[-1.0, 0.2529019362538164, 0.556110572857478];[-1.0, 0.023272948462833738, 0.03993636693498789];[-1.0, -0.09017349862646018, 0.3209034086861416]
[-1.0, -1.0, 0.017134384404027724];[0.04924277046607727, 0.02827382870853596, 0.02741685268594576];[0.034868529399787296, 5.084757147439834E-4, 0.5669010153662869]
[-1.0, -1.0, -1.0];[-1.0, 9.221973473755901E-4, 4.5922057084779697E-4];[-1.0, -1.0, -1.0]
[-1.0, -1.0, -1.0];[3.46987204827959E-5, -0.9075750914378218, -0.9045427167597492];[-1.0, -1.0, -0.6901547345231636]
[-1.0, -1.0, -1.0];[-1.0, 1.300921600951401E-4, -0.6993101554470442];[-1.0, -1.0, -1.0]
[0.04680243083066687, 0.035110940806817696, 0.030557702058803295];[0.27509977107065675, 0.06288865197911721, 0.045868718758974886];[0.05509117973594634, 0.014250515915354223, 0.0042826757741805666]
[0.006144363954057897, 0.05124175592195636, 0.004517111218360448];[0.05906220961493729, 0.9170763895371292, -0.6745972678764183];[0.07283185628576622, 0.029811360978977422, 0.04239980640185499]
[-1.0, 0.01118863550179301, 0.050570427832536555];[0.03977198117865523, 0.03388767425594607, -1.0];[-1.0, 0.03444598939393935, 0.03103519161416131]
[-1.0, -0.5530645918188173, 0.558480010762749];[-1.0, -1.0, -1.0];[-1.0, -0.9810954944777218, -0.9745345704192152]
[-1.0, -0.991497714658884, 9.629752772274832E-13];[-1.0, -1.0, -1.0];[-1.0, -1.0, -1.0]
[-1.0, 0.1202688267158839, 0.6];[-1.0, -1.0, -1.0];[-1.0, -0.9920685915637982, 0.49615075200864145]
[-1.0, -1.0, 1.0];[-1.0, -1.0, -1.0];[-1.0, -1.0, -0.9999937384029968]
[-1.0, -0.39591701529503326, -1.0];[-0.6879922057083395, -0.2811624240658115, -0.6902278426418794];[-1.0, -0.6459904631870705, -0.9026771136768661]
[0.05641473428670997, -0.6731075224590226, -1.0];[0.07677001253975146, 0.05737093536967929, -1.0];[0.04593426808907384, 0.07952391959012248, 0.32263043187270884]
[-1.0, -0.0742401062203561, -0.5464236628402249];[-0.27612973340542946, -0.6551299800684545, -0.373171716288721];[-1.0, 0.012516777624738355, -1.0]
[-1.0, -0.8994008564553451, 0.011462721393730325];[-0.7619762132412335, -1.0, -0.0073666798825378355];[-1.0, -1.0, 0.0013409329337320975]
[-1.0, 1.0, -1.0];[1.7929859465999738E-6, -1.0, -1.0];[-1.0, -1.0, -1.0]
[-0.9975164606328462, -0.8908234331401956, -0.7815841616408099];[-0.5864168668155822, -1.0, -0.7603010288199664];[-1.0, 0.5983050677729848, -1.0]
[-0.6820772815730783, -1.0, -1.0];[-0.6825077260362262, -1.0, 0.042416065731653];[-1.0, 0.9999999548437234, -1.0]
[-1.0, -1.0, -1.0];[-1.0, -1.0, -0.9918020222239163];[-1.0, 0.9999382641834692, 0.03970470467743992]
[-1.0, -1.0, -0.3077116524678789];[-0.278913953336441, 0.17516859339922225, -0.2828898252945952];[-1.0, 0.01539318629350546, -0.039756227130787525]
[-1.0, -1.0, -0.9720731698794955];[-1.0, -1.0, -0.9913467787917979];[-1.0, -0.9344138784856523, -0.9647470503890619]
[-0.6903142391011978, -0.6047162194336562, -1.0];[-0.6907306155328774, 0.0231779624450158, -1.0];[-1.0, -1.0, -1.0]
[-1.0, 0.013300277882110268, -1.0];[-0.6710141473551307, 0.9977314811630823, 0.08216958713069512];[-1.0, 0.02260199499772736, -1.0]
[0.018623572671483065, 0.018150314706845444, 0.28725897593560773];[0.17879036597271603, 0.18023343801990485, 0.03278016195275481];[-1.0, -1.0, -1.0]
[0.07864028673666436, 0.07917112160043278, 0.044169671187604];[-1.0, 0.9999983409651142, 0.5968448286244513];[-1.0, -1.0, 0.03798434963507518]
[-1.0, 0.9999999999999998, -1.0];[-1.0, -1.0, 0.7067621028336188];[-1.0, -1.0, -1.0]
[-1.0, -0.6431773787624977, -0.8588564854028526];[0.3168406508455568, -0.7180393166295875, -0.7512984122948545];[-1.0, -0.7594912626364664, -1.0]
[-1.0, -1.0, -1.0];[-1.0, 0.008557093142385334, 0.9999806042237386];[-1.0, -1.0, -1.0]
[-1.0, -1.0, -0.059888508406659685];[-0.3341934089187876, -0.7521179373874632, -0.6744741471537095];[-1.0, -0.6250884421827796, -0.9725180306386795]
[-0.3005704230946498, 0.08923603627775314, -1.0];[0.09255918702540175, -1.0, 0.14957525014408735];[-1.0, 0.47031446330597604, -0.17000748450853115]
[-1.0, 0.4182003148107758, -1.0];[0.9999999958319084, -1.0, -1.0];[-1.0, -0.5492892500527438, 0.2140527504016948]
[-1.0, 0.026890269682448932, -1.0];[0.9999943187094664, -1.0, -1.0];[-1.0, -1.0, -1.0]
[0.04650125349431559, 0.40607755143569585, 0.0946705856477366];[0.07761138460321762, 0.9999943468508662, -1.0];[0.036638665687787675, -1.0, 0.0692670338616166]
[-1.0, 0.07609281271129247, -1.0];[0.04363801782581619, 0.0695263267461963, 0.03651496988416019];[0.034878155666521526, 0.03107033052887308, 0.009168973785758983]
[-1.0, 0.006691601204066045, -1.0];[-0.6710091738541651, -1.0, 0.018991088266222714];[0.04327540729880172, 0.016455552444456824, 0.7137603943224563]
[-1.0, 0.019706104096971128, 0.009298885618472127];[0.015279714948977154, 0.014302800382458368, -0.10008816562856732];[-1.0, -0.2755300073905912, -0.2764373424096031]
[-1.0, -0.9980687856490277, -1.0];[-1.0, -0.9716098575632598, -0.9907075958339373];[-1.0, -0.9914725164422035, -1.0]
[-0.3137533901170424, 0.1805181819920625, -0.6931304865889928];[-1.0, -0.6889045080193033, -0.06356934589700025];[-1.0, -1.0, -0.6870890105455609]
[-1.0, -0.686537521115091, -0.6743149243677009];[-1.0, 0.007716924478827891, 0.008783951225151288];[0.038710550464958984, 0.04292459447631102, 0.03822989179384935]
[-1.0, -0.9715441995777672, -0.9638249257159527];[-0.0841708465644111, -1.0, -1.0];[-1.0, -1.0, -0.9973340839990867]
[-1.0, -1.0, -0.9914329041685259];[-0.906913679806995, -1.0, -1.0];[-1.0, -0.7635240706114774, -0.8957655810909382]
[-1.0, -1.0, -1.0];[-0.9999786457233016, -1.0, -1.0];[-1.0, 2.874326718407481E-32, -1.0]
[-1.0, 0.030728814666934647, 0.01589748968389051];[-1.0, 0.011740938120834089, -0.685507896455694];[0.002518574518719352, 0.027330678091384997, 0.512512676866383]
[-0.9704425604932817, -0.27933311070250566, -0.9782192421003869];[-1.0, -1.0, -0.9911756442575634];[-1.0, -1.0, -1.0]
[-0.874354485392929, -0.23886000724811057, -1.0];[-0.18318547673696317, 0.015333479416067719, -0.6946398202467494];[-1.0, -0.6800720620729451, -1.0]
[-0.5426509485589951, -1.0, -1.0];[-1.0, -0.6944628504379096, 0.005403398365819101];[-1.0, -0.6981700254150007, -1.0]
[0.22353392825119078, 0.047865644147606065, 0.015699092509815972];[0.028325230332316154, 0.03752725883776892, 0.009707419334959534];[-1.0, 0.042054632553636534, -1.0]
[-0.6792902976219136, -0.6968728184694535, -0.6759067727022181];[-1.0, 0.016380245153301633, -1.0];[4.136536786650269E-4, 0.06666819566947509, 0.013582214598722787]
[-1.0, -0.6731974444553657, -1.0];[-1.0, 0.9922256258942272, -1.0];[-1.0, -1.0, -1.0]
[-1.0, -1.0, 0.013090466860295014];[0.02350123471342146, 0.9737533344079573, -0.5818705657493796];[0.010852743563847855, -0.9061059442697459, -1.0]
[0.40047306418406414, 0.21927436245309018, -1.0];[0.0023515211223745004, -0.1890202995786856, -0.7564388774560593];[-1.0, 0.03748912010155166, -0.5248664088187724]
[-1.0, 0.7058766744547528, 0.02194587542028491];[0.01742956373661029, 0.04717899023861614, 0.00701348420821627];[0.044297528430664194, -1.0, 0.5988900419448417]
[-1.0, 0.03334242371996337, 0.03651673535994726];[0.009535971749918805, 0.048725463203425926, -1.0];[0.007445047233963054, -1.0, 0.9742684865139192]
[0.02706169354239073, 0.4691808693998468, -1.0];[0.03055731559508313, 0.09459559826568564, -1.0];[-1.0, 0.020675372937664707, 0.010168796740297793]
[0.001209731571087438, -1.0, -1.0];[8.26524086000419E-4, 0.0026199284599972283, -1.0];[-1.0, -1.0, 0.0023419550249898415]
[-1.0, -1.0, -1.0];[4.944069478097938E-15, -1.0, -1.0];[-1.0, -1.0, -0.6781696082264524]
[-0.14545562838423542, -1.0, -1.0];[0.06952675627686883, 0.0018530879449187299, -0.06681607145128396];[-1.0, 0.01559627002861146, 0.4707565877579812]
[0.004984023617720279, 0.04739557831929099, 0.01332595969844318];[0.04153980661856815, 0.06805474889255507, -1.0];[-1.0, -0.9019397700147264, 0.999999986646755]
[-1.0, -0.9043889833205695, -1.0];[-1.0, 0.0022643992862470506, -1.0];[-1.0, -1.0, -1.0]
[0.026609230418461315, 9.692144840657281E-5, 0.00954365872626255];[-0.6828699918462198, -0.6786481570232795, -1.0];[0.02268213861993329, 0.03041454458141239, -1.0]
[-0.3221069685833118, -1.0, 0.002004930862466979];[-1.0, -1.0, -1.0];[-1.0, -0.2865772574223548, 0.4579221645013971]
[-0.9027124069354062, -1.0, 2.7397970648926895E-11];[-1.0, -1.0, -1.0];[-1.0, -1.0, -1.0]
[-0.32867101977139473, -0.002623934655486715, -0.8596135701492746];[-1.0, -1.0, 0.5769103913661479];[-0.8678249142095976, -0.6636567069676913, -1.0]
[-0.942255976843436, -0.9926393182696364, -0.053978284701314466];[-1.0, -1.0, -0.6665346982793547];[-1.0, -0.9836085958826032, -0.2439659882416091]
[-0.9311751377869774, -0.9889639568753992, -0.9961813637210161];[-1.0, -1.0, -0.9805837073663711];[-1.0, -1.0, -1.0]
[-0.9999994317136585, -1.0, -1.0];[-1.0, -1.0, -0.999999828721707];[-1.0, -1.0, -1.0]
[-0.6639290649419552, 0.5488540288655374, -1.0];[0.4298190441062281, -1.0, -1.0];[-1.0, -1.0, 1.0]
[3.064032690865481E-4, -1.0, -1.0];[0.1264263360743066, -1.0, 1.799274564818973E-7];[-1.0, -1.0, 2.488047130393241E-8]
[-1.0, -1.0, -1.0];[-1.0, -1.0, 7.978043075861562E-263];[-1.0, -1.0, -1.0]
[-0.9075630411378783, -1.0, -1.0];[-0.6254084486899195, -1.0, -1.0];[-0.9085068497685307, -0.907973859143073, -1.0]
[-1.0, -1.0, -1.0];[-1.0, -1.0, -1.0];[7.459252828898042E-77, -0.9999999999894121, -1.0]
[-0.9999778870361635, -1.0, -0.9997539828681345];[-1.0, -1.0, 0.05284834878434716];[-1.0, -1.0, 1.0]
[-1.0, -1.0, -1.0];[-1.0, -1.0, 1.7976869813672657E-6];[-1.0, -1.0, 1.0]
[-1.0, -1.0, -0.9099362538146024];[0.14829432232897544, -1.0, -0.907676644676918];[-1.0, -1.0, -0.9087411502972802]
[-1.0, -1.0, 1.807710774485124E-19];[-1.0, -1.0, -1.0];[-1.0, -1.0, -0.9973361397058336]
[-0.5109746698554457, -1.0, -1.0];[8.17967999792064E-4, 0.4204089996367332, -1.0];[-1.0, -0.08126707187760693, -1.0]
[0.003860340225425087, -1.0, 0.01170109331379771];[0.03264442603442989, 0.030511411431582626, -0.25826531915282713];[-1.0, 0.030555605077370752, 0.028599678148996967]
[0.044299596031894886, -1.0, 0.06667945519945069];[-1.0, -0.6702585260628433, 0.010396009806856643];[0.009955632090414224, 0.006687113116301358, 0.011677669665013303]
[0.05027856476945587, 0.03851641810460296, 0.03415866713003305];[0.05151196742764594, 0.3053156846410934, -1.0];[0.055758416269843736, -1.0, 0.12080777818223956]
[0.01754374569633175, 0.012940768621015853, 0.03340467185592046];[0.03206074395677782, 0.5492621345432326, -1.0];[-1.0, 0.03039400400582857, -1.0]
[0.9999376077209956, 0.7048430817387493, -1.0];[0.024983048715422753, -1.0, -1.0];[-1.0, -1.0, -1.0]
[5.853806736373035E-4, -1.0, 0.09953219769569432];[0.005624731076193212, 0.9920812648439943, 0.048618309443028335];[0.06938549271437552, -1.0, -0.673304040604478]
[-1.0, -0.6922176557437614, -0.6945697378960933];[-0.3651105603468356, -0.6847291197297256, -0.3425841333383638];[-1.0, -1.0, -0.7982794895645873]
[-1.0, -0.9715257734658072, -0.7812801926356052];[-1.0, -1.0, -0.9088606885160626];[-1.0, -1.0, -0.934443438980319]
[-1.0, -1.0, -0.9916358603207285];[-1.0, -1.0, -1.0];[-1.0, -1.0, -0.9913435428276098]
[-1.0, -0.9712850075329895, -0.5729473857840455];[-1.0, -1.0, -0.27922590040696105];[-1.0, -1.0, -0.9917121062267488]
[-1.0, 1.0, -1.0];[-1.0, -1.0, 0.0013412485506852493];[-1.0, -1.0, -1.0]
[-1.0, -0.9961964875673378, -0.9972178090253613];[-0.9921525943499205, -1.0, -1.0];[-1.0, -0.9974881951030907, -1.0]
[-1.0, -1.0, -0.999999999996752];[-0.9999999999892917, -1.0, -1.0];[-1.0, -1.0, -1.0]
[-0.8607059865582083, -1.0, -0.6378108814437071];[-0.9085368650409984, -1.0, -0.9665164837974124];[-1.0, -1.0, -1.0]
[-1.0, -1.0, 0.9999804239544143];[-0.698210697465462, -1.0, -1.0];[-1.0, -1.0, -1.0]
[0.028588488214000608, -0.6736673791147985, -1.0];[0.032296350334668905, 0.47513622233008607, 0.021524627345134575];[0.01930028256325317, 0.02605357137964638, 0.03635601235177651]
[0.011856032985320786, 0.9999999531262982, -1.0];[0.033101355577116603, -1.0, -0.634669875084297];[-1.0, -1.0, -0.6769777848820825]
[-1.0, -1.0, 8.985956840623826E-25];[-1.0, -1.0, -1.0];[-1.0, -0.9975563399313211, -1.0]
[-1.0, 0.01308582919423611, -1.0];[-1.0, -0.6852821997324671, 0.008490820515198972];[-1.0, -1.0, 0.01207009247941341]
[-0.7497371314043273, -0.696445900968328, -0.13645744912527302];[-0.6931272295947575, -0.6388538791217184, -1.0];[-1.0, -1.0, 0.3605778618738457]
[-0.3978953936336014, -1.0, -0.6997095927986305];[-1.0, -0.37727156972262504, -1.0];[-1.0, -1.0, -0.6914160923379502]
[-1.0, -1.0, -1.0];[-1.0, -0.9975565038408775, -1.0];[-1.0, -1.0, -0.9992520562971732]
[-0.6820266204826757, 0.03065782858450203, -0.6915607244555637];[-0.6529379399400106, 0.5586799634122814, -1.0];[0.2461163489547811, -1.0, 0.035619919309177454]
[-0.5541054749972354, -0.6908376511831521, -0.9038323131937742];[-1.0, -1.0, -1.0];[-0.9576682130850002, -1.0, -1.0]
[0.9999982893608856, -0.9020286060924362, 0.08397028806569912];[-1.0, -1.0, -1.0];[0.006258131475133411, -1.0, -1.0]
[-1.0, 0.02357177148465328, 0.2680281252088245];[0.020372861983771015, 0.03525956155044571, -1.0];[0.04795727901177496, 0.029016835221093464, 0.1966447898113859]
[-1.0, -1.0, 0.5997625408460167];[0.9999999524394513, -1.0, 0.05104529526619496];[-0.6819759311030319, -1.0, -0.6930542555251028]
[-1.0, -1.0, 0.9997845138143933];[-1.0, -1.0, -1.0];[-1.0, -1.0, -0.6778351837347316]
[-0.9093988807121002, -1.0, -0.685492804082091];[-1.0, 0.37870619490645946, 0.18096473313709616];[-0.2473637467541001, -1.0, -0.6928762600563664]
[-1.0, -0.28170966747512893, 0.45882897194737204];[-1.0, -1.0, -1.0];[0.0035672607089288436, -1.0, 0.0044171135932437305]
[-1.0, 0.007610837908119204, -1.0];[-1.0, -1.0, 3.496031770587105E-4];[-0.9033841009306458, -1.0, -1.0]
[-1.0, -1.0, 0.23801956420937959];[0.026243541993217136, 0.01480601276049225, 0.03238681277958188];[0.04649645955344611, -1.0, 0.02415593716503823]
[-1.0, -1.0, 0.003942223816850454];[0.001144787285759652, 0.009080266787907533, -1.0];[0.014715098663899796, -1.0, 0.026643050873562495]
[-1.0, -1.0, -0.9999999999966884];[-1.0, -1.0, -1.0];[-1.0, -1.0, 3.8100433473130796E-97]
[0.021244568536932674, 0.05327277370834498, 0.05862799307241176];[0.031282053605862024, 0.9751449437001165, -1.0];[0.05899307713854941, -1.0, -1.0]
[0.04187340443783727, -1.0, -0.6882035870931271];[0.038590729898219434, -0.680206102534598, -0.6873755535360523];[0.03575499604004116, 0.010043195650285199, -1.0]
[0.02565005477566322, -1.0, -1.0];[0.03879067248244207, 0.015558865044989746, 0.03549041491499856];[0.030317422092596902, 0.006022488355678446, 0.02258337484535634]
[0.04605408731905515, -1.0, -0.03353248356947003];[-1.0, 0.020908991863585462, 0.03499730829315211];[0.0385211913734912, -1.0, 0.025584558477595915]
[0.9925584118472658, -1.0, 0.05096382743851723];[0.053439120340785684, 0.0742121216706167, 0.0036217917627701214];[-0.681322906958092, 0.03748789808034438, 0.03052895871669812]
[0.013077630381314565, -1.0, 0.01484104683919736];[0.014318906302303636, 0.004539481664619027, -1.0];[0.03664015802197398, 0.022061640223095116, 0.03328981035396815]
[-0.626481659188809, -1.0, -0.5442861660668386];[1.9806064975763745E-52, -1.0, -1.0];[-0.9999858120743802, -1.0, -1.0]
[-1.0, -0.7180662695802692, -0.906777619559221];[-1.0, -1.0, -1.0];[9.937381230053395E-4, -1.0, -0.679180426168393]
[0.03338997823214834, 0.016563686625284735, 0.9997984540423753];[0.060734608744823296, 0.07338918779573429, -1.0];[-1.0, 0.05463285709893814, -1.0]
[0.9999364053761368, 0.04274258093595956, 0.03523194495556934];[0.05487133007152229, 0.017768513867828118, 0.031493790752688176];[0.048946883664218906, 0.04123460208293975, 0.03420029105061989]
[-1.0, 2.2576222512218302E-7, -1.0];[-0.6795664378613919, -1.0, -1.0];[-1.0, -1.0, -1.0]
[-0.6829076124508892, 0.031443528492774764, -1.0];[0.9999998561260312, 0.04809130838806091, 0.019690359751125253];[0.06751226092247263, 0.018754957471141077, -1.0]
[-1.0, -0.9041360038628011, -1.0];[-1.0, -1.0, -1.0];[7.097784612089913E-7, -1.0, -1.0]
[0.5889341165389671, -1.0, -1.0];[-0.20148949128426374, 0.03091351087665157, -0.6842458235548917];[-1.0, 0.028021670631995444, -0.6928456963620859]
[0.028273637230895498, -1.0, 0.04056155547272229];[-1.0, 0.04001641739303379, 0.0068431434702352694];[0.022182138733634872, -0.6876302822879987, 0.03212498185249205]
[-1.0, 0.026461773073438867, -1.0];[-1.0, 0.008984925457646887, -1.0];[-1.0, 0.015516035699143546, 0.012498891550959247]
[0.3066999015948777, -0.6891852522417167, -1.0];[0.021882545559263864, -0.6703637266001511, 0.018704522361569078];[0.011590707902793929, -0.685539338873665, -1.0]
[-0.5200850601483944, -1.0, -1.0];[-1.0, -1.0, -0.3626382100099226];[0.5986338559738605, -1.0, -0.20345405112872134]
[1.0, -1.0, -1.0];[-1.0, -1.0, -1.0];[-1.0, -1.0, 4.206342682187565E-9]
[-0.6857656567224144, -0.6889818222717535, -1.0];[0.016471159745119358, 0.002472901712347886, -1.0];[-1.0, -0.6865049346858906, 0.38415482589303696]
[0.12907972872860907, -0.9915945478479025, -1.0];[0.5999999999833633, -1.0, -1.0];[-1.0, 1.0, -1.0]
[-1.0, -1.0, -1.0];[5.39066464366128E-253, -1.0, -1.0];[-1.0, -1.0, -1.0]
[-1.0, -1.0, -1.0];[0.9103293239370094, -1.0, -1.0];[-1.0, 0.9999999998886983, -1.0]
[-1.0, 0.006096074732196599, -1.0];[-1.0, 0.593638885063269, -0.6101438692205514];[-1.0, -0.9044314400906358, 0.04580989948542573]
[-1.0, -1.0, -1.0];[-1.0, -1.0, 0.9999983161336194];[-1.0, -0.6962637207569967, -1.0]
[-1.0, -1.0, -1.0];[-1.0, 0.9745865273449087, -0.9022855998950503];[-1.0, -1.0, -1.0]
[-1.0, -0.698166853786379, -1.0];[0.2536932289766589, -1.0, 0.22921127715544898];[-1.0, -1.0, 1.0]
[0.03868709480114134, 0.03434572527133606, -1.0];[0.1890113593583747, 0.050402820419955606, 0.00713595421483636];[0.007335634260117918, 0.04048755506498661, 0.024283244436184615]
[0.02458600622576115, 0.0017206625258585962, -1.0];[0.013165837887323228, 0.015890544041422816, 0.0376798332259867];[0.029916105088050062, -0.268370402886015, -1.0]
[-0.9029773511859016, -1.0, -1.0];[-1.0, -0.6958642725583116, -1.0];[-1.0, -1.0, -1.0]
[-0.6996032658357851, -1.0, -1.0];[-0.6945680889339826, -0.6708019771354108, -1.0];[0.026739535629133084, -1.0, -1.0]
[0.006666835887165612, -1.0, -1.0];[-0.6853765564447573, 0.5892470241740883, -0.6802435733913391];[-1.0, -0.7218394380850179, 0.018283765047511412]
[-0.6823672658119943, 0.05479909068699969, -1.0];[-1.0, 0.04255844757893254, 0.0532728100163819];[-1.0, 0.03246117937464167, 0.0135426239965049]
[0.0024434002667084176, -1.0, -1.0];[-1.0, 0.04528247305489367, 0.005330769815701394];[-1.0, 0.9999999999991035, -1.0]
[0.028274399659465623, 0.0356942403629468, -1.0];[0.0278205245878955, 0.07461421134773685, 0.034699750264620084];[0.06614176673502963, -1.0, 0.001151330168227749]
[0.14090660574142322, 0.06737013055670396, -1.0];[0.04471624746244497, 0.034007544178939746, -1.0];[0.04374823864431864, 0.038007791991789955, 0.019540085844912083]
[-1.0, 0.001059353860784884, 0.045912792945524195];[-0.6763193695625342, 0.9743717884863642, 5.478015330121821E-4];[-1.0, -1.0, 0.04840058877278082]
[0.025550268526071823, 0.0211490555945026, -1.0];[0.024870393683779406, 0.016473852567469423, -1.0];[0.030944079793382526, -1.0, -0.3612201256720943]
[-1.0, -1.0, -1.0];[-1.0, -1.0, -1.0];[5.417362345547279E-88, -1.0, -0.999999995438374]
[0.09999396877711642, -1.0, -1.0];[-0.6792550792685316, -0.6025680702350429, -1.0];[-0.607120125196228, -0.6669221898525449, -0.8494283793403816]
[-0.9079774875968493, -1.0, -1.0];[-0.7505960876211667, 0.4733371645907343, -1.0];[-1.0, -0.6844668635814364, -1.0]
[-1.0, -1.0, -1.0];[0.9999999999999979, -1.0, -1.0];[-1.0, 0.006102900755057251, -1.0]
[-1.0, 0.061868834626790575, -1.0];[0.06410222452966237, 0.014728679030808746, 0.32467030490559196];[0.0621641331915435, 0.02661153167020911, 0.016146442471807132]
[-1.0, -0.9974544124954985, -1.0];[-1.0, -1.0, -1.0];[-0.9915644698954409, -1.0, -1.0]
[0.43141356664683606, 0.014697827505780529, -1.0];[-1.0, -1.0, -0.38673988739140874];[0.027309260447619423, 0.017880912196978183, -0.3318615151951248]
[0.12633725700266513, -1.0, -1.0];[-1.0, -1.0, -0.9992344233659607];[-1.0, -0.4734042708955755, -0.6613928344294184]
[0.997678711552551, -1.0, -1.0];[-1.0, 0.03353151985858779, 0.016458107619312424];[-1.0, 0.04370554545288864, 7.807283771418816E-4]
[-1.0, 0.5849427806723491, -1.0];[1.0, -1.0, -0.9915336287501544];[-1.0, -1.0, -0.9647503610414545]
[-1.0, -1.0, -1.0];[-1.0, -1.0, 2.829969992907828E-215];[-1.0, -1.0, -1.0]
[-1.0, -1.0, -0.9992956657273415];[-0.9311756333550902, -1.0, -0.7630463358868702];[-1.0, -1.0, 1.4918001907217168E-159]
[-1.0, -1.0, -1.0];[9.69585801951999E-160, -1.0, 1.0259132451833223E-159];[-1.0, -1.0, -1.0]
[-1.0, 0.0413515389258961, 0.02890434969424448];[0.034153324596129686, -1.0, 0.5494037692077016];[-1.0, -1.0, -1.0]
[-1.0, 0.013374171808361058, 0.011819942211900754];[-0.4648234116843034, -1.0, -1.0];[-1.0, 0.005521065022109629, 0.9999999996181568]
[-1.0, -1.0, -1.0];[-0.9712978788198062, -1.0, -1.0];[-1.0, -1.0, 0.9999999999899286]
[-1.0, -1.0, -1.0];[-1.0, -1.0, 6.459961842897151E-7];[-1.0, -1.0, 0.9999999999999746]
[-1.0, -1.0, -0.6794156639846499];[0.025819061427916734, 0.018176781986465555, -1.0];[0.009474799358607212, -1.0, -0.6877320277648085]
[-1.0, -0.9999994246482279, -0.9999994609698872];[-1.0, -1.0, -1.0];[-1.0, -1.0, -1.0]
[-0.6938156091298644, -0.7802271307403101, -0.7545273963516141];[-1.0, -0.6881003093622349, -0.9948630097632202];[-1.0, -1.0, -0.5286076666644413]
[-1.0, 0.003955697693456483, -1.0];[0.04056182930548302, 0.5957232824427263, 0.030953962774956052];[-0.6964104791187498, -1.0, -0.6811772838863748]
[-1.0, -1.0, -1.0];[-1.0, 0.9732446543528561, -1.0];[-0.6970485310402909, -1.0, -1.0]
[-0.5715501113289545, 0.023888519438945238, -1.0];[0.03973563870992186, 0.3982263994229401, 0.045001044029984776];[0.02985084038782212, 0.03104622583543039, -1.0]
[0.0014962663269698084, -0.6862422513563325, -1.0];[0.07577234800535196, 0.9998022204939423, -1.0];[0.08414696649099256, 0.055909879096070064, 0.08274302874328832]
[-1.0, -0.9999999956674149, -1.0];[-1.0, -1.0, -1.0];[-0.9999999952787451, -1.0, -1.0]
[0.01718046931924354, 0.029102754878615023, 0.0252697093438901];[-1.0, -0.6814488118694519, 0.007002452266484416];[0.14527702623168132, 0.01849815606068105, -1.0]
[-1.0, -1.0, 0.012490964700885088];[0.02621814394529344, -1.0, 0.9976569543933099];[0.01920761023383434, 0.006042136739071425, -1.0]
[0.04528926964615969, 0.04896931570939386, 0.04132160975603704];[-1.0, 0.03600604018772935, 0.024461983647288677];[0.02211924796619923, 0.014827854706574262, 0.057777875001235574]
[-0.7197520390965438, 1.8884093670960697E-55, -0.9753798276116501];[-1.0, -1.0, -1.0];[-0.5541005140476936, -1.0, -1.0]
[-1.0, 6.689020268653759E-202, -1.0];[-1.0, -1.0, -1.0];[-1.0, -1.0, -1.0]
[-0.8862706639567697, -1.0, 0.06798606613131114];[-0.6609574784839793, -1.0, -0.8672463904986483];[-1.0, 0.562777030945363, 0.12003143247833292]
[-1.0, -1.0, -0.997185784455962];[0.12995669485891936, -1.0, 0.1505070409596827];[-1.0, -1.0, 1.0]
[0.5919523047842806, -1.0, -1.0];[-1.0, 0.019061396488252537, 0.04938986323725568];[-1.0, 0.018970744390639463, 0.031839709106536884]
[0.009263121369413952, -1.0, 0.01831709924011371];[0.01803676734290306, -0.6860815440161111, -1.0];[0.018708875220176613, -1.0, 0.9134185558309801]
[-1.0, -1.0, -1.0];[-1.0, 0.9999999998883182, 0.9739218692322326];[-1.0, -1.0, -1.0]
[-0.9689995851070298, -1.0, -0.970336454361125];[-0.6352828006562407, -1.0, -1.0];[-1.0, 1.0, -1.0]
[-1.0, 0.034863120816009195, 0.03570103804168784];[0.01592426058480866, 0.18354760736430975, -0.6414130689613289];[0.03572606060968155, -1.0, -1.0]
[0.029908411847776428, 0.9992816299359181, 0.09446867175844366];[0.09056246873240073, -1.0, 0.42348748704243544];[0.002166046797655341, 0.013710701703227702, 0.018205832387117926]
[0.020165023671081507, 0.03194003658026837, 0.00563931934350791];[-1.0, 0.5943729197202154, 0.31814480974061565];[0.04755040432880502, 0.0627589887184072, -1.0]
[-1.0, -1.0, 7.559493469766685E-5];[-1.0, -1.0, 0.9999984034749068];[0.01338375489808551, -1.0, -1.0]
[0.03951855646083527, 0.04474287974114088, 0.0824899126414187];[0.0576524263548714, 0.07749919415838681, 0.0297136545766605];[0.9975992985136147, -1.0, 0.07655023914941686]
[0.01502929137993424, -0.6802217960688121, -0.27819369826111534];[-1.0, 0.017784769584942642, -0.6060173943240981];[0.03237137506353277, -0.2734183741851708, -1.0]
[-1.0, 0.040293165144717716, 0.04119259351394822];[-1.0, 0.03683838129496252, -1.0];[-0.6739666251635211, -0.6872870302966263, -1.0]
[-1.0, -1.0, -0.6861384732500144];[-1.0, -1.0, -1.0];[-1.0, 0.9999999959383945, -1.0]
[-1.0, 0.0022853089499923706, -0.6933282679312454];[0.01159220618367911, 0.7042174870502027, 0.013132394581991058];[-0.6801702175468307, -1.0, 0.01262687409490193]
[0.01245583989048167, 0.005150746794061337, -1.0];[-1.0, -1.0, 0.003157612798273859];[-1.0, -1.0, 0.026406195547401996]
[2.132530113058536E-7, -1.0, -1.0];[-1.0, -1.0, -1.0];[-1.0, -1.0, -0.9722577638564279]
[-0.6896314028025898, -1.0, -1.0];[-1.0, -0.5247180616443065, -0.6899936684633906];[-0.6865748150657713, -1.0, -1.0]
[0.028834763322002046, -1.0, -0.16190959900135637];[0.028772929850546983, 0.010030997078872306, 0.02893245203435215];[-1.0, -0.3713608584850391, -1.0]
[-0.2795001035663804, -1.0, -0.40687418611306403];[-1.0, 0.3483193031568396, -0.2797639752217138];[-1.0, -1.0, -1.0]
[-1.0, -1.0, -1.0];[-1.0, -0.6989293600404567, 7.098669002529018E-5];[-1.0, -1.0, -1.0]
[0.006648393207554626, -1.0, -1.0];[0.13825219865421923, 0.9977102502872346, -0.6823572182428952];[-1.0, -1.0, -0.6750169805441895]
[-1.0, 0.04448714776370203, 0.03829920054516348];[-1.0, 0.4589127159796597, 0.006089902316721097];[0.032211159581010354, 0.03293713112368118, 0.006573729224732695]
[-1.0, -1.0, 0.06286172535930609];[-1.0, 0.02768139605330773, -1.0];[0.9999999996391438, 0.024782248732106896, 0.0022844612220411396]
[-1.0, -1.0, -1.0];[-1.0, -1.0, -0.9878531647427474];[-0.9743640279361069, -0.991864688400629, 0.12330107406145296]
[-1.0, -1.0, -1.0];[0.0028668393053546183, 0.002037167722289457, 0.007077741622499904];[0.01909926225132376, -1.0, -1.0]
[0.03708194081326952, 0.01729973269404225, 0.04984204464005951];[-0.6722959731309575, 0.0649223403847756, 0.013022473803446566];[0.03352527125506335, 0.044154714208800884, 0.057890556667144155]
[-1.0, -1.0, -0.9708031851264628];[1.0, -1.0, -1.0];[-1.0, -0.9094343395684101, -0.9088508082905378]
[0.039964687916425795, 0.02803789207014388, 0.046913752490268225];[-1.0, -0.6755788451387468, 0.04741095444105719];[0.029907902134536857, 0.08087915823304592, -0.5699906894716371]
[-1.0, -1.0, -0.9992204359006573];[-1.0, -1.0, -0.9974945290907052];[-1.0, -0.9988607990024825, -0.9992473624965225]
[-1.0, -1.0, -0.9079141697987045];[-1.0, -1.0, -1.0];[-1.0, -1.0, 1.0]
[0.07261786792793355, -1.0, 0.08087038754651361];[0.21574376421456953, 0.5997342392673796, -1.0];[-1.0, 0.004883098190405999, 0.05772958068857697]
[-1.0, 0.006329924893105666, 0.024693147830358232];[-1.0, 0.4007534674738099, -0.6730623256907878];[0.052140344977930755, -1.0, 0.013699211400581668]
[0.4164795503664478, -1.0, -1.0];[-1.0, -1.0, -1.0];[0.9999999869017403, 0.16609570991023054, 0.5505131036696647]
[0.9122698727319795, -1.0, -1.0];[-1.0, 0.00195131506859223, -1.0];[0.9999999996327934, -1.0, 0.018300604421163158]
[0.12943814130840797, -1.0, -1.0];[-1.0, -1.0, -0.9323752314289123];[-1.0, -0.781543124911568, -0.9577598879434002]
[0.007446398185973282, -1.0, -1.0];[0.014696556742246715, 0.005860371217732075, -1.0];[-0.6859347741487285, -1.0, -1.0]
[0.023873068555318643, -1.0, 0.020345385917668827];[-1.0, -0.21132855580083573, -1.0];[0.09298140199927182, -0.055598393069259844, 0.02769286583208688]
[0.00944360717790299, 0.03470360965322267, 0.3624952076732749];[0.016598476819296548, 0.054351339825545235, -1.0];[0.056244637917573226, -0.6726141114824287, 0.0017064144045566998]
[0.5851720007757307, -1.0, -0.9908274351697286];[0.9999999999999925, -1.0, -1.0];[-1.0, -1.0, 0.5999718513983064]
[-1.0, -1.0, -0.9992129460970992];[-1.0, -1.0, -1.0];[-1.0, -1.0, 0.9999999999999175]
[0.17884818663290858, -1.0, 0.15417337923492047];[-1.0, -1.0, -1.0];[-1.0, -0.7837359398881608, -0.9882255706963481]
[-0.9975040572658216, -1.0, -1.0];[-1.0, -1.0, -1.0];[-1.0, -1.0, 0.9999999999997288]
[0.008433990854288665, -1.0, -1.0];[0.02138392165838139, 0.0015843803132707614, -0.35912564702277505];[-1.0, -1.0, 0.02131179079340484]
[1.7871973533436015E-25, -1.0, -1.0];[-1.0, -1.0, -0.9917086260018955];[-1.0, -1.0, -1.0]
[0.011168540261974714, 0.04132056520248391, -1.0];[0.9999945088200248, 0.02578222769344998, 0.014649713001891058];[0.014737018777487343, -1.0, 0.03816183232967629]
[0.014178563232412945, 0.015123245548725663, 0.015254487174998133];[0.9977117700693888, 0.03895861141019816, -1.0];[0.024239208866596963, -1.0, 0.0017089876377785697]
[0.03860071120652984, 0.03152285216156206, -1.0];[0.04925327497549643, -0.57231958715253, 0.013081275848911035];[0.019235086331635898, 0.026830487248550472, 0.019982741912914895]
[0.9999999999665699, 0.004195425696093455, 0.0018370769336101848];[0.5469584520880582, -1.0, -1.0];[-1.0, -1.0, -1.0]
[0.028706907667502148, 0.03427064858126643, 0.009403160005999878];[0.009722794676277124, -1.0, -1.0];[0.013636758276819361, 0.01583729042296166, 0.5807215043172639]
[-0.9975605398915478, -1.0, -1.0];[-1.0, -1.0, -1.0];[-1.0, -1.0, -0.9975224370228045]
[0.9926088463244724, -1.0, 0.9999983863659515];[-1.0, -1.0, -1.0];[-1.0, -1.0, -1.0]
[0.017660580078409583, 0.01430146771786236, -1.0];[-1.0, 0.19450761382517673, 0.011990522521048264];[0.007121584383047852, -1.0, -0.2442368818271735]
[-1.0, 0.03986448826427719, -1.0];[-1.0, -1.0, -0.9062537743598551];[0.9999999999999222, -1.0, -0.9078196162135131]
[-1.0, 0.5999609472658607, -0.6604552912914355];[-1.0, -1.0, -1.0];[1.0, -1.0, -0.9991184423365187]
[0.06360408426831181, 0.0957938713041991, 0.11890558821806528];[-1.0, 0.2495816092706053, 0.04430192313424774];[0.11092547331771228, 0.0779366510232333, 0.046215897680054796]
[-0.05353128851469058, 0.05318131816005524, 0.578209659019103];[-1.0, 0.11286786855787939, 0.1482495147698238];[0.03475768149810016, -1.0, -1.0]
[0.9992932823641394, -1.0, 0.08420464487446394];[-1.0, 0.01857401818179647, 0.05731796908315491];[0.38948233678860184, -1.0, -1.0]
[0.9999942422280477, -1.0, -1.0];[-1.0, -1.0, -1.0];[-0.9913981183753385, -1.0, -1.0]
[-0.9094492450430115, -1.0, -1.0];[-1.0, -1.0, 6.806474971384511E-26];[-1.0, -0.7073256808351214, -0.9343396633250294]
[-1.0, -1.0, -1.0];[-1.0, -1.0, -1.0];[-1.0, -0.9999791152281373, 1.2288109776174958E-32]
[0.005765315697228723, -0.22468789452637075, 0.5995718603283492];[-1.0, -1.0, -1.0];[0.2523251347274613, 0.06496144093919407, 0.16908362567297863]
[-1.0, -1.0, -0.9351457309167235];[-1.0, -1.0, -1.0];[-0.06884238969023981, 1.750965165865642E-60, -0.9630062222521063]
[-1.0, -1.0, 3.4070289713994114E-57];[-1.0, -1.0, -1.0];[1.7105435992520927E-57, -1.0, -1.0]
[-0.6861025233861565, -0.6931960177385489, -0.6435519687203594];[-1.0, 0.550403956867273, -1.0];[-1.0, -0.906689021426078, -0.6555883054212914]
[0.07265424082584383, 0.027297703377821038, 0.09195387019088502];[0.014396837319277035, 0.9926769101204101, 0.017808486701644245];[0.03354263413628718, 0.09500357788333753, 0.035526670417813336]
[-1.0, -1.0, -1.0];[-1.0, 0.0992868972317158, 0.9999999999902072];[0.32396430958380146, -0.9065780370410097, -1.0]
[0.008931049035855699, 0.01685493951855475, 0.018409263258915377];[-1.0, 0.02576862344526916, 0.007831231544038043];[0.0249835170644859, -0.0933123242127723, 0.01951928133851321]
[0.01254137433480741, 0.043973331023286856, -1.0];[0.04238685999381534, -0.26499376734524616, -1.0];[0.019035366681020863, -0.6849263052142633, -1.0]
[-1.0, -0.9992004467714963, -1.0];[-1.0, -1.0, -1.0];[-0.9973831676050371, -1.0, -1.0]
[-0.9055374192363126, -0.6771425208781804, 0.04542064388029236];[-1.0, 0.3639710592472968, -1.0];[-0.6819526548386411, 0.008782248292721773, 0.01686707833855158]
[0.06483955879767031, 0.05715691530262891, 0.05414310592380104];[-1.0, 0.31940923585300585, -1.0];[-1.0, -1.0, 0.9977423588759325]
[0.07019367294143701, -1.0, 0.9923250415699195];[-1.0, -1.0, -1.0];[-1.0, -1.0, 0.9999998554922667]
[-1.0, -0.4173552753438816, 0.24472313877843224];[-1.0, 0.19794642867589896, 0.011503703594597278];[-1.0, 0.595401187869626, 0.28899407564276264]
[-1.0, -0.9701482916620717, 0.2994302329618595];[-1.0, 0.5995101174076657, 0.02348635218426808];[-1.0, -1.0, -1.0]
[-1.0, -1.0, -0.9714134368724314];[-1.0, -0.9067848623669239, -1.0];[-1.0, -1.0, -1.0]
[-0.6549404219176775, -0.18425654137386738, 0.04239653403696027];[-1.0, 0.5322496742486063, -1.0];[0.04639947533846358, 0.05122810024938546, 0.014022437052221615]
[0.02484435081918899, 0.001728326118936563, 0.04387054830065031];[0.07153915001747475, 0.9999999557791219, 0.07138191875612555];[0.01622859660688548, 0.033524330429667855, 0.04802988859478209]
[-1.0, 0.002428616684017582, -1.0];[0.021477450131136888, 0.992236961204422, -1.0];[-1.0, 0.005825500947910689, 0.0016614428038097097]
[-0.9868978753641876, -0.9792936218287301, -0.8324811062132794];[-1.0, -1.0, 0.004699907540174178];[-1.0, -0.9906003636846278, -0.9253090224431284]
[-0.21624012712665674, 6.205184459004092E-50, -0.9991565020205209];[-1.0, -1.0, -1.0];[-1.0, -1.0, -0.9696069041900504]
[0.008439103473092503, 0.017317175492125993, 0.09631257020927966];[0.05625231796032363, 0.07388955911161797, 0.024427511137573188];[0.09701120222752775, -1.0, -0.6754579096714711]
[0.3833678162136106, -0.6282070711016987, -0.9048900832110124];[-1.0, -0.906704061252831, -0.282353412856418];[-1.0, -0.6553882374865143, -1.0]
[0.7090106685040609, -0.9717440092060672, -1.0];[-1.0, -1.0, -0.581983426494224];[0.021967122808795793, -0.6061523274811343, -1.0]
[-0.685008157736505, 0.0144574981230422, 0.02714531189069699];[0.027941280783882107, 0.03250510437201994, 0.005644142861669921];[-0.6851790103385813, -1.0, -1.0]
[-1.0, -1.0, -0.6891330723894571];[-1.0, 1.624242421063212E-4, -1.0];[-1.0, -1.0, -1.0]
[0.06160299280574904, 0.008142283238653581, 0.06022931763144007];[0.07108637946637267, 0.9921715365806533, 0.07174594933573646];[0.008857303702186526, -0.9033354937018124, -0.18330401816912612]
[-1.0, -0.8736940750800168, -0.5515568436728815];[-1.0, -1.0, -0.9367548586962083];[0.5668529664756621, 0.04318765057697593, -0.9805586247785502]
[0.0017507800348160797, 0.00949411260183175, 0.024431616828082016];[-1.0, 0.02711267463230988, -1.0];[0.010486901112356228, 0.0511362280511236, -1.0]
[5.284547967136526E-144, -0.7843282613631337, -0.9747923465424453];[-1.0, -1.0, -1.0];[-1.0, -0.025144053756064398, -1.0]
[-0.9999999845555011, -0.9999999503041757, -1.0];[-1.0, -1.0, -1.0];[-1.0, -1.0, -1.0]
[-0.9086282143695869, -0.8997666152422303, -0.9713698314133673];[-1.0, -1.0, -1.0];[-1.0, -0.9075626231313649, -1.0]
[-1.0, -0.9992321550753313, -1.0];[-1.0, -1.0, -1.0];[-1.0, 2.3802153566099627E-18, -1.0]
[-0.2664213004461326, 0.021133486999819574, 0.07039291311466073];[-1.0, 0.07876795101181513, 0.04706709301130102];[0.012734399674720932, 0.02166788030853746, 0.06348071287497727]
[0.015923072719311815, -1.0, 0.007820235659204023];[-1.0, 0.04832498663017051, 0.04231124511428357];[0.03631288648590149, 0.05654801855493116, -1.0]
[-1.0, -1.0, -1.0];[0.00694257088926582, -0.5734509627671264, 0.005461179830482745];[0.010076171847890048, 0.005040659555244159, -1.0]
[-1.0, -1.0, -1.0];[-1.0, -1.0, -0.9915569491043744];[-0.9973887885740256, -1.0, -1.0]
[-1.0, -0.692452663812934, -0.9060886483276762];[0.0021276354481479243, -0.7427084302476213, 0.03401733163997299];[0.3511899428575751, -1.0, -0.6832039062739281]
[-1.0, -0.4941234367877763, -1.0];[-1.0, -0.906385341874753, -1.0];[-0.9027486527091719, -1.0, -0.6774597056314849]
[-1.0, 0.9992716441722002, -1.0];[-1.0, -1.0, -1.0];[-0.6903339131920659, -1.0, -1.0]
[0.017166796901065352, -1.0, 0.01571498859865683];[-1.0, 0.046540108895400924, 0.023478235351530388];[-0.04628531354701099, -1.0, 0.5189422882576711]
[0.04563455997768196, -1.0, 0.006549962019221145];[0.04857604322829188, 0.0015413120334197062, -0.6815956876103658];[0.027973946395453878, 0.035699871856857836, -0.6832028002005153]
[-1.0, -1.0, -1.0];[-1.0, -1.0, 2.4479994281632126E-270];[-1.0, -1.0, -1.0]
[0.4340822983106601, 0.9999999549505086, -1.0];[0.03795603693609648, -1.0, 0.06741564545897945];[-0.6866222466815919, 0.03635973813094441, 0.01023029417682485]
[-1.0, 0.9997931986874138, -1.0];[-1.0, -1.0, -1.0];[-1.0, -1.0, 0.9107304958161861]
[0.03892838643142506, 0.05550883947384532, 0.08351719950308976];[0.04293369429050323, 0.9157461196532013, 0.02981240698154465];[0.0925852247653444, 0.0796886953300525, 0.07129690178031535]
[-0.9985029414358132, -1.0, -0.6512917545594094];[-1.0, -1.0, 0.5999999146576328];[1.0, -1.0, -1.0]
[-1.0, -1.0, 0.004838283097204222];[0.03418631453051373, 0.03729233605273518, 0.03686698688970807];[0.00809465262199789, 0.007986876382207297, 0.5383270061145671]
[0.024265473599631215, 0.01492158047707115, 0.013281199734908239];[-1.0, 0.01799922296976849, -1.0];[0.02532242803109156, -1.0, 0.03919068453828356]
[0.01663622725683178, 0.06292846540124945, 0.01772269093455984];[0.0586874729261911, 0.5813395493615193, 0.0113981177576019];[0.0026466631082720073, -1.0, 0.07222790732135374]
[-0.8434797074380698, -0.8258478231297461, -0.9901831284755733];[-1.0, -1.0, 0.07715638871346917];[-0.9660010567750124, -1.0, -0.9561098416730021]
[-0.9941615095434572, -1.0, -1.0];[-1.0, -1.0, 0.43245269987209833];[-0.9069274281771683, -1.0, -0.9996723800116856]
[0.0807832112046627, 0.35091483967135567, 0.06413168567347229];[-1.0, -1.0, -1.0];[0.38138622287537866, 0.3749879089912028, 0.32230141395468137]
[0.03554776489586248, 0.08966510900461566, 0.9999999999991478];[-1.0, 0.059412989800773724, 0.004152616795304842];[0.08237564464604344, 0.09402591404412358, 0.04401620774959114]
[-0.13306808696280442, -1.0, 0.5830738005138547];[-1.0, 0.039353839569372676, -0.04134301220080672];[0.027804442123017515, 0.19778735295753633, -1.0]
[0.025738360591700926, 0.0502127628081291, 0.04005741826931487];[0.037253907030093736, -1.0, -0.5381695750338549];[0.037239755786469646, 0.015159719735311473, 0.05279634548536452]
[0.9976273933126449, -1.0, -1.0];[-1.0, -1.0, -1.0];[-1.0, -0.6760535467095992, -1.0]
[0.07815721308783113, 0.01573797504718451, 0.027851695695482397];[-1.0, -1.0, 0.09327229232821146];[0.07989687084871036, -1.0, 0.37014384592909205]
[-1.0, 0.42016728475034404, 0.9999999999999978];[-1.0, -1.0, 0.007571087626166335];[-1.0, -1.0, 0.001674199699044684]
[-1.0, 3.381202942218823E-10, -1.0];[-1.0, -1.0, -0.9717317134722465];[-1.0, -1.0, -1.0]
[-0.6913859452972047, -1.0, 0.01356774301308057];[-1.0, -0.5802796768028464, -1.0];[-1.0, -0.6888600660122183, -1.0]
[-1.0, -1.0, 0.012510456266041005];[0.012662715574614004, 0.992135737828221, 0.008821197209007392];[-1.0, -0.6839226777631748, -1.0]
[0.0016916739751748344, 0.0012377557837002528, -1.0];[-1.0, -1.0, -1.0];[0.0011127771708966737, -1.0, -0.23901840003855745]
[0.5078853931478982, -0.13661773521932863, -0.9916569410184356];[-1.0, -1.0, -0.6966980919016171];[-1.0, -0.9300206808464806, -0.977320367129392]
[-1.0, -0.5184990034883821, -0.5273338483816453];[-1.0, -1.0, -0.6984423041959377];[1.3424244295434992E-4, -1.0, -1.0]
[-1.0, 0.041272670874164356, -1.0];[-1.0, 0.03065536314148909, 0.02031738142656532];[0.9999815504537224, 0.033699246567457875, 0.03600154882578795]
[0.5999972412323674, 0.01619453527921344, -1.0];[-1.0, -1.0, -0.6940254760405105];[-1.0, -1.0, 0.4288075345286512]
[1.2507470436124013E-5, -1.0, -1.0];[-1.0, -1.0, -1.0];[-1.0, -1.0, -0.9033249880535243]
[-0.9064933195915647, -1.0, -1.0];[-1.0, 0.599999991746918, -1.0];[-0.961607883075403, -0.8462731120817093, -1.0]
[0.010771058878612409, 0.1464762611678586, -0.19401305949804432];[-1.0, -1.0, -0.2562588971830384];[0.02421786491311957, 0.18587903689232121, -1.0]
[-1.0, -1.0, 0.0013291167086165777];[-1.0, -1.0, 0.011931025080047186];[0.0038358372725483467, 0.002684658869957393, -1.0]
[-1.0, -1.0, 0.999994333413378];[-1.0, -1.0, -1.0];[-1.0, -0.9091073528460978, -1.0]
[-1.0, -0.9670649836068465, -0.9264806382614079];[-1.0, -1.0, -0.697239956813657];[-1.0, 0.5851295145149081, -1.0]
[-1.0, -0.06780546840192384, -0.7719501436264437];[-1.0, -0.6944823034530087, -1.0];[0.003904789682250928, -0.9075967366886747, -0.669900074786387]
[-1.0, 0.05339109967200012, 0.026641709491003186];[0.021356190639075415, -0.680615198889091, 0.04416387745844607];[-0.2754011277891579, 0.014569795393121377, 0.001515690832213268]
[-1.0, -1.0, -0.6811553447385584];[-1.0, -0.6875842345579178, -1.0];[0.0025891796066536865, -1.0, -0.9706182641336248]
[-1.0, -1.0, -0.6844340525263961];[-1.0, 8.448329222654851E-5, -1.0];[-1.0, -1.0, -1.0]
[0.0414169958631314, -1.0, -1.0];[0.07776190088260229, 0.0070455461323333584, -1.0];[0.13496131248792326, 0.034491929992265004, -0.35329793285135236]
[-1.0, -1.0, 0.004898443956440346];[-1.0, 0.0014669504616404553, -1.0];[-1.0, -1.0, -0.6997375402397268]
[-1.0, -0.29917018239769266, 1.0];[-1.0, -1.0, -1.0];[0.5999994988853788, 0.4560072299785309, -1.0]
[0.0733464364892402, 0.051475393044211976, 0.030468256154609377];[-1.0, -1.0, -0.6867316688376696];[0.026201243910280628, 0.05922440582942576, 0.9999999564553399]
[-1.0, -1.0, -1.0];[-1.0, -0.7527298871808806, -0.6704198925466414];[0.2707716573605577, -1.0, -0.6952003247436345]
[-0.4006979178494944, -0.2852361166702711, -1.0];[-1.0, -0.41560034351469466, -1.0];[4.8659700036628715E-4, -1.0, -1.0]
[-1.0, -0.6918175400475087, -1.0];[-1.0, 0.9997989608194527, 0.016706977882876808];[0.018824908132303177, -1.0, -1.0]
[-1.0, 0.9997938457201404, 0.030065219365695475];[-1.0, 0.04980455234263613, 0.050522431387136996];[0.029272104341785378, 0.39730192529081904, 0.0023722662572555064]
[0.36191125231952137, -1.0, 0.025760619520532338];[-1.0, 0.039682040247627774, 0.02953659920426255];[-1.0, 0.03639522151035437, -0.905451196764484]
[-1.0, -1.0, -0.6508537798087054];[-1.0, -0.8696488717763864, -0.5173897806561025];[-0.282912315209061, -0.6090544051519748, -0.9056520096800882]
[-1.0, -1.0, -0.6736909606196518];[-1.0, -0.16351134805302314, -0.682475101245937];[0.008823313318877115, -1.0, 0.028173252660773897]
[-1.0, -1.0, -1.0];[-1.0, -0.6936189593799914, -0.8394737425098806];[-0.6897520764070456, -0.673884265949687, -1.0]
[-1.0, -1.0, -0.863953776263978];[-0.9722658497520572, -1.0, -0.6546274638329842];[-0.9874491076818199, -0.6275119357853414, -0.2897958184057797]
[-1.0, -1.0, -0.9062494956180088];[5.773558784403384E-22, -1.0, -1.0];[-0.9041870993661041, -0.902854216543082, -1.0]
[0.5998784249231396, 0.23071256871218004, -1.0];[-1.0, -1.0, -1.0];[-1.0, -0.9999936995653351, 1.0]
[-1.0, 0.9733381409132361, -1.0];[-1.0, -1.0, -1.0];[-1.0, -1.0, 1.0]
[0.04057983612901728, 0.06436260942524655, 0.042806223077515276];[-1.0, 0.028363355077260233, 0.05447576438284655];[0.01727774160461959, 0.029162353897648676, -1.0]
[0.04580906147740796, 0.04809578110357413, 0.029723793207897854];[-1.0, 0.9752550074972878, 0.08045782113210717];[-1.0, 0.04144117668663652, 0.003565335575477602]
[-1.0, 0.9999994939038869, -1.0];[0.01768136546220267, 0.02148342042071868, -1.0];[-1.0, 0.03521462836321043, -0.6852013382019911]
[0.20273851999684472, 0.0392329457747535, 0.02791926474353499];[0.017958805020491787, -0.2761081510380422, -1.0];[-1.0, 0.02531623444259894, 0.03022309165771386]
[-1.0, -1.0, -0.999999984264676];[-1.0, -1.0, -1.0];[-1.0, -0.9999999497800813, -1.0]
[-1.0, 0.0034072094419666855, -1.0];[-1.0, -1.0, -1.0];[0.0029313389651881906, -1.0, 0.97354309857873]
[-0.9056081543581888, 0.02661944818433261, -1.0];[0.0035335157610169366, 0.007885637587404971, -0.6813394477395709];[-1.0, 0.02280657030250046, -0.6823619460926125]
[0.08304920973618088, 0.044704806216043495, 0.07776955364669486];[0.04898648635404018, 0.0450856199710032, 0.0706201906196522];[0.0273358494028194, 0.010818325748348302, -0.6737701236110019]
[0.005155688166110306, 0.001928395323591181, 0.08278404704616488];[0.0770812522991457, 0.7158996340449758, 0.05496293924951994];[0.010907972820162282, 0.07456120828455508, 0.036774980321811805]
[-1.0, -0.6800865068382409, -1.0];[-0.19975877638652356, 0.24967689763993783, -0.6937866064074655];[0.01730923372154123, 0.013554116046639099, 0.018010907452776892]
[0.016831643331550652, -1.0, -1.0];[-0.6880209786421924, -0.6753691172013485, 0.0018618135021721605];[0.0015532793395632517, -0.6864863727814565, -1.0]
[-1.0, -1.0, -1.0];[-0.9083483747032917, -0.9074050896837772, -0.7596415127271428];[-1.0, -0.907005564246169, -1.0]
[1.0, 0.421418239540024, -0.8991177137970419];[-1.0, -1.0, 0.21024574734243973];[-1.0, -1.0, -1.0]
[3.089058661105348E-4, -0.9918854540433173, -1.0];[-0.9729248115836767, -1.0, -0.781522691311197];[-1.0, -1.0, -1.0]
[3.226043403588846E-23, -0.9012430421273485, -1.0];[-1.0, -1.0, -1.0];[-1.0, -1.0, -1.0]
[-0.9077299508087664, -1.0, -1.0];[-1.0, -0.9034999607577363, -1.0];[-1.0, -1.0, -1.0]
[-1.0, -1.0, -1.0];[-1.0, -1.0, -0.9997718254192485];[-1.0, 1.2552617915186127E-19, -1.0]
[-1.0, -0.6856571131592758, 0.012826226425852395];[-1.0, -0.20748802908252767, -1.0];[-1.0, 0.009006125758990718, -1.0]
[-1.0, 0.015200827308235798, 0.006227142107651085];[0.03441357905617272, 0.005206314374496491, 0.013555974798698127];[-1.0, -1.0, -1.0]
[-1.0, -1.0, 0.0013591871105701698];[-1.0, 0.0024111394608847345, -1.0];[-1.0, -1.0, -1.0]
[-1.0, 0.06441532406002362, 3.9251105725648385E-4];[0.018060714278591093, 0.027310476417382802, 0.058325354471447925];[0.031530581956432956, 0.05015776666798785, 0.0416862321472638]
[-1.0, -1.0, -1.0];[-1.0, -1.0, -0.9974805075059816];[-1.0, 3.3157270158895896E-33, -1.0]
[0.01121701070157971, 0.09344633912884853, 0.010119594032002866];[0.012415312069273056, 0.9999822006695049, 0.08632498225207608];[0.004482803988390816, 0.013430271604976764, 0.022244500280794922]
[0.43413057231099395, -1.0, -1.0];[0.39883962953457675, 0.04827133104452156, 0.9999999569419689];[0.08451106872622435, -1.0, -1.0]
[-0.9962104811228094, -0.990441888536868, -1.0];[-1.0, -1.0, 0.12325612995129187];[-1.0, -1.0, -0.9973652365681799]
[0.029611150737028125, 0.07605888363151557, 0.04937867812748336];[-1.0, 0.7228233292920131, 0.06657418112010265];[0.012598236959693077, 0.015156881121140798, 0.07406659363521444]
[-1.0, -1.0, -1.0];[0.9999999533736785, -1.0, -1.0];[-1.0, -1.0, 0.012123920434704429]
[0.009396207875701069, 0.027866544074696787, 0.030819869441171956];[-1.0, -0.18924080432295554, -1.0];[-1.0, -0.6742589253158798, 0.513188628274294]
[-1.0, -1.0, 0.3905316105054314];[0.328068366297633, -0.38970096314840763, -1.0];[-0.6824249414800062, 0.04157003120746263, -0.6946211612535257]
[-1.0, -1.0, -1.0];[-1.0, -1.0, 0.09714298950223926];[-1.0, -0.9912601766704703, 0.9999999998851031]
[0.0056187975345087324, -1.0, 0.015800687299613037];[-1.0, -0.39363218506436254, -1.0];[0.006890349215141567, -1.0, -1.0]
[9.304847553002372E-92, -1.0, -1.0];[-1.0, -1.0, -1.0];[-0.9999999999887257, -1.0, -1.0]
[-1.0, -1.0, -1.0];[-0.8568966240593788, 0.5999975756914309, 0.059476637260847724];[-0.6806896603078794, -1.0, 0.9134522692508635]
[-0.9978725868224945, -1.0, -0.610228939758893];[-0.9824356097725692, -1.0, -1.0];[-0.9976886788335471, 0.2855275909537716, -0.9896203844940834]
[-0.40510692980774066, -1.0, -0.9912618554087659];[-1.0, -1.0, -1.0];[-0.906816272846027, -0.7829499570591146, -1.0]
[-1.0, -1.0, -0.999993785226904];[-1.0, -1.0, -1.0];[-1.0, -0.9999799919859546, -1.0]
[-1.0, -1.0, 0.011624628376662397];[-1.0, -1.0, -1.0];[-0.5401924222730333, -0.6958606989996658, -0.9011654135928575]
[-1.0, -1.0, -0.06966872318818784];[0.010663429389074342, 0.2688010404241642, 0.013186984220557016];[0.020467247967556106, 0.020389228320731756, -0.034901947216331886]
[0.03377722686677325, -1.0, -1.0];[-1.0, -1.0, -0.12087750572865097];[0.999999851232818, 0.4319601065056665, -1.0]
[0.0012591965219184236, -1.0, -1.0];[-1.0, -1.0, -1.0];[0.9999999866772273, -1.0, -1.0]
[-1.0, -1.0, 0.4330616167745312];[0.06307534631184873, -1.0, 1.0];[-1.0, 0.0640077269551025, 0.025290597640381718]
[-0.6901527069041935, 0.012983950111484144, -1.0];[-1.0, 0.5248886785247336, 0.04015891705378823];[-1.0, -0.6884534965864753, 0.01464257737607293]
[0.5734482649266242, -1.0, -1.0];[0.9999999998860154, -1.0, -1.0];[0.0041723839757924, -1.0, -0.8706980702701488]
[0.5469725186308141, -1.0, 0.599999999699985];[0.009940216926353707, -1.0, -1.0];[0.004220070366848417, -1.0, 0.4404663284626396]
[0.0028637556056544475, -1.0, -1.0];[-1.0, 0.45789995246725834, -0.406707427611746];[0.006749668378048113, -1.0, -1.0]
[0.040776852698546744, -1.0, 0.04085173445705357];[0.13225830687832757, 0.054061050732254534, 0.023690932029063416];[0.5929107657699692, 0.05605343544370213, -0.033336483293310126]
[0.02340932183472555, -1.0, 0.026312173299678006];[0.9997952091120977, 0.02929631001444143, -1.0];[0.04330721064162335, 0.05724553959193957, -1.0]
[0.006432980745775763, 0.03710237869072126, -1.0];[0.08017172227306629, 0.43637954146734087, 0.31252114036821127];[0.03887565761674431, 0.02116807168145741, 0.5999993994054997]
[-1.0, -1.0, -0.04586860857201533];[0.1239048270299569, 0.007120605375850297, 0.0281198533627549];[0.42386926787322743, 0.02570967528916748, 0.009656882959136038]
[-1.0, 5.8795233591302234E-5, -1.0];[0.5437258742374268, 0.03437194912975716, -0.19993901977934597];[0.26040894890214894, 0.008291402646270906, -0.26007316697526506]
[-1.0, -1.0, -1.0];[-0.6704997214909963, 0.992237234161238, 0.03451723320847373];[0.004688754747494229, 0.036369911524506526, 0.0131347165145845]
[0.0481130697158081, 0.06710056397984225, 0.06188979488552914];[0.9977832740592089, 0.04189107652822972, 0.06968732699831677];[0.007538962754766277, -1.0, 0.02523931693350765]
[-1.0, -1.0, 0.06226390604030453];[0.026865299507055143, 0.04339943414448049, -1.0];[0.9993196738220893, -1.0, 0.02234674862326831]
[-1.0, -1.0, 0.007077055299738056];[0.06238694763946128, 0.5996751617130953, 0.011016110918258305];[0.024294466965234376, -1.0, -0.5725568990644576]
[-1.0, -1.0, -0.9992861395248509];[0.14107650885038997, -1.0, -1.0];[-0.5596392570793225, -1.0, -0.6541741003422102]
[-1.0, -1.0, -1.0];[5.225504104877644E-249, -1.0, -1.0];[-1.0, -1.0, -1.0]
[-1.0, -1.0, -1.0];[0.9976532047301916, -0.9705236271563986, 0.016087311470431853];[-1.0, -0.6718784512190445, -1.0]
[-1.0, -1.0, -0.6750260939267695];[0.035310820519373176, 0.04096292134720453, -0.6703151235302973];[-1.0, 0.03875089035725955, 0.034950887801144324]
[-1.0, 0.03565475294858147, 1.0];[-0.6369037758581685, -1.0, -1.0];[-0.6972732161165593, 0.459734965806789, -1.0]
[-1.0, -1.0, 0.5999999129451512];[-0.9640611704169674, -1.0, -0.8991906388674209];[1.0, -1.0, -1.0]
[-1.0, -1.0, -1.0];[1.624387859449801E-26, -1.0, 1.0];[-1.0, -1.0, -1.0]
[-0.6307179345007022, -1.0, -0.6897955012469812];[-1.0, -1.0, -0.9728535448906834];[-0.959849275470144, -0.024055290731081733, -0.9277467742066301]
[1.0, -1.0, 0.011633705805832829];[-1.0, -1.0, -0.6392081073185276];[-1.0, 0.14757383952375092, -0.8908228523555245]
[1.0, -1.0, -1.0];[-1.0, -1.0, -1.0];[-1.0, 0.9992755500025946, -1.0]
[0.02785248761691622, 0.01575389188791685, 0.039995550829480336];[-1.0, 0.5996067914641988, 0.034531116933223804];[-1.0, 0.024586650193408766, 0.02964033342813975]
[-0.692373569166762, -1.0, -1.0];[0.02141304953364298, 0.023248295591515145, -0.6853027155006027];[-1.0, -1.0, 0.017415097488031606]
[-1.0, -1.0, -1.0];[-1.0, 0.9977958746004322, 9.944805591491467E-4];[-1.0, -1.0, 0.7201167952902774]
[-0.999189075072481, -1.0, -1.0];[-1.0, -1.0, -0.9894519850684177];[-0.9971456134140271, -0.0880956897562929, -1.0]
[0.03135598509500942, -1.0, -1.0];[-1.0, 0.04684676547916105, 0.029912078723475954];[1.0, 0.049308282271107166, -0.9715536405441065]
[0.22353043169120657, -1.0, -1.0];[-0.9991835186627962, -1.0, -0.9697599775447634];[-1.0, 1.0, -1.0]
[-1.0, 0.010776643085436279, -1.0];[-1.0, 0.04119813172397682, 0.01193475054498126];[-1.0, 0.00479627406148512, 0.013306824898822844]
[-1.0, -1.0, -1.0];[-1.0, 2.148574824892295E-4, -1.0];[-1.0, -1.0, 0.0011345928472702303]
[-1.0, -1.0, -1.0];[-1.0, 0.0015231017476111468, -1.0];[-0.6711567694015586, -1.0, -1.0]
[-0.6834841140194409, -1.0, -1.0];[-1.0, -0.677491539988431, -0.9043806498760326];[-1.0, -1.0, -0.6902255320383928]
[-1.0, 0.018914580307668995, 0.023621240270033886];[0.008844393605612367, 0.016990991709662274, -1.0];[0.01571660602934254, -1.0, 0.017756493027561302]
[0.048837333974509727, 0.003036332640644557, 0.04983250224527575];[0.02749382149929701, 0.0718650571274345, 0.004318616614000037];[0.01721713753887615, 0.037265276467989064, 0.06793923443552718]
[-1.0, -1.0, -1.0];[-0.6822377474541476, 0.9128665764852739, -1.0];[0.02719553971064037, 0.030247779077514893, -1.0]
[-1.0, 0.14847524759966346, 0.14709809553663866];[-1.0, -1.0, -0.5352782083582446];[-1.0, -1.0, 1.0]
[-1.0, -0.9992336559351228, -1.0];[-1.0, -1.0, -1.0];[-1.0, -1.0, 1.0]
[-1.0, -1.0, -0.9973899611648717];[-1.0, -1.0, -1.0];[-1.0, -1.0, -0.9975449078979106]
[-1.0, -0.5833159402862949, 3.39996579972531E-4];[-0.02169886292157179, -1.0, -0.08728416669157378];[0.001020898548631662, -0.20828818329672782, -1.0]
[-1.0, -1.0, 0.5689120820306693];[-0.9909278284132332, -1.0, -0.9991100222992113];[-1.0, 1.0, -1.0]
[-1.0, 0.4361689209529094, -1.0];[-0.975270291164269, -1.0, 0.14068827737077583];[-1.0, 1.0, -1.0]
[-1.0, -1.0, -1.0];[-1.0, -1.0, 1.227126215271947E-4];[-1.0, 1.0, -1.0]
[0.029392892288235162, 0.04228778156993905, 0.012361450733437685];[0.04090471947268114, 0.04019380709585699, -1.0];[0.13701539081733283, 0.024515079709478256, 0.020364224414290834]
[-1.0, 0.003416215945855572, -1.0];[0.035345406325234266, -0.6973378201830713, 0.03459823811733688];[0.025609377869451957, 0.9740704459355871, -1.0]
[-1.0, -1.0, -1.0];[-1.0, -0.687307631499892, -0.6830188135850382];[0.017520798725116523, 0.0066992487052084165, -1.0]
[-1.0, -1.0, -1.0];[-1.0, -1.0, -1.0];[0.008279304020852165, 0.9999379352404651, -1.0]
[-1.0, -1.0, -1.0];[-0.9072494976867866, -1.0, -0.9287563560059414];[0.175179337863617, -0.9715755517851837, -1.0]
[-1.0, -1.0, -1.0];[-0.9999999953770873, -1.0, -1.0];[2.299637448171113E-58, -1.0, -1.0]
[-1.0, -1.0, -1.0];[-0.9712317117674245, -1.0, -1.0];[-0.936262174552622, -0.9725902012587316, -0.9161791638052869]
[-1.0, -0.9036753376036294, -0.6844362463952521];[-0.882280850126074, 0.35438185816293494, -1.0];[0.011419325472767918, -0.6925553173952306, -1.0]
[0.014278051728603925, -1.0, -0.6796317272498571];[-0.6733577341802186, 0.0019262034447975363, 0.03147566422484315];[0.060919998212189796, -1.0, -1.0]
[-1.0, -1.0, -1.0];[-1.0, -0.9728127478021473, -1.0];[-0.9911633669517289, -1.0, -1.0]
[-1.0, -1.0, -1.0];[0.38652324689981854, 0.599999979878315, -1.0];[-0.2388120829172593, -0.4397712484890259, -1.0]
[-1.0, -0.767846306666583, -0.9571252782230835];[-0.903015240469875, -1.0, -1.0];[-0.9410998021311456, -0.970093844501973, -0.14067613682766433]
[-1.0, -0.0058415284743078034, 0.5571243293384308];[-1.0, -1.0, -1.0];[-1.0, -0.6217900957357336, 0.6]
[0.03500675486527782, -1.0, 0.02454926328872058];[0.9999999999999761, -1.0, -1.0];[0.7158340014745543, -1.0, 0.001689444108314786]
[0.045560418080084576, -0.6744348765408132, 0.02264954437032576];[0.9999812244121277, 0.0051336720260021125, 2.4567362677266894E-4];[-1.0, 0.019965172250641997, -0.6718047757225981]
[0.06820573464365703, 0.032573532143660024, 0.05848109339809852];[0.017245764696180676, 0.7262113465859348, 0.043882674629876176];[0.07647599025487681, 0.01512146759878773, 0.010614711051141468]
[0.016714731538009998, 0.03395522033980174, 0.015736063701019886];[-1.0, 0.992184720062994, -1.0];[-1.0, -0.680224500435362, -0.6747569764859975]
[-1.0, -0.6730891708193694, -1.0];[-1.0, 0.7173386073496063, 0.039885781378917566];[0.007195834755795627, 0.028322320700898285, 0.01850444097568027]
[-1.0, 0.022228720872535992, -0.9062282129178684];[-1.0, 0.9992969220654466, 0.002858010255030552];[-1.0, 0.03568397128467141, -1.0]
[0.055968795180915715, 0.012502964361575043, 0.712214743002806];[0.07638085021140267, 0.999329114806766, 0.03112754933137121];[0.027542096535513396, 0.04124018021355874, 0.0065232412893652895]
[0.00208372656287501, 0.013874428462122064, 0.020763160075870847];[0.013606636324782678, 0.013452444325565882, 0.02893676835988881];[0.027258390910695818, 0.03363563130152628, 0.02956372914376363]
[-1.0, 0.0021853158903953453, -1.0];[0.037356030901058365, -0.2677599693824695, 0.002210415968065127];[-1.0, -0.6857889267931286, 0.0068494231164839565]
[-1.0, -1.0, -1.0];[-1.0, -1.0, -1.0];[-1.0, -0.9999999999618602, 3.3957723327020804E-73]
[-1.0, -1.0, -1.0];[-1.0, 0.9735477643951468, -1.0];[-1.0, 0.9999999999660549, -1.0]
[-1.0, -0.9336144824415817, -1.0];[-1.0, -0.9882022178329923, -0.6301260212429571];[-0.19141564269540026, -0.9069813335694742, -0.9347921180650691]
[0.012415814655773662, 0.030007999393712383, -1.0];[-1.0, -0.6572671616814718, 0.0339807291918436];[0.037984519944975356, 0.04165039157045229, 0.9999379327479805]
[-1.0, -1.0, -1.0];[-1.0, 0.9999808442504664, -1.0];[-1.0, -1.0, 0.7027460971876145]
[-1.0, -0.8257097745985776, -1.0];[-0.9844406653178237, -1.0, -0.523807903139153];[-0.7985346408778238, -0.9027149613127734, 0.03814539096923854]
[-1.0, -1.0, -1.0];[-1.0, -1.0, -0.999999948451249];[-1.0, -1.0, 6.4247257612079455E-40]
[-1.0, -0.9780273290647673, -1.0];[-0.9641577516153486, -1.0, -1.0];[-1.0, -0.9689375264041175, -0.8981216571365896]
[0.07288300183962114, 0.023000625948776044, 0.03001968773453271];[0.028302876313483685, 0.9167675465612998, 0.07202078691829775];[0.006444559241349546, 0.023873053568783376, -0.6718781885133875]
[0.06409166040035955, -1.0, -1.0];[-1.0, -1.0, -0.6940741527802147];[1.0, -0.684912242038368, 0.4435029579451238]
[0.033645942468060776, 0.035757075988249565, 0.07828689397011301];[0.08882056288250104, 0.03510276803387043, 0.019480495700815715];[0.09308236944335507, 0.04814960761271593, 0.09106255147947007]
[0.034558068592652105, 0.040631813279220046, 0.028832707297764472];[0.9146559431870569, -1.0, -1.0];[-1.0, 0.9999819378495143, -1.0]
[-1.0, 0.02368072365694607, -1.0];[0.24184433164395314, -0.003295248523882466, -0.07015086481971522];[-0.2446310955402877, 0.048923056186522464, 0.24301964010096264]
[-1.0, 0.21054469030931267, -1.0];[0.2100579887345121, -1.0, -1.0];[-0.6353888935236042, -1.0, 1.0]
[-1.0, -0.9018277008750605, -1.0];[-1.0, -1.0, -1.0];[-1.0, -1.0, 0.9999999999999998]
[-1.0, -0.9992765380525195, -1.0];[-1.0, -1.0, -0.8890579690451856];[-1.0, -0.9908606768174167, -0.8662071087109637]
[-1.0, -0.9992418506935477, -1.0];[-1.0, -1.0, -1.0];[-0.9906934633303663, -0.9909279995818782, 1.0]
[0.06280721749975197, 0.5162098943437426, 0.07555774399514707];[0.03184884239459512, 0.07628276086284647, 0.06066885006755969];[0.07964033078878321, 0.06492931337566864, 0.010868845990990961]
[-1.0, -1.0, -1.0];[-1.0, 0.0019370194907920874, -1.0];[-0.6958686990767946, -1.0, -1.0]
[-1.0, 0.026541480222583645, 0.04420952909276643];[-1.0, 0.1809937299559582, 0.9999365697879694];[0.418572726427221, -1.0, -1.0]
[-1.0, -0.6705941387141587, -1.0];[-1.0, -1.0, -1.0];[0.9999998534521374, -1.0, 0.05066596500903323]
[-1.0, -0.6916043526721605, -1.0];[-1.0, -1.0, -0.8109209097734924];[-0.9057107455155642, -0.6884682673692746, -1.0]
[-1.0, -0.9999944145709562, -1.0];[-0.08823789672990184, -1.0, -0.9999981678478539];[-1.0, -1.0, -0.9999705632084774]
[-1.0, -0.6820029348249742, -1.0];[0.019549985881808125, 0.022465347032874918, -1.0];[0.03131740675756011, -1.0, 0.0181703476963512]
[0.010988707751607318, 0.03330233387312992, 0.4314495317066438];[-1.0, 0.012862923234507684, -0.677443591424715];[-1.0, 0.04413912561980789, 0.03950870484329499]
[-1.0, 0.006610879932395975, 0.013147584495183485];[-1.0, 0.9923046146334202, 0.01592202345359314];[-1.0, -1.0, 0.025188433408841915]
[-1.0, -0.9712682061479735, -1.0];[-1.0, -1.0, -0.6890523776354497];[-1.0, -0.724548736048439, 0.04914903771351736]
[0.026002340806161074, 0.03275946672685365, 0.02680093919022354];[-1.0, 0.9130474578532284, -1.0];[0.028579518997851328, 0.007915868180672903, -1.0]
[-1.0, -0.971372194486865, -1.0];[-1.0, 0.016998449952904254, -0.9979882119623497];[-1.0, -0.9366942841748042, -1.0]
[-1.0, -0.2941626378909561, -1.0];[-1.0, -1.0, -1.0];[-0.6023551421912131, -0.9367964772519309, 9.120509530772559E-153]
[-1.0, -0.9974719781716852, -0.9922169676854707];[-1.0, -1.0, -0.9917307071005723];[-1.0, -1.0, -0.9977701715591275]
[-1.0, -0.9133557867672824, -0.7817799780574317];[0.12610896488234874, -1.0, -1.0];[1.0, -1.0, -1.0]
[-1.0, -1.0, -1.0];[0.0018808133290489394, -1.0, -1.0];[1.0, -1.0, -1.0]
[0.017506346032623767, 0.00588071131243525, 0.08227503063287543];[-0.6744713754870172, 0.04992373927714865, 0.07946455104499044];[0.0187407200836477, 0.023574455024311516, 0.07868355006837913]
[-1.0, -1.0, -0.6911668628375008];[-1.0, -1.0, -0.6877892291697875];[0.2974676467954114, -1.0, -0.20671355667939034]
[-1.0, -1.0, -1.0];[-1.0, -1.0, 1.214158194076355E-15];[-1.0, -1.0, 1.4175252049698533E-15]
[0.032112147024026795, 0.019204645702435786, 0.009388814757601938];[-1.0, 0.0413356505564821, -1.0];[-1.0, -0.684105038358718, -0.6895160695194756]
[0.04360789226496556, -1.0, 0.08151203417596907];[-1.0, 0.0144205133676517, -1.0];[-1.0, -1.0, 0.9992925962933847]
[0.01795400655943015, 0.03323624849306503, 0.010150346443511704];[-1.0, 0.4342258447125979, 0.021992805632562763];[-1.0, -0.16536931171733937, -1.0]
[-1.0, -0.9999761086868837, -0.26656552319762494];[-1.0, -1.0, 2.5098607477590264E-152];[-1.0, -0.9363169404123389, -1.0]
[-1.0, -1.0, -0.9999999999999998];[-1.0, -1.0, 4.1330817396363215E-208];[-1.0, -1.0, -1.0]
[-1.0, -1.0, -0.22068388715938558];[-1.0, 0.008821566643404688, 0.014883375754653962];[-1.0, -1.0, 0.004745343261239626]
[-1.0, -1.0, -1.0];[-1.0, 0.9975951799959526, -0.694394294816323];[-1.0, 0.0012329503199391856, -1.0]
[-1.0, 0.012417332858322472, -1.0];[-1.0, 0.011049518297560044, 0.021922579896492635];[-1.0, 0.009203129671390621, 0.5961425365351529]
[0.03846327302283071, 0.026211386342497908, -1.0];[-1.0, 0.03235084581124216, 0.01611133677866565];[0.0149670898599241, 0.1530825363392177, 0.3431458308389749]
[-1.0, -0.6725638119493165, -1.0];[0.09127094624065481, 0.08912378008467532, 0.05827451566897181];[-1.0, -0.6705880224534732, -1.0]
[0.9999945726400391, 0.0193456168875087, 0.0014551870463583305];[-1.0, -1.0, -1.0];[-1.0, 0.42352235663958204, -1.0]
[0.13042291684325957, -1.0, -0.6819457686675441];[-1.0, -1.0, -1.0];[-0.6995509585016295, -0.4141497113393148, -1.0]
[-1.0, -1.0, 1.0];[-1.0, -1.0, -1.0];[1.1771960015471918E-10, -1.0, -1.0]
[0.12024660328098791, 0.1524539004595007, -1.0];[-1.0, -1.0, 0.04154725379574789];[-1.0, 1.0, -1.0]
[-0.6866553186366793, 0.03610804936006217, 0.025981061559992902];[-1.0, 0.9921955705214165, -1.0];[-1.0, -1.0, 0.00577337322681516]
[0.06073182351832024, -0.49613880442179725, -0.6853008146223177];[0.060353853463580145, 0.04937672029636329, -1.0];[0.03895539563221522, 0.018292114743216428, 0.5991569375810322]
[-1.0, -0.9655872261985812, -0.9882159086086282];[-1.0, -1.0, 2.914556665637481E-22];[-0.9728501182062043, -1.0, -1.0]
[-0.5923147392378403, -1.0, -0.642252836174652];[-1.0, 0.1814643101837438, -1.0];[0.015844583032003336, -0.6068913026254521, -0.6825668616554115]
[-1.0, -1.0, -0.2800371523218844];[-1.0, -0.6882067187803247, -1.0];[-0.6997314023426283, -0.6815904320569361, -1.0]
[-1.0, -1.0, -1.0];[-1.0, -0.9072725202928587, -1.0];[-0.6937271825423881, -1.0, -1.0]
[0.01372826827982937, -1.0, 0.21338082012248266];[-1.0, 0.0028457935012497606, -1.0];[-1.0, -0.37465576844199255, -1.0]
[-1.0, -1.0, -0.6797739020602985];[-1.0, 1.4710051227432745E-4, -1.0];[-1.0, -1.0, -1.0]
[-0.966291313097597, -1.0, -0.6938960487940811];[-1.0, -1.0, -0.9079403665152042];[-1.0, -1.0, -0.8591339828303401]
[0.9999362364906847, -1.0, -0.6736684379071907];[-1.0, -1.0, -1.0];[-1.0, -1.0, -1.0]
[-0.2723366173060547, 0.0015930665339109473, -1.0];[-1.0, -0.4035705369854836, 0.00421672552780894];[0.015802916703871295, 0.013618406156081132, 0.01592255475842826]
[-0.999999999595155, -1.0, -1.0];[-1.0, -1.0, -1.0];[1.2566952452158967E-107, -1.0, -1.0]
[-0.9659664458816133, -1.0, -0.9078601092186313];[-1.0, -1.0, -0.9043763079632162];[-0.9074608111959909, -1.0, -1.0]
[-1.0, -1.0, -1.0];[-1.0, -1.0, -0.9999791882127933];[-0.9999343891344517, -1.0, -1.0]
[1.3880816751678881E-30, -1.0, -1.0];[-1.0, -1.0, -1.0];[-1.0, -0.9999938721107591, -1.0]
[-1.0, 0.011448316374657364, 0.03576442285229299];[-1.0, 0.5922294661563259, -1.0];[-1.0, 0.02048522594521808, -0.8815140684103953]
[-1.0, 0.02974305767831661, 8.901064983847129E-4];[0.04517817004574646, 0.9153328006600027, 0.02012944622380517];[0.01550190405726657, 0.03346448544357163, 0.024991910482073422]
[-1.0, -1.0, 1.755044024357236E-164];[-1.0, -1.0, -1.0];[-1.0, -1.0, -1.0]
[-1.0, 0.03155599979608157, 0.9924616360251842];[0.04074664931579051, 0.058655208526170136, 0.04039658754276823];[0.059794390227386154, 9.098406636837364E-4, 0.020370191476120528]
[0.05799186088516428, -1.0, 0.9750859946593485];[0.044224431641668276, 0.01501930448573191, 0.025073982410861975];[0.03529182772972528, 0.06691691026916538, 0.062451487637283865]
[-1.0, 1.7983565437907617E-241, -1.0];[-1.0, -1.0, -1.0];[-1.0, -1.0, -1.0]
[-1.0, -0.9999978410677078, -0.6639199033109362];[-1.0, -1.0, -1.0];[-0.9998976569646408, -1.0, -0.9991815343262859]
[-0.6908425151233657, -1.0, -1.0];[-1.0, -1.0, -1.0];[5.824448287984042E-6, -1.0, -1.0]
[0.9999999999999751, -1.0, -1.0];[-1.0, -1.0, -1.0];[-1.0, -0.9975120760575733, 6.318074393470319E-4]
[-1.0, -0.6755730725873146, -0.6951818576662849];[-1.0, 0.4673293629302624, -1.0];[0.03768216388253818, -0.6937120064360269, -0.6900466833761654]
[0.07314456841460781, 0.9176962419716526, 0.053822772666113274];[0.08143895645562194, 0.009494035966384574, -1.0];[0.02099434293446835, 0.02584628302759956, 0.05007032423655429]
[-1.0, -0.604356092855258, 0.007446632876476955];[-1.0, 7.413178994602033E-4, -1.0];[-0.881098630696072, -0.5273929919871327, 0.9999364179439539]
[0.004213522721253349, -1.0, 0.037569350820607895];[0.07951998303963925, 0.014576076843519026, -1.0];[0.08163152543232027, -0.9011936549809189, 0.9999983880979979]
[-1.0, -1.0, -0.8983833409627683];[-1.0, -1.0, -0.8976873678902446];[-0.9720277514184981, -0.999747794949225, -1.0]
[0.037175608028660274, -1.0, 0.04431279958013351];[-1.0, 0.9744436598148997, 0.011202490941099753];[0.049778845148254626, -1.0, 0.02793733826887487]
[-1.0, -1.0, 0.7131796009712699];[-1.0, 0.023860469910190064, 0.010271068723089506];[0.012976126219936879, -1.0, 0.025485280144516165]
[-1.0, -1.0, -0.9992649847592906];[-1.0, -1.0, -0.9791983221904861];[-1.0, -0.991722231739848, -0.9879594216210231]
[-1.0, 0.07309320908944396, -1.0];[-1.0, -1.0, 0.07068742669119266];[-1.0, 1.0, -1.0]
[-1.0, -0.964439557836492, -0.816149079108232];[-1.0, -1.0, 0.0020979606111006938];[-0.9049281319462996, -0.20151161375198667, -0.47367986096525966]
[-1.0, -1.0, -1.0];[-1.0, -1.0, -0.9791732430302436];[-0.27527142180396136, -0.9539337794967162, -0.9728797589275557]
[0.9999998473485749, -1.0, -1.0];[-1.0, -1.0, -0.903532514711824];[-1.0, 0.003363471886008851, -1.0]
[-0.8958737662763763, -1.0, -0.9972561804732963];[-1.0, -1.0, -0.3173896562558006];[-0.9338129528606691, -0.6712295465502356, -0.9604229638318977]
[-0.9997354071569216, -1.0, -0.9606639556912221];[-1.0, -1.0, -1.0];[-1.0, -0.9911198350319047, -0.9991080020110474]
[-0.9997657866941069, -1.0, -0.9992283588116286];[-1.0, -1.0, -1.0];[-1.0, -1.0, -1.0]
[-0.6454858219626574, -0.04420863807853408, -0.9901793485369063];[-1.0, -1.0, -0.6698497615221624];[-0.5235735165092223, -1.0, -0.783893918169763]
[-1.0, 0.24938881238839572, 0.1226325353141251];[-1.0, -1.0, -0.9595168383423003];[1.0, -1.0, -1.0]
[-1.0, 0.21306524103299085, 1.0];[-0.6554720245899578, -1.0, -1.0];[-1.0, -0.9974704161795678, -1.0]
[-1.0, -1.0, -0.9011031177082895];[-0.7808413656961903, -1.0, -1.0];[-0.9094787394263755, -1.0, -0.880626284191034]
[-1.0, -1.0, -1.0];[-0.9364392666225159, -1.0, -0.9991829247854008];[-1.0, -0.9976694731617534, -0.9990068983273201]
[-0.9906830409985613, -1.0, -0.9963643314116349];[-0.9747697796984018, -1.0, -1.0];[-1.0, -1.0, -0.6329366578702722]
[-0.9994713131424232, -0.9753693967560334, -1.0];[-0.9280705772237857, -1.0, -1.0];[-0.25042513625328167, -0.97315298144805, -0.9284085322424227]
[-1.0, -0.9625107292317092, -1.0];[-1.0, -1.0, -1.0];[-0.9029660893789038, -0.9973887770371199, -0.9069840932352773]
[-0.5614970658428295, -1.0, -0.9974653586101998];[-1.0, -1.0, -0.9980787713642691];[-1.0, -0.9980551299607314, -1.0]
[-0.9974354489813603, -1.0, -1.0];[-1.0, -1.0, 1.0];[-0.9997652205926857, -0.8661450681160132, -1.0]
[-1.0, -1.0, -1.0];[-1.0, -1.0, 1.0];[-1.0, -0.9709165225337104, -1.0]
[-0.9919184811534268, -1.0, -1.0];[-1.0, -1.0, -0.6084843181157209];[-1.0, -0.9975708188984487, -0.6246796197178937]
[-1.0, 0.221601941704466, -1.0];[0.011462115271185895, -1.0, 1.0];[-1.0, -0.9942564632187414, -1.0]
[-1.0, -1.0, -1.0];[2.0355310107314067E-17, -1.0, 1.0];[-1.0, -1.0, -1.0]
[-0.3103866322994171, -0.8442951933664615, -0.6553065594228367];[-0.5237915602233336, -1.0, -1.0];[-0.7892427478061355, -0.8320465700144013, -1.0]
[-1.0, -1.0, -0.9705476433353667];[-1.0, -1.0, -0.9862622169075339];[-0.9709895485920657, -1.0, -0.9669044593844075]
[-0.996972048176137, -1.0, -1.0];[-0.9975124716584951, -1.0, -1.0];[-0.9975498905680974, 0.45632560610945166, -1.0]
[-0.9992000946258796, -1.0, -1.0];[-1.0, -1.0, -1.0];[1.0, -1.0, -1.0]
[-0.9718833517647125, -0.6789636490302225, -1.0];[-1.0, -1.0, 1.0];[-0.5348096092955616, -1.0, -1.0]
[-1.0, -0.48052350544071465, -1.0];[-0.987930579488031, -1.0, -0.20337521267838388];[0.13848009741758838, -0.5693353426817619, -0.8777347733085277]
[-1.0, -0.9916910905518175, -1.0];[-0.9969291700362874, -1.0, -1.0];[-0.66323936362045, -0.9964406032342908, -1.0]
