[2.7197871649188827E-6, 0.0037200356786464385, 0.058367129391368025];[0.031168800154591114, 0.06727828594468581, 0.05755064990223441];[0.019381451963302977, 0.06835561962357709, 0.07635222809220582]
[3.544295746055304E-5, -0.12846513023596468, -0.3562657933631];[-1.0, 4.1189155656582127E-4, 7.709684867207095E-5];[0.007122016683804909, -0.3179476396610395, -0.1599900698688859]
[-0.4530902166235926, 0.0015666782441335829, 0.35996259772007194];[-1.0, 0.05417071337919621, -0.30390716841776166];[-0.08879894866000343, -1.0, -1.0]
[-0.998970826449022, -1.0, -0.9719687571127611];[-1.0, -1.0, 7.641025472475092E-7];[-0.9993364498662997, -1.0, -1.0]
[-0.3493179873892625, -0.24254261082609013, -1.0];[-0.2486848709730037, 0.1786852016725844, -0.26887045749220895];[-0.31036129467598106, -0.2688639611923138, -0.16267194110566016]
[0.020296455296367793, -1.0, 0.01849009237783014];[-0.684921484086917, -1.0, 0.01240860103270339];[0.008505926704560341, 0.01978121705264887, -0.36904356521156156]
[-0.9727183469953065, -1.0, -1.0];[-1.0, -1.0, -1.0];[1.053509143283762E-7, -0.9088100807671611, -0.20780283065774302]
[-0.9999298096631246, -1.0, -1.0];[-1.0, -1.0, -1.0];[-0.999933421501077, -1.0, -1.0]
[-0.06794899388135849, 1.781569091285414E-6, -0.06292505575278787];[-0.28467716349737776, 2.870229102150945E-6, -0.005191756246298883];[4.075129164870745E-6, -1.0, 2.3052414555784436E-6]
[-0.1331824532894899, -0.4160836098755496, 2.0740780362771664E-9];[-0.536432897118222, -1.0, -1.0];[3.4571374920601507E-6, -1.0, 0.15636265278632244]
[0.44858049443035575, 0.011532967372819858, 0.999341366986754];[0.01989774250905283, -1.0, 0.004175377725399554];[0.024432845788276925, 0.09355497183730196, 0.425551981427881]
[-0.19522525341879032, -0.6816226695076729, -0.688139851601784];[-1.0, 0.3639211490491561, -1.0];[-0.28758514487685616, -1.0, -0.24443802473195034]
[-1.0, -0.690321053693826, -1.0];[-1.0, -0.6789272403456075, -1.0];[0.024255938237585806, -1.0, -0.6900794415075735]
[0.005096828178328594, 0.04515966811397548, -1.0];[-0.19189768158540055, 0.03055770698577824, -1.0];[-0.25948112652069566, 0.016063140577510883, 0.030008808386365524]
[-0.9023919230179054, -1.0, -1.0];[-0.696477295336498, -0.6244419702499177, -1.0];[-1.0, -1.0, -0.5995864519480698]
[-1.0, -1.0, -0.058914284174052034];[-0.3463454404053081, -0.5971720008537653, -0.352591810738891];[3.9084476516539017E-7, -1.0, 1.1624143249951687E-7]
[-1.0, -1.0, -1.0];[1.378335311565429E-9, 6.743415387952913E-11, -0.5870794312533103];[2.0766519488461882E-10, -1.0, -1.0]
[-1.0, -1.0, -1.0];[-1.0, -0.9032405696059727, -1.0];[2.5543133798961954E-6, -1.0, -1.0]
[-0.7987539704054882, -0.7409369821081977, -1.0];[-0.9066348845582368, -1.0, -0.11635286595482205];[-0.5620384613333352, -1.0, -0.6980334539062146]
[-0.9095139712227273, -0.9634208360374725, -1.0];[-0.9639994394263136, -1.0, -1.0];[-0.7245054685710002, -1.0, -1.0]
[1.0793885842015684E-5, -0.28757017258714035, 1.7340520749136356E-6];[-0.3043801407406705, -1.0, -0.20177278404831903];[0.013097301312249371, -0.28623500277358094, 4.7964839922578406E-14]
[4.0078094272793935E-5, -1.0, 1.4615234002797152E-4];[-0.5998773695504622, -1.0, -0.14682240513307887];[1.8772237275224412E-6, -1.0, 0.19157058778348482]
[-1.0, -1.0, -0.9809469054917902];[0.001023080220335943, -1.0, -1.0];[-0.6629365756391193, -1.0, -0.9999999479803972]
[0.37393268705845684, 0.24965572001326625, 0.021151877130453193];[0.03244050259687578, 0.00430252354267614, -1.0];[-1.0, -1.0, -0.3714900630651353]
[0.02303265134178827, 0.06294871875179663, 0.06119379787254286];[0.036672350494145, 0.9739365687618297, 0.0749323814016252];[0.08744389880190315, 0.05380672501036263, 0.09573618361153372]
[-0.2958626135637848, -0.30887974753728786, -0.09806049176106547];[-0.16969183043414396, 1.296498790323337E-4, -0.07293352420935337];[-0.23720857524358543, -0.09656613220138527, -1.0]
[0.42097545146573656, 0.028344944562793194, -1.0];[0.030906058338785486, 0.13794522579591484, -1.0];[-0.42314874908607913, 0.020895997748944503, -1.0]
[0.599609883348925, -0.904144116382256, -1.0];[-1.0, -1.0, -1.0];[0.23871583981516264, -0.9099938851633929, -1.0]
[0.9999822005849066, 0.06277944578817611, -1.0];[0.009188468052333365, 0.08787114704894794, -1.0];[-0.6951522393337621, -1.0, -1.0]
[-0.7892360786531748, -0.8797821500892706, -0.9992699013302202];[-1.0, -0.8990167044548429, -0.9998423687130608];[-1.0, -0.37396782725804273, -1.0]
[-0.17009017707061605, -0.35911254030440276, 4.428612645267948E-4];[3.1245003200431094E-5, 0.0017239737128924688, -1.0];[-0.023905010110340574, -0.295819160648547, 4.5893963757282267E-4]
[-1.0, 0.1179343791409177, 7.24735060308549E-5];[-1.0, -0.25142552977786, -1.0];[-0.5960280366266676, -0.002476943456010166, 9.05243248307348E-6]
[-1.0, -0.4037720238525055, -1.0];[-1.0, 1.7187094247601554E-5, -1.0];[-0.4868810987768725, -1.0, 1.8542047877505772E-5]
[-1.0, -0.9999994633349318, -1.0];[-1.0, -1.0, -1.0];[-1.0, -1.0, -0.9999994405033091]
[0.34760603864452355, 0.3600888792576307, 0.045615648177089775];[-1.0, -1.0, -1.0];[0.4139327743316634, 0.3502078148265889, 0.36001129411961885]
[-1.0, 0.32018887206850855, 0.5999999935152067];[0.06905359763945428, -1.0, -1.0];[-1.0, 0.5511051246917926, 0.9999999999997262]
[-1.0, 1.0, -1.0];[-1.0, -1.0, -1.0];[-1.0, 4.378496012886334E-4, -1.0]
[-0.9999996554045019, -0.9999999998835645, -0.9994896996055335];[0.02349647911015556, -1.0, -1.0];[-0.962298334418221, -0.10776177231341366, -1.0]
[-0.9045563276349428, -1.0, -0.8753360343477881];[-0.6993084049586967, -1.0, -1.0];[-1.0, -0.9092481977568054, -1.0]
[0.3599999988519791, 0.01698945705253327, 0.02795720155793804];[0.028473356116264947, 0.00704322592830294, -1.0];[0.006396353849585745, -1.0, -0.3676542378789913]
[-0.6815883248544032, -0.28829745308662413, -1.0];[0.02504044580224586, 0.04086836788950708, -1.0];[0.5704392061762786, -1.0, -1.0]
[0.0033868920456872733, -0.6911918833268896, -1.0];[-1.0, 0.011757008597487462, -1.0];[0.9999999987586445, -1.0, -1.0]
[-0.4856252662124989, -0.999230104358304, -0.6995660334655238];[-0.4245649704976358, -1.0, -1.0];[-0.6728586252182693, -1.0, -0.9705141687688633]
[-0.9908999335429796, -0.9999068022120464, -1.0];[-0.9808420753841983, -1.0, -1.0];[-0.9706499973966332, -0.5267428376234886, 3.733908303751079E-7]
[0.9999999959096869, 0.04071917496309495, 0.02100317851232867];[0.005480820769546658, 0.04604668641664449, -1.0];[-1.0, 0.4332249119024544, -1.0]
[1.0, -1.0, -1.0];[-1.0, -1.0, 0.034168990132821486];[-1.0, -0.9728293865949212, -1.0]
[-0.3966957746597677, 0.032941624393208094, -1.0];[0.008920548991375715, 0.0032701054135550445, -1.0];[0.3632525800228328, 0.03668443904014227, -1.0]
[-0.5454276022174815, -1.0, -1.0];[1.0555576698917043E-8, 0.038848446366472666, -1.0];[6.10257855356675E-7, -1.0, -1.0]
[1.0, -1.0, -1.0];[6.879932039329907E-4, -1.0, -1.0];[-1.0, -1.0, -1.0]
[3.1911709272707553E-4, -1.0, 7.655504468321599E-5];[-0.04224804591638983, 0.26903821589523846, -0.3583554770821348];[-0.3098442588484923, 3.3318812281127405E-9, -0.35484521584393375]
[-1.0, -1.0, -0.45294507786183263];[-1.0, 0.1200499409526308, 4.7076234460082204E-8];[-0.599655968884209, 3.766474044357482E-4, -0.5571019974663391]
[-1.0, -1.0, 0.014874432999522558];[-1.0, 0.04007132375242281, 0.0012936400107309183];[-1.0, 0.003888232137850881, 0.5999891084779588]
[-1.0, -1.0, -1.0];[-1.0, 1.645438305425883E-16, -1.0];[-1.0, -1.0, -0.6996127936956018]
[-0.5998529949527226, -1.0, -1.0];[-0.9999998339788885, -0.8991265168218183, -1.0];[-0.9998089147404713, -0.9994893064199039, -0.8735743199332542]
[-0.6790509925041684, -1.0, -1.0];[-0.6727051513310182, -0.6987893453260807, -1.0];[-0.6788461808676618, -1.0, -1.0]
[-0.28582118644645993, -1.0, 0.0423510415937343];[-0.15537230522119233, 0.1326958457324645, -1.0];[0.0068855860140183195, 0.04942549780092595, -1.0]
[0.21022225632362457, -1.0, -0.6894660990287572];[1.0, -1.0, -1.0];[-1.0, 0.010827910331556938, -1.0]
[-1.0, -1.0, -0.9716052960627899];[0.9976464477448559, -1.0, -1.0];[-1.0, 0.005015905327588544, 0.015527060524551807]
[-0.9973427472963178, -1.0, -0.8793693530390024];[-1.0, -1.0, -0.0035281512884732524];[-0.9817934928999899, -0.9988856752064349, -0.978027581266733]
[0.04258033042578306, -1.0, -1.0];[0.04889044300017216, -1.0, 0.037472433053038545];[-0.678734319345625, 0.04607402114941372, -0.6944577891192496]
[-1.0, -1.0, -1.0];[-1.0, -1.0, -0.999999840379108];[-0.9999998351011731, -1.0, -1.0]
[-0.9974059597069844, -0.9979158787054484, -0.5965625708815941];[-1.0, -1.0, -0.5998341087701743];[-0.9972393672350347, -1.0, -0.999231399657108]
[-1.0, -0.416244667110835, -0.9063015293622712];[-1.0, -1.0, 3.0073051813844017E-4];[-0.681277209024564, -1.0, -1.0]
[-1.0, -0.6782719705640494, -1.0];[-1.0, -1.0, -1.0];[3.620637750250934E-12, -1.0, -1.0]
[-1.0, -1.0, -0.9369998834209279];[-0.7188620954671803, -1.0, -0.9982924054606296];[-0.9999870400451888, 0.022691572529383537, -0.9999942184222625]
[1.1952775733729636E-4, -0.13101523902447548, 0.019210258086178655];[-1.0, -1.0, -1.0];[0.0019454278418236095, -0.2777723029817851, 3.7770450888880726E-4]
[-1.0, -1.0, -1.0];[-1.0, -1.0, -1.0];[1.2667977981150382E-4, -0.6776966150081677, -1.0]
[-1.0, -0.9992532495195768, 0.457799980163325];[-0.9342941539218517, -1.0, -0.9916258100068698];[-1.0, -0.9940700344039238, -0.9595177809033836]
[-1.0, -0.999992243891149, -0.8991933818008169];[-1.0, -1.0, -0.999921236205583];[-1.0, -0.9997878342473113, -1.0]
[-1.0, -1.0, -0.9999999999999999];[-1.0, -1.0, -1.0];[-1.0, -1.0, -1.0]
[-1.0, -0.28855291447819675, 0.011251578379656044];[-0.5867643370988169, -1.0, -0.5927470790726826];[2.2340792257873197E-7, -0.4756766240478069, -1.0]
[0.003486732765415257, 0.05319826459926592, 0.9993333661815348];[6.178446167932839E-4, 0.05461748570387991, 0.05718020354560173];[0.04680484583711691, 0.079400006255863, 0.0639613538423389]
[-1.0, -1.0, 0.9999982833809286];[0.0014589037329632683, 0.009385672224907228, -1.0];[0.0016273508035572716, -1.0, -1.0]
[-0.0517858640439396, -0.9050793324363606, -0.5378277742648178];[-0.6946704954805047, -1.0, -1.0];[-0.3696874160051949, 0.0011189171787484293, -1.0]
[0.03721568420059487, 0.025035791318997375, -1.0];[0.02648906837286129, 0.07155769990105265, -1.0];[-1.0, 0.06915385106608304, -1.0]
[6.073912806425785E-20, -0.972976784927519, -1.0];[-1.0, -1.0, -1.0];[-1.0, -1.0, -1.0]
[-1.0, -0.999931743932879, -0.9305392515876679];[-0.9047555420810538, -1.0, -0.9211482749208052];[-0.9989326869782608, -1.0, -0.45918206639777526]
[-1.0, -0.6789898110145592, -1.0];[-1.0, -1.0, -0.694165851095641];[-0.6945406744164688, -1.0, 0.43149376483272167]
[-1.0, -1.0, -0.9915465390557537];[-0.9725178991582404, -0.9975291971746864, -1.0];[-0.9965446970227767, -1.0, -1.0]
[-0.7566768556980672, -0.46303349020544576, -1.0];[-0.9787695048573555, -0.6894559308922831, -0.493884840614801];[-1.0, -0.44241211611436804, -1.0]
[-1.0, 0.03849504865273317, 0.09339077995664236];[0.999999956823341, 0.056501114134360514, 0.0020113505121253277];[0.06384516111749504, -0.6818289056071203, -1.0]
[0.12599998238935717, -0.6740646134565728, -1.0];[-0.9809418412795339, -1.0, -0.5791771965369965];[-0.9975981778140477, -0.9998349794979546, -1.0]
[-0.997331996477707, -0.9912100867409158, -1.0];[-0.9918668609316637, -1.0, -1.0];[-0.9914247970051752, -1.0, -1.0]
[-0.9674743129588549, -0.9998244057893743, -1.0];[-1.0, -0.7815452595891534, -1.0];[-0.3478907432726498, -0.9804485925056632, 0.02476251382801012]
[0.5970931027621418, -1.0, -1.0];[0.03322661024605237, 0.03271838505052606, -1.0];[-0.6801614277552914, -0.9067802633964936, -1.0]
[0.9754017279397345, 0.08067725459243875, -1.0];[0.06396006993762267, 0.001061571970699282, 0.08449463552169059];[0.006362854054060352, 0.017518071998718434, 0.045807319081415644]
[-0.9716999092317358, -0.68594224254046, -1.0];[-1.0, 0.36012247264255637, -1.0];[-0.972719218660665, -0.687976996056753, -0.6463215342081287]
[0.9161146635658517, 0.046557533811359665, 0.046531662226929706];[0.018595689017072228, 0.009913675385346533, -1.0];[0.02395060799797294, -1.0, 0.06037990022241896]
[-1.0, -1.0, -0.39001121159593244];[-0.2811192594347754, 0.18516573238833167, -1.0];[0.3603211781501656, 0.0022599739225929254, -0.15544941011974356]
[-1.0, -1.0, -1.0];[-0.9017114262955149, 0.5999999995530013, -1.0];[-0.6746603142606841, -1.0, -0.9093233152449924]
[-1.0, 0.04122422347253629, 0.024653449446106993];[0.021829296191874882, 0.014865269406989554, -1.0];[0.043594578442402915, 0.0358163219611773, 0.0187932267450317]
[-1.0, 0.9992817988319659, 0.03624229357069171];[0.058807778462115226, 0.005485464264256168, -1.0];[0.4235860842175566, -1.0, 0.022032205164486673]
[0.053844000338302424, 0.99999998686904, 0.7253881170791109];[-1.0, 0.06109741995724103, -1.0];[-1.0, 0.036385110600066654, -1.0]
[-0.32406132254882414, 0.00285736011137848, 4.942579170776496E-4];[-1.0, -0.05814317972571975, -1.0];[-0.10575128579296925, -1.0, 0.018955863948883295]
[-0.3607234052793396, 1.3820932267018807E-4, 1.3574565348838092E-4];[-1.0, 0.42008766010247545, -1.0];[-1.0, -1.0, -1.0]
[-1.0, -0.9999994252146952, -0.9999994618716241];[-1.0, -1.0, -1.0];[-1.0, -1.0, -1.0]
[0.5206701826048451, 0.019121961632773188, -1.0];[-1.0, 0.3235318033932291, 0.03829875942289013];[0.03764533488930645, 0.002234342214125673, 0.2669830154498394]
[-1.0, 0.9107513515173591, -1.0];[0.01378665965125131, -0.6872362504079323, -0.5429188716694255];[0.5995964543765016, -1.0, 0.020712927124016303]
[0.021313085902035747, 0.9999811436780053, 0.0038345815496978576];[0.021397266212294864, 0.02841185354978647, 0.016625643776937305];[-1.0, -1.0, 0.040321909865021634]
[-1.0, -1.0, 0.00905363235774651];[-1.0, -0.677497158803492, -0.28568004775171013];[0.012711642305259514, -0.4138260844228057, 0.0038037623517577206]
[0.06010818265765503, 0.07159586831078815, 0.07294101010382338];[0.03720434633460597, 0.016054968209089884, -0.6730927399141211];[0.017734160381254995, -1.0, 0.04207482342291812]
[-0.7824274984507044, -0.9966906255021178, -0.5982698062154973];[-0.9974511944248537, -1.0, -0.5987178487801996];[-1.0, -1.0, -0.9786264393122064]
[-1.0, -1.0, 4.838726939063794E-34];[-0.9982526963909928, -1.0, -0.9999958665667178];[-1.0, -1.0, -0.9999997874235622]
[-0.2797189978966281, 0.01585552345495157, -1.0];[-1.0, 0.006918482317613113, -0.23039673146617937];[-0.2250596222009541, -1.0, -0.273457497758722]
[0.5988813757412352, 0.9999806112750468, -1.0];[-1.0, -1.0, -0.9097562824092473];[-1.0, -1.0, 0.21689088219319264]
[-0.06587082794471555, -0.35801917010754175, -0.1586632466418481];[-0.01745615278661153, 0.0034948525011614167, -0.34867122024957986];[-1.0, -0.3513430256834107, -0.30273893197312274]
[-0.32249063126214256, 4.808480861453715E-7, -1.0];[1.1100214701881198E-6, -1.0, 2.7197354957064385E-7];[-1.0, 1.0421835610319708E-12, -0.589397059077243]
[-1.0, -0.9065066493656013, -1.0];[-0.9707520612040237, -1.0, -1.0];[-1.0, -0.6821418224857422, 0.9999941261737896]
[-1.0, -0.9707935388977429, -0.9997241754504442];[-0.5999598758130551, -0.9696989943622285, -0.999961935855478];[-1.0, -1.0, -0.34733928061265795]
[-1.0, -1.0, -0.9974430189759904];[-1.0, -0.9909070505438513, -0.9974054263513906];[-1.0, -1.0, -0.9918181505873777]
[3.567156468011616E-5, -0.1425754173474142, -1.0];[1.9715905900969326E-6, 1.4053880869215667E-6, -1.0];[-1.0, -0.4094916628974869, -0.14581232746825668]
[-0.5929972703676243, -1.0, -1.0];[6.208383466630211E-11, 9.185400011862057E-5, -1.0];[-1.0, -0.5996907814575262, -1.0]
[-1.0, -1.0, -1.0];[-0.9999940210533316, -1.0, -1.0];[-1.0, -0.9999939193758057, -1.0]
[-0.9999305634729073, -0.7891589225830364, -1.0];[-0.7899790464852126, -0.5885757407162969, -0.9974584698311054];[-1.0, -0.9963345515611297, -1.0]
[0.004921112107729009, -1.0, -1.0];[2.2176994900402482E-5, -0.6966918080807254, 0.003567194625922343];[-1.0, -0.9071015427382334, -1.0]
[0.014551917167411832, 0.005690616121801573, -1.0];[0.016071622666604415, 0.9138748335681262, -1.0];[0.032438352026980734, 0.039174211320200526, 0.03723850557961258]
[-0.9999999836398877, -0.9920703380918913, -0.6355806191254975];[-0.9999999999925288, -1.0, -0.9970388028505145];[-1.0, -1.0, 3.793501608088812E-5]
[-0.6782317267786272, 0.02613523407494711, -0.20695233887969572];[0.0219650023549941, -1.0, -1.0];[-1.0, 0.013042201992091974, 0.013960929172280215]
[-1.0, -0.9999999999999742, -1.0];[-1.0, -1.0, -1.0];[-1.0, -1.0, 1.0693822577861242E-111]
[-0.6786704377486382, -0.9057847737709916, -1.0];[-0.9066255575544149, -0.6902252741242193, -0.8114694421286559];[-1.0, -0.0705881943937815, -1.0]
[-0.872742630480728, -0.6960092676226179, -1.0];[-1.0, -0.9059625342747333, -1.0];[-1.0, 4.6987085262363E-7, -1.0]
[-1.0, -0.9999999487651458, -1.0];[-1.0, -1.0, -1.0];[-1.0, 1.0600073077898037E-57, -1.0]
[0.07561504851132841, -0.6788181747389228, -0.9098431725096692];[-1.0, -0.991891472562254, -1.0];[-1.0, -0.04908813952097829, -0.8876953907342608]
[-1.0, -1.0, -0.6980965632129451];[0.021629220816845464, -0.8978830344415606, 0.009572816713727242];[-1.0, -0.6841448283880947, 0.008122162228970898]
[-1.0, -1.0, -0.9992598305368813];[-0.9991998491658148, -0.9991780709904107, -1.0];[-1.0, -0.9992219443773752, -1.0]
[-0.1781088859923094, -1.0, -1.0];[0.006747432852066963, 2.7053382877052335E-6, -1.0];[-0.2816572336403359, 0.015914910978532502, -0.5920685943736742]
[-1.0, -1.0, -1.0];[-1.0, 0.598648022372065, -1.0];[-0.6827128212169357, 0.037818094148928075, 0.023355473092369496]
[0.05758060835123892, 0.007945157453857777, 0.020624206118783597];[0.048027539335001326, 0.9993250217431918, -1.0];[0.007514014140414149, 0.0724175892673887, 0.06935966082131949]
[-1.0, 0.9993136139452482, 0.00501087523101711];[-0.39474932316143185, 0.031899940168393114, -1.0];[0.02063291720912106, 0.08432814867839578, 0.027141180582061733]
[-0.22925449593776573, 0.015989797184380747, -0.3674016829406279];[-0.15533584350293364, 0.01678429566876058, -1.0];[-1.0, -1.0, -0.20988164980643254]
[0.030196398532066283, -0.3952916133926555, 0.01165188215438618];[-1.0, -0.6830240226406067, -1.0];[-1.0, -1.0, -1.0]
[-0.9974768234985206, -1.0, -0.9974591159691427];[-1.0, -1.0, -1.0];[-1.0, -1.0, -1.0]
[-1.0, 0.030857613803344498, 0.41118022407767935];[0.0358015681171963, 0.03016154332462878, -1.0];[0.24589010012201695, 0.015587060906365524, -0.24824726674497996]
[0.043666679802268585, 0.9977073161406959, -1.0];[-0.6720763278008757, 0.033183152866467905, 0.0053758784496546145];[-0.6826145449507809, -1.0, -0.6711184398117174]
[-1.0, 9.42069497027493E-4, 5.424353064327998E-10];[-0.562734600410043, -1.0, -1.0];[-0.5349286990766977, 0.0010124818099927534, 2.7707057068106667E-5]
[-1.0, 0.5910277359608656, -1.0];[0.009752576212630874, -1.0, -1.0];[0.9999999999896984, 0.3987534943207979, 0.04167184396432682]
[0.04220013354161546, 0.7216111543660058, -1.0];[-1.0, 0.02044478829241563, -1.0];[0.9993249668981763, 0.031059925258080004, 0.01078379782339447]
[-0.45926504902022236, -0.5994889715874597, -0.3190645837801622];[-1.0, 0.0013267885469064105, 2.8130842458756622E-5];[-1.0, -0.3661080001379008, -1.0]
[-1.0, -0.8999131628807281, -0.98852190274766];[-1.0, -0.990701051339254, -1.0];[-1.0, -0.9721968771540873, -1.0]
[-1.0, 0.006392693183808984, 0.9999999996311338];[0.018664731582232964, -1.0, 0.007404910586010727];[-1.0, 0.030021877486237837, -1.0]
[0.01594755815440726, 6.831152233637591E-6, -0.32383356940784747];[-1.0, -1.0, -0.44870721118131557];[9.455728226420745E-5, 1.3074468985160284E-4, -1.0]
[5.792163225575535E-9, -1.0, 8.268668080910908E-6];[-1.0, -1.0, -0.560696929376597];[-0.34119590601030314, -1.0, -1.0]
[3.5737442728009293E-41, -1.0, -0.9974237707278555];[-1.0, -1.0, -1.0];[-1.0, -1.0, -1.0]
[2.8512215897057177E-5, 8.142681246201003E-5, -0.5967311867306535];[-1.0, 2.7643793746301237E-5, -1.0];[-1.0, -1.0, -1.0]
[-1.0, -0.6998779713877066, -1.0];[0.03810503661439033, 0.9999377995331133, -1.0];[-1.0, 0.03037892485911771, -1.0]
[0.020310184441693135, 0.003015459526394171, 0.2549691425057822];[-1.0, 0.0280531909837462, 0.01700209879860662];[-0.20891122682433924, -0.40197622985232156, -1.0]
[-1.0, -1.0, -0.6864571944736683];[-1.0, 0.9140015315337598, -1.0];[0.014441762881338228, -0.9067547835710723, 0.001981329573112356]
[0.12702060010703187, -0.2941738778808443, -1.0];[-0.5733502390082105, -1.0, -0.28991700588412056];[-1.0, -0.5874600769009792, 2.2351386750096649E-7]
[-0.9911376408122072, -0.9912105929417407, -1.0];[-1.0, -1.0, -0.9913180159076842];[-1.0, -1.0, -0.9970775181960546]
[-0.6289168049569306, 3.5914297172008244E-10, -0.9885432362696775];[-0.7103344868825916, -1.0, -0.9999999537506794];[-0.423080089811408, -1.0, -1.0]
[0.02003863830898006, 0.02125733892907087, 0.9977253140357949];[0.028133953717024422, -1.0, 0.06295101949928973];[0.016653933070453854, -1.0, -1.0]
[-1.0, -1.0, 0.9999344244071161];[-0.9723994496832571, -1.0, -1.0];[-1.0, -1.0, -1.0]
[-0.9983328439068515, -1.0, -0.8383017764434599];[-0.5869912808777132, -1.0, -1.0];[-0.999983989336353, -0.9936224955928703, -0.987675921874407]
[-0.9024206828068261, -1.0, -0.9081959149645447];[-0.6940249836768723, -1.0, -1.0];[-0.9025745340085392, -1.0, -1.0]
[-1.0, 0.014771111411823988, -0.9964654923163789];[-0.5425332922916495, -1.0, -0.9740513605974209];[-0.9999932968926373, -1.0, -0.9711558344242085]
[-1.0, -0.9722495128788152, -0.9713384127903927];[-1.0, -1.0, -0.97052721137338];[-0.9725716654559803, -1.0, -1.0]
[-1.0, -0.9999999846734614, -1.0];[-1.0, -1.0, -1.0];[-0.9999999517314965, -1.0, -1.0]
[-0.45839723645459934, -0.4629219174462546, 0.011671913285823753];[-0.5132483000476802, -1.0, -0.9711236404669935];[-1.0, -0.9779158201609615, -1.0]
[-0.9941900712310467, -0.9999994682770326, 8.855015652999732E-21];[-1.0, -1.0, -1.0];[-1.0, -0.29998026651849485, -1.0]
[-0.9992307018750538, -0.3991001655918239, -0.9999358785751941];[-0.7105219414148258, -1.0, -1.0];[-0.9999712195703363, -1.0, -0.9997848206922639]
[-0.8741024911847193, -0.6784999159383366, -1.0];[-1.0, -1.0, -1.0];[-0.6906615883188915, -1.0, -0.9030783134603034]
[-0.9883660031065165, -1.0, -0.9999775961371052];[-0.5983555518412962, -1.0, -0.44440906645032746];[-0.8980647070748522, 0.09941102226750106, -1.0]
[0.027932010412237765, 0.05599114260149723, -0.6568278544596723];[0.026270649121025426, 0.03685982617416831, -0.6831997797361469];[0.04829588333259358, -0.6796941313986133, -1.0]
[-1.0, -1.0, -1.0];[-1.0, 0.026939580901243623, 0.9922560050020859];[0.03578160012942007, 0.029639011206980384, -1.0]
[1.504502005262366E-6, -1.0, 4.90773722763696E-6];[-1.0, -0.4324170314388812, -0.3595460464633939];[-0.34623023593736824, -1.0, -0.35984536248317245]
[-1.0, -1.0, -0.9999933846775292];[-1.0, -1.0, -0.9999938146880195];[-0.9999933918107319, -1.0, -0.9991858923954633]
[-1.0, -1.0, -0.9999788139482805];[-1.0, -1.0, -1.0];[-0.9999980929747089, -1.0, -1.0]
[-0.1518576457160416, -0.03554118709359172, -0.41373313989106214];[1.4771530921021068E-5, 8.273889359280136E-6, -1.0];[-1.0, -0.2814911052703675, -1.0]
[-1.0, -0.9901978987570688, -0.7818966137688425];[2.7866692591611414E-32, -1.0, -1.0];[-1.0, -0.9941496943325777, -1.0]
[-1.0, -1.0, -0.999999999880026];[-0.9999999998782515, -1.0, -1.0];[-1.0, -1.0, -1.0]
[-1.0, 0.3183360228649182, 0.35999900554963477];[-1.0, 0.00866121312261039, 1.4161372061046633E-4];[-1.0, -0.22296913884426967, -0.2515271626741047]
[-1.0, -0.9992297768714885, -0.991293965126188];[-1.0, -0.9712712772006975, -1.0];[-1.0, 6.672734188193813E-15, -1.0]
[-1.0, -0.996461850654106, -0.898310042042902];[-0.9977314938668426, -1.0, -0.9999994200647087];[-1.0, -1.0, -1.0]
[-0.35319460670204206, -1.0, -0.2825966930228784];[-0.17006979346596363, -0.08854368717035144, -1.0];[1.8050361757472738E-6, -1.0, 0.18744128756312353]
[-1.0, 0.0025935273897011446, 0.9740822524632088];[-0.366740807892723, -0.6815972094965153, 0.00744334192989512];[-1.0, 0.029454399630575525, 0.024180324165322845]
[-1.0, -1.0, -1.0];[-1.0, -0.9999787877946105, -1.0];[-1.0, -1.0, -0.9999318456922207]
[-0.6859551911577947, 0.00655926499650813, 0.2060230175049548];[-0.9042906349905838, -0.670184716066364, -1.0];[-0.685315420433174, -0.26947053973833646, -1.0]
[-0.9992445729104298, -0.8992157220314039, -1.0];[-0.885116759009903, -0.9973240108972328, -0.9998544965241841];[-0.49021029116249426, -1.0, -1.0]
[-0.6835648200038207, -0.9016602684937796, -1.0];[-1.0, -1.0, -0.5777652514202207];[0.9999362184448077, -1.0, -1.0]
[0.0033159240553833793, -0.6959782914912167, -1.0];[-1.0, 0.7011399002779911, -1.0];[-1.0, -0.6847633238328925, -1.0]
[-1.0, 0.007966651337580833, 0.030932056933328924];[-1.0, 0.9155494477980465, 0.010906057183495521];[-1.0, 0.03581217537683408, -1.0]
[-0.5640232044120039, -1.0, -0.36799436333246666];[-1.0, 0.0010554896741545722, -0.28459188151957193];[-1.0, -0.28151549284863864, -0.24637564389663352]
[0.5964690571809512, -1.0, 0.03621537212042128];[0.01258601615369953, 0.015961130365429517, -1.0];[-1.0, -1.0, -1.0]
[0.9999999957331859, -1.0, -0.90408044243863];[-1.0, -1.0, -1.0];[-1.0, -1.0, -1.0]
[-0.9999999512674508, -0.9969598586197397, -0.7610896973926635];[-0.9697379734211401, -1.0, -0.9965827547220072];[-1.0, 9.26056384421632E-5, -1.0]
[0.004316069173534476, 0.008217445621718156, -0.9709652036296611];[-0.5409964262869673, -1.0, -1.0];[-1.0, 0.9999942081272679, -1.0]
[-1.0, -0.9916075717736155, -1.0];[-0.5387275325241605, -0.9369985499486138, -0.999222388140925];[-1.0, -0.9969549334086579, -0.6640375257782685]
[1.0493996349987512E-9, 1.8037624634061703E-9, -1.0];[-1.0, -1.0, -1.0];[-1.0, 8.939800545201457E-10, 3.266083914595398E-9]
[-1.0, -0.9975644388833814, -1.0];[-1.0, -1.0, -1.0];[-1.0, -1.0, 6.305716883971601E-15]
[-1.0, -0.5980293886076694, -0.5994067081453953];[1.75010925853464E-4, -1.0, 0.19480426685602736];[9.18540000008828E-5, -1.0, 5.558958318366294E-5]
[-1.0, -0.6873992680514356, -0.9045991688465524];[0.9999999958478956, -1.0, -1.0];[0.014798611496106763, -1.0, -1.0]
[-1.0, 0.046659601264686816, -1.0];[0.9999944248654009, -1.0, -1.0];[0.013431633025573972, -1.0, -1.0]
[-0.5977634580429475, -0.5911186580661407, -1.0];[9.188016394310949E-5, -1.0, 1.4094709468812926E-5];[6.041517717083782E-5, -1.0, 3.0620009160703214E-4]
[0.9999999999899761, -1.0, -1.0];[-0.6842086218353979, -1.0, 0.022757179588551824];[-0.5807543970336657, -1.0, -1.0]
[0.9999999999999978, 0.009464402451368245, -1.0];[0.006855870749419627, -1.0, -1.0];[0.002413684528691065, -1.0, -1.0]
[0.9999999999997365, -1.0, -1.0];[-1.0, -1.0, -1.0];[7.407866357999786E-4, -1.0, -1.0]
[0.014205667580271697, -0.6829570453178004, -1.0];[-1.0, 0.7144539617239384, 0.00167107306442722];[-1.0, 0.03764864809387353, 0.0019026635018564388]
[0.9999983800500647, -1.0, 0.05279462221816039];[-1.0, 0.911466399327068, -1.0];[0.07898170874093952, 0.05003858219547125, -1.0]
[-0.370595791537318, -0.27798000879849744, -0.40546715027875385];[-1.0, -1.0, -0.4622621868608833];[-1.0, -0.6821676431027264, -0.3487985270485306]
[-0.9703429425529566, -0.907825704307809, -0.24486949845365413];[-1.0, -1.0, -1.0];[-1.0, -0.971473853123237, -1.0]
[-1.0, -0.5958605055003542, -1.0];[-0.7810466686292518, -1.0, -0.5172013956284421];[2.0151930236903857E-8, -0.292225300094338, -0.9586045609678799]
[-1.0, -0.904183068508854, -1.0];[0.9999999958992956, -1.0, -1.0];[-1.0, -0.8817159993372872, 0.003055592984545963]
[-1.0, -1.0, -1.0];[0.9999998549085816, -1.0, -1.0];[-1.0, -1.0, -0.9071220746064123]
[0.0014190429189142044, -0.342497318494677, 0.0021614597503818497];[-1.0, -1.0, -1.0];[0.0018781872575257732, -0.056433051694839254, 0.0037910964691652838]
[0.03900714046093011, -1.0, 0.0016197962715230369];[-1.0, -1.0, -1.0];[0.032558411546088364, -1.0, 0.006025807008443931]
[0.9999809856143036, -1.0, -0.9092658934237997];[-1.0, -1.0, -1.0];[-1.0, -1.0, -1.0]
[0.007604585311243262, -1.0, 0.9735607641296595];[-0.6380795060202964, -1.0, -1.0];[-1.0, -0.6794659268884147, -1.0]
[-1.0, 0.01963112468373737, 0.9993382901280103];[0.08099985231568713, -1.0, 0.046756266117338796];[-1.0, 0.02194531837981081, -1.0]
[-1.0, -0.5377013826938543, -0.6744358587571571];[-0.27315851571271604, 0.006041720158432806, 0.4505218907791393];[-1.0, 0.004553128127567796, -1.0]
[-1.0, -1.0, -1.0];[-0.9973389432013036, -0.9974726569943766, -0.9975407789129447];[-1.0, -0.9975308350718859, -1.0]
[1.3347956859842735E-9, -0.6845087809496617, -1.0];[-1.0, -1.0, -1.0];[-1.0, -1.0, -1.0]
[0.3600008360448875, -1.0, -1.0];[-1.0, 0.13154090460314505, -0.9916986963427037];[-0.9064167072708934, -0.9718198694156338, -0.9715678320340151]
[0.020774759428754896, -1.0, -1.0];[-1.0, 0.9143705258004673, -1.0];[-0.6916885415073739, -0.6715652846842906, 0.029243610346330953]
[4.794475262387173E-10, -1.0, 7.490364505603249E-12];[-0.5318514139153185, -0.5443844795105526, -0.4860891924320166];[-1.0, -1.0, -0.59909860566589]
[0.0011081200242021947, -1.0, -0.6714203779976601];[-1.0, -1.0, -0.6987727941719432];[-1.0, -1.0, -0.6936958809021112]
[-0.9038930122475931, -1.0, -1.0];[-0.9049739818659948, -0.6953821621892383, -1.0];[-0.8819888634147917, -1.0, -1.0]
[-0.015963361221508543, -1.0, -1.0];[-0.5729220049733897, 9.615262352611287E-16, -0.29926583416860786];[-0.5926088182580325, 5.615683901123034E-9, -1.0]
[1.5277614676883075E-6, -1.0, -1.0];[3.1144702912059666E-5, 0.011367569774014138, -1.0];[-0.27693528682091, -1.0, -1.0]
[-1.0, -1.0, -1.0];[1.3933304465263523E-19, 2.5227017576783924E-19, -1.0];[-1.0, -1.0, -1.0]
[-0.2849680975362562, -1.0, 2.217893834660096E-4];[-1.0, -0.2686590105952208, -1.0];[-0.2727597590302126, -0.02166938669361322, 1.7793817267047014E-5]
[0.9921567322486422, 0.023277233479987405, 0.003453028097213218];[-1.0, -0.6866450940267453, 0.0044676590432904065];[-1.0, -0.4550096128905648, -1.0]
[0.7057208606791525, -1.0, 0.999981073536816];[-1.0, -1.0, 0.03684218346497453];[-1.0, -1.0, -1.0]
[0.9148416406988653, 0.05688935887797347, 0.32099625562471207];[0.006398899793078072, 0.311932003230384, -0.687829820374426];[0.05823029241432616, -1.0, -1.0]
[0.702897951625044, -1.0, -1.0];[-1.0, -1.0, 0.9741536030062391];[-1.0, -1.0, -1.0]
[-1.0, -1.0, 5.180217385993835E-4];[-0.6858895015565457, 0.5999992255205315, -1.0];[-0.9642910918991079, -1.0, -0.20070705332262967]
[-1.0, -1.0, -0.9975227740144319];[-1.0, -1.0, -0.9992313911729331];[-1.0, -0.9979876678309821, -0.9977097624150032]
[-0.39702374986905986, -1.0, 0.3592017678189593];[-1.0, -0.1279534182485652, -0.31513499304951686];[0.4070091902835043, -0.21600604114320643, -1.0]
[-0.6927269024100658, -1.0, -1.0];[0.02072246779029585, 0.4235336592368812, 0.9921480914733729];[-0.9713871752024792, -1.0, -1.0]
[-1.0, -1.0, -1.0];[-1.0, 0.999999986636231, 0.7002959090320512];[-1.0, -1.0, 0.0852577940449152]
[-1.0, -1.0, -1.0];[-1.0, -1.0, -0.9934985534411573];[-0.9974657377790761, -0.9915131948005497, -0.9916129394495149]
[-0.5672370674756799, -1.0, -1.0];[-0.548518143604114, 0.3796593074539324, -0.45913793883194776];[-0.9974506040912169, -1.0, -0.9997657469638319]
[0.07269796937186844, 0.07957042868946684, -1.0];[-1.0, 0.9125353700873073, -0.6796790562550871];[-1.0, 0.027528269122544514, -0.6800299266407335]
[8.085159397775224E-14, -1.0, 3.911556641147844E-5];[-0.5796764650062305, -0.593431489340908, -0.3166933366988434];[-0.005630545504238393, -1.0, -1.0]
[-1.0, -1.0, 0.1259920466773961];[-0.9722299925989661, -1.0, -0.49248421522161456];[-0.9074829462184578, -1.0, -1.0]
[-1.0, -1.0, -1.0];[-0.48495047543477227, 0.13749169499212655, 0.4271584812138914];[-0.4353772936632106, 0.022729792617007173, 0.01574036972729943]
[-1.0, -1.0, -1.0];[1.9677007410634495E-4, -1.0, -1.0];[-0.6914688490037366, -0.6718244931459595, 0.9999346395846389]
[-1.0, -1.0, -1.0];[0.599989292967273, -1.0, 0.5755667026747293];[1.0, -1.0, 0.5953804949767015]
[-1.0, -1.0, -1.0];[0.062612134496688, 0.013221547971613325, -1.0];[0.7138872607990212, -1.0, 0.9998000090195543]
[-0.24316654913654587, 0.0058772055440891105, -1.0];[-1.0, -0.08091126186983577, -0.21016803414268775];[0.011033250966173302, -0.28020213468461963, -1.0]
[-1.0, -0.9918911138801477, -1.0];[-1.0, -1.0, -0.9969628373098061];[-0.9935635267660502, -0.9974844905134045, -1.0]
[-1.0, 6.970979455616791E-4, -1.0];[-1.0, -1.0, -1.0];[-1.0, 1.0, -1.0]
[-0.3737144090780337, -1.0, -1.0];[-1.0, 0.01450294871637263, -0.12955403139697813];[0.0030333418929413165, 0.008886719669758372, 0.03756273866295016]
[-1.0, -1.0, -1.0];[-1.0, -0.9887014675002381, -1.0];[-0.991619470336588, -0.9912173953096655, -0.6624309944833843]
[0.004406618940376017, -1.0, 0.0011663961789781575];[0.02501319531359303, -1.0, -1.0];[0.008796900319783285, 0.999290086333699, 5.599431365621577E-6]
[1.2440793193369473E-6, -1.0, -1.0];[-1.0, -1.0, -1.0];[-1.0, -1.0, -0.6984758323659483]
[0.024208963146623737, -0.2810710184939719, 0.181066665258134];[0.015852846098303838, -0.6825348453709905, -1.0];[-0.2814191950113425, -1.0, -1.0]
[-1.0, -0.9913528369167177, -0.9728597039029644];[-1.0, -0.9882261065621719, -1.0];[-0.9713655292360612, -1.0, -1.0]
[0.019977566211019163, 0.023534926967337857, 0.061227720862304304];[-1.0, 0.7076036097391001, -1.0];[0.05920385973678355, 0.07287819855614842, 0.046200198586350785]
[0.012754126604262152, -1.0, -0.9083040322971815];[-1.0, 0.974677657064258, -1.0];[-1.0, -1.0, -1.0]
[-0.3241298811342039, -1.0, -0.4072839806860945];[0.0011628791060982369, 0.02592834629150693, -1.0];[0.35999000552061183, -0.10912456556841527, -1.0]
[-0.9999938249645631, -1.0, -1.0];[-1.0, -1.0, -1.0];[-1.0, 2.1138065084083986E-60, -1.0]
[-1.0, -1.0, -0.9999999896772307];[-0.9969599678486019, -1.0, -0.9999999846872065];[-1.0, -1.0, -0.9923787639719744]
[-0.9995474999801341, -1.0, -1.0];[-0.9943294395853082, -1.0, -0.9997727989708399];[3.529027220987467E-26, -1.0, -1.0]
[-0.9999998396133343, -1.0, -1.0];[-1.0, -1.0, -1.0];[2.5364329943704396E-46, -1.0, -1.0]
[-0.9724879323038689, -1.0, -1.0];[-0.9464646781559912, -0.9918848810509289, -0.5594085636753401];[-0.5959968031447617, -0.9844801386632495, -1.0]
[-1.0, -1.0, -1.0];[-0.9999309069367602, -0.999953499195517, -0.9998408263641526];[-1.0, 0.10901268305334944, -1.0]
[-1.0, -1.0, -1.0];[-1.0, -0.9999981330690979, -0.9999994292787711];[-1.0, -1.0, -1.0]
[-1.0, -1.0, -1.0];[0.3600000044486563, 0.024561103153673276, 0.04201498717318858];[0.35232408797861603, 3.1621826292677795E-4, -0.5786202622161993]
[-1.0, -1.0, -1.0];[-0.8767403740731745, -0.9098047724163093, -1.0];[-0.9904646976205835, 0.009020851982903366, 0.5999996332654666]
[-1.0, -1.0, -1.0];[0.9999999538567977, -1.0, -1.0];[-1.0, -1.0, 0.9105606003680787]
[-0.9999260404733482, -0.874721737887999, -1.0];[-1.0, -1.0, -1.0];[-0.99994547049914, -1.0, -0.9999199775203224]
[0.015696731060865134, -0.6968879242128666, 0.032505982500246666];[0.024978421459160863, 0.015106660602548616, -1.0];[0.011337195580202297, -1.0, 0.9997974958676992]
[-0.8585774853070529, -1.0, -1.0];[-0.6719433237725386, -1.0, -0.5920661001338652];[-0.691301771357266, -1.0, -1.0]
[0.11977202115431262, -1.0, -0.9890052565250986];[-1.0, -1.0, -0.9999999906026802];[-0.6454746807884428, -0.09778556910815844, -0.9600639024579743]
[0.527987637952245, -1.0, -1.0];[-0.6972477437154885, -0.6860703355950639, -0.9039195033631686];[-1.0, -0.6997274253329505, 5.25513680271461E-4]
[0.4274451828737886, -1.0, 0.046716583261636246];[-1.0, -1.0, 1.0];[-1.0, -0.9728736286349983, -0.9721311756537392]
[-0.6914326191523302, -1.0, -1.0];[-1.0, -1.0, -1.0];[-0.6978566149865916, -0.8864277667424831, -0.6788986398026118]
[-1.0, -1.0, -0.5926425772541593];[-0.34497470050288026, 0.026870483473894667, -0.4590272045885133];[1.0189228213679369E-9, 2.4840008608671915E-4, -1.0]
[-1.0, -1.0, -1.0];[-0.691171455763148, -0.6860651096676458, -0.6955871852018767];[-1.0, 3.500527762511511E-5, -1.0]
[-1.0, -1.0, -1.0];[-1.0, -1.0, -1.0];[-1.0, 0.0, -1.0]
[-1.0, 0.01193958526032234, -1.0];[0.03703853807037955, 0.03512972092625451, 0.04483761800382901];[0.5458280737837887, 0.02830352862144947, -1.0]
[0.02488703959778319, 0.05438130183454503, -1.0];[0.04316746390538273, 0.9999999999970481, 0.42546682571277084];[-1.0, 0.007905286983707316, -1.0]
[0.061970844586632705, 0.0331324862207437, 0.008597291584659883];[0.059998923247733316, 0.9924540892821625, 0.0017328676577743952];[-1.0, 0.06250706499533411, 0.013274949888305644]
[0.017909624840959072, -1.0, -0.6908433921374412];[-0.673152193862869, 0.5999988910961025, -1.0];[-1.0, -1.0, -1.0]
[-0.599999996385608, -1.0, 4.376876189457017E-26];[-1.0, -1.0, -1.0];[-1.0, -0.550857517966886, 5.913222951671918E-10]
[-0.9999999999999998, -1.0, -1.0];[-1.0, -1.0, -1.0];[-1.0, 2.2376527978198303E-128, -1.0]
[-0.6241854358374115, -1.0, -0.9017658521580604];[0.06329932157014315, 0.36044506117298664, -0.686608573621462];[-1.0, -1.0, -0.9720674645563371]
[0.0026863381384145016, -1.0, -1.0];[-0.6828203885280522, -0.6859618676739863, -1.0];[-1.0, 0.47291296952695466, -1.0]
[-1.0, -1.0, -1.0];[-1.0, -0.9992168740239987, -1.0];[-1.0, -0.9997624274815766, -1.0]
[0.4340855060049183, -1.0, -1.0];[0.058542950532644134, 0.037354766477340394, 0.4334055775652819];[0.9977508564831385, -1.0, -1.0]
[-1.0, -1.0, -1.0];[-1.0, 8.459462249219369E-10, -1.0];[1.460697148800957E-9, -1.0, -1.0]
[-1.0, -0.9881923094186883, 0.1270213440127525];[-1.0, -1.0, -1.0];[-1.0, -0.9999327201659474, -0.999999955287134]
[-1.0, -1.0, 0.043900530609128];[-1.0, 0.9997886384319119, 0.3209266634438117];[-1.0, -0.27564429663198825, -1.0]
[-0.6785220682428811, -0.27616139880611124, 0.027669004541921536];[-1.0, 0.05530686285954122, -1.0];[0.06589637278955833, -1.0, 0.046696939458074585]
[6.165465821454746E-6, -1.0, 0.008049896471109817];[-0.4734804130026404, -1.0, -0.4411051255697472];[0.016854110086589956, -1.0, 1.697018227412191E-5]
[0.5999758038274723, -1.0, 0.009770935790551372];[0.01438920269684787, -1.0, 0.0013395753507873477];[0.0073533633257991185, -1.0, 0.009305998927233472]
[-1.0, -1.0, -0.9999940104773442];[-1.0, -1.0, -1.0];[-1.0, -1.0, 1.2955045099365544E-32]
[-0.6706028247370552, -1.0, -0.6840412497895795];[-1.0, -1.0, -1.0];[-0.6722706472142469, 0.041155327299825184, 0.0514862573267201]
[0.0833764527482903, 0.042965817320786616, 0.013109078733613534];[0.040245259460315055, 0.0016872855365344442, -0.670707079691597];[0.05568929044609242, 0.019686546870121092, 0.039676594968307694]
[-1.0, -0.903613020801346, -1.0];[0.992032869306956, -0.9082735499243693, 0.007975946703104034];[-1.0, -1.0, -1.0]
[-1.0, -0.9999999825455829, -1.0];[-1.0, -0.9997550555599372, -0.9999999987035247];[-1.0, -0.9998469097286379, -1.0]
[-1.0, -0.9999797219885558, -1.0];[-1.0, -0.9999343335495446, -1.0];[-1.0, -0.9999790293083308, -0.9999802548567734]
[-1.0, -0.9018815621206545, 0.024281523383535564];[-1.0, -1.0, 0.03668610933385722];[0.004459287282346447, -1.0, 0.9999397157520429]
[-0.9991823396291367, -1.0, -1.0];[-1.0, -0.9972048651081946, -0.997492407434058];[-0.9974579515307792, -1.0, -1.0]
[-0.9974999780181923, -1.0, -1.0];[-0.9054402230470258, -1.0, -0.9061118164807443];[0.9999999999999749, -1.0, -1.0]
[-1.0, -1.0, -1.0];[-1.0, -1.0, -0.9077236479574242];[1.0, -1.0, -1.0]
[1.0355254503933379E-14, -1.0, 1.450065802153224E-12];[0.42000000015974587, -1.0, 5.423544845199068E-10];[-1.0, -1.0, -1.0]
[8.098179921418904E-54, -1.0, -1.0];[6.971591085590708E-54, -1.0, -1.0];[-1.0, -1.0, -1.0]
[-1.0, -1.0, -1.0];[-1.0, 0.5999999938352876, -0.9974857280667302];[-1.0, -0.9611147765047853, -0.896686019719692]
[0.9744065762093191, 0.042841411806887456, 0.04137312896564763];[-1.0, -1.0, -0.9028487511963119];[-1.0, 0.04828965550879546, 0.04581561005328291]
[0.9999374805729099, 0.024520385794785816, 0.008438890857679671];[-1.0, -1.0, -0.9079411626922376];[-1.0, -1.0, 0.0462916099310624]
[-0.9992688590121721, -0.999213108558421, -1.0];[-0.9095845819811952, -1.0, 0.12597406837849023];[-0.980672217855139, -0.999998188158114, -1.0]
[-0.9977666351335045, -1.0, -1.0];[-0.9990424879141091, -1.0, -0.9997721105695898];[-1.0, -0.9993176780522984, -1.0]
[0.0024140232496771856, -1.0, 0.0010206000045485425];[0.4585482010663756, -1.0, 9.018019204967969E-4];[-0.5885217044714347, -0.4624313871208746, -1.0]
[-0.9999314957478134, -1.0, -1.0];[-0.9997751353154086, -1.0, -0.9997762988055835];[-0.9997776970796917, -1.0, -1.0]
[-1.0, -1.0, -1.0];[-1.0, -1.0, 5.219323626101126E-211];[-1.0, -1.0, -1.0]
[-0.9060957470334998, -0.782292434080644, -1.0];[-1.0, -0.6924297249771055, -0.346922612288049];[-0.7552552850919315, -0.4887337237623124, -1.0]
[1.5125036605328334E-10, 6.659435341142183E-8, -1.0];[-1.0, -1.0, -1.0];[1.4552275254157436E-9, 0.037792112926540805, -1.0]
[0.020778398946473278, -1.0, -1.0];[-1.0, -1.0, -1.0];[0.004193693279786798, 0.9992889417290661, -1.0]
[0.001397231968902, 0.0017238503384941152, -1.0];[0.9999999998914226, -1.0, -1.0];[-0.6859203576878053, -0.9915053263050908, -1.0]
[1.5079748482461158E-145, -1.0, -1.0];[-1.0, -1.0, -1.0];[-1.0, -0.999999999999713, -1.0]
[-0.997474060338708, -1.0, -0.999979359676127];[-0.9916507261283756, -0.9998390049462438, -0.9939777294434904];[1.5700131458611831E-4, -1.0, -1.0]
[-0.9970425123471822, -1.0, -0.8993288435981256];[-0.9987758372557662, -1.0, -1.0];[-0.9974481214708415, -1.0, -1.0]
[-0.9642040641629632, -0.905959757668479, 0.9999999996184749];[0.2575338102557947, -1.0, -1.0];[-1.0, -1.0, -1.0]
[-1.0, -0.9873706877763485, -1.0];[-0.9712176573238634, -0.9999301948713278, -1.0];[-0.9827345681244186, -0.9692894233923266, -0.47071942026536995]
[-1.0, -0.9014906210501108, -1.0];[-1.0, -1.0, -1.0];[0.9999998501326364, 0.03516062336560353, 0.43467762648762115]
[-1.0, -1.0, 0.5469764560030954];[0.5989895959181737, -1.0, -1.0];[0.5985768237993896, -1.0, 0.9999999999999999]
[0.014941959345174638, -1.0, 0.0359098832559101];[-1.0, -1.0, 0.01600678580775594];[0.9999999999991508, -1.0, 0.9919131785857012]
[-1.0, 2.1062244138096988E-4, -0.6739422127844021];[0.9923336222095323, 0.5994099539928777, 0.002459917545096713];[0.052262422023865523, 0.0216115973388321, -0.5562502562245826]
[-1.0, -1.0, 0.9147555004441433];[0.9999999999999979, -1.0, -1.0];[0.03607319658974311, -1.0, -1.0]
[-0.999242911595757, -1.0, 2.381983626251828E-38];[-1.0, -1.0, -1.0];[-1.0, -1.0, -1.0]
[-0.8474603876986286, -1.0, -0.6750617455470596];[-0.7824139829742316, -1.0, -1.0];[-0.5466020398011532, -0.5311663880540558, -0.34840341946173603]
[-1.0, -1.0, -0.9999038899052838];[-1.0, -1.0, -1.0];[-0.9719764039137374, 2.6434291823920963E-22, -0.9975100040775259]
[3.785732405335295E-6, -1.0, -0.32210555227148685];[-1.0, -0.47277780061117586, -1.0];[1.2154924367704418E-8, -0.17134580464208402, -0.3541522617238276]
[-1.0, -1.0, -1.0];[-1.0, -1.0, -1.0];[-1.0, 1.2401357551460283E-108, -0.9999999999999739]
[-0.5819131384064768, -1.0, -1.0];[-1.0, -0.5807651822200528, -1.0];[-0.546643052444925, -0.5824904196111851, -1.0]
[-1.0, -1.0, -1.0];[-1.0, -1.0, -1.0];[-0.999999836894497, 2.3072270999863532E-57, -1.0]
[-0.6999082235601443, -1.0, -1.0];[-0.6874707943442858, -0.9062902871515548, -1.0];[-1.0, -0.9030433183957609, -1.0]
[-1.0, -0.9999999999999976, -1.0];[-1.0, -1.0, 2.1852089340102067E-160];[-1.0, -1.0, -1.0]
[-1.0, -0.9885530938316378, -0.5348485253183937];[-1.0, -1.0, -1.0];[5.714548039206964E-12, -0.8551913446079147, -1.0]
[-1.0, -1.0, 1.0];[-1.0, -1.0, -1.0];[-1.0, -0.999254030828276, -1.0]
[-1.0, -0.26721503259213714, 9.000440339624455E-5];[-1.0, 0.10732368813318922, 3.909130833657885E-7];[-0.5137253811047365, -0.577655905587776, -1.0]
[-1.0, 0.5898924552241839, 0.04474249159826404];[-1.0, 0.010419086068350923, 0.026725747739794505];[-1.0, -1.0, -1.0]
[-1.0, -1.0, 1.119020782745122E-168];[-1.0, -1.0, 2.215298201532357E-168];[-1.0, -1.0, -1.0]
[-1.0, -1.0, 0.9999941833816651];[-0.9038282202520489, -1.0, -0.6979197923910809];[0.545293937952028, -1.0, -1.0]
[0.03943953819913124, 0.020124171609364916, 0.04148340030229025];[0.07951924599368287, 0.08434546264011751, -0.6903397777677668];[0.9756776449389077, -1.0, 0.014755497439947963]
[-0.2378018561576861, -0.1521126515329097, -0.683230307655273];[0.011970887324402813, -1.0, 0.0267550046638177];[-0.4006184025249875, -1.0, 0.007695502993788639]
[-0.997458932348579, -0.9989093166747823, -1.0];[-0.9974978691773165, -1.0, -0.7894179750700916];[-1.0, -1.0, -1.0]
[-0.5942988141965875, -1.0, -0.5939949144001723];[-1.0, 0.2450265563312123, -0.5868266701663435];[-1.0, -1.0, -1.0]
[0.028118178908233194, -1.0, 0.9999999548203494];[-1.0, -1.0, -0.9093595129572354];[-1.0, -1.0, -1.0]
[-1.0, -0.6846782623386146, -0.9729960185133881];[-0.9023885060860188, 0.025451106761949463, -0.6703541743621069];[0.008956332426086967, -1.0, -1.0]
[-1.0, 0.911604857245256, -1.0];[0.0274624116359668, -1.0, 0.052956703659132895];[0.049975300778806, -1.0, 0.0677271307428146]
[0.01728682591070002, 0.9999373885408214, -1.0];[-1.0, -1.0, -1.0];[-0.904089351661315, 0.016114940285929837, 0.01700160462077054]
[-1.0, -1.0, 3.1978472232723183E-18];[-0.5620588491104804, 5.312738870631661E-18, 4.0105035528295645E-15];[-1.0, -1.0, -1.0]
[0.024897743312081135, 0.040457420764303656, 0.008275588166617331];[-1.0, -1.0, -1.0];[-0.5226718904227723, 0.010766250703819825, 0.019451941087510773]
[0.04509680654133859, 0.014823703652548072, 0.08083779771213864];[-1.0, 0.026927960001380792, 0.04630980798772624];[0.026285729851884345, -1.0, -1.0]
[-1.0, -0.6779395366672725, -0.6928392713750537];[-1.0, -0.39017643626467274, -1.0];[-0.8117807992099239, -1.0, -1.0]
[-0.6937765107965761, -0.6846540067047184, -1.0];[-1.0, -1.0, -0.6934352558399808];[0.020802553591538854, -1.0, -1.0]
[1.8730584622421966E-6, -0.9019114584941686, -1.0];[-1.0, -1.0, -1.0];[-1.0, -1.0, -1.0]
[1.5504166684887853E-7, -0.49602834301887555, -0.699875801446917];[-1.0, -1.0, -1.0];[-0.6937678949932897, -1.0, -1.0]
[-1.0, -1.0, -1.0];[-1.0, -1.0, -1.0];[0.9999999998880963, -1.0, -0.9910963162088503]
[-0.16527081092746826, -1.0, 0.015762157531056243];[-1.0, 0.4282199881844512, -0.36857200304043086];[-0.40047541588118923, 0.02706982746707692, -1.0]
[-0.6793879516348102, -1.0, -0.6847624404861353];[-1.0, -0.6835434495881392, -1.0];[5.978208360408487E-5, -1.0, -1.0]
[0.9976223394826327, -1.0, -1.0];[0.009209088987585646, 0.0068968823316915345, -1.0];[-0.6962102986542876, 0.014505003314806742, -1.0]
[-1.0, -0.9715877294521356, -1.0];[-1.0, -0.9729676276121958, -1.0];[-0.9709216384997207, -1.0, -0.971744357892149]
[-1.0, -0.2743786297126342, 0.04263435931180536];[-1.0, -0.9080645636037304, 0.06109668887764115];[0.3611656503509538, -1.0, 0.02012528976248307]
[-0.9977845518329886, -0.6622989855836148, -1.0];[-1.0, -1.0, 5.690682799506478E-75];[-1.0, -0.8754592118912651, -1.0]
[-1.0, 0.9999998531587396, -1.0];[-1.0, -1.0, -0.9710646728211548];[-1.0, 0.07070191181461087, -1.0]
[-1.0, -1.0, -1.0];[-0.08403950088104634, 5.883449506686169E-4, -0.2804339599621672];[-0.3630188065326201, -0.36830371925203764, -0.37179093348572845]
[-1.0, 0.010408964358263995, -1.0];[-1.0, -0.6844214068676246, -1.0];[-0.6770702742239929, -0.6818221376392185, 0.009441913626311017]
[-0.35546275148894746, -1.0, 0.007358415113922979];[-0.685070982194382, -0.6809652361243227, -1.0];[0.03805468524667138, 0.04561877435967159, -0.2722712734160566]
[-0.4005142603566626, -1.0, -1.0];[-1.0, -0.6820726879365328, -1.0];[-0.6833689616429983, -1.0, 3.202531779806757E-4]
[-0.6848622957971593, -1.0, -1.0];[-1.0, -1.0, -1.0];[-1.0, -1.0, 2.139251684257484E-4]
[-1.0, 0.042538343273327464, 0.004222741916463935];[0.03057198475231142, 0.011966150903029205, 0.04356462132278584];[0.02370718944431048, -1.0, 0.038196162184346905]
[-1.0, -1.0, -1.0];[-1.0, -1.0, -0.680694904143252];[0.0038369830076443456, -1.0, 0.7044918105667741]
[-1.0, -1.0, -1.0];[-0.6860935578648073, 0.4137136797937067, -1.0];[-0.6882461593584326, -0.6768063318659733, -1.0]
[-0.2432310526839335, -1.0, 0.01795461183262097];[-0.6833591704236921, 0.023802089750325883, -0.9064098652906187];[-1.0, -0.684158579685721, -0.6896726811091541]
[0.0010926896503036132, -1.0, -1.0];[-1.0, -1.0, 0.340990005621484];[-1.0, 0.99999999999907, -0.9721953449060533]
[-0.9999999999999117, -1.0, -1.0];[-1.0, -1.0, -1.0];[-1.0, -1.0, -0.9999999999999721]
[-1.0, -1.0, -1.0];[-0.19737862540905327, -0.6072643019636901, -1.0];[0.011877040797598638, -0.6777764810102549, 0.010626886216604646]
[-1.0, -1.0, -1.0];[-0.654111470678659, -1.0, -0.9997812672747266];[6.079746557825345E-9, -1.0, -0.907385480852458]
[-1.0, -1.0, -1.0];[-1.0, -1.0, -0.9992512171893971];[-0.9992260029832819, -1.0, -1.0]
[-1.0, -0.9705568580129024, -1.0];[-1.0, -0.9711616427025431, -1.0];[-1.0, -0.9071010931442356, -0.972001879101232]
[-1.0, -0.9992014316599392, -1.0];[-1.0, -1.0, -1.0];[-1.0, -1.0, 0.9999999999997303]
[-0.9060819057514274, -1.0, -1.0];[-1.0, 5.715968909310391E-12, -1.0];[-1.0, -1.0, -1.0]
[-1.0, -1.0, -1.0];[-0.45560305982632193, 2.3851666246928967E-10, 1.7021639834618518E-10];[-1.0, -1.0, 2.355306090992329E-10]
[-1.0, -1.0, -1.0];[-1.0, 9.830984953373641E-12, 3.114443324657308E-12];[-1.0, -1.0, -1.0]
[-0.46956480660041117, -0.9917456109569414, -1.0];[-0.46316842036797584, -0.9058164537907413, -0.2821445020869916];[-0.44997557787218156, -1.0, -1.0]
[-1.0, 0.04062539975657812, -1.0];[-1.0, 0.010669824328859179, 0.9993076577125187];[-1.0, -1.0, -1.0]
[-1.0, -1.0, -1.0];[-0.9081976588278393, -0.655408324595946, -0.6944469354959435];[-0.6974020457302751, -1.0, -1.0]
[-1.0, -1.0, -1.0];[-0.6733790084238467, 0.028610974326609695, -1.0];[0.9976766196746687, -1.0, -1.0]
[0.040086216330612795, -1.0, 0.9157964325634159];[-0.6726189714088388, 0.0038959428981805823, -1.0];[-0.901199972210027, 0.050854635032050545, -1.0]
[0.014551629794234201, -1.0, -0.6593118684898458];[-0.6503083317950531, -1.0, 0.026962784544813045];[-1.0, -1.0, -0.9083994441778611]
[-0.9053565126977237, -0.2816432899985341, -1.0];[-0.9076538945993344, -1.0, -1.0];[0.004330441742441615, -1.0, 0.006276008418733492]
[0.030922201495903502, 0.0304935778626379, -1.0];[0.9999982291898069, 0.08152314991722741, -1.0];[-1.0, -1.0, -1.0]
[0.999792415012164, 3.1480241108142735E-4, -1.0];[0.599999999794887, -1.0, 0.512486317176315];[0.047496543562134425, -1.0, -1.0]
[-1.0, -1.0, 6.417781016035467E-4];[-1.0, -0.676117451620737, -0.4969075410477415];[-1.0, -1.0, -0.6974883138763819]
[-0.9067781226155921, -0.9070025830717051, -1.0];[-1.0, 0.5999999999322865, -1.0];[0.13670709572753315, -1.0, 0.026663832480949768]
[-0.694188975201585, -1.0, -1.0];[-1.0, 0.9975939701062786, -1.0];[0.005916111472805264, 0.0014007869465986534, -1.0]
[0.5999999999991459, 0.17976084156792604, -1.0];[-1.0, -1.0, 0.00242687248941591];[-1.0, -0.9703507003752984, -0.9723733287619255]
[1.0, -0.9999800281306045, -1.0];[-1.0, -1.0, -1.0];[-1.0, -1.0, -1.0]
[-0.3949019250232815, -1.0, 0.0373689416765924];[0.004467261680782023, 0.012496813649126682, -1.0];[0.03509303241556037, -0.15404455880637435, 0.02751117197340841]
[-1.0, 0.042481814055747115, 0.915379288694023];[-1.0, 0.9999345739787736, 0.038010846067897536];[-1.0, -1.0, -1.0]
[0.5908785833778945, -1.0, -1.0];[-1.0, 0.03355242448983691, 0.07783307272534319];[1.0, 0.0014853316133678343, 0.5491768518679585]
[0.023184498208082882, -1.0, -1.0];[-1.0, 0.01161285071941738, 0.0062203074306615425];[0.5983200631213058, 0.0359857092485377, -1.0]
[-0.9974208350145969, -1.0, -1.0];[-0.9975148715586138, -1.0, -1.0];[-1.0, -1.0, -1.0]
[-1.0, -1.0, -1.0];[0.00593973290278089, 0.0034332393412338357, -1.0];[0.42192829881483457, 0.002461790186514291, -1.0]
[-1.0, -1.0, -1.0];[2.4160820909807526E-7, -1.0, -1.0];[1.0, -1.0, -1.0]
[-0.5908040866693428, -1.0, 1.0822971182964684E-6];[-1.0, 1.0685800950268742E-5, -1.0];[-1.0, -0.28721867812180757, -1.0]
[-1.0, -1.0, 8.024740712484509E-6];[-1.0, -0.9706546788102853, -1.0];[-1.0, -1.0, -1.0]
[-1.0, -1.0, -1.0];[-0.5688419123126703, 0.9999999523048123, -1.0];[-1.0, 0.3048467516587066, 0.5917137561322979]
[-1.0, 0.0010956010949598417, -1.0];[-0.9917946722693257, -1.0, -1.0];[-1.0, 0.9999999999679476, -1.0]
[-0.9038488110395433, -1.0, -1.0];[-1.0, 0.991961359869301, -1.0];[-1.0, -0.9053977780547793, -0.6968581858591313]
[-1.0, 0.5998432594207855, -0.6851702340203694];[-1.0, -1.0, -1.0];[0.9999941642494996, -1.0, 0.018769961709359764]
[-1.0, 0.9999999996216978, -1.0];[-1.0, -1.0, -1.0];[-1.0, -1.0, -0.9714118574286433]
[-0.681546588242297, -1.0, 6.166383652144911E-6];[-0.37234661384809403, -1.0, -1.0];[-1.0, -1.0, -0.5727615467022207]
[-1.0, -1.0, -0.9915423239063929];[-1.0, -1.0, -1.0];[-1.0, -1.0, -0.9916940585222396]
[-0.9313275247562404, -0.9695554942506154, -1.0];[-0.9997719633437535, -1.0, -1.0];[-1.0, 2.480016261415908E-6, -1.0]
[0.9923429345076142, -1.0, -1.0];[0.035897001437302324, -1.0, -1.0];[0.015145594483800852, 0.02566287346517474, 0.023259617483660667]
[-1.0, -0.23980811976623972, 0.036810868928377274];[-0.23693081482913103, -0.3716111457879949, -1.0];[-1.0, -0.16933643353950897, -0.14518898555021317]
[-1.0, -1.0, 0.42111123876872003];[0.25662533398683207, -1.0, -1.0];[-1.0, 3.146065027390141E-4, 1.0]
[0.00504345062391346, -1.0, 0.008196007547506552];[0.04046623436981899, -1.0, -1.0];[0.07889043664985651, 0.004723134769675974, 1.0]
[-1.0, -0.9065125534286801, -1.0];[-0.9955969855791593, 0.3889410980077722, -0.997401142183062];[-1.0, -0.999951298578702, -0.9974477412911422]
[-1.0, -1.0, -1.0];[-0.9095075522703393, -0.6810665884146166, -0.4157466654525363];[-1.0, -0.683919994326656, -1.0]
[0.09783130321064029, -1.0, 0.0983266410102851];[-1.0, 0.07784126192331821, 0.005871463369938068];[-1.0, 0.9977111065269699, -1.0]
[0.08262982922194989, 0.02447463041379555, 0.024726247983399664];[0.06582570121207638, 0.016024893382674387, 0.06851652708038959];[0.07420923292036692, 0.020161533260385146, 0.9926286745063256]
[-1.0, -1.0, -1.0];[-0.690813180124942, 0.9999999960177807, -0.6948881027522883];[-1.0, -0.6797683588781652, -1.0]
[0.024506637763440843, 0.06635220680243867, 0.08589080544551804];[0.03924819060695615, 0.9999995195817062, -1.0];[0.05784433842328614, -1.0, 0.04801490501660555]
[-1.0, 0.02592984052907965, 0.011045243668989783];[0.021942907663427092, -0.6883076091181944, -0.9063567522692818];[-1.0, -0.6878336745439542, 4.8461170348302885E-4]
[0.017181296073965714, -1.0, 0.9132797515137386];[-1.0, 0.027721966860365623, -1.0];[0.03291914757690234, -1.0, 0.020199065223919878]
[-1.0, -0.9998354237601184, -0.9992408828380152];[-0.9975045490354569, -1.0, -1.0];[-1.0, -0.9982846761471692, -1.0]
[-0.3176729010039402, -0.5994577423907514, -0.8704731602544039];[-1.0, -0.9606086903737332, -0.9334820170592393];[-1.0, -0.9999296031925149, -1.0]
[0.05691263894743834, 0.09043706770751408, 0.7276450168383689];[0.06939163845496275, 0.03835667767847642, 0.04915978709071144];[0.0616141774982773, 0.006750081171495926, 5.297071037367985E-4]
[-1.0, 0.43112900217700406, 0.9736345940249258];[0.031187763863866926, -0.9012489393888441, -1.0];[-1.0, -1.0, -1.0]
[-1.0, -0.9999862188613468, -1.0];[-0.999992076842966, -1.0, -0.999999999960306];[-1.0, -0.9999999421969087, -1.0]
[-1.0, -1.0, -1.0];[5.4232119949135824E-129, -1.0, -0.9999999842190926];[-1.0, -1.0, -1.0]
[-0.9999862218179557, -0.9999936128193186, -0.9999958125121129];[-1.0, -1.0, -1.0];[-1.0, -1.0, -0.999998148042533]
[-1.0, -0.97146267699218, 1.937260211171222E-15];[-1.0, -1.0, -1.0];[-1.0, -1.0, -1.0]
[-0.991441390404445, -1.0, -0.9992091552323851];[-1.0, -0.9974138593863513, -1.0];[-1.0, -1.0, -0.997376902315535]
[-0.23154701335035566, -0.9081720319056292, -1.0];[-0.6970982337853965, 0.1294627188526078, -1.0];[-1.0, -0.9056186144908062, -0.9711661278464803]
[-0.688740497794204, -0.400859228752887, -1.0];[-0.6683519618446291, 0.5468955629592789, 0.0023124174130146557];[-1.0, -1.0, -1.0]
[-1.0, -1.0, -1.0];[-0.6940648436467586, 0.7018462510116429, -1.0];[-1.0, -1.0, -1.0]
[0.5999999999999999, -1.0, -1.0];[0.015920988260849624, -1.0, -1.0];[-1.0, -0.9706812253290327, -0.9723319754610757]
[-0.6897367978573746, -1.0, -0.3911062847378259];[-0.09553730289475637, -1.0, -0.4011377823826233];[-1.0, -0.6938548158663155, -0.5177340130265633]
[-0.9997802945734942, -1.0, -0.999770088215977];[-1.0, -1.0, -0.9997618530057328];[-1.0, -0.9999343420049416, -1.0]
[0.9999817962836342, -1.0, -1.0];[-1.0, 0.004806135724691541, 0.03802755638472043];[0.010528402347513921, -0.9065595477809401, -0.6741290633368907]
[-1.0, -0.41961951998596847, 0.4203064053085079];[-0.345057785324329, -1.0, -0.3948714108610206];[3.9537863552349605E-13, -0.27453916578492427, -1.0]
[-1.0, -0.6799805075117148, 0.3857272406056912];[-0.69636584328087, -1.0, -0.699028714592002];[-1.0, -1.0, -1.0]
[-1.0, -1.0, 4.7986062246814615E-16];[-0.9974146570954069, -1.0, -1.0];[-1.0, -1.0, -1.0]
[-1.0, -1.0, 2.3790397864284223E-13];[-1.0, 2.0545363529481846E-13, 4.349517436305474E-13];[-0.593993839836884, -1.0, -1.0]
[-1.0, -1.0, 7.187782259451392E-15];[-1.0, 4.133371829415212E-15, -1.0];[-1.0, -1.0, -1.0]
[-0.9070553664073162, -0.9037985029982465, -1.0];[-1.0, -1.0, 0.9999998443385247];[-1.0, -0.6985406654553937, -1.0]
[-0.9713820471418377, 0.015361188989963349, -1.0];[-1.0, -1.0, 0.9999999996312372];[-0.697835285528315, -0.9715876783661056, -1.0]
[0.056956497452340264, 0.05825128669979025, 0.07016718248337707];[-1.0, 0.05311166955872415, 0.09679463980117131];[0.9999984006089188, 0.0534987187208511, 0.06821574976621332]
[-0.9915366100773373, -1.0, -1.0];[-1.0, -1.0, -1.0];[0.9999999999682295, -1.0, -1.0]
[0.02891669734053213, 0.42594448697541726, 0.04830299468122523];[0.05548791170642299, 0.9924574197227983, 0.02529770899419025];[0.03467430640861664, 0.029087068652347083, 0.02704978114341602]
[-1.0, -0.9937918129805804, -1.0];[-0.6914586264729646, -0.9914805762475034, -0.5864850628502013];[-0.6821370076608135, -0.5847875877306532, -1.0]
[-1.0, -0.9974399405632974, -1.0];[-0.9916397184038293, -1.0, -0.7881399904534115];[-0.9966197991510065, -1.0, -1.0]
[-1.0, -1.0, -1.0];[-0.9913299586530593, -1.0, -1.0];[1.3603920196134192E-33, -1.0, -1.0]
[-1.0, 0.04710936109800138, 0.9926785962406867];[-1.0, 0.09053635466740374, 0.0034078482567250126];[0.027494505767241467, 0.02467628009044015, 0.09000330637675104]
[-1.0, -0.6944877040631036, -1.0];[0.9999982379645327, -1.0, 0.16351927142674222];[-1.0, -0.9712729148443564, -1.0]
[-1.0, -1.0, -1.0];[1.0, -1.0, 0.007334140484059348];[-1.0, -1.0, -1.0]
[-0.6736257249440097, 0.06644502077876663, 0.06601982156145117];[0.030963946195121883, -1.0, 0.03555282173934209];[0.08213022474184001, 0.013816033366956405, 0.05215831021198622]
[-1.0, -0.5805989533409742, -1.0];[-1.0, 0.006906643744596586, -0.6905813811712304];[0.9997842781304266, -0.8809716654963655, -1.0]
[-1.0, -1.0, -1.0];[-1.0, 0.031024194944197694, -0.9911465566165688];[1.0, -1.0, -1.0]
[-1.0, 0.9999999996172866, 0.05841646470499089];[-1.0, -1.0, -0.6883801372660736];[0.06532384069842764, 0.08004502071595303, -1.0]
[-1.0, -0.2845484324628339, -1.0];[-0.0025189697324251026, -0.28369217722842593, -0.2788135800370975];[0.13588087784859926, 0.024178334428568593, -0.17054989166067475]
[-1.0, -0.6984726978907189, -1.0];[-0.6889850162464174, -1.0, -1.0];[-0.6979843206020112, -1.0, -0.9049670966214077]
[-1.0, 0.9999999958387495, -1.0];[-0.6974633302470876, -1.0, -0.9707581144578876];[0.14590001965981525, -1.0, -1.0]
[-1.0, -0.6066158433699642, -0.6766905827129086];[-0.6953669980366423, -0.9906732254129381, 0.012796771797216196];[0.4774546320153725, -1.0, -1.0]
[-1.0, -0.9718626346923929, -1.0];[-1.0, 0.15763923431966909, -0.9094021513131053];[-1.0, -1.0, -0.8935307966682873]
[0.04363722737343798, -1.0, -1.0];[-1.0, 0.9923804357668566, -0.6825025080133116];[0.02529895271102739, 0.04911769251626219, 0.022240166494339287]
[-1.0, 0.02006516336550761, 0.3563457089981109];[0.023334193528884217, 0.19473275918053173, 0.0016980073680804677];[-0.28774971556272466, -1.0, 0.012485933353686163]
[-1.0, -0.6795433717407575, -1.0];[0.11374787548805632, -0.6884505642415127, -1.0];[-0.9055913860457284, -1.0, -1.0]
[-1.0, -1.0, -1.0];[-1.0, -0.9048539359401846, -1.0];[-0.9703758240158611, -1.0, -1.0]
[-0.3599814248882144, 0.007512144983201168, -0.5830102862712573];[2.288563585223321E-6, 0.021722626869532913, -1.0];[-0.5738995656456798, -1.0, -1.0]
[-1.0, -0.5648046768588868, -1.0];[3.197072199736097E-10, 0.0034044800580116386, -1.0];[-0.5211051271975888, -1.0, -1.0]
[-1.0, -1.0, -1.0];[1.2115901838926934E-8, -0.6809172240691707, -1.0];[-1.0, -1.0, -1.0]
[-0.6814407140122349, -1.0, -0.99046789885695];[-0.787435750570817, 0.5293751275510314, -0.20100338977901921];[-0.8906193593224603, -1.0, -1.0]
[-0.4856698871373202, 1.0089152578475907E-6, -1.0];[-0.5819004377637566, 4.881498394846681E-11, -0.3565059174218942];[-0.41654670760689644, -1.0, -1.0]
[-1.0, 5.1331707055666566E-5, -1.0];[-1.0, -0.6917897584192132, -0.6868307411818936];[-0.6818708872200001, -1.0, -1.0]
[-1.0, -1.0, -1.0];[-1.0, 1.6675724194417198E-14, -0.9015825550708868];[-1.0, -1.0, -1.0]
[-1.0, 2.3153947596656616E-30, -0.9999648662910491];[-0.9997756502764485, -1.0, -0.9998446262465979];[-1.0, -1.0, -1.0]
[-1.0, -1.0, -1.0];[3.8419962341874587E-22, -1.0, 1.1645832833245354E-21];[-1.0, -1.0, -1.0]
[0.052196134530877826, -1.0, -1.0];[0.14564535902441844, 0.9999946235944831, 0.035261525584226676];[-0.6757824551269146, 0.06117895756899272, -1.0]
[-0.9920636259386785, -0.9974682775881056, -1.0];[-0.9997689663387507, -1.0, -1.0];[-0.9940060252386784, -1.0, -1.0]
[-1.0, 8.100202310840402E-4, -1.0];[-0.691420652570638, -1.0, -1.0];[-1.0, -1.0, -1.0]
[-1.0, 5.654697808310412E-4, -1.0];[0.9999999999999999, -1.0, -0.9965226922059472];[-1.0, -1.0, -0.9053437497439385]
[-1.0, -0.6792698754952647, -1.0];[0.9999804809018731, -1.0, -1.0];[-1.0, -1.0, -1.0]
[-1.0, -0.9997811005627182, -1.0];[-0.9999336914674201, -1.0, -0.999930787122136];[-0.9999319476493929, -1.0, -1.0]
[-1.0, -1.0, -1.0];[1.0, -1.0, -1.0];[4.525447732956293E-5, -1.0, -1.0]
[0.0021030495324479317, 0.05989310072931115, 0.02603182964288995];[0.05839723257484611, 0.999938374464263, 0.022219179850598215];[0.021076401076950347, 0.0252106779332401, 0.010807949692393149]
[0.08897307518108219, 0.04466461169346321, 0.032314585885737546];[-1.0, 0.9977956858640286, 0.07430621074782602];[-0.6786371008835455, 0.036259079919804225, -1.0]
[-1.0, -1.0, -1.0];[4.3525642494379735E-5, 0.7046124649146216, -0.6766355010692531];[-0.9061387751029769, -1.0, -1.0]
[-1.0, -1.0, -1.0];[-1.0, 0.9921172328268169, -0.6836629154381482];[-1.0, 0.006444496653117715, -1.0]
[-1.0, -1.0, -1.0];[-0.9043978950022379, -1.0, -0.9041968269152261];[-0.9288479884326863, -0.9582053346021948, -1.0]
[8.70501296997179E-8, -0.15905318787067124, -1.0];[-0.5992762544849701, -1.0, -0.570817612542935];[-1.0, -0.2157886658564481, 5.5723124884236674E-12]
[-1.0, -1.0, -1.0];[0.9999998478943891, -1.0, 0.03550167760515535];[-1.0, 0.04166335670296151, 0.03712091404260048]
[0.5352254622769343, 0.010328376951020436, -1.0];[0.21164901173038797, -1.0, 0.07962770542631442];[-1.0, -1.0, 0.9999995076882916]
[-1.0, -1.0, -1.0];[-1.0, -1.0, 0.0054336080853151485];[-1.0, -1.0, 0.9999999861902797]
[-0.0844592967378267, 4.109849421209249E-4, -1.0];[-1.0, 5.519418219368472E-4, 9.177329468603064E-4];[-1.0, -0.3126980627512387, 0.0559837357660596]
[6.220329133984407E-11, 7.033988065456463E-11, -1.0];[-1.0, 3.4761084864185E-11, -1.0];[-1.0, -0.5824131687700072, -1.0]
[6.155492946701205E-4, -1.0, -1.0];[-1.0, -0.9085997698903252, -1.0];[-1.0, -1.0, -1.0]
[-0.6891810406097432, 0.003742213987465615, -1.0];[-1.0, -0.9034080995504409, -1.0];[-1.0, 0.028620833120224676, 0.9149054523184637]
[0.03381259362732207, -0.6777349860652613, -1.0];[0.9999999531580126, 0.013784533840245928, -1.0];[-1.0, 0.5443768180353251, -1.0]
[-1.0, -0.49745669362939765, -1.0];[0.005905874796062438, -1.0, -0.6944466533097826];[0.010281170418975449, -1.0, -0.6813999757067509]
[-0.9031857787676622, 0.004759796223779767, 0.045180454802909865];[-1.0, 0.0485657201558265, -1.0];[-1.0, 0.9997961787566471, -1.0]
[-1.0, -0.6990422673581623, -1.0];[-1.0, -0.5574864595440965, -1.0];[-0.6768973367546756, -0.602060562998213, -1.0]
[-1.0, 0.011752369828754255, -1.0];[0.061299981450083085, 0.9993185891885156, 0.011926930924870717];[0.04054086945981805, -1.0, -1.0]
[0.011165352704658982, 0.027489628217176876, -1.0];[-1.0, 0.028214774515091825, -0.6703657092195644];[0.014657773460923718, 0.9922642489709089, -1.0]
[-1.0, -0.5987722267665552, -1.0];[-1.0, 9.03096588046775E-6, 9.554831192070467E-14];[-1.0, -1.0, -0.589779936900575]
[-1.0, -1.0, -1.0];[-1.0, -1.0, 1.2466773334823123E-78];[-1.0, -1.0, -0.9999999985827728]
[-1.0, -1.0, -0.9972120953634757];[-0.9973682363788059, -0.997450192517829, -0.9974769995486636];[-1.0, -1.0, -1.0]
[-0.5290329021994513, -0.9032166100629306, -0.6933656935271844];[-0.38235834620240683, -0.6959517963537627, -1.0];[-0.4029341538946269, -1.0, -1.0]
[-1.0, -1.0, -0.9082765659587246];[-0.6986498613885272, 0.03371797634783165, -0.9704001279312313];[-1.0, 0.027909250612681825, 0.9999999998937701]
[-1.0, 0.00716383602492533, -1.0];[-0.9915519556714474, -1.0, -1.0];[-1.0, -1.0, 1.0]
[-1.0, 0.05977717671171522, -1.0];[-0.6791576815351624, -1.0, -1.0];[0.04953864126491421, -1.0, 0.9159608982605834]
[-1.0, -1.0, -0.9992559499451884];[-0.9992596152005226, -1.0, -0.9997708950477998];[-1.0, -1.0, -0.9992609383764383]
[-1.0, -1.0, -0.9999793998344052];[-1.0, -1.0, -1.0];[-1.0, -1.0, 1.671346775957373E-37]
[-1.0, 0.1263605397279911, 0.9999944419038885];[-0.3587563103931202, -1.0, -1.0];[-1.0, -1.0, 0.01756992468983116]
[-1.0, -0.9082452771180762, 0.9999999998897365];[-1.0, -1.0, -1.0];[-1.0, -1.0, -1.0]
[-1.0, -1.0, -1.0];[-0.9917259375218428, -1.0, -1.0];[1.084205163327506E-6, -1.0, -1.0]
[-1.0, 0.016130893991096473, 0.02470123427440786];[-0.5721171538669629, 0.9999999558089349, 0.014637720911317487];[-1.0, -1.0, -1.0]
[-1.0, -1.0, -0.9975435439002455];[-1.0, 9.185454275206973E-5, -1.0];[-0.9740401626480352, -1.0, -0.9906814739437944]
[-1.0, -1.0, 0.001929926488714462];[0.00438827956915745, -0.678525209164784, -1.0];[-1.0, -1.0, 0.9738167524451767]
[-0.2342675206147104, -1.0, 7.210808210125926E-4];[-0.26817706310742256, -0.34877832099330036, -0.1730973887796925];[-1.0, -0.23540243228068378, -1.0]
[0.9999390523575685, 0.007796404454033613, -1.0];[-1.0, 0.0011714788681387645, 0.014083902271944948];[-1.0, -0.6993608566953705, -1.0]
[1.939375244390671E-6, -1.0, -1.0];[-0.8981075379843345, -0.5089854161086588, -0.9974580732128646];[-0.8984638696993577, -1.0, -0.9991401097580581]
[-1.0, -1.0, -1.0];[-0.9049746548452889, -1.0, -0.972662378851335];[0.5999999877446626, -1.0, -0.9717395192537177]
[-1.0, -1.0, -1.0];[0.029932930096981905, -1.0, -0.6829320457707664];[0.9999999987924898, -1.0, -1.0]
[9.608247811468878E-16, -1.0, -1.0];[-0.9999789759445274, -1.0, -0.9999329810173755];[-1.0, -1.0, -0.997285438514525]
[0.9977651431390054, 0.022040800507333348, 0.0065077579704424515];[0.039700906917359495, -1.0, 0.038282103390255486];[0.07398144840723936, 0.04413411227129227, 0.05386740342637502]
[-0.9975104498956007, -1.0, -1.0];[-0.999759832325364, -1.0, -1.0];[-0.9972742790022948, -0.9974975459300983, -1.0]
[0.08324812129333026, 0.03616635995464057, 0.07975892582418832];[-0.6726687502796063, 0.9999995058190101, 0.09512899999889142];[0.08890576339878695, 0.06048295927645088, 0.029991530807703372]
[-1.0, -1.0, 0.0011985717639252137];[-0.9971992918184641, -1.0, -0.9999999999610513];[-0.9997328315294332, -0.5912286383934362, -0.2742943073452879]
[-1.0, 0.0664878852086964, -1.0];[0.9101049165552602, -1.0, -1.0];[0.9999366226246841, -1.0, -1.0]
[-1.0, -1.0, -0.49340894643449795];[-0.4044977983086398, 0.91147236389872, 0.0026238863770507107];[-1.0, -0.37579700814692896, -1.0]
[-1.0, -1.0, -0.6807589413345316];[-1.0, 0.9745277944596673, 0.02457287125538851];[-1.0, -1.0, -1.0]
[-1.0, -1.0, -1.0];[0.014399161378483329, 0.015733621027744782, -0.5653809203860886];[0.5999974624599623, 0.00823867719363014, -0.6976836195072936]
[-1.0, -1.0, -1.0];[-1.0, -0.9999998267857717, -1.0];[-0.9999998272514614, -1.0, -1.0]
[-1.0, -1.0, -1.0];[-1.0, -1.0, -0.9672079969797703];[-0.9076347713384765, -0.9705633837569438, -0.9094985747711634]
[0.04408000464535337, 0.040806466226309894, -0.6892488565142986];[0.03442020243347375, 0.9145389725450025, -1.0];[0.019506159655880942, -1.0, -1.0]
[-1.0, 0.05768045449036244, -1.0];[-1.0, 0.7139724859047751, -1.0];[0.9977157849250702, -1.0, -1.0]
[0.024455646659700604, 0.9999983064037604, 0.005885568405342323];[-1.0, -1.0, -1.0];[0.24008910114767545, -1.0, -1.0]
[0.013071984631693234, 0.5999606169150211, -1.0];[0.09388170630913462, 0.07864432123532383, 0.060422986976723075];[0.03747497625110986, 0.011692123191091898, 0.03307241451181464]
[0.03235534617156171, 0.029493693656855204, 0.04017057109548564];[-1.0, 0.3600365034564126, -1.0];[0.03701193218177394, -0.23526367449902585, 0.013754037105351592]
[0.9999999959020069, 0.5465799412064883, -1.0];[-1.0, -1.0, -1.0];[0.4312944439945564, 0.5304087023348099, -1.0]
[-1.0, -1.0, -0.9624200489759858];[-1.0, -1.0, -1.0];[0.5999916901173566, 0.015208137749423246, 7.746292270184446E-4]
[-1.0, 0.07101931640171087, 0.7056202235887447];[0.012482132943762847, 0.007686447416632891, 0.002711741019929781];[0.08467210754222254, 0.9999820750504259, -1.0]
[0.07795801604820113, 0.9993383073630446, -1.0];[-1.0, 0.03586090783620005, -1.0];[0.07321162367320957, -1.0, -1.0]
[0.07023413949361156, 0.026870191781017117, 0.028919888689968733];[0.002465738528963868, 0.04885418378790777, -1.0];[0.7266074240362729, 0.08075917937902384, -1.0]
[-1.0, -0.9719110711124793, -1.0];[-1.0, -0.9885338913839475, -1.0];[-0.9617909433169138, -0.9713063391617257, -1.0]
[-1.0, 0.9923005885818084, 0.42205402962719424];[0.04721630223404816, 0.013727317183618627, -1.0];[0.04729510303822822, 0.019727175850534365, 0.03141717771461244]
[-1.0, -1.0, 1.1134646567816428E-4];[-1.0, -1.0, -1.0];[-0.9065645889914463, -1.0, -1.0]
[-1.0, -1.0, 0.5999999747233795];[0.0033879606786056064, 0.2398989020164849, -1.0];[-1.0, -0.7729400486888116, -1.0]
[-0.692638267688904, -1.0, -1.0];[-1.0, -1.0, -1.0];[0.9731724733252884, -1.0, -1.0]
[3.4159426656481685E-17, -1.0, -1.0];[1.6153323487966318E-11, 1.1128934352822719E-17, -0.47398602562275244];[-1.0, -1.0, -1.0]
[5.999858548128887E-24, -1.0, -1.0];[-1.0, -1.0, -0.9997653930170178];[-1.0, -1.0, -1.0]
[-0.6793406220511968, -1.0, -1.0];[0.022483252839559223, -1.0, 0.9999999999685141];[-1.0, -1.0, -1.0]
[0.05089179427726271, 0.052795437657318214, 0.009897681913832513];[0.0833855867485177, 0.06923245623472894, -1.0];[0.9753201118361982, 0.0839860624217302, 0.020139260254415193]
[-1.0, -1.0, -1.0];[-1.0, 0.9999999545547426, -1.0];[0.04610316203267545, -1.0, -1.0]
[0.9999999999999769, -1.0, 0.02183503744817219];[0.07042711580436045, -1.0, 0.08071082351667086];[-1.0, -0.5944034992453697, -1.0]
[0.24070563219283592, -1.0, -1.0];[-0.914651389178041, -0.6639265828704513, -0.9999999967412506];[-0.9997550560092255, -0.9972791338610104, -1.0]
[-1.0, -1.0, 0.009258587054326566];[0.006330350384739791, -0.9058322667701114, 0.013859459079282876];[-0.9060018065941355, -0.6955755310908394, -1.0]
[-1.0, -1.0, -1.0];[2.899944179757967E-4, -1.0, -1.0];[0.9999999998845768, -1.0, -1.0]
[-1.0, -1.0, -0.9696839361058678];[-1.0, -1.0, -0.999250070349039];[-0.9997347779918658, -0.9996839820851293, -1.0]
[-1.0, -1.0, 0.9999999999999154];[-1.0, -1.0, -0.9704347032973643];[-1.0, -1.0, -1.0]
[-1.0, 0.015330769620536124, 0.9180362256830905];[0.07330956002365006, 0.05994695930126938, 0.04642894934873576];[0.00885969929741256, 0.06652867191622086, -1.0]
[-1.0, -1.0, -1.0];[0.020522808618484756, 0.0348626791457098, 0.9999995100662197];[0.0176286492179601, 0.4226117157277281, -1.0]
[0.026073007768533815, -1.0, -1.0];[-1.0, 8.748914329971482E-4, -0.21729678173757241];[0.06628937408111545, 0.04265224128404357, 0.41043361417049007]
[0.00539078060162771, -1.0, -1.0];[0.03766098743955022, 0.006819801706556838, 0.008858777878323799];[0.006019740711596145, 0.030481560592832458, 0.5999993103747836]
[-1.0, -1.0, -1.0];[-1.0, -1.0, -1.0];[-1.0, 4.336984024351277E-4, 1.0]
[-1.0, -1.0, 0.01843046682972187];[-1.0, 0.04723620313125888, -0.6823991409263919];[0.041338014827424364, 0.02117800783472073, -1.0]
[-1.0, -1.0, -1.0];[0.08790119543927485, 0.08535689766378488, 0.9999946178104292];[0.911388162698866, -1.0, -1.0]
[-1.0, 0.04731329591990788, 0.974740037334162];[-0.6700413731331339, 0.031173750685819693, 0.044198148802966665];[7.142012719195679E-5, 0.02502202202520829, 0.022059162250134257]
[-0.6942877090083586, 0.024949289684276524, -1.0];[0.03967415193686112, -0.6867612598266495, -1.0];[0.025686172348571845, -1.0, 0.917640179779329]
[-1.0, 0.05998219652317937, -1.0];[-1.0, 0.9922007795425837, 0.03692851683719677];[-1.0, -1.0, 0.9993230662470195]
[-1.0, -1.0, -1.0];[-1.0, 5.487753054907008E-4, 0.021449249086216395];[0.9999998490376298, -0.6948746419690945, -1.0]
[-1.0, -1.0, 3.391014938945988E-7];[-1.0, -0.9712577794986507, -1.0];[-0.5852915544062076, -0.17221004651550437, -1.0]
[-1.0, -1.0, -0.9992412870399857];[-1.0, -0.9997622748006612, -1.0];[-1.0, -1.0, -1.0]
[-1.0, -0.645721149674864, -1.0];[-1.0, -0.881150237444579, -1.0];[-0.6845745191095193, -1.0, -0.6876024117408142]
[0.08407610817658057, 0.05964975750940027, 0.036241963281520566];[0.0179706129990423, 0.9977764774275089, -1.0];[0.08299883371464664, 0.06986826002218303, 0.0511248592065453]
[-1.0, 8.841374919926376E-8, -1.0];[-1.0, -0.6993362162863972, -1.0];[-0.9974533038900292, -0.9721346696416644, -1.0]
[-1.0, -0.9974657841283496, -1.0];[-1.0, -0.9974461303855037, -1.0];[-1.0, -1.0, -1.0]
[0.096218034932926, -1.0, 0.9993156759334869];[0.022922276511734375, 0.01030729402262971, 0.08986405414035178];[0.022460613410665423, 0.03365244850797244, -1.0]
[0.3063642549682729, -0.687928180687571, 0.9999999987791813];[-1.0, 0.04550643433150917, 0.0462745835316534];[-1.0, -0.6976724846367033, -1.0]
[0.04316444752731516, -1.0, 0.019528582424997866];[0.04752784850280172, 0.04797883283316808, 0.003384659300183816];[-1.0, -1.0, 0.9154879303650679]
[-1.0, -1.0, -1.0];[-1.0, -0.6870049869761018, 3.313598811651744E-4];[-1.0, -1.0, -1.0]
[0.013220445333211296, 0.5756198452619765, 0.43218093618680903];[-1.0, 0.9975801152509057, 0.02591957292795475];[-1.0, -1.0, 0.03339530786799706]
[0.0017779900810954376, -1.0, 0.9999999567258175];[-1.0, -1.0, -0.6935683025760349];[0.05858832933535583, -1.0, 0.040408596869194714]
[-0.6740795624142836, -1.0, 0.03941495110887096];[-1.0, 0.7200751242143851, -1.0];[-0.6719984169576712, 0.020444308699822278, 0.008462054281413722]
[-1.0, -1.0, -1.0];[-1.0, 0.44103295090708045, -0.8141566700983299];[-1.0, 0.06174502324558399, 0.060587747653316204]
[-1.0, -1.0, -1.0];[-1.0, -1.0, -0.9087340287595987];[-1.0, 0.05171571964837318, 0.9999998564851671]
[-1.0, -0.6932111359287676, -1.0];[-1.0, -0.9697384449372848, -0.9997638649042988];[-0.5975065133678098, -0.7851337459693879, -0.9488226064189429]
[0.359997819955134, -0.572700944384191, 0.02646941708655518];[-1.0, 0.018470132100468852, -0.675362119726606];[0.03145484698040366, -0.27344653458062235, -0.4004800397974122]
[-1.0, 0.9999999856690112, 0.041370165870184106];[0.06933029851363366, 0.04589213096512467, 0.08285296160957893];[0.04735550546292003, 0.0547140813431756, -0.6733948769987387]
[-1.0, -1.0, -1.0];[-1.0, 1.067661613604923E-26, -1.0];[-1.0, -1.0, -0.9992479929028117]
[-0.5674971006774574, -1.0, 0.0033880534229768036];[-1.0, 0.005353583123918676, 0.009204202072884186];[-1.0, 0.04063392639832928, 0.3612696703891313]
[0.002076021258208971, -1.0, 0.029430053542389558];[0.004072961180635693, 0.5991905105857824, 0.0023239074847338117];[0.05688606193142514, 0.013982921601826227, -0.685922969849942]
[0.04240128956048272, 0.04206465248509705, 0.0843100377811935];[-1.0, 0.973821036983745, 8.860756618766952E-4];[0.08699145716861069, 0.04678420753452504, 0.03487595176262535]
[0.5160585956947686, 0.007955560887777392, 0.9999999999999161];[-1.0, -1.0, 0.009563948909635748];[-1.0, -1.0, 0.5911493040404704]
[-1.0, -1.0, 1.0];[-1.0, -1.0, 1.7542665788623096E-4];[-1.0, -1.0, -1.0]
[-0.9088643130186806, -1.0, -1.0];[-1.0, -1.0, 0.024959545336030422];[-1.0, -1.0, 0.9999999987522797]
[-1.0, -0.15264315540958504, -0.2527752109621678];[-1.0, 0.012239627295609744, 0.3016878967230312];[-1.0, 0.5279284073941114, 0.004839497228921342]
[-1.0, -1.0, -0.8126483879990134];[-1.0, -1.0, -0.6994621443184296];[-1.0, -0.9081641211860505, -0.7188026388032066]
[-1.0, -1.0, -1.0];[-1.0, -1.0, 5.441794652427756E-4];[-1.0, 0.9919073091022768, -1.0]
[-1.0, -0.6835737485907128, 0.02861871847089903];[-1.0, 0.999981008436877, 0.0015626854107807621];[-1.0, -0.6825865051387559, -0.6728584428042502]
[-1.0, 0.04070569792012155, 0.09011170148691557];[-1.0, 0.9755154554847386, 0.0018922355739862673];[0.03313546382439011, 0.04863441756230266, -0.9015782842772613]
[-1.0, -1.0, -0.9078665575639125];[0.0018272088722094627, -1.0, -1.0];[-1.0, -1.0, 0.999286104296106]
[-1.0, 3.38918815721643E-9, -1.0];[-1.0, -0.9707679224536594, -1.0];[-1.0, -0.7825233331771491, -0.6877832261437551]
[-1.0, 0.01447775020650104, -1.0];[-1.0, 0.9997881775783916, -0.6944755897621423];[-1.0, -1.0, -1.0]
[-1.0, -1.0, -1.0];[-1.0, -0.6926431690640276, -0.4566792738208838];[-0.5778364132122314, -1.0, -0.6931042923763596]
[-1.0, -1.0, -1.0];[-1.0, -1.0, -0.9999999847314364];[-1.0, -1.0, -0.9999999953358625]
[-0.6867402154572503, -0.6827723534796756, -1.0];[-1.0, -1.0, 0.9999943928982598];[0.010447358943702557, -0.6809843635687498, -1.0]
[-0.9723537283177008, -1.0, -1.0];[-1.0, -0.5220273368156237, -1.0];[-1.0, -0.9717200216043533, -0.9093076418988888]
[-1.0, -1.0, -1.0];[-1.0, -0.9999940635014962, -1.0];[-1.0, -0.9999800212994864, -1.0]
[-1.0, -1.0, -1.0];[-1.0, -0.9726501719335617, -1.0];[-0.9726070221873547, -0.9894393252361557, -0.9716783260166912]
[0.019274250069192502, -0.6892684337280347, 0.013673292986998953];[-1.0, 0.9999943502267007, -0.6034126961769357];[0.005955980633314973, -0.5705534018579335, -1.0]
[-1.0, 0.016580623979054056, -1.0];[-1.0, 0.9999995014308274, 0.4313301107252621];[-1.0, -1.0, 0.0490786325339167]
[-1.0, -0.9064530595164813, -1.0];[-1.0, 0.9999808053914419, -1.0];[-1.0, -1.0, -1.0]
[0.00108788581975174, -1.0, 0.5995840318714498];[-1.0, 0.00105248102049082, 0.0015732393713242246];[-1.0, -1.0, -1.0]
[-0.6834277584744539, -1.0, 0.9999999999970304];[-1.0, -1.0, -1.0];[-1.0, -1.0, -1.0]
[-1.0, -1.0, -1.0];[-0.9974782583657987, -1.0, -1.0];[-0.9991818150497328, -0.9974833817634994, -0.9975344131203661]
[-0.31050194096404377, -1.0, 0.02311402740954073];[-1.0, 0.5085155227461695, -1.0];[-0.9029159858779129, -0.696807751348294, 0.007371495166252028]
[-0.5993533118834101, 0.022803467185470973, 0.04455950009572213];[0.06162645209154166, 0.5180226954592736, 0.055624134238961155];[0.06023278136139074, 0.0014188928298121128, 0.07636682267517732]
[-1.0, -1.0, -1.0];[-1.0, 0.016234975199881693, -1.0];[-1.0, 0.974133735655519, -1.0]
[-1.0, -1.0, -1.0];[-1.0, -1.0, -1.0];[-1.0, 0.9999999999999999, 1.9500271671591828E-4]
[-1.0, -1.0, -0.2841654906088561];[-0.20701005335471326, 0.004088171826159404, -1.0];[0.005816576728035854, 0.0045887105471394095, 0.007708169054338198]
[-1.0, 0.0014351754280273134, 0.04175161752090946];[-0.6768551307060672, 0.002878548447425, -1.0];[0.038524013859508356, 0.00827562162398191, 0.35202609348675773]
[-1.0, -1.0, -1.0];[-1.0, 0.9737788958273668, 0.014952698115686003];[0.017225272242457623, -1.0, 0.026304122725631075]
[-1.0, -1.0, 0.0414170898334293];[-1.0, 0.9113539559627843, -1.0];[-0.6965315453395826, 0.019821697270950657, -1.0]
[-1.0, -1.0, 0.003414546415134877];[-1.0, -1.0, -1.0];[-0.6967235608216439, 0.0023723984165233605, -0.9044657376047184]
[-1.0, 3.424822227448159E-5, 9.419621359053226E-5];[-1.0, 3.2375934692275836E-5, -1.0];[-1.0, -0.2723472266566828, -1.0]
[-1.0, -1.0, 2.0502363381142587E-167];[-1.0, -1.0, -1.0];[-1.0, -1.0, -1.0]
[-1.0, -1.0, -1.0];[-1.0, 7.365333215237518E-11, -1.0];[-0.6956936831807062, -1.0, -1.0]
[0.01961909644632797, 0.017928057916311992, 0.017112112154903658];[-1.0, -0.4022182401806775, 0.03563680582712086];[-0.40917775618779134, -1.0, 0.009266576948364736]
[-0.6873292013600049, -1.0, 1.1759771478618347E-4];[-1.0, -0.6917438335393699, -1.0];[-0.48221123828169854, -1.0, -1.0]
[1.2746114097455721E-10, -1.0, -1.0];[-1.0, 1.6238476073271035E-10, -1.0];[-1.0, -1.0, -1.0]
[0.005337876075092974, 4.511885726352416E-4, -1.0];[-1.0, 0.00333295269451361, -1.0];[-0.4011873463031885, -1.0, -1.0]
[-1.0, -0.6863813011710068, 0.3217007117928684];[0.012136679368783676, 0.0012562116659443623, 0.004273608241842486];[-0.6866776426481892, 0.019192528616898036, -1.0]
[-1.0, -1.0, 1.1785899589343578E-19];[-0.2973500959610963, -0.9084180871453738, -1.0];[-0.5629806416919967, -1.0, -1.0]
[-1.0, -0.9915797832518524, -0.9712335427318772];[-0.729872903339601, -0.6928565837744872, -0.9713598792191089];[-1.0, -0.48494609211448736, -1.0]
[0.026577224895304327, 0.029223020786898306, 0.011895945529410645];[0.05036515533943149, 0.03395663345875021, -1.0];[0.02669179904817287, 0.004759338355962562, -1.0]
[-1.0, 0.06632629203388848, 0.05241248954837783];[0.02014085602735847, 0.9976964978013633, 0.07218027077716786];[0.09628208123345501, 0.0390887088599193, 0.006778665567526632]
[0.041536479007051305, -1.0, -0.9092065986656601];[-1.0, -1.0, -0.6961665484047268];[-0.9089102516649699, -1.0, -1.0]
[-1.0, -1.0, 0.001154605756827869];[-1.0, -1.0, -1.0];[0.9999999999999747, -1.0, -1.0]
[-1.0, -1.0, -0.9999528286268965];[-0.8991999999986934, -1.0, -0.9991835152802613];[-1.0, 1.4675551157544572E-132, -1.0]
[-1.0, 0.03152471415144999, -0.6771358844984335];[-0.25770725642715664, 0.06200158578908373, 0.005127984077501125];[0.016144604943400153, 0.006719024955084596, 0.02006881867677405]
[-1.0, -1.0, 0.999999995930482];[-0.9992072023867263, -1.0, -1.0];[-1.0, -1.0, -1.0]
[9.52789435592032E-8, -0.5684147648614072, -0.31906531391716636];[-1.0, -0.08479094006756752, -1.0];[3.717741214783673E-7, -0.15538851417730776, -1.0]
[0.061694853301748724, 0.010644151398016022, 0.0350539833348267];[0.04097055200714235, 0.01179970634610943, 0.008071506250504235];[0.05986675658829743, -0.6808497600335165, 0.041501154607975155]
[0.015723389817966053, 0.028633321004456258, 0.040942387948080736];[0.03956478457414042, 0.004020441796889074, -1.0];[-0.6800730028603916, 0.014001653431250906, 0.016478671895239494]
[3.347248085165618E-34, -1.0, -1.0];[-0.9974964938278895, -1.0, -1.0];[-1.0, -1.0, -1.0]
[-0.9014830295332126, -0.5810170411502313, -1.0];[-1.0, -0.6706266012522841, -0.5750936882203698];[-1.0, -1.0, -1.0]
[0.022646881799854093, 0.04137890757684281, -0.6808639382426036];[0.033065180643523075, 0.011913079825742813, 0.0030526043087382494];[-1.0, 0.010339410006417239, 0.0023460234792905266]
[-1.0, -1.0, -1.0];[-0.902453774878728, 0.9999353058885165, -1.0];[0.005730672198075226, -1.0, -1.0]
[-0.9911361761965046, -0.9965868745850587, -0.991850463275637];[-1.0, -1.0, -1.0];[-1.0, -0.979392349353409, -1.0]
[-1.0, 0.9999814000644014, -1.0];[0.0026250397847607763, -1.0, -1.0];[-1.0, 0.0344272346093751, -1.0]
[-1.0, 0.005615891969394571, -0.9712662962307776];[0.03772221481286391, 0.07382588691793429, 0.02350476462689527];[0.03743849363181968, 0.9925112284178452, 0.012005753536178788]
[-1.0, -1.0, -0.6840035950389757];[-1.0, -1.0, -1.0];[-1.0, 0.9997996096426459, -1.0]
[-0.9982796839998083, -0.9998864907988181, 0.12611711364513395];[-0.9974583381826191, -1.0, -1.0];[-0.6614836631730647, -0.9997136212606643, -1.0]
[-0.6798476571218898, 0.0161759304061038, -1.0];[0.2147740585547131, -1.0, -1.0];[0.9999942895305582, -1.0, -1.0]
[-1.0, -1.0, -1.0];[-0.997339941461708, -1.0, -1.0];[1.0, -1.0, -1.0]
[-1.0, 9.94987349680572E-9, -0.09857699752490383];[1.9575977040863535E-8, -1.0, 8.712814913657472E-9];[-0.3991432290807487, 9.678959840958524E-9, -1.0]
[-1.0, -1.0, 0.042130695046097004];[0.5844722355748039, -1.0, 0.5540565660763819];[1.0, 0.0033941646788729317, -1.0]
[0.046649869718225635, -1.0, 0.9926972585466515];[0.02711957206102075, 0.07323054346025722, -1.0];[-1.0, -0.9035983576144844, -1.0]
[-0.692236702629525, -1.0, 0.9999999960568621];[-1.0, -1.0, -1.0];[-1.0, -1.0, -1.0]
[-0.4013723455815945, -0.6893749366937232, -0.6904061758192669];[-1.0, -1.0, -0.6750374873807385];[-0.6943933195868967, -0.2197352154381701, -1.0]
[-0.8723764187651583, -0.9715984254555944, -1.0];[-1.0, -0.9605122775100894, -1.0];[-0.5913712316972687, -1.0, -1.0]
[-0.6856116418065783, -1.0, -1.0];[-0.6940049261205786, -1.0, -0.7055942848193683];[0.012979500794725141, 0.9999994699424317, -1.0]
[-1.0, -0.6929952235383428, -1.0];[-1.0, -0.6846710009288072, 1.2462827406005698E-4];[-1.0, -0.6724675903052151, -1.0]
[-1.0, -1.0, -1.0];[-1.0, 5.141592608724041E-13, -1.0];[-1.0, 8.510507777166358E-13, -1.0]
[-0.9050123762286941, 0.08035963997811851, 0.09072801381164315];[0.9999995199020281, 0.0317917287660247, 0.02834743391340805];[0.011395390403495732, 0.07242666265332647, 0.09059746093658361]
[1.1956728808691424E-4, -1.0, -1.0];[2.020592678034472E-8, -1.0, -1.0];[1.0, 5.445607749997319E-5, -1.0]
[-1.0, -1.0, -1.0];[-1.0, -1.0, -1.0];[0.9999999999999928, 8.031228345486928E-4, -1.0]
[-0.6873047708324456, -1.0, -1.0];[-0.6863285048576888, -1.0, -1.0];[-0.6892930086524608, -0.20368637947741092, -1.0]
[-1.0, -1.0, 0.04914000602654221];[-0.8992269490257362, -1.0, -1.0];[-0.9999994047352839, -0.9999999999967291, -1.0]
[-1.0, -1.0, 1.0];[-1.0, -1.0, -1.0];[-1.0, -0.6725804066237703, -1.0]
[-1.0, -1.0, -0.8908769923455008];[-0.8867341342308799, -1.0, 0.12000599781482313];[0.6, -1.0, -1.0]
[-0.9902705108381765, -0.9916968690112389, -1.0];[-1.0, -1.0, -0.9967368183657423];[-1.0, -0.9915967227129807, -1.0]
[-0.9999994570129503, -0.9999994160735854, -1.0];[-1.0, -1.0, -1.0];[-1.0, -1.0, -1.0]
[0.001725389708590274, 0.9997942326454311, -1.0];[-1.0, -1.0, -1.0];[-1.0, -1.0, -1.0]
[-0.9923715211440698, -0.9967677338775017, -0.9974496054716578];[-1.0, -1.0, -1.0];[-1.0, -0.9972707667270937, -1.0]
[0.0017724260097999212, -1.0, -1.0];[0.012303106337242454, -1.0, -1.0];[0.01740296554675047, 0.9992870588314174, 0.020803650999398307]
[-0.6783540462662994, -1.0, 0.028075518528033607];[0.04657827607791081, -1.0, 0.07817152028555568];[0.022440247685896877, 0.9999404796483246, 0.028713514646636653]
[-1.0, -1.0, -1.0];[-1.0, -0.999998111139793, -1.0];[-0.9999939674117282, -1.0, -1.0]
[-1.0, -1.0, -1.0];[-0.9071135366007543, -1.0, -1.0];[-1.0, 4.3458105248507083E-4, -1.0]
[-1.0, -1.0, -0.9999981673825086];[-1.0, -0.9999939410847428, -1.0];[-1.0, -1.0, -1.0]
[-1.0, 0.03205228594327555, 0.04355803201972698];[0.03557408754822729, 0.03877386682689113, 0.021130274037711595];[-1.0, 0.0019015327452217567, 0.017150493192182738]
[-1.0, 0.07229146173298866, 0.917958913254701];[0.0622296598344117, 0.06259700135400068, 0.01437271678258616];[0.019685954438101973, 0.05769832446284158, 0.07797662090777527]
[-1.0, -1.0, -1.0];[-1.0, -0.8806952830027729, -0.16347591236416714];[-0.6991453226278955, -0.5012072077295353, -1.0]
[0.01236080342330821, -1.0, 0.01580852633670281];[0.042373345440113834, 0.999940056162931, 0.02204405709982188];[-1.0, -1.0, 0.9127159030709626]
[-0.599967809809707, -1.0, -1.0];[-1.0, -0.6942762644269376, -1.0];[-0.6939821310262205, -0.6823631364044875, -1.0]
[-0.6980650103872543, 0.034394393775298064, -1.0];[-1.0, -1.0, -1.0];[0.9993231677320473, -1.0, -1.0]
[-1.0, -0.5018179081309755, -0.9037774516110167];[-1.0, -0.991280457666349, -1.0];[0.2589619876024839, -0.28160222188885853, -0.9893482224820442]
[-1.0, -1.0, -0.9722836646897001];[-1.0, -0.9077362005473575, -1.0];[-0.9096798543944749, -0.9710762225796682, -1.0]
[0.07212208532075587, -0.592990635844753, -0.32962586153479106];[-1.0, -0.5450892008368318, -1.0];[1.844023473588768E-4, -1.0, -0.34127181453824473]
[0.05638564522722355, -1.0, 0.5723258502941995];[0.044512667485144514, 0.026704797109411094, -1.0];[0.02760135077726561, -1.0, 0.5999999982942064]
[2.2350291143207832E-32, -1.0, -1.0];[-1.0, -1.0, -1.0];[-1.0, -1.0, -0.999979135618825]
[-0.6903772995756411, -1.0, 0.9920054871850774];[0.009922918950928962, -1.0, -1.0];[-0.6970739478711825, 0.5834103249261825, -1.0]
[-0.582870598772483, -0.5943922925292583, -1.0];[-1.0, -0.5819766213363274, -1.0];[-0.5933528993403501, -1.0, -1.0]
[-0.6997737616016738, -1.0, -0.8987245256812889];[-1.0, 9.20753426656357E-5, -1.0];[-1.0, -1.0, -0.9082465296429348]
[-1.0, 0.04814977104929738, 0.9145409811095109];[0.09710034768789917, 0.05286178505947573, -1.0];[0.01956255167198688, -1.0, -1.0]
[0.007030111304877885, 0.01252469180527218, -1.0];[-1.0, 0.02186472244623693, 0.04162641663271948];[-1.0, -1.0, -1.0]
[0.03794055559088658, 0.009755481458374515, -0.6946889666585712];[-1.0, -1.0, -1.0];[-0.6771658778158771, -0.6498559439255809, -1.0]
[0.002400471451535111, -0.9997530719522246, -0.9999999988956506];[-1.0, -1.0, -0.936322206762571];[-1.0, -0.9999999985528032, -0.6639914027751811]
[3.3154242149164816E-5, -1.0, -0.6964906287500053];[-1.0, -0.679603466134729, -1.0];[-1.0, -1.0, -0.6978618354086754]
[-1.0, -1.0, -0.2716183528149627];[-1.0, -0.6927417461491976, -1.0];[4.2641392815960565E-4, -1.0, -0.6913902354917763]
[-1.0, -0.0480116338251122, -0.9999974023415346];[-1.0, -1.0, -0.2839100158361747];[0.4342911034290103, -0.9999243857563529, -0.1625824533790311]
[0.05984311507144468, -1.0, -0.6937660714586918];[0.07260029148314183, -1.0, -1.0];[-1.0, 0.9999999996224059, 0.4418910319433588]
[0.022574072871932683, -1.0, 0.07581739443256527];[0.06118477471647271, -1.0, -1.0];[-1.0, 0.014243633334152317, 0.9999945444932051]
[0.9999943880853099, -1.0, -0.9715495276699513];[-1.0, -1.0, 0.03665125624242253];[-1.0, -0.9893834918950978, -1.0]
[1.0, -1.0, -1.0];[-1.0, -1.0, -1.0];[-1.0, -0.9973986744089058, -1.0]
[-0.9013039782272537, -1.0, -0.9026224906210681];[-1.0, -1.0, -0.9034898727216928];[-1.0, 0.9999999999654965, 0.004923733249164986]
[-1.0, -0.6890364917298999, -1.0];[-1.0, 0.02068740706416594, 0.031668723851265734];[0.9999945433618312, 0.04969245096748858, -0.9063133784138333]
[1.1276253066281947E-179, -1.0, -1.0];[-1.0, -1.0, -1.0];[-1.0, -1.0, -1.0]
[-1.0, -1.0, -1.0];[-1.0, 0.9999999999669014, 0.056205882616626616];[0.5502152039109148, 0.041424897536060885, -1.0]
[0.0015284404521991868, -1.0, -1.0];[-1.0, 0.999329223943087, -1.0];[-1.0, -0.9010342708106105, 0.03374325314634791]
[-1.0, -0.9697740546760771, -0.9998427604956917];[-1.0, -1.0, -0.78999586657];[-1.0, 0.42030618000003556, -1.0]
[-1.0, 0.5966960200797169, -1.0];[-1.0, -1.0, 5.2520313119462045E-5];[-1.0, 0.5842460871486932, 0.9999999999999998]
[-1.0, -0.9037111301593755, -1.0];[-1.0, -0.8716858118775168, -1.0];[-0.9466483521271338, -1.0, -0.9061993632009163]
[-0.5709884412578586, 1.5691219426536732E-6, -0.410740721305785];[-1.0, 8.168109126918606E-6, 2.1504840518189481E-7];[-1.0, -1.0, -0.3039198662318056]
[-1.0, -1.0, -0.41528337437091545];[-1.0, 8.276195434410253E-6, 2.3319439525809172E-5];[-1.0, -1.0, 8.184149933652402E-6]
[-1.0, -1.0, 0.9999999999656087];[-1.0, -1.0, 0.002970163332700112];[-1.0, -1.0, -1.0]
[0.0020587835598212534, 0.5941169727495779, -1.0];[0.04628524183397521, 0.030972151811794735, 0.04522544362142606];[0.04876764268457724, -1.0, -1.0]
[-0.6857591396159728, -1.0, -1.0];[0.017967672020259794, 0.9740986473555562, 0.016193244953527298];[-1.0, -1.0, -1.0]
[4.794150628332171E-4, 4.0232533726048715E-4, 6.570010632727663E-4];[-1.0, 0.0011185590118357167, -1.0];[-1.0, -1.0, -0.40338315033663164]
[-0.9999292751119347, 9.861089072540789E-54, -1.0];[-1.0, -1.0, -1.0];[-1.0, -1.0, -1.0]
[-1.0, 0.011339999999967744, -1.0];[-1.0, -1.0, -0.9810999846966444];[-1.0, -0.6631829568880587, -0.6639999999988607]
[-1.0, -1.0, -1.0];[-1.0, -1.0, 9.626862857678025E-96];[-1.0, -1.0, 1.4225689188985897E-95]
[-1.0, 4.6427443207300716E-14, 9.433406239430978E-5];[4.3496804166566835E-12, -1.0, -1.0];[0.04944617999997872, -1.0, -1.0]
[-1.0, 2.43531349313265E-94, -1.0];[-1.0, -1.0, -1.0];[-0.9999999956322604, -1.0, -1.0]
[0.9997939296170661, -1.0, 0.0570403485291264];[-0.6709747431519518, -1.0, -0.6937265144325162];[-1.0, 0.021025210604158164, 0.04349610885857763]
[0.9152308167146832, -1.0, -1.0];[-0.6741043672141896, -0.9060804623650175, -1.0];[7.693237180237955E-4, 0.014082333978586083, 0.3932719329799025]
[-0.9030285544238239, -0.8798222905752486, -1.0];[-1.0, -1.0, -0.9065508354686458];[-1.0, -1.0, -0.9056841359548764]
[-0.9312850917733752, -0.7820607940190103, -0.9999998364057582];[-0.6639980176280846, -1.0, -0.7899920855711032];[0.42572682948265206, -1.0, -1.0]
[-0.9974636027313989, -1.0, -1.0];[-0.9973678081044947, -1.0, -0.9971247688070558];[-0.9975501482274273, -1.0, -1.0]
[-1.0, 0.006366443155829557, -1.0];[-1.0, -1.0, 0.9999999999898886];[0.013376647453260128, -1.0, -0.5811208340994445]
[0.01428091815160716, 0.0010015990411536336, -1.0];[0.03588192343317516, 0.0031330983734062737, 0.9999995073967766];[0.02314232859068284, 0.031421301671690154, 0.0032969649263372494]
[0.5999999977956423, -1.0, -1.0];[-0.9666247777192252, -1.0, -0.9997136602310212];[-1.0, -1.0, 0.1583557917758578]
[1.0, -1.0, -1.0];[-1.0, -1.0, -0.971227430989314];[-1.0, -1.0, -1.0]
[0.599991570015938, 0.0016740240131294334, -1.0];[0.0064653010224916645, 0.004661019092113456, -1.0];[-1.0, -1.0, -1.0]
[0.053135832217838, 0.9999995083037134, -1.0];[0.07472555858261981, 0.9154796683801497, 0.024481814454569564];[-1.0, -1.0, 0.012352904166911694]
[0.9999999987722912, -1.0, -1.0];[-0.9707207145711289, -1.0, -1.0];[-1.0, -1.0, -1.0]
[-1.0, -0.6838188247030385, -1.0];[0.419435131812967, 0.014560305723479751, -1.0];[0.010286864319332597, -1.0, -1.0]
[-1.0, -1.0, -1.0];[-1.0, -0.902976197409901, -1.0];[3.0903311235877615E-4, -1.0, -1.0]
[0.9153750342670826, 0.014134701161274521, 0.014605884751053844];[-1.0, -0.9093149598730362, 0.028739952414415373];[-1.0, 0.004742364259481402, 0.02807957893806068]
[-1.0, -0.9720858248198413, -1.0];[-0.9913660979539461, -1.0, -1.0];[-0.9721625534071834, -1.0, -0.9715906750690236]
[-1.0, -0.9999318060422788, -1.0];[-1.0, -1.0, -1.0];[1.367155269458685E-33, -0.9999999955891852, -0.9891746509388079]
[-1.0, 6.135065653091401E-28, -1.0];[-1.0, -1.0, -1.0];[-1.0, 5.512593937152617E-28, -1.0]
[-1.0, 0.050026532594051557, 0.039353076139887345];[-0.6736422778936858, -0.6811820861379959, 0.08401866216205195];[0.029068638000514804, -1.0, 0.052188596622672584]
[0.06271252876952876, 0.02972175785802991, -1.0];[0.0573905756053842, 0.9977484160519224, 0.05078766814914626];[0.017568081776087874, 0.058201973581527136, -1.0]
[-1.0, -0.998126192035863, -1.0];[-1.0, -1.0, 2.8838682431917578E-27];[-1.0, -0.9999485374825055, -0.969758183080088]
[-1.0, -0.6899913441758346, -1.0];[-1.0, -1.0, 1.823552534062892E-6];[-1.0, -1.0, -1.0]
[0.05441262245441837, 0.024308895676145803, 0.0488952958434455];[0.058819514416763675, 0.5640570630207098, -0.6813937949236977];[0.056637122940764596, -1.0, 0.03224814794070476]
[0.059540058148215114, 0.03800164106650853, -1.0];[-1.0, 0.04932917535508963, 0.015579318073961335];[0.9975927702664509, 0.04977587743540179, 0.05632800596291483]
[0.06667982401629041, 0.07597563911248154, 0.027084821270955284];[0.04592100442174573, 0.04829992444402575, 0.035829668711276706];[-0.6718979584386315, 0.04770308352839693, 0.027157780974210535]
[-0.9641369623726356, -0.6940085193202962, -1.0];[-1.0, -1.0, -0.8502133529315936];[-0.6763594632820313, -1.0, -1.0]
[-1.0, -1.0, -1.0];[0.003493149463157725, -1.0, 0.4199976584435368];[1.2074277618282428E-14, -1.0, 4.2129624607020285E-14]
[0.029779999758024003, 0.013448052402535084, -1.0];[0.9749927973715056, 0.0043472253129618115, 0.05576918145635519];[0.017316400108993258, 0.016088789573652285, 0.05499607136783999]
[-0.9728323119834914, -1.0, -1.0];[-0.9719615378750757, -1.0, -1.0];[-0.9613488649415358, -0.9912846571232304, -1.0]
[-0.9694777965715691, -1.0, -1.0];[0.025887809785130847, -1.0, -1.0];[-1.0, 0.999999999966477, 0.5951146204156758]
[-0.6845118507729762, 0.0012401918566063022, -1.0];[-0.6837122815293889, -1.0, -1.0];[-1.0, -1.0, -0.6912119847546765]
[5.601501531128014E-18, -1.0, -1.0];[-0.9720019594448066, -1.0, -1.0];[-1.0, -1.0, -1.0]
[4.881594484280615E-11, 5.3163017340043465E-20, -1.0];[-1.0, -1.0, 9.0745504465424E-16];[-1.0, -1.0, 1.6008847420130363E-11]
[0.01697013807631207, -1.0, -1.0];[-0.2778931632752311, 0.007770289887565125, -1.0];[0.017514436672697555, -1.0, 0.011149604184646087]
[-1.0, -1.0, -1.0];[-1.0, -1.0, -1.0];[-0.9703633340172468, -1.0, -0.9720475719724507]
[-0.6949025968208805, -1.0, -1.0];[-0.6909463903767908, -1.0, -1.0];[7.01205568774377E-7, -1.0, -0.9072201175977465]
[-0.997641158117051, -0.9997694996084794, -1.0];[-1.0, -1.0, -0.9848929453498967];[-0.5941502563167788, -0.9887588992609982, -0.9043347483453227]
[-0.9999999999996837, -1.0, -1.0];[-1.0, -1.0, -0.972531989186377];[-0.9999999999996838, -1.0, -0.9999999999999918]
[-0.999999947567261, -1.0, -1.0];[-1.0, -1.0, -1.0];[-0.9999999507830276, -1.0, -1.0]
[-1.0, -0.5591282246497733, -1.0];[-1.0, -0.9912813084590489, -0.5906881899965437];[-0.5883091502457558, -0.9690395359215758, -0.7891678154114413]
[-1.0, -1.0, -1.0];[-1.0, 0.004288420332327321, 0.005869444137177493];[-0.4987230728679081, -1.0, 0.004541599730556879]
[-1.0, -1.0, -1.0];[-1.0, -1.0, -1.0];[-0.9999999986299334, -1.0, 6.583708387601037E-69]
[-1.0, -1.0, -1.0];[0.7053138523702769, 0.047676235063377925, -1.0];[0.004123422638257423, 0.9999999999670008, -1.0]
[-0.2034946494787124, -0.6908021018750958, -1.0];[-1.0, 0.14351048882540524, -0.9054194046441848];[-1.0, -0.9066608724572482, -0.6885729848193527]
[0.05034541220471635, 0.02548675776876591, 0.0039637401530486895];[0.025463493572549924, 0.04023126407015625, -1.0];[-1.0, 0.027694084194950754, 0.024004595270645825]
[0.006556037436336548, 0.031367023190849275, 0.03531217520137845];[0.07325682555471924, 0.9752263034477083, 0.024977650293673128];[-1.0, 0.009078904030284241, 0.02133383433281503]
[0.9999999987685652, 0.0011596427423254054, -1.0];[-1.0, -1.0, 0.0306141725567641];[0.006678691626164055, -1.0, -1.0]
[-1.0, -1.0, -1.0];[-1.0, -1.0, -0.9999999999999092];[2.0122076817830725E-135, -1.0, -1.0]
[-1.0, -0.9885609317116494, -1.0];[-1.0, -1.0, -1.0];[-0.9716332378404386, -0.9708612607406029, -0.9709369534987167]
[-1.0, -0.9999309699665915, -1.0];[-1.0, -1.0, -1.0];[-1.0, -1.0, -0.999979020363469]
[-0.27139793660462724, -0.273555344247052, -1.0];[-1.0, 0.00833031780012074, -0.22362383579485023];[0.026680754860172982, -1.0, 0.022675679540911948]
[-1.0, 0.04404033178178136, 0.04341647175366144];[-1.0, 0.9100033016910987, -1.0];[0.04025776468153083, -1.0, -0.6790087927495314]
[-0.9059366564247812, -0.9099795115861655, -1.0];[-1.0, 2.4799032398770045E-6, -1.0];[-1.0, -0.5260940240515557, -1.0]
[-0.9974498892394085, -1.0, -1.0];[-1.0, -0.9916047346990247, -1.0];[-1.0, -1.0, -1.0]
[-1.0, -1.0, 0.006232174315680361];[-1.0, 0.5999714137773194, -0.9717939054946693];[0.016654251446401126, 0.04302240163344752, -0.9031556372291754]
[-0.950194272390667, -1.0, -0.7791753183050062];[-0.8799928316545937, -0.972950845800829, -0.9629013445744564];[-1.0, -0.5995670069429566, -1.0]
[-1.0, -1.0, -0.6846763038065989];[-1.0, 0.5123713083705709, 0.029466611862155302];[-1.0, -0.6799142053182278, 0.019220230834784958]
[-1.0, 0.04643724009578806, 0.08966733451031877];[0.09982659294867571, 0.911895739477738, 0.02601930915389579];[0.09420314029818427, -1.0, 0.08356448855417169]
[-1.0, -0.569058504414016, -1.0];[2.237761408339217E-4, -0.9080150553234347, -1.0];[-1.0, -1.0, -0.9046735238351923]
[-1.0, -0.6894233964833056, -1.0];[4.745075676386581E-6, -1.0, -1.0];[-1.0, -1.0, -1.0]
[-1.0, -0.9017576222085834, -1.0];[-1.0, -0.908459403470963, -0.9031763030916364];[-1.0, -0.9058226652974106, -1.0]
[-0.9062299911946597, -1.0, -0.6915972906038417];[-1.0, -1.0, -0.9040431759207083];[-1.0, -0.9060161361812158, -1.0]
[0.06847299097735786, 0.0017582041880814582, 0.9925006171354832];[0.08324244990057114, -1.0, 0.0735019777397424];[0.014130766709356403, 0.010785337822089758, -1.0]
[-1.0, 0.038970562250605495, 0.057912874512813295];[-0.6799525076887425, -0.6802337323241432, 0.04961186587977637];[0.006473869571859059, 0.02551234705975002, 0.03211147972687086]
[-1.0, -1.0, -1.0];[-0.671807395893283, 0.02054453914793715, -1.0];[-1.0, 0.9993434230015573, -1.0]
[-0.6881809194729259, -0.697618167334401, -1.0];[0.029339125444509253, -0.9087182866311035, 0.0431752760975904];[-1.0, -1.0, 0.3602251836017571]
