[0.523780434273755, 0.8931075783573887, -0.13604961297028464];[0.3324462414019571, 0.5394673927771699, 0.024701116613785157];[0.3714925195585371, 0.6802480648514232, 0.08136175235757104]
[0.2363376391537706, 0.35434297533916936, 0.6589982326091299];[0.3886219170366195, 0.6478234735202133, 0.3085179193896469];[0.05708801514703088, 0.5605167767178898, 0.2432598146726187]
[0.6258487825836476, 0.22422966283265888, -0.12516975651672954];[0.11933651922276334, -0.12516975651672954, 0.2895439675166248];[0.6909907660096297, 0.45004612784798037, 0.4581346556125273]
[0.6474138825428256, 0.16293157629782484, -0.19889356316017404];[-0.19889356316017404, -0.19889356316017404, 0.07685749645173123];[0.1972538581491795, 0.9944678158008702, 0.08673448386007987]
[0.2676023600420244, 0.251110047921992, 0.6961518455249851];[0.8627978929209981, 0.4699310876593987, 0.2721414407224667];[0.30536173961375135, 0.03048110448256125, 0.11478584966925975]
[0.09325892785428191, 0.9344952289590195, 0.7195421712444783];[0.8457215413943701, 0.9368190098939089, 0.8328217288942267];[0.06706620614564884, 0.373899428360426, 0.8771532725475331]
[0.3515207528985026, 0.704023660754543, 0.2673378825210976];[0.1972376762713246, 0.13249429891585696, 0.43464366463018367];[0.24416996708739447, 0.7918698432534045, 0.7854996770458912]
[0.17589303638620246, 0.6592525549129927, 0.9511309125772521];[0.3655331789074322, 0.4011109210321331, 0.16002184737571712];[0.546571274286168, -0.19022618251545043, 0.9148551524491015]
[0.08982103050227896, 0.8368019984651003, 0.0892440917296673];[0.77527549405744, 0.04999277218908682, -0.15505509881148802];[0.5318724912655233, -0.15505509881148802, 0.12772500762090544]
[0.1874262483400675, 0.586508526931224, -0.19624178465230646];[0.9812089232615323, 0.5932222369428789, -0.19624178465230646];[0.5702360048610287, -0.19624178465230646, 0.6793168295882618]
[0.07123658512186093, 0.32787824123649734, -0.08797385625227767];[0.18986569390291708, 0.43986928126138836, -0.08797385625227767];[-0.08797385625227767, -0.08797385625227767, 0.9334735908478078]
[0.03090970145883054, 0.4008367698569638, -1.170859343186799];[0.8606973902140396, 0.9136405111712315, -1.178694220572092];[-1.1627672860496183, -1.1108092415717583, 0.4438099889469943]
[0.30516968611960427, 0.10124278956830235, 0.6319574831997722];[0.029931496866761886, -0.17857647850365066, 0.3839624609686344];[0.24170620700214518, 0.8928823925182533, 0.8829537086210839]
[0.6833172625769288, 0.14427840594830577, 0.07182590036593284];[0.4650248038288918, 0.6973976176020634, 0.9620218066964674];[0.4105452622194937, 0.7981370440247406, 0.7031517097740261]
[0.1274964056797674, 0.1696067463419353, 0.39828218855822384];[0.6339553388904973, -0.1821193730189254, -0.1821193730189254];[0.9105968650946269, 0.45169646037069966, 0.13175421969162182]
[0.7891157792313193, 0.6259256494141608, 0.7249039530522077];[0.971620791609077, 0.9564663049635942, 0.9164029315636781];[0.3918327610363953, 0.3716983650483313, 0.5174866618631534]
[-0.18812590073240637, 0.6610510477682345, 0.8657392897402553];[0.4787314740543892, -0.18812590073240637, -0.18812590073240637];[0.07830577139853512, 0.6812147443126556, 0.9406295036620318]
[-0.09471360706610926, 0.4163879814474155, 0.9001856327312808];[0.7895717110629271, -0.09471360706610926, -0.09471360706610926];[-0.09471360706610926, 0.47356803533054626, 0.7059919203665641]
[-0.1377859323918844, 0.061733756817080154, 0.3199234107473651];[0.8695087479623601, -0.028363720882433042, -0.026616618335648566];[-0.17202408865333196, 0.9311291301553839, 0.1264431087335356]
[0.4443996902521631, -0.19720749771926188, 0.9860374885963094];[0.6079415817167436, 0.002926395276500071, 0.7818601655063351];[0.908737125286435, 0.14760609022472237, 0.5067256964873622]
[0.7884126658866684, -0.12249260708649068, 0.6993846278072386];[0.9691705899193799, 0.05696756724812324, 0.8146702926981554];[0.3027586471108473, -0.19383398914535058, 0.03420370366549452]
[0.06949234274360583, -0.1600479972111992, 0.6380974200226912];[0.8002399860559959, 0.914328300433539, 0.8152098714827015];[-0.16004799388773677, -0.15051186714141995, 0.6855605175509539]
[0.5140728492225125, -1.0905311106747972, 0.9777831516812697];[0.45716933489351375, 0.8928005713967652, 0.34035907982913705];[-1.056344302323122, -1.0563379142623768, 0.28168954416042924]
[0.7265124257418163, 0.8471284722605548, 0.06078608543641806];[0.29075879836704166, 0.6456875109839498, 0.7891863204594652];[0.5253385993804759, 0.1573310453719331, 0.6643785632853371]
[0.9785695953410051, 0.5728262437314747, 0.3294506596631903];[0.6860386548150543, 0.8047241057451725, -0.19571391906820101];[0.40296710448747186, 0.21582301807329274, 0.8163548449199416]
[-0.14735340850668133, 0.3865573544114238, 0.5828565742465524];[0.5019155169172512, 0.35005513169711533, -0.14735340850668133];[0.3923951600845135, 0.7367670425334066, 0.5357238536160537]
[-0.15897576616562756, 0.7195076114745844, 0.3834856684380755];[-0.158975766165635, 0.03235856786061597, -0.158975766165635];[0.810121613205893, 0.7948788308281749, 0.03361127256630525]
[0.23737112279857175, 0.025779889380951992, 0.4908489252015342];[0.5867519532833572, 0.9630110603049441, 0.723714491746389];[0.9603026049773927, 0.8776820698641369, 0.5302825144111438]
[-0.08451707713214518, 0.48849805340677777, 0.4225853856607259];[-0.08451707713214518, 0.572750931368658, -0.08451707713214518];[0.36625274891922144, -0.08451707713214518, 0.3488767816047601]
[-1.1698771301044433, 0.198097969913821, 0.8390347076166613];[-1.1626339037876945, 0.6138666302418684, -1.1765561916089906];[0.8902427281171018, -1.1766734417295481, 0.7504073568516326]
[0.062036576606980476, 0.4607769358902519, 0.22521220224228267];[0.48280714793543955, 0.9200469264967293, 0.19978263929299234];[0.20329849538118583, 0.56933052909508, 0.7838028965934992]
[0.08829818572580983, 0.4193123098296858, 0.16112126401772886];[0.08457988431562369, -0.12521000722506523, 0.15219881773231325];[0.5895070045647279, 0.09826097056910699, 0.6260500361253262]
[0.8004308902955711, 0.14688508818664958, 0.44297965659857474];[0.03827232924867918, 0.9412614406702026, 0.9318980565227973];[0.9097368347468948, 0.8132531274237588, 0.7387736243462228]
[0.24074140380155384, 0.735031718779674, 0.23501665647302983];[0.3903345526026971, -0.14700634375593472, -0.1470063437559348];[0.55479644704039, 0.07937861128394663, 0.3906690392844313]
[0.8199264855100206, 0.18050048990221423, 0.3370165194884548];[0.4357049329939492, -1.0365106122475907, -1.037065537314353];[0.8057870133421539, 0.373971622725791, 0.1761878451472625]
[0.14821186324336622, 0.14593802366903952, 0.317845951054576];[0.7059476999550045, 0.49570795704028736, 0.22794450595279458];[0.5547667606715174, 0.6104028889440736, -0.1411895399910009]
[0.8145407808114312, 0.10070059242601115, 0.33334725376373175];[0.9874363131508149, 0.6513649823760527, 0.2052570583213077];[0.44428419488983684, 0.3011566211900588, 0.2573840766372578]
[-0.19199914612327465, 0.5156766373980023, 0.29778496718719494];[0.7345877711324175, 0.12906395505975676, 0.6995958063676789];[0.9599957306163732, 0.6010103241368625, -0.19199914612327465]
[-0.19839187799679014, 0.95446672355757, 0.9919593899839506];[0.5749059341117303, 0.05047434753751301, 0.3517568562421032];[-0.19839187799679014, 0.5676985051848796, -0.19839187799679014]
[-0.16371388309052992, 0.14877151958795476, 0.6789021920017994];[0.5626763187496867, 0.8185694154526495, -0.16371388309052992];[-0.16371388309052992, 0.45789671240409036, -0.16371388309052992]
[-1.1452345334593839, 0.9237830211355729, 0.4892829319435067];[0.1416851968265742, 0.17271566905741265, -1.0345526706095032];[-1.0476441004046673, 0.2652435971830397, -1.035030484449978]
[0.3532881923483773, 0.6423937006985891, 0.10495229258327832];[0.4267911886154603, 0.12534591993733613, 0.07743437094964167];[0.8132293287838432, 0.45992976007621744, 0.5300345832885403]
[0.11034015234388828, 0.8691407592259837, 0.7894787253751413];[0.0815339174130627, 0.27075872766848974, 0.14692352058364655];[-0.17382815184519673, 0.47513428732666263, 0.33995064582435464]
[-0.1812281267507941, 0.27864355980184385, 0.570954493170159];[0.3963036803335436, 0.5334779549041798, 0.3882325819334237];[-0.1812281267507941, 0.8533978042911067, 0.9061406337539705]
[0.8744726535796294, 0.22888502255400567, 0.10454344705764007];[0.04093236444338433, 0.17524161770180524, 0.7135301490972539];[0.11915974728074197, 0.8715874281513382, 0.8519379502194449]
[0.011319366594227276, 0.22405638291057184, 0.6035496138165997];[0.319960793266583, 0.05822138706450819, 0.34662626637122396];[0.7603422298337185, 0.8620999829976158, 0.8690524658104946]
[0.1971529173312655, 0.9702686943955078, 0.6232315120651147];[0.3380457555368859, 0.22388127074100073, 0.16718047115810275];[-0.18890623762387365, 0.9445311881193682, -0.18890623762387365]
[0.21205659856683656, 0.05925494236972684, 0.5018176554970905];[-0.13627942265569, 0.68139711327845, 0.10115307497989945];[-0.13627942265569, 0.2521408144915497, -0.13627942265569]
[0.541008250275901, 0.05506565630208837, 0.5087421080482462];[-0.10174842160964924, -0.10174842160964924, 0.2734899126577368];[-0.10174842160964924, 0.8275005597388799, -0.10174842160964924]
[0.5437789270632791, 0.6711216624524647, 0.4118360452013541];[-1.1117516095356315, -1.082466452950331, 0.2226137024775373];[-1.0823673509193656, 0.1949190947596271, -1.1338958169812994]
[0.8831360382003817, 0.16502348467792272, 0.837714735043677];[0.7604029500836551, 0.846665559565072, -0.17662720764007633];[0.08363953353093212, 0.3206253431294228, 0.17143408552839434]
[0.5824851405985616, 0.6277425032263851, -0.18247002569934653];[0.6058173093427316, 0.6257561434500621, -0.182470025699345];[0.8684532841190327, 0.8685052882189851, 0.9123501284967327]
[0.522780069446783, -0.12432694095897591, -0.11910326249733855];[0.6216347047987048, 0.07736457300364574, -0.12432694095967117];[0.4995712267721589, 0.25241348188129487, 0.04067831480280426]
[0.9037667349696312, -1.037428479427021, -1.0455362178520886];[0.18079500409243066, 0.2371083748949736, -1.0349725508184002];[0.08663236117433815, 0.7900803504740916, 0.22966793820232234]
[0.1700324765530996, 0.3586071734251587, -0.1830194270680171];[0.3374319257078455, 0.9150971353400854, -0.1830194270680171];[0.5518470350524557, 0.7222448098803221, 0.5055812467410364]
[0.36733800529414673, 0.18455015044785716, -0.15529221647498737];[-0.15529221647498737, 0.7764610823749367, -0.15529221647498737];[0.021894527678900877, 0.12118271871360986, 0.0665543860266955]
[0.13001995699324498, 0.577672256987563, -1.1451761265217437];[-1.1451761265220743, 0.7258806326111614, -1.144500420516067];[0.22454193232721564, 0.6068790547736496, 0.9597309824123359]
[0.9328816299935164, 0.7603988315077395, 0.5121130925692057];[-0.16042431966130244, 0.45004004357914096, 0.7835965545980529];[0.37767642197418094, 0.8021215983065122, 0.6713389236481534]
[0.2233752957710261, -0.1973829195678638, 0.8298258373190139];[-0.1973829195678638, 0.7681751340602105, 0.026184368510055345];[0.986914597839319, 0.5506048599726854, 0.4936611461592877]
[0.9988579485910499, -0.09449761743973256, 0.13641772271790797];[-0.09449763785748036, -0.09449763785750404, 0.14506693845478635];[0.8361348162508919, 0.09913834053661086, 0.4724881892875201]
[0.4963826622936194, 0.7639849515533366, 0.8630588298309688];[0.2640762627358947, 0.12982559390642945, 0.914969107904517];[0.06037529958666166, 0.24479623316533083, 0.019974912686995028]
[0.13729423497526938, 0.9463981764022843, 0.19188514553844382];[0.9623468403090982, 0.8551980140512183, 0.8941901540972268];[0.5206140492073359, 0.0629241709392736, 0.1830634923572687]
[-0.14018702888820936, 0.6834039581085761, 0.28392607574225825];[0.17865751088803994, 0.7009351444410468, 0.5832287988223201];[0.13589259131650855, 0.34660691600859217, 0.6701430687888158]
[-0.1893644718679065, 0.9468223593395324, 0.24761231292749308];[0.9685951084416228, -0.1893644718679065, 0.08629749634265338];[0.244679361298623, 0.15325679244638646, 0.32993637409135923]
[0.8257870981162554, 0.14958205525929147, 0.34062845648655526];[0.08955741088197444, 0.6044808028230382, 0.6067118784251397];[0.6019756449829008, 0.7994554305871832, 0.43225015270273603]
[-0.1936080770757398, 0.3896846978893681, 0.8171696022485605];[0.5334061056044401, -0.19360807707574057, 0.9680403853787029];[0.16078626838743626, -0.19360807707574057, 0.4475302966709247]
[0.053168268692067255, 0.892716767156286, 0.8139149624965677];[0.02616364961568174, 0.25457934219886524, 0.773774531426521];[0.7670622552788992, 0.4640908328690828, 0.4547001340087159]
[-0.1762274909563153, 0.14757339106326461, 0.6300466086112418];[0.9629666927098708, -0.17622749095709161, 0.2863161930688347];[-0.17622749095709161, -0.17622749095709161, 0.881137454785458]
[-1.1222375836376004, 0.00452597117066722, 0.18012284554488922];[0.06990523108566493, -1.085222591862578, 0.8973342337246918];[-1.115581689683989, -1.1153136139199362, 0.4906873425428113]
[0.5843234854423824, 0.20078788640321166, 0.017871714210633605];[0.6189504212914827, 0.5771252500440243, 0.3079241818199566];[0.3032404477049291, 0.10940619336422919, 0.46421379713186317]
[0.829299348017922, 0.34381772127965804, 0.24990480267512094];[-0.1909516182538948, 0.988094662319472, 0.954758091269474];[0.16112669550285486, 0.5308726856966203, 0.755405807769753]
[0.34430601653500625, 0.6714888664411042, 0.2659830373983407];[0.4974140767023859, 0.7624627349613167, 0.45158499236362537];[0.7893665879370074, 0.6486471494981115, 0.6786188205917087]
[0.8428821889324746, 0.32873438047663484, 0.26255647896410117];[-0.1995128791884872, 0.687468055905329, 0.997564395942436];[-0.1995128791884872, 0.7990221287397652, 0.9939609333105904]
[0.3837989534836964, 0.7743297972340376, 0.10681414693250435];[-0.18323027871541403, 0.9717528926068943, 0.9161513935770701];[-0.18323027871541403, 0.7066930161974635, -0.18323027871541403]
[0.251422630502501, 0.4975330110323186, -0.06610662446731615];[-0.06610662446731615, 0.07843582305480423, 0.7558067275518289];[-0.06610662446731615, 0.3305331223365807, -0.06610662446731615]
[0.7129655657163864, 0.23764429270903253, -1.0555298330878504];[-1.0605817562267033, 0.291416979856599, 0.2860913611506144];[-1.0836117999439594, 0.8449706647796197, -1.0652039452610564]
[-0.16671663089140087, 0.06914806070929369, 0.8774567008421463];[0.5304909072627783, 0.6723794147616337, 0.4805579608156809];[0.8335831544570043, 0.6648682440167897, -0.16671663089140087]
[0.23809141849852267, 0.24638390817997147, 0.3782995415405207];[0.620877613916502, 0.6638746744384877, 0.5123385666281625];[0.04469673308401978, -0.13277493488756673, -0.13277490017409505]
[-0.9729451186990965, 0.4960932129940703, 0.11724209303551403];[0.4135234414040079, 0.2652945517589753, 0.32690446349457003];[0.9849761581919128, -1.0534061434040791, -1.0865689183276377]
[0.9991273669652211, 0.03941041975268755, 0.010858044524415411];[0.3021658029059462, -0.19982547339304424, 0.29354771968458726];[0.6017415530961102, 0.062220037514242765, 0.46749343787007336]
[0.021894820555590888, 0.7272540735244859, -0.1874600403313647];[0.8115694506274966, -0.1874600403313647, 0.9373002016568235];[0.9374033564330871, -0.1874600403313647, 0.40289985636136627]
[0.8930604444166016, 0.20651528371231964, 0.1331031814569651];[0.29292419291856353, 0.9795370205484908, 0.6164835973664469];[0.8556381750261475, 0.961296260954479, 0.9326766422441072]
[0.6259474750536045, 0.8416844383202161, -0.16973090241349706];[0.8486545125128825, -0.1697309025025765, 0.0021548166956822934];[0.40048191387894727, -0.1697309025025765, -0.1697309025025765]
[0.9078272166120035, 0.049864560605625385, -1.1639150498555473];[0.7732235644824664, -1.1841170809903239, 0.7861612211263284];[0.9307796356892267, -1.154648964536254, -1.1546450869131557]
[0.4523292749181098, 0.5846556044175709, 0.9195319764872535];[0.4426086179098192, -0.1839063952974507, 0.5653934056204659];[0.7706517860616404, 0.03430562145111349, 0.39375988300337894]
[0.9601068668890632, 0.2537665292422894, -0.17328551708387782];[0.6817069203892089, -0.17328551708387782, 0.49600846011565836];[0.41617733367027143, 0.6850340581430543, 0.866427585419389]
[0.5115713153633366, 0.5450516734065444, -0.14582112427817315];[0.36429798612818287, -0.14582112427817318, 0.024812310083899503];[0.5619823529063795, 0.7291056213908659, -0.14582112427817318]
[0.35619268975213847, 0.5271806703588455, -1.1225531222823033];[0.3921397440483073, -1.1225531222823033, 0.4934374721102679];[0.6430849429383173, 0.6127656114115166, -1.1225531222823033]
[0.12647156871772502, 0.6230131304071429, 0.7254810154314164];[0.9703768234861815, 0.6756238261012789, 0.9208736677072319];[-0.1940753646972363, 0.9330517771686485, 0.056168615356418705]
[0.8549986568468763, 0.9047983282081149, -0.1805219155104125];[0.544918587409377, 0.6009183401551909, 0.9026095775520624];[-0.1805219155104125, 0.28165888027499586, 0.4504667677094589]
[0.35119447198941667, 0.6158881234739886, -0.0587917903644692];[0.029525460158467687, 0.25459375742906254, 0.18676269365098264];[-0.0587917903644692, -0.0587917903644692, 0.293958951822346]
[0.6859948367616676, 0.40252378106387654, 0.8796117155446679];[0.8535315740945789, 0.04687453627968574, 0.8178013839112037];[0.22585173732298214, 0.008777690315638464, 0.5797294839988596]
[0.7270297232300771, 0.21956394276389046, 0.8991936281990905];[0.4367341081151981, 0.9380479773102771, 0.9738351078283858];[0.514744092102441, 0.40704526890691695, 0.37765837839478644]
[0.49549043968263407, 0.6875892624476381, -0.1080288728280575];[0.43190431075917823, 0.4642568133069508, -0.1080288728280575];[0.217944904447542, -0.1080288728280575, 0.5401443641402874]
[0.3921757247772746, 0.2247535744859508, 0.9478067103272064];[0.26096644793301527, 0.4934554557293711, 0.9176639074818116];[0.30855958824901697, 0.9718009689122954, 0.8333350741269385]
[-0.12658729127004473, 0.1362950895743873, 0.5143291087396844];[0.5583661638635243, 0.6329364563502237, -0.12658729127004473];[0.5963695780831938, 0.2974297985411095, 0.6254429947632689]
[0.8237667215931667, 0.8605603421448267, 0.016886807475861798];[0.7533809610894433, 0.7645506347348934, 0.6760216605928349];[0.049630730457407624, 0.1466708245727224, 0.9599477564096632]
[-0.1652490198633724, 0.9855448577061913, 0.32669319679664766];[0.3808269469674548, 0.17761636044441131, -0.16524350354630674];[0.8262450993168907, 0.7960353684456175, -0.16524901986337814]
[0.7349178155905192, 0.9805217810634691, 0.1760761525200647];[0.3642046530730848, 0.7160735985213277, 0.33727421300984317];[0.20058867441844164, 0.6220483208319137, 0.1451281514108852]
[-0.10285823578599995, 0.43814351418259145, 0.34289315208770277];[0.028985549697382873, 0.47694132438777626, -0.10285823720836174];[0.5142911860418087, -0.10285823720836174, -0.10285823720836174]
[-1.0613939075832317, 0.43234930957911344, 0.12393022586452196];[0.8874793288543676, 0.7275835414347733, -1.1457774532418357];[0.8241349383900816, -1.163723259895198, -1.1419689079603423]
[0.4632288777453709, 0.33456071387981734, 0.30870087072995644];[-0.0956520530953212, 0.5595298838825684, 0.47826026547660594];[0.4682022265703677, -0.0956520530953212, 0.3748067715303115]
[-0.17178550533192108, 0.5378649164119694, 0.8356055139667536];[-0.1717854523562305, 0.45601058094607316, 0.8589275273020264];[0.2038987373727199, -0.17178550546040527, 0.9321583658143626]
[-1.0106577830374228, 0.9619805416745065, 0.5760092865031906];[-1.0035490343044398, 0.8158874536027451, 0.017745585630128846];[0.9497155840310739, -1.0035491171260258, 0.2630921614338625]
[0.14908473817601364, 0.12344946484399066, 0.7072052298118473];[0.6361302285863484, 0.3102325650048544, 0.5668479140944506];[0.5007730604891804, 0.44803858987564715, 0.07823347675622938]
[0.7076521045064517, 0.41953067872675, -0.14153042090129034];[0.17327272416333006, 0.5514688778258168, 0.4940017272595627];[0.0022819512726207636, 0.07743908667759658, 0.6217119993097157]
[-0.193954618715044, 0.17604106713117496, -0.193954618715044];[0.6322295916004476, 0.5832102538110295, 0.9697730935752199];[0.029039044019264604, 0.1537563558954994, 0.5217821312243645]
[-0.15420302911228434, 0.7093052650642979, -0.15420300785602065];[0.7710151455614247, 0.40892322304607687, -0.15420302911228495];[0.04200474355299422, 0.4608151415187942, 0.18972460720176865]
[-0.050071532419938274, 0.6008634915773468, -0.05228366263497375];[0.22570042754026676, -0.05228366263497375, -0.05228366263497375];[0.26141831317486874, 0.7091672928732843, 0.797509756158675]
[-1.108849791271356, 0.9669853687668849, -1.0937004041681768];[0.9282360365187936, -1.1250812760184468, -1.1128967865398631];[0.4073084828633795, 0.6314461807752381, 0.5358087950952986]
[0.2856257693991461, 0.073258442332919, 0.6138293835317088];[-0.1836355378228547, 0.9181776891142734, 0.5468424306689824];[0.30279697483802714, 0.6242282946239759, 0.3403932339698934]
[0.046525956193744, 0.4024666472491282, 0.6094401595299475];[-0.16514466786760562, 0.38746246087463243, 0.7258430331031059];[-0.16514466786760562, 0.027950622994389218, 0.8257233393380281]
[0.505495948505904, 0.9099979625551414, 0.7337616197061095];[0.08624874391512893, 0.3196072977463823, 0.6324784144465343];[0.14956250019607742, 0.1789194079910028, 0.3610786581223844]
[0.38975178218404993, 0.08699238899911499, 0.47140821347202955];[-0.1237058344773234, 0.618529172386617, -0.1237058344773234];[-0.1237058344773234, 0.6887901809620111, 0.3259766082376969]
[0.43395964531092246, 0.7401474970482533, 0.13397735638089625];[0.833333333767447, 0.8457770216289167, 0.8422982296791722];[0.24423279830777922, 0.7264123964290538, 0.5535730107385222]
[0.381460747269303, 0.5240607288904462, 0.13593592118024334];[0.051159818545991276, 0.8818092803203189, 0.48069209521857215];[0.6435160747047435, 0.8640560098350869, 0.8746130134873624]
[-0.1928201590735244, 0.48994407753969227, 0.7423991820769247];[0.9218094357477161, -0.1928201590735244, -0.1928201590735244];[0.3904038426467987, 0.9641007953676219, 0.6231880012932711]
[0.21322641377229234, 0.38014476109782214, 0.4907417132701435];[0.5237119610878367, 0.398591467340072, 0.23751737270487772];[0.561870887419669, 0.010393341579734927, 0.6345150397642074]
[0.8493371297621591, 0.47138094517450113, 0.2694009315517659];[0.7003354510606228, 0.917432721554782, 0.577578671865554];[0.08619507068497823, 0.7199003680831645, 0.8333416172235396]
[0.974395676629999, -0.1948791353259998, 0.2829865703355343];[0.49796182072450657, 0.22766734878698147, 0.22203126157293662];[-0.19487913532599982, 0.27665531262747656, 0.3590056352824832]
[0.4992065637264852, -0.12480983281713556, 0.9989221645791638];[0.6240491640856883, 0.1830409886692732, -0.124809832796474];[-0.12480983281145289, 0.4023819836457051, 0.0031198027131078554]
[0.3439093120558293, 0.2944090382570925, 0.693169893231461];[0.43501496343052914, 0.7760465838304053, 0.6026774508208114];[0.2935714204115357, 0.6028802837970586, 0.3830760130772627]
[0.5517194689604056, -0.10831099995563843, 0.5048739058809675];[-0.11034389379208112, 0.9944196398082622, -0.11034388678881817];[-0.11025012818862905, 0.7656385614865611, 0.06981194120237133]
[0.11139916955016838, -1.042762880131741, 0.6043652188606164];[-1.1314596080043517, 0.8264165913970274, -1.0105207762639714];[-1.046319643571934, 0.8390496138219847, 0.04863890009536764]
[0.9553947097760507, 0.26425192813011156, 0.529837227284602];[-0.15257386107668364, -0.15257386107691306, 0.7332020247975701];[0.7628693053845652, 0.2981920874054943, 0.07986823002026344]
[0.05450813427398593, 0.7918003175086736, -0.16218165569489992];[-0.16218165569480789, -0.16218165569498116, 0.8109082784749058];[0.26324309817024516, 0.4180016987414411, 0.17432571678952213]
[0.6841895238403617, 0.05691800782727929, -1.0114784324918067];[-1.0261473326399324, -1.0148169262768278, 0.9576962868525083];[0.3252034717540847, 0.06772721710408391, 0.7570823486706121]
[0.2954069877924692, 0.6307451313703657, 0.8139965106012238];[0.3344084514024315, 0.6597986124437193, 0.5987167470098276];[0.38744546918330613, 0.24217089651358392, 0.08814150848951707]
[0.1614644700179062, 0.8059733527779162, 0.6393171741817372];[0.30239563440709627, 0.5096678979259243, 0.4034442530394988];[0.7604234580533825, 0.6511254660130612, 0.7331706641304815]
[0.5809115604331008, -0.19387227804670404, 0.9006018812875927];[0.5448924015860621, 0.9693613902335201, 0.8928443772499085];[0.9150384358439334, 0.5479354812793399, 0.20652035603112628]
[0.08108692037574194, -0.13795966840442733, 0.6905701138545678];[0.4101553763631174, 0.7588630902088719, -0.13811402277091356];[0.3946026413578806, 0.2164266412462722, 0.4887485523964368]
[0.9198202069160378, -0.1884620898916571, 0.9442370068838939];[0.9968840627113379, 0.04265915655772967, -0.1888474013767788];[-0.1888474013767788, 0.6538638551695044, 0.9208695444355335]
[0.15545024933879448, -1.0087551506425283, 0.7915284033491429];[0.4716637849166194, 0.958209760185262, -1.1583056806698286];[-1.1583056806697043, 0.4673454762507697, 0.4724022253961654]
[0.06360060907608334, 0.8420987823039999, 0.29016887250035805];[-0.17011245400818198, 0.33691114583588977, 0.7671111322287123];[0.2649616662080806, 0.06774032717976253, 0.8505622700409098]
[0.4167986487834697, 0.9082872237427809, 0.7420898572081018];[0.9421703589451474, 0.21895539423038424, 0.7971792324272634];[0.3843983593129986, 0.03232799759480709, 0.887237086578973]
[0.5309904025516383, -0.1526401078222579, 0.0022989576495855424];[-0.1526401078222579, 0.436654080351389, 0.5382059772221658];[0.7632005391112894, 0.38775066583746964, 0.25066570946329514]
[-0.13833125262207732, -0.13833125262207732, 0.02632649164946521];[-0.13833125262207732, 0.6910624141450841, 0.6916562631103865];[0.4940733399393362, 0.7024782796606636, 0.18566405471476055]
[-1.0133194951847584, -1.0174448596456829, 0.2990904970410012];[-1.0324870039599048, 0.29574572117091, 0.06588576792581147];[0.4583196734501692, 0.5795586880495789, 0.3877358236208215]
[0.938057750684863, 0.48235514173171556, -0.18761155013697262];[0.6592290956075877, 0.6477752678307312, 0.5851240662979458];[0.5474901084176058, 0.3727784915624076, 0.8092061757538493]
[0.22906100441645738, 0.7425129698862134, 0.5517277098624522];[0.0731377143046984, 0.04333344727396349, 0.2645024400991086];[0.20567111530772042, 0.4152780853865736, 0.0851510391604946]
[0.8812121718653783, -0.19818974965993322, -0.19818974965993322];[0.8512929106525425, 0.18622036481439985, 0.2974789836599675];[0.9909487482996661, 0.49874638956269246, 0.038465740182088815]
[0.19683420212645053, -0.18224106307295176, -0.18224106307295176];[0.8233593614295565, 0.5951580809661912, 0.3882355982399681];[-0.18224106307295176, 0.3227344989624923, 0.9112053153647588]
[0.893586666323273, 0.8834913957282313, 0.9157990047519066];[0.3209778340354764, 0.911008629081051, 0.05199387346241424];[0.8333826053636106, 0.6790340913318005, 0.444906684183885]
[-0.17389512435439697, 0.742177157152008, 0.8694756217719848];[0.33506363288655905, 0.44677553972198447, 0.44913134012161315];[-0.17389512435439697, 0.3922424187806599, 0.8621665546788583]
[-0.13114640290764953, 0.6002244237752298, 0.3611082650887236];[0.1751239097421744, 0.8690249115823544, 0.6557320145382477];[-0.13114640290764953, 0.6496003714128165, -0.13114640290764953]
[0.8886799086694891, 0.7238278175296367, 0.19301708361287195];[0.8675062904681479, 0.37222146562838754, 0.6095599418114143];[0.8851259780807627, 0.4298326359131669, 0.05549029429502117]
[0.5229260803155305, 0.5622684122905809, 0.3638249981565761];[0.12795403153911833, -0.1076936689985996, 0.06140793542605183];[0.4656838418455834, 0.5162453265630693, -0.11245368245811618]
[0.9373653275339018, 0.3131733623304913, 0.7089992654102327];[0.04302864213544, 0.9092977227006346, 0.34125691457069607];[0.8004532751023984, 0.41503269611591476, 0.9498822636774121]
[0.13266116680334905, 0.7815647560592552, 0.23618329383483672];[0.11812618346085602, -0.1688680181973699, -0.16886801844727345];[0.8443400922363672, -0.16886801844727345, 0.02236262752245377]
[0.79288734895536, 0.8896420633187037, 0.641285814273741];[0.41252020207085904, 0.6543130544009009, 0.04440758421483093];[0.09793280139001292, 0.5306170494572081, 0.035515663436678446]
[-0.1879795847961456, 0.37186278232155145, 0.8508558378335973];[0.3104994634670528, -0.1879795847961456, -0.1879795847961456];[0.9398979239807279, -0.1879795847961456, 0.6842340795287833]
[-0.052626521858874634, 0.8439500171146831, 0.23593784235898974];[0.034717271127001625, -0.13123431247257134, -0.044529910762253044];[0.2971245226339062, -0.06445256443738538, 0.6844609119492505]
[0.408768099201852, 0.15842111705166706, 0.9774527372054259];[0.9668924509457043, 0.23326258474054196, -0.1954904385521533];[0.9260962606518685, -0.19549054744108518, 0.7816433811829104]
[0.1400424176163133, 0.14062812393830249, 0.7065880130843625];[0.7157999921539318, 0.9243863474597076, 0.8351365368094491];[0.9852202752866367, 0.4343645962742383, 0.45046779886805055]
[0.9612483791278572, 0.942310010771627, 0.6302038946014403];[0.17379387989182826, 0.1938766695415296, 0.13679613662971657];[-0.19224967582557145, -0.19224967582557145, 0.875400257157179]
[0.38378891106971347, 0.7083155476570119, 0.39531526350425783];[0.6747758789260686, 0.5481492036014054, -1.0825842555975858];[-1.0787724307518434, -1.0767760575669976, 0.9259045582384237]
[-0.13527596574364006, 0.11250483451674065, 0.2487597263208109];[0.5493436520470713, 0.02512848132226797, 0.8050691648109239];[-0.13527596574364006, 0.4237080172935799, 0.6763798287182002]
[-0.13006440570178363, 0.19952244893484106, 0.2887481925444929];[0.5036025949811074, 0.8057858400710524, 0.9203288322357521];[-0.16115665249070463, 0.05546209464189411, -0.16115716801421048]
[0.9204291408784164, 0.7912297330744372, 0.45880407611625595];[0.368692808251199, 0.8442427180079052, 0.3452497909403244];[0.2777538650630793, 0.845598110139103, 0.909802530125143]
[0.5803245783704488, 0.024713751524457095, 0.8178398894111526];[0.08112001144588621, 0.08363059386437877, 0.11833333180490058];[0.8664091248692497, 0.21430147019550616, 0.9157539621271136]
[0.23684741447257585, 0.786773854984639, 0.7157415370221805];[0.8009602294394852, 0.8247466022533394, -0.1649493204506679];[0.645445148692075, -0.1649493204506679, -0.1649493204506679]
[0.805190255966309, 0.7053848297781516, 0.49032130939730045];[0.04364812568118415, 0.3032797472035452, -1.0097134369597833];[0.7085922914870624, -1.0504504890417876, -1.060237752672719]
[0.5799759088249513, 0.6931461156398594, 0.7423753381957129];[0.3504366194814067, 0.1630061795214679, 0.13327976791440066];[0.12499988483145208, 0.22825418849405654, 0.894978469467568]
[0.22754629135498028, 0.20748847741374865, 0.37775924757210844];[0.7454801778881919, -0.1827512987651453, 0.4340004806373897];[0.8927221444178314, 0.9137564938257263, -0.1827512987651453]
[0.4523072965534216, -0.19857167125941766, 0.2960541017225272];[0.050577089837173905, -0.19857167125941766, 0.5742140779015903];[0.5807692307748008, 0.9928583562970883, -0.19857167125941766]
[0.9402590961363317, -0.036516525526556536, 0.5280531206859226];[-0.03651652552655676, -0.03651652552655676, 0.30513010260140117];[0.6034109312474155, 0.18258262763278377, -0.03651652552655676]
[0.845226707361996, -0.012671230456485296, 0.236178488205687];[-0.03435085573118219, -0.026401979312725723, 0.09369389529952965];[0.11288117323818658, 0.014569944414561053, -0.02425961232461476]
[0.9482190382773329, 0.1244992301804857, 0.6758600499422112];[0.665770277903165, 0.24341979246367906, 0.20311851637001244];[0.20461619868915282, -0.1896438076554666, 0.37231513434791996]
[0.9879702494827004, 0.32288214269831284, 0.9812946601868608];[-0.1975876758782097, 0.27052671693485075, 0.7074380562466297];[0.7849443431921229, -0.19759404989654009, 0.6251255751556233]
[0.5414419835418457, 0.7648213621610613, 0.05772148542642175];[0.986994538979238, 0.8873191971496487, 0.09134338320857793];[0.2239183949930339, 0.5303675889304834, 0.8041479890370159]
[0.7320367487117172, -0.14640734974234346, 0.44645497755955077];[-0.14056254950544475, 0.21177803719989852, 0.4802724619448162];[0.12434915107752598, -0.06485684542015871, 0.37602360410219204]
[0.24781169057491248, -1.1237961660353426, 0.0385862010521848];[-1.0287360735458893, 0.7302384090536168, 0.9343677137954381];[0.983406226468573, -1.0494385250111136, 0.2677308391729224]
[-0.14936390489119064, 0.947286273207948, 0.21441782095197692];[0.3845218716454937, -0.14936390489119064, 0.2483728443714892];[0.538119818572629, 0.7468195244559532, 0.20107875342526083]
[0.8553388123147582, 0.10086255629482965, 0.6581161845778946];[0.48362885325506777, 0.872101548969284, 0.558798863016479];[0.7246076783116633, 0.8219730344743899, 0.8515536219963431]
[0.9761829712904072, 0.8439507483828917, 0.6250326728174006];[0.41356285560256856, 0.4285430258683234, 0.597345604360641];[0.005764400820335469, 0.5492299687460697, 0.8001560090409567]
[-0.18947293430523426, 0.6101697507475808, 0.0978805397853384];[0.9473646715261712, -0.18947293430523426, 0.6897865302472693];[0.02975827615718285, 0.2244708999699082, 0.1812013773287341]
[-0.15505261239098833, 0.8924138192163018, -0.15505261239098833];[0.2238315641850136, -0.15505261239098833, 0.5806430010094931];[0.7319095218088824, 0.7752630619549415, 0.38085034722071986]
[0.03695686914472629, 0.653468095991538, 0.6466733301912937];[0.2661509506702746, 0.5763390018093723, 0.1933120428728402];[0.3959764324494488, 0.5108918014998277, 0.3776796395993234]
[-0.08783158837910848, 0.09946055212800253, -0.08783158837910848];[0.43915794189554236, -0.0878315883791041, 0.9819809906033173];[0.034633781959683696, -0.08783158837910848, 0.6069035570053172]
[-0.04790718230634956, 0.9227091601803307, -0.12965211813856312];[0.07420603234433454, -0.08174332346595459, 0.7893956428573701];[0.024380443656495276, -0.0639053352152458, 0.30758922431675173]
[0.16617625938007297, 0.001471988737095642, 0.6779862852119914];[0.2270024883775411, 0.07062948002614655, 0.47781502386651187];[0.8574026851225235, 0.7872103369419797, 0.8797895567176086]
[0.7856579037363082, 0.4552392048016467, 0.4822879423577555];[0.926511026879148, 0.9384805239403665, 0.11846311456622505];[0.4977108394785338, 0.18617799019449266, 0.6481822407272567]
[0.3112693429177137, 0.5064798213366523, 0.38691782549727216];[0.9826402574273886, 0.14558767462743039, 0.9089150103135185];[0.4985507476979215, 0.3534882052005963, 0.2484831977485732]
[0.3920044212517668, 0.8338257971309202, 0.247597568160422];[0.5977544058791984, -0.18601295354783476, 0.9300647677391737];[-0.18601295354783476, 0.8947294494917247, -0.18601295354783476]
[0.9701556679960834, 0.4071415376841606, 0.8372058366016779];[0.11239780769454388, 0.7489077018890505, 0.54417135644718];[0.8325650872428265, 0.9775059214977008, 0.9380215106052615]
[-0.18953270649762638, 0.9824169078663259, 0.7500863693780009];[-0.18953270649762638, 0.8347619926362518, 0.7857477364192956];[0.9476635324881318, 0.6359634150218286, 0.3757836181215456]
[0.7206455673603469, 0.386287304502001, 0.35323896740907157];[0.3675874806345145, 0.32217784563206064, 0.9385946455700077];[0.1645441933285624, 0.16809467164686542, 0.39959709760769413]
[-0.04866172791389802, 0.5766416640046026, 0.02705933142140715];[-0.0486615550203889, 0.24330863956949145, -0.04866172791389829];[0.1640944263055516, 0.16773339697986944, 0.08190316903997075]
[-1.0761770123600434, 0.08597537329226068, 0.22922413936153885];[-1.0761753915417862, 0.3808769577076385, -1.0763761247120638];[0.18275864423131205, 0.5573329112480355, 0.6527480133163232]
[0.10744872258235505, 0.9186792387193852, 0.1184476607391245];[-1.1946587009732648, 0.9939837351860161, 0.15781240849042122];[-1.1978229268590066, 0.868368812421958, -1.1879639608504449]
[0.07443863253060701, -0.16885638120285187, 0.26216627577875007];[-0.16885638120285187, 0.7649014491764866, 0.8429556721379385];[0.4151113924514098, 0.8442819060142593, 0.5839808357893892]
[0.5423489818078391, -0.03221858474316351, 0.16109297549261103];[-0.032218595096333943, 0.114702392211528, 0.7405453273334153];[0.3391547483785069, -0.03221857487315162, 0.058035601730410113]
[0.6164502632078419, -0.03701235107463274, 0.1850617553731646];[-0.03701235084439564, 0.8853631711620922, 0.006331434287488946];[0.7662272695905421, -0.0370123510746314, -0.03701235107463292]
[0.4941762860818626, -1.0819079461834151, 0.7103210555137038];[-1.0819647412245312, 0.9909362044279543, 0.8529452525089074];[0.16077606612766215, -1.1934090940025939, -1.0787057010881644]
[-0.19446508010243824, 0.9723254005121911, 0.7533240772466812];[0.5868202029134708, 0.6192553053701407, 0.5140697291007157];[0.7305309933999788, 0.6465130034008606, 0.9696957444247409]
[-0.13204049941107324, 0.6613880883138669, -0.13204049941107324];[0.6241004589794542, 0.547652279079501, 0.6602024970553662];[0.2035356995156138, 0.057732400193173605, 0.2731234540215485]
[-1.1438702271164485, 0.734482216698911, -1.1438702271164485];[0.24133388068647488, 0.5273759861204166, 0.7193511355822425];[0.2619935481996044, 0.9866475339476022, 0.10146642907585923]
[0.9744597863188309, 0.18816621172369896, 0.038894690531708576];[0.5721276532012445, 0.16823128422464984, 0.7629371263981516];[0.40438653186993856, 0.9964085771079597, 0.8916546890459331]
[0.6542442331179871, 0.8487229157778614, 0.18367960751597612];[0.7173822607547063, 0.3791761774373553, 0.3875516283413374];[0.006622640055167661, -0.14347645215094126, -0.14347645215094126]
[0.6619454631839874, 0.21867264929082852, -0.1278802635471881];[0.11751736460798157, 0.551821276863575, 0.6530635508739233];[0.6394013177359404, -0.1278802635471881, -0.1278802635471881]
[0.8944510335571784, 0.33624767820569823, 0.7950816210205685];[0.2194258534652802, 0.3861557968306758, 0.3512722305236614];[0.9238029393794251, 0.9227532776503067, 0.8337977558063012]
[0.24907124908756417, 0.2530389513433683, 0.021927911775247888];[0.9954050370474765, 0.7496667893512675, 0.10662414381776653];[0.12299320562695948, 0.13230194034759057, 0.5820756857364066]
[0.931487948842834, 0.9544795958635907, 0.2053502909421443];[0.10547665100196069, -0.1862975897685668, -0.18629758976850902];[0.9129390882545532, 0.1388018917381313, 0.8250118458916272]
[0.9323383645170545, 0.7898873841710526, 0.9444625942910052];[0.4618045520706383, 0.07586558125232612, 0.395645855823721];[0.7230502290782201, 0.08844177244500462, 0.15042221414242796]
[-0.12917958711599833, 0.29323849477203334, 1.1650245233618683E-4];[0.560045130961514, -0.12917958711599833, -0.12917958711599833];[0.8123591375081092, -0.12917958711599833, 0.6458979355799916]
[0.8620841002269383, 0.46675299528673186, -0.18401960765973382];[0.5076789407927187, 0.07301072220497473, 0.7378677410397965];[0.9200980382986691, -0.18401960765973382, 0.7778674523379032]
[0.913926377051142, 0.7371096745810924, 0.5960022552888186];[0.06476746947719836, 0.9301673003475247, 0.5040046410937553];[0.11844854088103762, 0.7303587573397224, 0.9965575543733103]
[0.8923358148143127, 0.9661419087352313, -0.13609189654133538];[0.6804594827066769, -0.13609189654133538, 0.4559092747786404];[0.6452162157748366, -0.13609189654133538, 0.6729307497177746]
[0.6370717010602456, 0.561607541069844, 0.9614672784141398];[0.19266360792930082, 0.9499682880658163, 0.2469257706114294];[0.9614672781114469, 0.33670888715427705, 0.8438632706379392]
[0.40934262673921074, 0.5658517299867191, -0.18403352031679446];[0.050897497355752774, 0.12497560422197596, 0.7894233158340861];[0.040595236855932915, 0.9201676015839723, 0.0640403100889676]
[0.8677991903976047, 0.5188277538550018, -0.19048853686498834];[0.16654673998555936, -0.19050130051526232, 0.9822547235951213];[0.7400838079982165, 0.9525065025763115, 0.27607368203148575]
[0.03620412431270148, 0.9572845217056035, 0.9788974437962981];[0.5016116841775283, 0.7703830495083153, 0.9264463939896868];[0.9664720801766434, 0.09930244870690219, 0.8194533707239573]
[0.04822857003514747, 0.0954478122869048, 0.5456432854141808];[0.3978196397866116, 0.2825622218468543, 0.20965979430718462];[-0.1725864416122328, 0.862932208061164, 0.9605255544334983]
[0.2866702329735954, 0.5729645142577338, 0.6481270509383047];[0.15442832013358065, -0.17750164006993935, 0.40309485460603534];[-0.1775016397416721, 0.8875082003496967, 0.9926929351193324]
[0.5667448977655233, -0.1674543987319798, 0.680462144053363];[0.5980108959154883, -0.16745439873197954, 0.7090534284576683];[-0.16745439873106513, 0.8372719936598989, 0.4730891268730377]
[0.1865780753384667, 0.13577501008019854, 0.8737189217463818];[0.8311771969548015, 0.8357626354830103, 0.7016515763039561];[0.833805280750535, 0.4493480897933636, 0.5110189279770789]
[0.8280203991551426, 0.7546790876610097, 0.8863221946827936];[0.9743074098432755, -0.1948614819686551, 0.7794265211642927];[-0.1948614819686551, 0.26166921997719816, 0.25184824532764116]
[0.6732813829219229, 0.5271213218235885, 0.9163245975269854];[0.7196927976864267, 0.8559236658102132, 0.3717668861963329];[0.8802851428501289, 0.4589963304460073, 0.14451314870888077]
[0.12866185249847562, 0.9478888789910598, 0.2440877485943328];[0.877536700652878, 0.921095467206083, 0.021785554726050038];[-0.18957777579821197, 0.8151831618071735, 0.4317891811386523]
[-0.18848987953228874, 0.7570071310078483, 0.703413154442734];[0.23420412854796058, 0.8287093121050597, 0.8519026597106423];[-0.18848987953228874, 0.9424493976614436, 0.43433264999932686]
[-0.1848237298072013, 0.1652709219941494, -0.18482372982007578];[0.165175134946969, 0.16694456255599, 0.9241186491003788];[-0.18482372880354023, 0.7772080842331671, 0.7242525847752925]
[0.9852156564188356, 0.9969120126417391, 0.9456712892928556];[0.5860173367126075, 0.5928515333081024, 3.5153050466130153E-4];[0.023929907671814465, 0.29580702558392646, 0.0660767721885337]
[0.8548399695540824, 0.8871232801591054, 0.5371593766925691];[0.5247654468685431, 0.6444770562910211, 0.08415578086833786];[0.062092912241414555, -0.1709679939108165, 0.40534370469216485]
[0.9971478899243098, 0.8481768478224682, -0.19942957798486197];[0.06347794905565274, 0.5076756478238422, 0.10735882976114641];[0.9707264817016519, -0.19942957798486197, 0.5966577432733138]
[0.4230706556474506, 0.43039190299297847, -0.07561661707384909];[0.32950164480850674, 0.6017016914515746, 0.8710392048182295];[-0.15807011479928623, -0.1580534935376613, 0.7903505740041176]
[0.23148099552343837, 0.27108479733272506, 0.9367475501858948];[0.03483605997234418, 0.7718930741694352, 0.380383219816137];[0.852418309124501, 0.9904780873763388, 0.9831103234462641]
[0.895978708214269, 0.508078981060922, -0.1951373815946588];[0.9756869079732939, 0.3511273897786864, 0.4660166722910317];[-0.1951373815946588, 0.11364655385272748, 0.7935592235353512]
[0.8265158592215426, 0.06736255751633946, -0.1859598065080156];[0.38715039043659805, 0.3702599850973093, 0.929799032540078];[-0.18595978941575847, 0.5361146257183621, -0.1859598065080156]
[0.7069617762503316, 0.9084584775363516, -1.0548337053718915];[0.4924277046607727, 0.6491986801265233, 0.2741685268594576];[-1.0981339837067523, 0.005084757147439833, -1.0578312817928586]
[0.05065103378451519, -0.10897623557431498, 0.5448811778715749];[0.4802005293293886, 0.34155457310207016, -0.10897623470143697];[0.7608021819587922, 0.5929843235336221, 0.5259123745599924]
[-0.1619363529710226, -0.1619363527004905, 0.6245842907714784];[0.8815477894854329, 0.08119107664200786, -0.1619363529715927];[0.6213632812456816, 0.03271835234449272, 0.8096817648579661]
[0.7483249501426787, 0.05030388214766479, 0.9753251508605375];[0.7861011343058049, 0.16060760505572846, 0.022994818431855912];[0.9378965619057323, 0.07224659467152017, 0.15820945440479284]
[-0.008565351547912457, -0.008565351548361133, 0.30557702058803293];[0.7076767088252082, -0.008565351548361133, -0.008565351548361133];[0.5509117973594634, 0.14250515915354223, 0.042826757741805666]
[-1.0788470492376223, -1.0666553331539184, 0.04517111218360448];[0.5906220961493729, -1.0846259361681192, -1.0832724829788578];[0.7283185628576622, 0.2981136097897742, 0.4239980640185499]
[0.6122255946717385, 0.1118863550179301, -0.1870583349583159];[0.9352916747915794, 0.33887674255946065, 0.563466336331573];[0.9187442011956608, 0.34445989393939347, 0.8111219701215341]
[0.44594159024545954, 0.3844358988312573, 0.23062843323361348];[0.41693717219171134, 0.6994619688654927, 0.4104330239915003];[0.6295179975542052, 0.8367921625154146, 0.7740710739896668]
[0.9952248742906433, 0.4966485692789806, -0.19904497485812866];[0.6248076982002314, 0.8224411362913397, 0.3563853328743748];[0.8323968192021493, -0.19904497485812866, 0.8289199868116691]
[0.14112896232633854, 0.9302873719280339, -1.0437361006431005];[0.9905925548076915, 0.5110865022627015, 0.392877041998801];[0.37271711338116154, -1.0437501039715553, 0.13744082023422632]
[-0.1996511632159712, 0.5906386141024176, 0.007646328735937735];[0.5303707947682491, 0.7631861623490604, 0.9453308952848167];[0.9512260589391444, 0.998255816079856, 0.6040695070131041]
[0.8625953214677647, 0.8780559669540242, 0.23553195462161525];[0.46797893539452085, 0.5254484214969818, 0.3937724414164876];[0.8540497504975761, 0.30998972899164856, 0.5180650613490988]
[0.8233926461335472, 0.8964159180325798, 0.8922895166384576];[0.7677001253975146, 0.8219089484668749, 0.9996848196888419];[0.4593426808907384, 0.7952391959012247, 0.8000630360988422]
[0.41389782376203466, -0.1890573892645678, 0.1492866328972302];[-0.1890573892645678, 0.5223516027231443, 0.11380130612494377];[0.16920747757511267, 0.9452869463228389, 0.8591095023572566]
[0.28873718907370793, -0.17153973947367218, 0.9322451041029498];[-0.17153973947367218, 0.29328450487719604, 0.059260870537288235];[0.140432844950098, 0.8576986973683609, -0.17153973947367218]
[0.4654424120808812, 0.2270707261005197, 0.5026064522990595];[0.27327937000456815, 0.1927498836422733, 0.796240716806451];[0.5574012904902227, 0.5934467263940264, 0.06898353996547857]
[0.22032661380207907, -0.009779929935713128, 0.3897929299843488];[-0.009779929935713128, 0.04889964967856564, -0.009779929935713128];[0.5777448476310583, 0.14863781998461756, -0.009779929935713128]
[0.7013783526307035, -1.031165180072103, 0.07502007592410631];[-1.0660523267437845, 0.30640495444060356, -1.0193090258832789];[0.7442428583503743, 0.5589443210465808, -1.1247920955437656]
[0.4683692836319121, -0.18429068655944866, 0.214894603274968];[0.6517751315096486, 0.28398694638068134, 0.12096021738722684];[0.9214534327972432, 0.5904867351387697, 0.39704704677439917]
[0.36060141696343484, -0.17873310991268387, 0.6212322786546576];[0.8936655495634193, -0.17873096328617308, 0.8922462305491117];[0.8772703450994438, 0.3712825634028043, 0.5137001498415025]
[0.981860377068923, -0.19635379973303066, 0.3432704150016499];[0.4902471762283377, -0.19634652481744583, 0.6829891459285301];[0.48817358525448706, 0.6424753676860463, -0.19636906798545561]
[0.3228586966267383, -1.1604284200537087, 0.8907717411098707];[0.30897948223742033, -1.189409440865168, 0.9890150548968577];[0.8834218283375679, 0.9964463066613524, -1.1978022950557299]
[0.04525487144140938, 0.13300277882110267, 0.9631794037269497];[0.9661950881623091, 0.6645315353179608, 0.8216958713069512];[0.16502567129807988, -0.19323901763246185, 0.5776970077083327]
[0.9453488703506004, 0.28971340708898563, 0.046668635995886665];[0.9239890278137222, 0.6741265530723288, 0.32780161952754805];[0.5090526542422193, 0.9970469226988421, 0.421845148496639]
[-0.1845434886262458, 0.7917112160043278, 0.9227174431312289];[0.13659438938575585, 0.6346995105367722, 0.9091401456692404];[0.7429250659755605, -0.1845434886262458, 0.37984349635075176]
[-0.15475992039338363, 0.39257494984921726, -0.15475992039338363];[0.6376499205946875, 0.7737996019669181, 0.22540342778729716];[0.5974851446249995, -0.15475992039338363, 0.722517768379205]
[-0.13325226229536544, 0.46151670016765955, -0.13325226229538265];[-0.13325226229538265, 0.27775380671054395, 0.6662613114769133];[0.7883769621467943, -0.13325226229538265, 0.8653805851057803]
[-0.07441557076158097, 0.9011448687385737, -0.06972043534063356];[-0.055590892416103876, 0.28523643807951105, 0.14592477702850648];[0.8370762052912168, -0.03606238703354481, 0.37509057259098344]
[-0.18916435484582741, 0.9411819756722716, -0.18916435484582741];[0.021921785197501098, 0.41249927107572926, 0.8508617615430164];[0.945821774229137, 0.03365220513310008, 0.1785071708594692]
[-0.19809363169260416, 0.3732779362334562, -0.19809363169260416];[0.3001186892404716, 0.9904681584630207, 0.48243305934442593];[-0.19809363169260416, 0.37953932655405787, 0.34318271457354976]
[-0.19739481087111685, 0.05192042687169951, -0.19739481087111685];[0.31728427185557984, 0.9869740543555842, 0.26500097428511094];[-0.19739481087111685, 0.8210676383474831, -0.19739481087111685]
[-1.1200880248594174, 0.2689026968244893, -1.1200880248594174];[0.3786845948142944, 0.6004401242970868, 0.7470040825922829];[-1.1200880248594174, 0.5887045318301786, -1.1200880248594174]
[0.46501253494315586, -0.1893411712954732, 0.9467058564773659];[0.7761138460321761, 0.4263423025027572, 0.6058545978937143];[0.36638665687787675, 0.33692172231928774, 0.692670338616166]
[0.9832319494628244, -0.19292780094685072, 0.9787294897566521];[0.8665045900586504, 0.9646390047342536, -0.19292780094685072];[0.34878155666521526, 0.3107033052887308, 0.09168973785758983]
[0.9810927214325973, -0.09173596214970865, 0.5982618525344534];[-0.09173596214970865, 0.9943532709769197, -0.09173596214970865];[0.43275407298801716, 0.16455552444456822, 0.45867981074854325]
[0.6019522471242352, -1.1654110087716376, 0.923765285475349];[-1.1565636121416605, 0.38777293295000514, -1.1656022740899357];[0.8396022783732796, 0.27611289959818563, 0.8280191855270951]
[0.08568488722645273, 0.46710612333639356, -0.12913185862231094];[0.6456592931115547, 0.4495075710520916, 0.2901126252631713];[-0.12913185862231094, 0.5277574787611228, 0.7340919212911908]
[0.9956049505230319, 0.9387930290021551, 0.7486927504305584];[0.8503769834882623, 0.3698497326898905, 0.6176241480212333];[0.9289111990146226, 0.726065474280695, 0.41925423471333256]
[0.8316808381585178, 0.5775575020479065, -0.08584918895262204];[-0.08584918895262204, 0.07716924478827891, 0.08783951225151287];[-0.08584918895262204, 0.4292459447631102, 0.38229891793849347]
[0.28073742914889144, 0.5391853415677376, -1.0079488614142729];[-1.0080293210747249, 0.42567700302190725, 0.13815272391183353];[-1.0477187713524252, 0.03970092616302556, 0.9060439522005446]
[-0.14669398539981657, 0.42047665274615165, 0.7334699269990828];[0.3429244658894325, 0.3796572208108735, 0.3582225515734072];[0.6920858172733132, 0.04221488167575882, 0.4705344938944135]
[-0.1831657620416908, 0.1707778651589491, 0.08825087941999499];[-0.1831657620416908, 0.915828810208454, 0.33713640379841325];[0.2713649671703908, 0.6102437753108354, 0.011690634358137109]
[-0.09661349691898095, 0.30728814666934645, 0.1589748968389051];[-0.09661402362870633, 0.11740938120834088, 0.4830701181435316];[0.02518574518719352, -0.09661402362870633, 0.41926212430288134]
[0.9471998173030591, 0.47233451935196147, 0.618203054079055];[0.990307639665137, 0.35086593213191275, 0.8942663486870729];[0.5976988246903426, 0.6204918444568316, 0.44280493570200763]
[-0.030666958832135438, 0.7820259018596439, 0.5521664647700428];[-0.030666958832135438, 0.1533347941606772, -0.030666958832135438];[0.09584332381936811, -0.030666958832135438, 0.43626030909606595]
[0.05741913529599796, 0.7859848158976999, 0.320813914583023];[0.779612014167188, 0.18457165206968162, 0.05403398365819101];[0.9225283688607057, 0.06099915283331092, 0.18847372147521846]
[0.752332770125455, -0.1977782652492953, 0.1569909250981597];[0.28325230332316154, 0.3752725883776892, 0.09707419334959533];[-0.1977782652492953, 0.9888913262464764, 0.4929664619097197]
[0.9627513451633807, -0.19254851651945187, -0.19248494392142465];[0.7379272184302185, 0.1638024515330163, 0.8977988834907601];[-0.19250725362824345, 0.6666819566947508, 0.13582214598722786]
[0.398137343777727, 0.8934185181544775, 0.9559476406044379];[0.9467859347142116, 0.40200727682376947, 0.8233084906537115];[0.6869389043180637, 0.9143810938172227, 0.8735791952045722]
[0.29731585752861844, -0.05580254873757802, -0.05580254866524382];[0.2350123471342146, 0.2790127436878901, -0.05580254873757802];[-0.05580254873757802, 0.43267285891712304, 0.6006328613092856]
[0.7978583230110068, -1.0866484709336237, -1.076935563773762];[0.023515211223745003, 0.4386172216419132, -1.0728124212403138];[-1.0828616301468525, 0.06993032211706063, 0.3555443971114307]
[-0.09959715004179395, 0.19588914849175887, 0.2194587542028491];[-0.09959715004179395, 0.8904765231059083, 0.0701348420821627];[0.4429752843066419, 0.5988134216676838, 0.49798575020896974]
[-0.09394316322743639, 0.33342423719963366, -0.09396196399401331];[-0.09396196399401331, 0.4872546320342592, 0.2849546498514496];[0.07445047233963054, 0.03694615009961055, 0.46980981997006654]
[-1.093877062162727, 0.19150536960257947, -1.0906627866958956];[-1.074892222873593, 0.7737048115522275, 0.5089487990749407];[0.589115973655064, 0.8831549466243575, 0.3389598867445943]
[0.5449094469587095, 0.16231888820461293, 0.11770906916785295];[0.02723871776173359, -0.15617497590673873, 0.13633031979581844];[0.2577508058339809, 0.7808748795336936, 0.22519510818242117]
[0.5045209683006718, 0.49898613390332003, -0.1722066194116193];[0.5835165754615905, -0.1722066194116193, 0.1340756072059055];[0.8610330970580964, 0.7953024900961876, 0.7276797257849191]
[0.2126843813001974, -0.14967117821622705, -0.14967117863028032];[0.27443681923281615, -0.1496343928401836, 0.7483558931514279];[0.11375664662269769, 0.27707825732915337, 0.6760862560969229]
[0.04984023617720279, 0.4739557831929099, 0.1332595969844318];[0.4153980661856814, 0.6805474889255506, 0.8142102139122542];[0.5318159730170368, 0.8955811094748473, 0.6938940206598755]
[0.6595369074489031, -0.1441885137093402, -0.1654897880005308];[0.14944065384976302, -0.16548978203950582, -0.16548978802428727];[0.8274489401214362, 0.9931443555172368, 0.857244129210276]
[0.4340293130458529, -1.0171132729633203, -1.0453642772000893];[0.6844481324427093, -1.0453642520275115, -1.0453642772398666];[0.2268213861993329, 0.28914940527154775, 0.8784859192444953]
[0.6660417011529799, -0.16576956602303328, 0.7128406514772242];[0.3110440844953811, 0.328991341063807, 0.10697231824987874];[-0.16576956602303328, 0.8288478301151664, 0.8227619863850226]
[0.8097325627326406, 0.24161199883843898, 0.06364705606479715];[0.9086830430093241, 0.5224923755989554, 0.21736185858157187];[0.9469911247784748, 0.6867760322774477, 0.0945804170438923]
[0.4882694820176672, -0.16103747126760976, 0.6100127111603948];[0.0949843119074898, -0.16103747126760976, 0.3888874748904202];[-0.16103529594002272, 0.6546660846551036, 0.8051873563380487]
[0.4501692498545732, -0.009263622449028631, 0.1597279462108352];[0.9669772476140318, -0.009263622449028631, 0.04631811224514315];[-0.009263622449028631, 0.33560210839161475, -0.009263622449028631]
[0.6933861450374356, -0.12677416318374718, 0.8053241385319393];[0.530792186626317, -0.1674743619554239, 0.6417973224582949];[-0.12912039811024487, 0.851922812372136, -0.1200241115948322]
[0.6933101057656682, 0.496783450929971, 0.23856869841374873];[-0.14860217193335176, -0.14860217193335176, 0.7430108596667587];[0.08879118781080353, 0.6615314246011164, 0.19698117623717737]
[0.8116229301292375, 0.3173672201301093, 0.21865510956778267];[0.8481784160508643, 0.5785903226599317, 0.5637652074071063];[0.06780176949818828, 0.5127769512523894, 0.8906706375417743]
[0.315744358514482, 0.20982836440501484, 0.9305647345418613];[-0.1805073396502017, -0.18611294690837227, 0.5481692243475836];[0.5674363598041282, 0.7857403391565851, -0.18611294690837227]
[0.8108174987889682, 0.6335469755281861, 0.5127622223847714];[-0.7611331732136367, -1.1191657083967539, 0.658249096623078];[0.5350298974551972, 0.1800339791049238, -1.1194623407605484]
[0.28529489390603635, 0.4171865156029102, 0.43264756809405824];[-0.18360482136094874, 0.5816690275559306, 0.9180241068047437];[0.7474128234039127, -0.1836048213609478, 0.6895509901930804]
[0.9072221391066169, 0.8571960625535119, 0.9890942792584597];[-0.19781885585169195, -0.19781885585169195, 0.5744311165149696];[0.44091604459665446, -0.19781885585169195, 0.5703019477478906]
[0.793790162178564, 0.29930285471019824, 0.5624477872655002];[-1.1222017147676768, -1.1584163481522145, 0.08575127157719509];[0.4210049606263898, -1.112491249368401, 0.38886066187857593]
[-0.19489383115267667, 0.934782079204925, -0.19489383115267667];[0.25056317520217686, 0.6454786431818443, 0.9133196064457972];[0.7762222377264841, 0.2750961585889228, 0.9744691557633833]
[-0.07935135342313351, 0.2684651716655446, -0.07935135342313274];[0.39675676711566754, 0.15917715694985912, -0.07935135342313351];[0.5348801754627358, -0.07935135342313351, 0.13987218919108502]
[-0.16910852641026888, 0.5447717509107574, -0.12393633505204504];[0.7589179290413821, 0.5932187817611576, -0.19006143278758053];[0.9534459126598203, -0.14343999915291522, 0.9623880418370931]
[0.33823795690386715, 0.1340557501747235, -0.17649896778285198];[0.8279041729537473, -0.17649896778285198, 0.44934408369540113];[0.14989785753057672, 0.8824948389142598, -0.17649896778285198]
[0.5508083618675141, 0.03320899606162475, -0.061111210154741503];[-0.061111210154741503, -0.061111210154741503, 0.8575476246037872];[0.6520558699494353, 0.3055560507737075, -0.061111210154741503]
[0.7169615702366292, 0.9959539679422929, -0.018130970234937205];[-0.013416342494448428, -0.015397341288329812, 0.10396009806856643];[0.09955632090414224, 0.06687113116301358, -0.15522324704732832]
[0.5027856476945587, -0.15562659083184638, 0.3415866713003305];[0.6366276246712937, 0.2810285946574871, 0.8091952508064701];[0.5575841626984374, 0.39940320173488664, 0.7781329541592319]
[0.17543745696331747, -0.18290934863147612, 0.33404671855920465];[-0.18290934863147612, 0.9145467431573806, 0.948025286020003];[0.7091605397762337, 0.3039400400582857, 0.5822355599864091]
[0.4904314884333184, -0.11131280258613097, 0.5565640129306548];[-0.11131274500822565, 0.09335540237139706, 0.06501540565220487];[-0.11131280258613097, 0.9042951193102312, 0.45177353068633797]
[0.005853806736373035, -0.0447567516035152, 0.9953219769569431];[-0.0447567516035152, 0.223783758017576, 0.4861830944302833];[-0.0447567516035152, 0.5926755252751791, -0.0447567516035152]
[0.4766258617013811, -0.09241936310948207, 0.2938715860967053];[-0.050817178003293786, 0.8526878792389879, 0.1528323334708115];[-0.08764237477799414, 0.46508577136344464, -0.13321229101157223]
[0.1765930212796888, -0.19531408460496402, 0.764912325193494];[0.25836025631733794, 0.97657042302482, 0.12659016488192187];[0.036301515136260454, 0.5951731416556566, -0.19531408460496402]
[0.6508650390112901, -0.14589023852040856, 0.3260983694710222];[0.44593709461614495, 0.6911414290583845, 0.7294511926020427];[-0.14589023852040772, 0.49442329274641206, -0.14589023852040856]
[0.18664568506125112, 0.635182395189082, 0.8185575988097472];[0.8572579280791629, 0.6667479531918481, 0.5257305565056276];[0.6651283773622977, 0.24601792490501118, 0.2319676212978451]
[0.8199577506111952, 0.3199616466412615, 0.3680830021843561];[0.26222414101673575, 0.04863717215952956, 0.1490276167428054];[0.19565536742572143, 0.7339382597525917, 0.7601324466047754]
[-0.09551618188947456, 0.4119203469903706, 9.795000570007595E-4];[0.18324044772390968, 0.04321401219157017, -0.09551618188947456];[0.47758090944737275, -0.09551618188947456, 0.2532951937189838]
[-0.047420514208822456, 0.3154142879336792, 0.3499522902816514];[0.23710257104411225, 0.4235437477645131, -0.047419073874228494];[-0.047420514208822456, -0.047420514208822456, 0.2811071244792357]
[-0.1869425625923155, 0.264195800056513, 0.043805544197219715];[0.16257055100016948, 0.9496315742748066, -0.05993009057388085];[-0.18730481801157942, -0.14725215459230717, 0.22996837482220656]
[0.21053432347683043, 0.7536880552836016, 0.05433847192367158];[0.05964341781793181, -0.15073761105672034, 0.2799773773505797];[-0.15073761105672034, 0.6909017220910175, 0.4650545636835399]
[0.28588488214000607, -0.10432113318145153, 0.5216056659072577];[0.16878940943098786, -0.10432110347418307, 0.011313597564923117];[-0.10359863596153356, 0.2605357137964638, 0.3635601235177651]
[0.11856032985320786, -0.18861421781191898, 0.9430710890595948];[-0.18861421781191898, -0.18861421779736265, 0.8728287425406699];[-0.1886142163557999, 0.8886906979484764, 0.7674071705972472]
[0.253666397415351, -1.0560306171889917, 0.9124921157498139];[-1.1604777852173922, -1.1086078322981678, 0.18572259297328908];[-1.109551742494818, 0.05621427439863147, 0.5455594510989754]
[0.7162798250812653, 0.12991631578438478, 0.5760201215258904];[0.46454143243960555, 0.49059334225109896, 0.08490820515198971];[-0.1152040243051781, -0.1152040243051781, 0.5330577315949039]
[0.37147846983953126, 0.9589531031343992, -0.17720492873307075];[0.22909234684141488, 0.8860246436653537, 0.5802232010571295];[-0.17720492873307075, -0.17720492873307075, 0.3329541990318843]
[0.757634790539946, 0.23308472558525417, 0.009680240045642496];[0.8533899657171765, 0.13961872477409898, 0.8900923191119725];[0.6118103196971997, 0.09949800234808759, 0.24030870802307946]
[0.635459453642936, 0.18077220955676987, 0.19282283932440392];[0.8406430639392903, -0.16812861278785807, -0.16812861278785807];[0.05677315439880537, 0.4999525375953974, 0.25985874933869135]
[0.6422816541577868, 0.0714082244767339, 0.9994757074357747];[0.7872875334401573, 0.46782953667607863, 0.8629337821281609];[0.7863141406894345, 0.6838673143943654, 0.3561991930917745]
[0.3108234791663891, 0.3896592906834708, -0.1372876454516343];[0.5317303628223055, -0.1372876454516343, -0.1372876454516343];[0.6919919779395826, 0.20073865441619587, 0.6864382272581715]
[0.34339212980842027, 0.885710434173757, 0.8397028806569911];[0.9310883008985464, 0.3155064954556116, 0.904214184446814];[0.0625813147513341, 0.7579694454772806, 0.44736426535480767]
[0.4639548439674954, -0.1401491824964279, 0.23723625760145373];[0.6106477428145963, 0.7007459124821396, -0.1401491824964279];[0.40747303680256974, 0.2901683522109346, 0.284470633418086]
[0.9444755640567994, -0.14173961564093565, 0.7087070757221269];[0.056270763739924456, 0.05363998114911983, -0.1417414151443701];[-0.14174141514442537, 0.5352928000357982, 0.23152481582990803]
[0.9932452690694341, -0.1128457710952794, 0.1469508181655108];[0.8027518204538033, -0.1128457710952794, -0.1128457710952794];[-0.1128457710952794, 0.564228855476397, 0.7388272088422748]
[0.06679103198886449, -0.01925035480695212, 0.47263375961213805];[0.16082705757365767, -0.11019892114602756, -0.055186222301996525];[-0.11134205733131397, 0.9564725663551704, 0.0967352065074687]
[0.45347269018196146, 0.8265887558792654, 0.5957249605344378];[0.1691736203058879, 0.8348918770791394, 0.49593966559793756];[0.03567260708928843, 0.9442385204834932, 0.3264453452663374]
[0.7836631421328142, 0.8456486564576889, 0.8953449997646314];[0.23847136525504897, -0.1790689999529263, 0.0034960317705871047];[0.7350998965948997, -0.17906835552631378, 0.22445268923704143]
[0.7837867542235378, 0.9916370787995936, 0.04180329133082872];[0.8646214888453843, 0.947723255575155, 0.2584668236037517];[0.2934334924256662, 0.9352378448267573, 0.442652320308612]
[-0.12445612915560167, 0.9773290095129638, 0.03942223816850454];[0.01144787285759652, 0.09080266787907532, -0.12445612915560167];[0.6271129080229745, 0.5388908481920246, 0.6222806457780083]
[0.535346277985971, 0.799746440038058, 0.552852070212567];[0.37494402076947386, 0.08793072528644574, 0.04823949297355168];[0.53745582545794, 0.47498279750412, 0.5557270770919316]
[-0.15888471852715277, 0.5327277370834498, 0.5862799307241175];[0.31282053605862026, 0.7944235926357638, -0.1588632676389476];[0.5899307713854941, 0.8990419441228581, -0.15888471852715277]
[-0.13195931643601305, 0.8680837104954505, 0.39321376356243154];[-0.13195931643601305, 0.6597965821800652, -0.13195931643601305];[0.9353725586061808, 0.10043195650285197, -0.13195931643601305]
[-1.183742881599061, 0.6600832166453442, 0.6931129995377683];[-1.183742881599061, 0.9187144079953048, -1.183742881599061];[0.511009228745687, 0.06022488355678446, -1.183742881599061]
[0.47395849347759167, 0.6283201320484485, 0.28929956481349695];[-1.1338491034984692, 0.9279034316906274, 0.5584735921025934];[-1.1855806863381255, 0.768674549213111, -1.1817717075839709]
[0.8128541324269345, 0.33126198776770355, 0.5096382743851723];[-0.1625708264853869, -0.1625708264853869, 0.03621791762770121];[0.6225697680635989, 0.37487898080344384, 0.3052895871669812]
[-0.1389633731014513, 0.6786710119667236, 0.14841046839197358];[-0.13896337311085655, -0.13896337311085655, 0.6948168655542827];[0.3664015802197398, 0.22061640223095114, 0.4088163771933928]
[0.866018488737279, 0.8185519901097769, 0.34543772776668114];[0.39305353637003726, 0.38646133300612673, 0.5763974927420528];[0.0730942342332973, 0.15905524520746117, 0.5887622158306643]
[0.8339256897530449, 0.8614104898642906, 0.3580422711976614];[0.4406607041898286, 0.8933568845202179, 0.8532988794206566];[0.9765060701752682, 0.9041801261604432, 0.8210297900597071]
[0.33389978232148343, 0.552122887509491, 0.7843640775173313];[0.6073460874482329, 0.7338918779573429, 0.9333433209982284];[0.4730142054860149, -0.18666866419964567, 0.03215266228070701]
[0.30717514659740464, 0.4274258093595956, 0.3523194495556934];[0.5486444010352218, 0.17768513867828117, 0.3149379075268818];[0.6779965556722507, 0.4123460208293974, 0.3420029105061989]
[0.5011844935070687, 0.1146990931881231, 0.4392468347789492];[0.6811187379536043, 0.9632546190157788, 0.7013178046481257];[-0.15370771082616538, -0.15370771082616538, 0.7685385541308268]
[0.9869769952258369, 0.31443528492774764, 0.8107494641381741];[0.9758581611845856, 0.48091308388060905, 0.19690359751125253];[0.8055389924610696, 0.839997030351402, 0.8974738485726509]
[-0.10659090261888463, 0.6515551263554267, -0.10659090314645206];[0.02070168005269002, 0.5329545157322616, 0.026952479767082593];[0.36060481695320357, -0.10659090314645232, 0.33597000303076585]
[0.2548266956397629, 0.9143019904900793, 0.5162514273345977];[0.7976602435461262, 0.3689605560358141, 0.9511701192065904];[0.35484252944112804, 0.28021670631995443, 0.2384767879304719]
[-0.08003283478606758, 0.810754244247137, -0.08003283478606758];[0.6974237632514914, 0.4001641739303379, -0.08003283478606758];[0.2218213873363487, -0.08003283478606758, 0.3212498185249205]
[0.7429084339383396, 0.26461773073438866, 0.6117736049981395];[0.5239857834983627, 0.9983250508496536, 0.8399245016512799];[0.37284528883482504, 0.5172011899714514, 0.12498891550959246]
[-0.09867004321057844, 0.3604915919427717, 0.8262252503455206];[0.4933502160528922, -0.09867004321057844, 0.18704522361569076];[0.11590707902793929, 0.3393866918631451, 0.396926415252586]
[0.8425964525045793, 0.6050908823583975, 0.27828027148205237];[0.8854540309922361, 0.8852901473739435, 0.5568785345569229];[0.7918989079716677, 0.08913511755817127, 0.8262599949374968]
[0.1885823730027577, 0.19048087523595814, 0.2796537310300805];[0.9417446181530083, -1.0830802047394075, -1.0830802164535271];[0.41540110736932057, 0.6573355452770405, 0.8794417614221539]
[0.47447810925284806, 0.46856976307376375, 0.9350936534245842];[-0.19954599781939347, 0.024729017123478858, 0.31151006632210254];[-0.19954599781939347, 0.44191356063599774, 0.9977299890969673]
[0.3329116848750483, 0.5286712507681286, 0.4293994359291007];[0.3234134090469526, 0.9983182596715482, 0.9054861357030841];[0.21234530296397813, 8.831756940415048E-4, 0.7696784339039224]
[0.21639964905544684, 0.536213998550368, 0.11327857993974244];[-0.059910010535093865, -0.059910010535093865, 0.16565954691274565];[-0.059910010535093865, 0.17252511021755523, 0.2995500526754693]
[0.22015923842023322, 0.8824565748944443, 0.18049427263561613];[-1.1361828693978153, -1.135285940392231, 0.674606015765687];[-1.1028125227581413, 0.4236966786947868, 0.7523966378057593]
[0.6977356766821775, 0.06096074732196599, 0.036349354012072066];[0.7096842607151572, 0.94313374085642, -0.18543160123687794];[0.6511320410620036, 0.9271580061959235, 0.3269788554109103]
[0.6156451038075573, 0.6373254311474955, -0.15207782114289475];[-0.15207782114287965, 0.4121365583954738, -0.15207782114086565];[0.7603891057144737, 0.12454264143343685, 0.13781613949474203]
[-0.14040543760864396, 0.7657164582248092, -0.14040543760864396];[-0.14040543760864396, 0.5876027203365456, -0.14040543760864396];[0.1679777791309689, 0.7020271880432198, 0.9946685445350619]
[-1.0994120491568753, 0.061104873787361846, -1.0994120491568753];[-1.0994120491568753, 0.6548422512016069, -1.0994120491568753];[0.6566593008793424, 0.4970602457843766, 0.8645726036686938]
[0.6672674951650305, 0.3434572527133606, 0.8025218470585982];[0.9991772561017331, -0.19983545122034663, 0.0713595421483636];[-0.19983545122034663, 0.404875550649866, 0.24283244436184614]
[0.24586006225761148, 0.01720662525858596, 0.7601119888504385];[0.13165837887323228, -1.0263671956284677, 0.3767983322598669];[-1.0641091339850506, 0.6629089371677082, 0.664284396726726]
[-0.11518474992509631, 0.444588373630028, 0.2698945293973598];[0.9410270762704642, 0.13785758138961468, -0.11518474992509631];[0.7469025438707793, 0.5759237496254815, 0.4915577542135411]
[-0.08343255757119308, 0.2873498584891284, -0.08343446002049075];[0.2775135648801529, 0.9732674288196392, -0.08343446010806398];[0.3732239490095779, 0.4171723005447827, 0.3579499563687122]
[0.06666835887165612, 0.8295653430102238, 0.8333336817234321];[0.8427730743424838, 0.9365208917252443, 0.8333333333620596];[0.7414401961727561, 0.14762234212083436, 0.8139635633140213]
[0.5726332518892968, 0.5479909068699969, 0.6761212832020658];[0.6903923970442236, -0.1997311310530451, 0.6617889183632599];[0.9986556552652255, -0.1997311310530451, 0.135426239965049]
[0.024434002667084176, 0.01711173912213637, 0.28940400152267254];[0.7881748957079903, -0.1045434417320193, 0.17769232719004646];[0.5227172086600964, -0.1045434417320193, -0.1045434417320193]
[0.2827439965946562, 0.6931474858843139, 0.9281503946119226];[0.675222672777088, -1.0158050508600729, 0.04752614763549523];[0.07902525430036456, -1.0158050508600729, -1.0158050508600729]
[-0.17230128670433614, 0.6737013055670396, 0.9552341410065085];[0.6840741567300459, 0.3400754417893974, 0.8615064451066416];[-0.17230128902132835, -0.17230128902132835, 0.1954008584491208]
[-1.0029802819672233, 0.01059353860784884, 0.45912792945524195];[0.7893543479155253, 0.5080698097645051, 0.0054780153301218215];[-1.0020478633064394, -1.0020483998740013, 0.48400588772780817]
[0.8486048911008657, 0.39975054272451715, 0.31926140347117804];[0.7039689360331076, 0.18872278935842313, 0.8188967973132997];[0.1302400501876746, -0.16972097822017315, 0.3121901533522293]
[0.17751530648447034, 0.3127807318237793, 0.0661688130047361];[0.20619847355152887, 0.2311162787794453, 0.35326063488542214];[0.3061273349976219, 0.3996798991015681, 0.5969186093416126]
[0.11165864501852663, 0.781763020595663, 0.8884478887064375];[0.6914973577156133, 0.5896206546693424, 0.27243883538223956];[0.034128203995808515, -0.17768957774128752, -0.17768957774128752]
[0.22472360035007644, 0.3156947250868738, 0.45271694494696746];[0.9101952884557285, 0.5219759404014002, 0.20793256846168318];[0.7746424054024543, 0.4691004567057093, 0.07051447949832679]
[0.26290903658337883, 0.23517231899908553, 0.5796458971561808];[0.732312585361726, -0.11592917943123615, 0.21973044860252566];[0.574690420012731, -0.04446654573185241, -0.11592917943123615]
[0.9191247540901831, 0.6186883462679057, 0.9349509548480747];[0.6410222452966237, 0.14728679030808745, 0.9200479366261776];[0.7588801235385111, 0.2661153167020911, 0.16146442471807132]
[0.4828773846590113, 0.4756687428044335, 0.05329643775407955];[0.5055292099704742, -0.09656455953577354, -0.09657547693180227];[0.41423469698658455, -0.09657547693180227, -0.09657547693180227]
[0.3848393471264566, 0.5397806036835825, 0.4337325518638482];[0.027799182017590574, -1.0769392678674277, -1.0769678694252913];[0.9112019381251384, -1.0769678694252913, -1.0769678694252913]
[0.04925699555845864, 0.4713096031519557, 0.5543216356519483];[0.2756056105785636, 0.5993695883206596, 0.5017370924453974];[0.9495015078280863, 0.350995675657909, 0.6927296516855607]
[0.44737264424244283, 0.7307297893183674, 0.5330817051775493];[0.7360856241541728, 0.3353151985858779, 0.16458107619312423];[0.6048390922058438, -0.14721712483083457, -0.14721712483083457]
[0.6698812191415343, 0.5657755958164651, 0.5755140280021698];[0.307389316733752, 0.1921818375938571, 0.043803347677307536];[0.5801306651959902, 0.986889851559538, 0.2645645809993826]
[0.7761387241212806, -0.12994064075795822, 0.30143466507351857];[0.6497032037897911, 0.14229313909825902, 0.1834134414156422];[0.08047937328642363, -0.12994064075795822, -0.12994064075795822]
[0.7907398408545541, -1.0338504928683936, 0.6189501656594638];[0.4844168858626764, 0.8875645487928565, 0.5278156013903822];[0.16668050701674098, -1.0968726937206188, -1.09688337715277]
[0.7262698432463159, 0.3351716656709218, 0.05099410666414128];[0.7869865715040673, 0.7589541482919696, 0.8327060337125318];[0.3583791896848276, 0.7300349150763997, 0.8244307091687488]
[0.012146114555274146, 0.07278585061401555, 0.2890434969424448];[0.2148700995908127, 0.8624409965571134, 0.30255162694844506];[-0.17248819931142267, 0.5337699529244834, -0.17248819931142267]
[-0.19738887224976226, 0.13374171808361057, 0.7972615333138581];[0.4212269571450219, 0.9869443613868649, 0.41618813311795166];[-0.19738859963219652, 0.05521065022109628, -0.197388872277373]
[0.999653679881233, 0.6550836001581315, 0.3335613800960233];[0.6304152519236258, 0.03712608554790198, 0.03906537484177075];[0.0875641240166789, 0.15139461292398004, 0.3718654146284366]
[-0.11954587577180452, 0.07331389743230987, -0.11954587577180452];[0.5552057053527317, 0.5824207244347606, 0.3282000631457167];[0.012673338230693831, 0.5977293788590226, 0.01169898149520443]
[0.36850558293476066, 0.634693284567697, 0.6861445338450013];[0.25819061427916734, 0.45117439389073066, 0.9417192023165876];[0.3062035461517899, 0.7283558379513755, 0.40893240783971774]
[-0.17977113922660187, 0.8262586457739469, -0.17977113922660196];[0.7603310030555831, 0.006216067035137884, -0.17977113922660196];[0.8988556961330098, 0.8949141870734693, 0.3172997639631103]
[-1.0902480557533603, 0.6435884761069265, -1.0854885503425744];[0.9912757628747673, 0.8122323371846956, -1.19360974417141];[0.41545032894691936, 0.9833829002830927, 0.8161614716720733]
[0.884897983456823, 0.039556976934564836, 0.9855786709209844];[0.4056182930548302, 0.5770547288331859, -1.0883255689476665];[0.11965069604166934, -1.0811819812864178, 0.7453954735866517]
[-0.12571455772476978, 0.834518725012988, 0.7695604799168035];[0.34202290981129946, 0.09061272328003411, -0.12571455772476978];[-0.12571455772476978, 0.6285727886238488, 0.4791760347033075]
[-0.09112099645422825, 0.7613447813233185, 0.9494050324571565];[0.3973563870992186, 0.5697893911707337, -0.09112099645422825];[-0.09112099645422825, -0.09112099645422825, 0.4556049822711412]
[0.014962663269698084, 0.4585916214555783, 0.41754785417963847];[0.7577234800535195, -0.16747389690676298, 0.3629043276961016];[0.8414696649099255, -0.16824620874536722, 0.8274302874328832]
[-0.01296868342651183, 0.06484341713255914, -0.012968683426511817];[0.856654198479979, -0.012968683105726386, 0.1630790773600913];[0.9677457766887582, -0.01296868342651183, 0.722966966699697]
[-0.1691552930367107, 0.2910275487861502, 0.252697093438901];[0.6594201209333377, -0.1691552930367107, 0.07002452266484416];[0.7646544765725031, 0.18498156060681048, 0.8457764651835534]
[0.13445956567400308, 0.8609893676035993, 0.12490964700885088];[0.2621814394529344, 0.5308396847601616, 0.3578370095058131];[0.19207610233834338, 0.06042136739071424, 0.41087058060887294]
[0.8529954089127999, 0.7611176195572504, 0.269175902411002];[0.8605726684343369, 0.8332356873795393, 0.24461983647288676];[0.2211924796619923, 0.14827854706574262, 0.9672356535910698]
[0.5363306030539664, 0.6537909757978204, 0.007386979642033387];[0.765426853868117, 0.07721870165181732, 0.6930251352154675];[0.8636943062158098, 0.7178683408112023, 0.8472652065207091]
[0.9152563667673943, -0.18305127264273, 0.3867744114721222];[0.9891948990073289, 0.5285292513471235, 0.1956794664061926];[-0.18305127335347887, 0.8299248711311275, 0.47102006063372626]
[0.8566851237442399, 0.12411165518106082, 0.7813287689694385];[0.8849634214565879, 0.14023677210026175, 0.33821390703495835];[0.9739845316198992, 0.9918436622683358, 0.9413390869740976]
[0.28057602160221184, 0.029585417053114182, 0.8682719360268725];[0.4095642663535157, 0.6489202948618122, 0.8727344117980099];[-0.1745467886143458, -0.174546882359602, 0.0355913492392661]
[0.48701804748353084, -1.0388017242348075, 0.6832044503170794];[0.046909114909736704, 0.19061396488252536, 0.35681388058302976];[-1.0640059995849862, -1.0713191024763422, 0.31839709106536884]
[-0.15908005356106847, 0.7711197959978062, -0.15908005356106847];[-0.15908005356106847, 0.4639485327962931, 0.527852218167038];[0.18708875220176613, 0.7954002678053423, 0.3798395367755719]
[-0.19771814370302462, 0.6769022813829871, 0.3318534141012376];[0.3565163496693389, 0.3909943438172473, 0.3414330489750316];[0.988590718515123, 0.3762523764950165, 0.04991189745776359]
[0.43093195770876136, 0.9845350499118684, 0.9864983847684863];[0.6359997569478998, 0.44110173390199514, 0.9156970344750263];[0.7186905873833661, 0.8880849753930729, 0.8830004432439909]
[-0.1452730801481391, 0.34863120816009197, -0.1452730801481391];[0.15924260584808658, 0.5190655010368094, 0.8689558297166621];[0.35726060609681554, 0.24367179808382833, 0.7263654007406956]
[0.2990841184777643, 0.1458153075188512, 0.9446867175844366];[0.9056246873240072, 0.6191835437011391, 0.1502395067118404];[0.02166046797655341, 0.137107017032277, 0.18205832387117926]
[-0.16257932714440926, 0.3194003658026837, -0.16257932714440926];[-0.16257932714440926, 0.8128966357220463, 0.38735382257572826];[0.4755040432880502, 0.6275898871840719, 0.2533595356454267]
[-0.03506233850598114, 0.46256253257050783, -0.03506233881332477];[-0.03506233881333565, 0.17531169406667824, 0.9875691193318292];[0.1338375489808551, -0.03506233881333565, 0.5770253645339074]
[0.39518556460835264, 0.44742879741140873, 0.824899126414187];[0.576524263548714, 0.7749919415838681, 0.297136545766605];[0.12057001487540975, 0.5040105551671247, 0.7655023914941685]
[0.1502929137993424, 0.9826873888740917, 0.8212095866751584];[0.4502954098744988, -0.1565869141108105, -0.1558296444816477];[0.8617030395863879, 0.7829345705540525, -0.1565869141108105]
[0.48291470714273166, 0.40293165144717713, 0.41192593513948217];[0.5420487088129244, -1.0847531313558252, -1.0868338449672303];[0.8677791612159568, 0.42376565677912614, -1.0847531313558252]
[0.644820818457021, 0.8213088292984096, 0.46205089166617996];[0.8368362252824756, 0.14262800657448405, 0.5256336177102203];[0.5022234438369465, 0.5646575974946999, 0.6586773502121648]
[0.6139005815112948, 0.022853089499923707, -0.1995479059317325];[0.1159220618367911, 0.1405829016734289, 0.13132394581991058];[0.6609927484389753, 0.9977395296586624, -0.1995479059317325]
[-0.13113824954118833, 0.8225348282555396, -0.13113824954118833];[0.8941801774038429, 0.4465460710633117, 0.6556912477059417];[0.5538975886252633, 0.17123094950244966, -0.13113824954118833]
[0.8429033037745577, 0.14354098202524013, 0.26725200920708636];[0.8658528213395412, 0.9148439242478874, 0.5001347600420959];[0.6430844331617567, 0.5083233959900127, 0.898196178171968]
[0.3456199065803366, 0.8315596694494967, 0.8669559436810783];[-0.1969913605173519, 0.328976473489788, 0.9849568025867593];[0.5164639393081326, -0.1969913605173519, 0.8596102609993759]
[0.28834763322002044, 0.7189872534158609, 0.5376012261251263];[0.2877292985054698, 0.10030997078872306, 0.36270688292921216];[0.9078844134787654, 0.963844958336768, 0.960810473337283]
[0.9068579152604885, 0.7587880970428222, 0.7612904689370186];[-0.19582701440719152, 0.5327562507619842, 0.9791350720359576];[0.10365756171946428, -0.19582701440718153, -0.19582701440719152]
[0.8013597751720057, 0.40330964492605237, -0.017527577784022252];[-0.017527577784022252, 0.035687998651441344, 0.08763788892011126];[0.3937703128792115, -0.017527577784022252, -0.017527577784022252]
[0.06648393207554626, 0.8078710865864082, -0.1487081115036899];[-0.13643678975283233, 0.5771616758623869, 0.5880927252368235];[0.7062429585651757, -0.1481311482016648, -0.11557041307364233]
[0.9242678923377488, 0.4448714776370203, 0.3829920054516348];[0.7949753689058113, 0.8406038429506779, 0.060899023167210964];[0.3221115958101035, 0.6942760849633434, 0.06573729224732694]
[-0.16921934978082503, 0.7044309247306092, 0.6286172535930609];[0.8505861702818902, -0.16921934978082503, 0.6426155679210304];[0.6856712435655219, 0.24782248732106893, 0.8460967489041251]
[0.8834399432570557, 0.5544564292913309, 0.5201114606787801];[0.8590858508874812, 0.17591348995739076, 0.5187991323299121];[0.15383167722188384, 0.4843761835870285, 0.9840997910968976]
[0.9108744159559583, 0.42081184423835527, 0.4099960079270606];[0.02866839305354618, 0.9046130677606816, 0.5526896929402686];[0.44762525674088605, 0.966413604873741, 0.8333333253297043]
[0.8614931748615668, 0.17299732694042247, 0.498420446400595];[0.8342452024490495, 0.6492234038477559, 0.13022473803446566];[0.8408930719309432, 0.4415471420880088, 0.5789055666714416]
[0.16392171438435066, 0.7414841271250286, 0.813635138347095];[0.4489126250972496, 0.38538020510983595, -0.08978252501944993];[0.338058143138498, -0.08978252501944993, 0.12768796771801827]
[-0.19991210764263945, 0.28037892070143877, 0.46913752490268223];[0.9995605382131979, -0.19991210764263959, -0.19991210764263959];[0.29907902134536857, -0.19991210764263959, 0.4551999952445088]
[0.5748105803740611, 0.37895398199055497, 0.693609044480684];[0.21476752052086623, 0.8668991274820784, 0.31057987364086903];[-0.1733798254964157, 0.8338333985650365, 0.3242455895407844]
[0.3994278406017331, 0.013808128058190317, 0.2317589112550522];[0.8336476152605992, -0.16672952305211985, 0.2745362693911376];[-0.16672952305211985, 0.10452707370402148, 0.5465596548970868]
[0.7261786792793355, 0.13450333088232336, 0.8044754708888433];[0.986062420332733, 0.965644224433733, 0.23875944239354174];[0.9114322862906235, 0.04883098190405999, 0.5772958068857696]
[0.8381267644896819, 0.06329924893105665, 0.2469314783035823];[0.9305102715692792, 0.8701961380778915, 0.8979224769737414];[0.5214034497793075, 0.5349017661389606, 0.13699211400581668]
[0.2537318788704872, -0.17427309509336014, 0.86075525961487];[0.28833728148594706, -0.17431951900979453, 0.729001951097127];[0.8715975950489726, 0.7428051268419054, 0.9737625765967342]
[0.8403892385249989, 0.8694269780657548, 0.8406482854682609];[0.6924033993651687, 0.019513150685922298, 0.7048945276362023];[0.5217560124802166, 0.7370032414059567, 0.18300604421163158]
[0.6518666139956354, -0.17138131693857517, 0.2633689282417023];[0.7603306204695222, 0.8569065846928758, 0.5752279411893638];[0.06507937757524906, -0.17138131693857517, 0.4900635211438108]
[0.23133095816085458, -0.10125891552815346, 0.3594777684838497];[0.14696556742246714, 0.058603712177320744, -0.10125891552815346];[0.4688408617090465, -0.10125891552815346, 0.5062945776407672]
[0.8358440587385345, -0.1487742349205127, 0.4804394893453914];[0.882701792811634, 0.46794986916877246, -0.1487742349205127];[-0.1487742349205127, -0.1487742349205127, 0.7438711746025635]
[0.0944360717790299, -1.0126492357219055, 0.6923729789650386];[0.16598476819296548, 0.5435133982554523, -1.02577325068727];[-1.07916021274341, -1.003591930468353, 0.017064144045566998]
[0.5918723401894648, 0.7667890196769431, 0.9045785696126746];[0.03415365173936935, 0.7770888592100167, 0.14134765454894405];[0.6402928977385417, 0.3198463627731649, 0.572591310098013]
[0.7359542997267989, 0.07463580805217118, -0.1531601709363597];[0.7658008546817985, 0.3369514027216438, 0.35114678335218663];[0.6402108502837938, -0.1531601709363597, 0.2579719903650438]
[0.16905155450605325, 0.18013087763099245, -0.1072326141868595];[-0.1072326141868595, 0.9239086338320913, 0.15703753530929665];[0.5361630709342975, -0.10723261418681465, 0.5331663090677586]
[0.2713692764543799, 0.34534967313143283, -0.07957177870559339];[-0.07957177870559339, 0.0021010489219805972, 0.6312726307050596];[-0.07957177870559339, -0.07957177870559339, 0.3978588935279669]
[0.7936451868587575, 0.8060664044046181, -1.033588183049812];[-1.123057714720054, 0.015843803132707612, 0.7204894688401654];[-1.0426216998080224, -1.034535559646975, 0.2131179079340484]
[0.604945221059603, 0.4036412284161729, 0.9563929245559052];[0.9082487232160585, 0.24410936173352515, 0.23626419519070996];[0.026426356316879618, 0.16884325068024553, 0.6000444647557224]
[0.11168540261974713, 0.41320565202483905, 0.9328316925261276];[-0.0903389314535495, 0.04262529700633799, 0.4516946572677475];[-0.0903389314535495, 0.25246652112526824, 0.38161832329676293]
[0.14178563232412944, 0.1512324554872566, 0.15254487174998133];[-1.0916667378199736, 0.3895861141019815, 0.6419081913295973];[-1.0036943273125722, 0.7147696267759043, 0.017089876377785695]
[-0.19460121789057122, 0.973006089452856, 0.5562295285514712];[0.4925327497549643, 0.555202268000706, 0.13081275848911034];[0.19235086331635898, 0.2683048724855047, 0.19982741912914892]
[0.41233575901366337, 0.44470920078342024, 0.2041109413752502];[0.9083770806780395, 0.4292837729360033, 0.3663829409305934];[0.8001403360095874, 0.1435401901515273, 0.6759453179654505]
[-0.17366591393792735, 0.8683295696896367, 0.09403160005999878];[-0.17366591393792735, 0.5747566643416218, 0.8293695571957078];[0.1363675827681936, 0.15837290422961658, 0.36288945817829943]
[0.03893048745741734, 0.16186556923480355, 0.7363221853535108];[0.9812078989954096, 0.41864779742009794, 0.0915298870039607];[0.7279102663522109, 0.7239673435643453, 0.1957324164423172]
[-0.14792790644598122, 0.0014976805193405163, 0.890988565948798];[0.7396395322299061, 0.1505718495538496, 0.20635923945384493];[-0.14792790644598122, 0.32504950526518805, 0.526105305994473]
[0.9980852555963117, 0.1430146771786236, 0.14748607342567643];[0.13967399046554885, 0.43844858991659164, 0.11990522521048264];[0.07121584383047852, 0.7491213489226545, 0.6846368286409739]
[-0.19589869437032895, 0.39864488264277187, 0.11122983585282253];[-0.19589869437032895, 0.9794934718516447, 0.41624729334942623];[0.8190124174214106, 0.5509545473929598, 0.24226486516520862]
[-0.16025542045805383, 0.0839706645470557, -0.16025542045805383];[-0.16025542045805383, 0.09467159237686085, 0.1736765399731227];[0.09085854245164027, 0.801277102290269, 0.6801963529792717]
[0.34491886367993707, -0.18529021030404258, 0.07282796853557394];[0.20055838845720875, 0.14878744045203673, 0.8392248597867953];[-0.18529021030404258, 0.5884648141904164, 0.9264510515202128]
[-0.19856490231595383, -0.19856490231595383, 0.6937800142355558];[0.16301819060220735, 0.9928245115797691, 0.7340138081937895];[-0.19856490231595383, 0.12175238293247459, 0.5944882306764543]
[-0.03714801996735477, -0.03714803636359294, 0.8420464487446393];[0.8844951543609939, 0.1857401818179647, 0.7483519044365659];[-0.03714803636357692, 0.9860982205996378, -0.03714803636359294]
[-1.0707331207397137, -1.078739020922566, 0.8301764750013794];[0.7562692818685596, 0.39451440118626047, 0.3481593689425584];[-1.0749651916928014, 0.4085015478635472, -1.0696318737916402]
[0.9351496538065406, 0.1183406370612603, 0.10621685829777694];[0.9356817146349612, 0.46186724477900565, 0.9767610285635807];[0.9787566282931133, 0.02031601831254015, 0.947887551319383]
[-1.1631811823714937, 0.2795683443613728, 0.8119364625082532];[-1.1631426416342252, 0.5693723572851029, 0.756978299012639];[0.869316206900147, 0.6105633605782186, 0.07826607657255125]
[0.9035663096458149, 0.10014563904416884, 0.465061792904105];[0.6045602448169023, 0.5807313663905463, 0.3723268080456087];[0.24983964443704532, 0.22866314186599324, 0.7736683553766179]
[-0.12487146642115697, 0.562883551917924, -0.12487146642115697];[0.08654769535355278, 0.23710649512761517, 0.4327482943866877];[0.4669405306131834, 0.6243573321057848, 0.018893114896408103]
[0.8256415918450586, 0.7001955122973331, 0.9068236255006994];[0.8033680921994143, 0.6028767644701047, 0.1367023544837015];[0.13658480992725475, 0.28893363870588584, 0.6790900278719645]
[0.2688475669836988, 0.22679940871503523, 0.7085243601963066];[0.2927521772476749, 0.07471311506787526, 0.4826289139084896];[0.4185094383718737, 0.36788650821355895, 0.4342819613177872]
[0.7265424082584383, -0.1918296593605413, -0.1918296593605413];[0.14396837319277034, 0.9591482968027064, 0.17808486701644244];[0.33542634136287175, 0.9500357788333753, 0.35526670417813333]
[0.06198092231566099, -0.1985737944634316, -0.1985737944634316];[0.5092127880351796, 0.992868972317158, 0.6381616092227427];[-0.1985737944634316, 0.3637704803460011, 0.3311135958518784]
[0.08931049035855698, 0.5678191995256838, 0.18409263258915376];[0.6108498181769886, 0.25768623445269156, 0.07831231544038042];[0.2707722741538382, 0.3123825664068134, 0.7330905067819455]
[0.1254137433480741, -0.13778546750515852, -0.13778546750515852];[0.4238685999381534, 0.7915824240586984, 0.6889273375257926];[-0.13778546750515852, 0.5024564928578891, -0.13778546750515852]
[0.6596741637916501, -1.0670947926615952, -1.1457742654458665];[0.9387257619298229, 0.1863055404484214, 0.7288616835590845];[-1.1437000363029943, 0.9760208699321807, -1.145108302786557]
[0.6017960586625944, 0.7294285673975882, 0.05219242110677369];[-0.14588571347951765, -0.14588571347951765, 0.6558859757427653];[0.9515839074006174, 0.08782248292721773, 0.16867078338551578]
[0.648395587976703, 0.5715691530262891, 0.5414310592380104];[-1.114314336940761, -1.1143139773558621, 0.7490848144173905];[0.8416938296759297, 0.7485274782147695, 0.7092957857306692]
[-0.18722136810001988, 0.8277768008428468, -0.18722136810001988];[0.34104979007607983, 0.5708722821931673, 0.8668223127197646];[-0.18722136810001988, 0.04670242018564408, 0.9361068405000994]
[-1.0771768194280744, 0.3695645088024383, -1.0827041754566957];[0.7259370201801469, 0.005736346833207007, 0.4137756431483456];[-1.0765203898672784, 0.6352695123750421, 0.37393342673945995]
[0.6058564362281186, -0.09455243651360024, 0.028338699506362364];[-0.09455243651348075, 0.3857195284404499, 0.9757378907895218];[0.3125825207991456, 0.4727621825680012, -0.09455243651360024]
[0.7237410239957914, 0.939590495068181, 0.5876159731735339];[0.3741674297890405, 0.357237514786231, 0.5142338205433447];[0.40088872654453356, 0.4533876750643998, 0.1466908938159558]
[0.9745323366408254, -0.08850170990523543, 0.29089107334983877];[-0.08850170990523543, 0.44250854952617713, 0.6460860856997703];[0.5946534925094378, -0.08850170990523543, -0.08850170990523543]
[-0.17598990566095452, 0.01728326118936563, 0.8799495283047725];[0.7153915001747475, 0.7545129211592185, -0.17598990566095452];[0.16228596606885481, -0.17598990566095452, 0.4802988859478209]
[0.441289032494806, 0.024286166840175816, 0.9072365502121165];[0.21477450131136888, 0.416001486940646, 0.8337092605118366];[0.623949935670283, 0.05825500947910689, 0.016614428038097095]
[0.35149035544474205, 0.7650343252810642, 0.8110385988643921];[0.9493434959319058, 0.9498630496610834, 0.97014938954152];[0.16026973516410148, 0.6762444907260267, -0.194029877908304]
[0.24480911621972967, 0.6209881155208201, 0.7483238209614976];[0.16135503399244155, 0.42485757269993774, 0.30158436085204277];[0.1823015725492929, 0.16778294104304303, 0.762676509663587]
[0.08439103473092502, -0.1940224044550555, 0.9631257020927966];[0.5625231796032363, 0.7388955911161798, 0.24427511137573188];[0.9701120222752775, 0.3050929410537765, -0.1940224044550555]
[0.40241961603821286, -0.18551340097205718, 0.37034525661005724];[0.9275670048602859, 0.9876544768918889, 0.5705232375069971];[-0.18551340097205718, 0.10304976567609092, -0.18551340097205712]
[0.30035561680203027, 0.46518177553065176, 0.5826613652093927];[0.6049955797515613, 0.6613758499470695, 0.3431931163073213];[0.21967122808795791, 0.4132846522931699, 0.1490642773223836]
[0.49972807544982634, -0.193305655890123, 0.2714531189069699];[-0.193305655890123, 0.32505104372019944, 0.05644142861669921];[-0.193305655890123, 0.9665282794506149, -0.193305655890123]
[-0.10297466250443013, 0.6568092133352532, 0.3622309203514271];[-0.10297466250443013, -0.10297466250443013, 0.5148733125221506];[0.5535527649869093, 0.3461291659256912, 0.6593831296868312]
[-0.12045863526288014, 0.0814228323865358, 0.6022931763144007];[-0.12045863526287998, -0.12045863526288014, 0.7174594933573646];[0.08857303702186525, -0.12045863526288014, 0.890380880247203]
[-1.1760054741150656, 0.12790941716295046, 0.9240706785958918];[-1.1739579531428617, -1.169319615978774, 0.5816518632105998];[0.06086664341353187, -1.1291743699322847, 0.8770891542428594]
[0.017507800348160796, 0.0949411260183175, -0.1971967082976684];[0.9859835414883419, -0.19719670829758884, 0.38781934370097726];[0.967891173822826, 0.35404753457871196, 0.58759392200745]
[0.17130123277183873, 0.6248729217083037, -1.1051665906393646];[0.5258329531968228, -1.1004198372971228, 0.5335722292723951];[0.6838387879751757, 0.4785513478224591, 0.4546107438104434]
[0.7635368754741925, 0.39016233680368684, 0.21125964335651237];[0.6482255846023555, -0.1527073750948385, -0.15270737384076175];[-0.1527073750948385, 0.04689025094028776, 0.5797810107413042]
[-0.06470517328696301, 0.017377377369641733, 0.6037661431972935];[0.8526427945400139, -0.06470517328696301, -0.06470517328696301];[-0.06470517328696301, 0.6974505959132987, 0.32352586643481507]
[-0.1373075578351255, 0.5328521902440029, 0.6170221527971136];[0.1848010310836894, -0.1373075578351255, 0.6865377891756275];[-0.1373075578351255, 0.11560553057310685, 0.1491741295315845]
[-0.15753590202363027, 0.21133486999819573, 0.7039291311466073];[-0.15753590202363027, 0.7876795101181513, -0.15753590202363027];[0.1273439967472093, 0.21667880308537457, 0.6348071287497726]
[0.5448073457582384, 0.897849834163111, 0.07820235659204022];[0.8406585113473091, 0.8332963369910975, 0.8375465400110647];[0.3665932773219811, 0.8122560364450364, 0.23332098735640683]
[0.9649548434909142, 0.2735165751499966, 0.7078351957247834];[-0.19299096869818286, 0.3449293487161622, 0.3444737385443277];[-0.1929909686981828, 0.16783729264099112, 0.9110104143023061]
[0.8469261060834168, 0.7127982277537296, -0.1693851462557481];[-0.1693852075467314, 0.42906441400564677, 0.42351962422909983];[-0.16938522121668337, 0.038305480270184766, 0.9097099338678873]
[0.2937880926455654, 0.28389713192233157, -1.055541321838897];[-1.0227529331546983, 0.49706999068408697, 0.5970270950599069];[-1.058734311100266, 0.06541822348033777, 0.5598697908690571]
[0.4616415485682157, 0.11429477117541098, -0.17753564351462484];[0.6768150450835543, 0.8876782175731242, 0.07185382026566667];[-0.17753564351462478, 0.6364331477390549, 0.7513431456171706]
[0.30490317771067077, -0.10634774152547442, -0.10634774152547735];[0.5317387076273867, 0.38791977208997874, 0.15597937585607802];[-0.10634772102803333, 0.4766120459831482, 0.12839527596254707]
[0.5096173960010044, 0.21987515692875115, -0.1690028961928548];[-0.1690028961928548, 0.4654010889540092, 0.43405397848082605];[0.299999903917468, 0.5812953471961202, 0.845014480964274]
[-0.12269541593089398, 0.8195038308068844, -0.12269541593089398];[-0.12269541593089398, 0.015413120334197061, 0.6134770796544698];[0.27973946395453875, 0.35699871856857834, 0.8552383178128385]
[-1.06167462854333, 0.4861091259999252, -1.0033744563278966];[-1.0787121718243535, 0.09376576643999035, 0.42228693082198154];[0.01434489122358995, 0.4622808368367144, 0.4415281045813828]
[0.5009437033708984, 0.5812704700435656, 0.8448868856760805];[0.3795603693609647, 0.5821386553066786, 0.6741564545897945];[0.724726940303023, 0.3635973813094441, 0.1023029417682485]
[0.5679826783917308, 0.5440643536254752, -0.046375909891675976];[0.0670431098406683, 0.23187954945837985, -0.046375909891675976];[-0.046375909891675976, 0.04488005589080957, 0.08116620179846579]
[0.38928386431425055, 0.5550883947384532, -0.12769154784891712];[-0.12769154784891712, 0.6384577392445856, -0.12769154784891712];[-0.12769154784891712, 0.796886953300525, 0.7129690178031535]
[0.22410053463591495, 0.20524597458570015, -1.0350079499988631];[-1.0350079499988631, 0.1750397499943157, -1.0350079499988631];[-1.0350079499988631, 0.8035702407090043, 0.27732724127533626]
[0.8491925100948724, 0.8032225028294686, 0.04838283097204221];[0.3418631453051373, 0.37292336052735175, 0.36866986889708064];[-0.1611232674901472, 0.07986876382207297, 0.8056163374507359]
[0.3203900120822797, 0.5437226381410687, -0.10874452762821374];[0.3462749329441853, 0.2941839003309391, 0.5415834863590088];[-0.10874452762821374, 0.5023645013296963, 0.19347851201765054]
[0.16636227256831781, 0.6292846540124946, 0.17722690934559837];[0.586874729261911, 0.8994290620140682, 0.113981177576019];[0.02646663108272007, 0.9145911875216214, 0.7222790732135375]
[0.5287732024445859, 0.46651747342031313, -0.11129820434900813];[0.09812829958405833, 0.5564910217450406, 0.12973209878275682];[-0.1112978608963258, -0.11129820434900813, 0.28859417022286027]
[0.8777190875310271, 0.23466978840520458, -1.1415982208081126];[0.36624806955621914, 0.7082851525594607, 0.3641040880448789];[-1.047095091441595, -1.0511492821618942, 0.021223164479206136]
[0.19473079138173421, 0.2706038344815882, 0.6413168567347228];[0.7443191667803378, -0.19130676611395836, -0.19130676611395836];[0.9565338305697918, 0.7633344208422713, 0.28740322516347383]
[0.35547764895862477, 0.8966510900461566, 0.948351556694093];[0.8352522341756299, 0.8119482052612449, 0.8889014867300981];[0.8237564464604343, 0.9402591404412358, 0.4401620774959114]
[0.8523979767225311, 0.590260327731945, 0.9612339336088898];[0.812244853709524, 0.9689646579713308, -0.1922467404706386];[0.11343932671055501, -0.1898475309514838, 0.5354959493439625]
[0.25738360591700926, 0.502127628081291, 0.4005741826931487];[0.37253907030093736, 0.8052426867106828, -1.0796110400756052];[0.3723975578646964, -1.0742838555204506, -1.074499323314023]
[-0.1726357791315159, 0.30548970458948366, 0.727230033644658];[0.8631788956575794, 0.6632759030347046, 0.7511498588070977];[0.4343461369826268, -0.1726357791315159, 0.38520192971353806]
[-0.150260620963839, 0.4680272547555653, 0.039378859790634824];[-0.150260620963839, 0.03756842919558567, 0.4290450147056989];[0.7513031048191949, -0.150260620963839, 0.2144341213311025]
[-1.1298632037052287, 0.3062001095954071, 0.14694299943701516];[-1.1674939198994336, 0.9177380665627226, 0.20650513533918902];[0.7796219677127519, -1.175939498293082, 0.613854534601082]
[0.9742757543428682, 0.7854728220109528, 0.9503484080828969];[-0.19485515086857363, 0.33684547893482797, -0.19485515086857363];[0.8836586563728837, 0.8426997472959743, 0.48061268149714553]
[-0.10051377616249196, 0.08651694255868037, 0.1356774301308057];[-0.10051377616249196, 0.4394842777616751, -0.10051377616249196];[0.5025688808124598, 0.37133113292605613, 0.4674150930359037]
[-1.1004185915901792, 0.808962516481892, 0.12510456266041003];[-1.0585485614453967, 0.2910343558283529, -1.1181116236576158];[0.5923264064554342, 0.5359107412275071, 0.7295788655379394]
[0.016916739751748344, 0.5306977600604483, -0.19494830582980094];[0.06848614306880196, 0.9025002690410442, 0.45113434400437646];[0.5931674283173969, 0.9747415291490046, 0.04338945926446092]
[0.43382934661941763, 0.22106981956977512, -0.16387406378601166];[0.8193703189300582, 0.8632816007115667, 0.09145815078151376];[-0.16387406378601166, 0.023014212737198725, 0.6168655416063308]
[0.598991104703942, 0.7015436136823556, 0.7526399466246825];[0.7464020508159989, 0.5675415603663204, 0.16898805293822794];[0.6530971685972259, 0.10332252397850816, 0.7496034571536253]
[0.6886426611629873, 0.4127267087416435, -0.12428875803644944];[0.6540956877577303, 0.3065536314148909, 0.20317381426565317];[-0.1308191375515268, 0.33699246567457875, -0.13081913755154606]
